-2.400000000000000000e+01,3.030000000000000000e+02,-1.270000000000000000e+02,2.850000000000000000e+02,-3.850000000000000000e+02,-6.730000000000000000e+02,3.200000000000000000e+01,1.600000000000000000e+01,2.300000000000000000e+01,-5.500000000000000000e+01,2.320000000000000000e+02,8.820000000000000000e+02,-1.234000000000000000e+03,-1.473000000000000000e+03,3.050000000000000000e+02,1.307000000000000000e+03,-1.295000000000000000e+03,-1.378000000000000000e+03,2.230000000000000000e+02,-2.825000000000000000e+03,-2.300000000000000000e+02,-1.289000000000000000e+03,1.276000000000000000e+03,-1.647000000000000000e+03,-5.200000000000000000e+01,-1.400000000000000000e+02,2.180000000000000000e+02,3.810000000000000000e+02,-3.500000000000000000e+01,-1.650000000000000000e+02,-1.400000000000000000e+02,-1.940000000000000000e+02,-1.220000000000000000e+02,-1.420000000000000000e+02,-7.070000000000000000e+02,-6.890000000000000000e+02,-6.570000000000000000e+02,3.560000000000000000e+02,2.816000000000000000e+03,1.240000000000000000e+02,1.103000000000000000e+03,-1.640000000000000000e+02,3.611000000000000000e+03,1.260000000000000000e+03,-1.075000000000000000e+03,-2.291000000000000000e+03,-3.290000000000000000e+03,-1.011000000000000000e+03,-5.062000000000000000e+03,-2.190000000000000000e+02,-4.470000000000000000e+03,2.952000000000000000e+03,1.036000000000000000e+03,-1.420000000000000000e+02,-4.080000000000000000e+02,-4.200000000000000000e+01,2.290000000000000000e+02,-2.360000000000000000e+02,-1.120000000000000000e+02,-9.750000000000000000e+02,5.540000000000000000e+02,5.240000000000000000e+02,-8.910000000000000000e+02,-3.800000000000000000e+01,-4.530000000000000000e+02,-1.863000000000000000e+03,-3.143000000000000000e+03,-7.480000000000000000e+02,-1.965000000000000000e+03,8.800000000000000000e+01,-4.448000000000000000e+03,2.759000000000000000e+03,-7.060000000000000000e+02,-5.621000000000000000e+03,-6.685000000000000000e+03,-5.564000000000000000e+03,-5.161000000000000000e+03,2.629000000000000000e+03,-4.300000000000000000e+02,-3.119000000000000000e+03,-5.030000000000000000e+02,-3.110000000000000000e+02,-2.910000000000000000e+02,-3.620000000000000000e+02,-2.300000000000000000e+02,1.910000000000000000e+02,3.500000000000000000e+01,-7.190000000000000000e+02,-2.400000000000000000e+01,-2.750000000000000000e+02,-1.361000000000000000e+03,4.560000000000000000e+02,1.232000000000000000e+03,1.080000000000000000e+03,3.402000000000000000e+03,-2.773000000000000000e+03,-3.871000000000000000e+03,-3.674000000000000000e+03,-9.296000000000000000e+03,1.458000000000000000e+03,-6.248000000000000000e+03,-8.269000000000000000e+03,-3.342000000000000000e+03,-8.409000000000000000e+03,-5.879000000000000000e+03,-1.307000000000000000e+03,-3.847000000000000000e+03,-3.757000000000000000e+03,1.438000000000000000e+03,3.100000000000000000e+01,5.180000000000000000e+02,-5.190000000000000000e+02,-1.440000000000000000e+02,1.210000000000000000e+02,-3.770000000000000000e+02,-6.870000000000000000e+02,-5.470000000000000000e+02,-8.260000000000000000e+02,-9.690000000000000000e+02,7.570000000000000000e+02,1.561000000000000000e+03,-4.132000000000000000e+03,-4.112000000000000000e+03,-7.156000000000000000e+03,-8.180000000000000000e+03,-2.180000000000000000e+02,2.102000000000000000e+03,-1.762300000000000000e+04,1.234700000000000000e+04,1.201000000000000000e+03,-7.029000000000000000e+03,9.300000000000000000e+01,2.564000000000000000e+03,-3.620000000000000000e+02,-1.191600000000000000e+04,1.583500000000000000e+04,6.172000000000000000e+03,1.219000000000000000e+03,4.400000000000000000e+02,4.000000000000000000e+00,-1.560000000000000000e+02,-4.910000000000000000e+02,-3.480000000000000000e+02,-2.750000000000000000e+02,5.580000000000000000e+02,-1.768000000000000000e+03,-2.802000000000000000e+03,5.810000000000000000e+02,1.375000000000000000e+03,-7.283000000000000000e+03,-1.245500000000000000e+04,1.752000000000000000e+03,-4.813000000000000000e+03,-6.209000000000000000e+03,1.699400000000000000e+04,-7.178000000000000000e+03,7.838000000000000000e+03,-9.033000000000000000e+03,7.711000000000000000e+03,-4.262000000000000000e+03,-3.738000000000000000e+03,3.747000000000000000e+03,-1.949100000000000000e+04,-8.862000000000000000e+03,6.514000000000000000e+03,3.130000000000000000e+02,1.330000000000000000e+02,2.660000000000000000e+02,5.710000000000000000e+02,-7.780000000000000000e+02,-6.560000000000000000e+02,-6.220000000000000000e+02,-3.340000000000000000e+02,-2.019000000000000000e+03,-5.100000000000000000e+01,2.156000000000000000e+03,-1.149100000000000000e+04,-1.433100000000000000e+04,6.006000000000000000e+03,-6.081000000000000000e+03,-3.283000000000000000e+03,1.345800000000000000e+04,-2.035800000000000000e+04,3.010000000000000000e+02,6.559000000000000000e+03,4.181000000000000000e+03,6.488000000000000000e+03,-7.050000000000000000e+02,-5.203000000000000000e+03,1.076700000000000000e+04,6.224000000000000000e+03,8.879000000000000000e+03,4.414000000000000000e+03,-4.330000000000000000e+02,-1.235000000000000000e+03,-4.870000000000000000e+02,-6.090000000000000000e+02,-5.660000000000000000e+02,-6.530000000000000000e+02,7.290000000000000000e+02,-7.480000000000000000e+02,-2.920000000000000000e+03,1.627000000000000000e+03,-6.000000000000000000e+02,5.951000000000000000e+03,-8.838000000000000000e+03,-5.431000000000000000e+03,-7.960000000000000000e+02,-1.379000000000000000e+03,5.150000000000000000e+03,-1.063100000000000000e+04,1.339000000000000000e+03,1.471000000000000000e+03,-6.117000000000000000e+03,-2.605000000000000000e+03,3.270000000000000000e+03,-4.690000000000000000e+02,3.206000000000000000e+03,-1.329100000000000000e+04,1.799100000000000000e+04,-1.942000000000000000e+03,-6.460000000000000000e+02,-1.210000000000000000e+03,-4.430000000000000000e+02,-8.110000000000000000e+02,-4.510000000000000000e+02,7.000000000000000000e+00,1.291000000000000000e+03,-1.716000000000000000e+03,-1.476600000000000000e+04,-6.606000000000000000e+03,6.701000000000000000e+03,7.436000000000000000e+03,-5.860000000000000000e+02,-3.919000000000000000e+03,6.043000000000000000e+03,-6.299000000000000000e+03,-9.030000000000000000e+02,-5.819000000000000000e+03,3.405000000000000000e+03,-3.150000000000000000e+02,-8.858000000000000000e+03,-3.632000000000000000e+03,-9.343000000000000000e+03,-9.290000000000000000e+02,5.706000000000000000e+03,-1.051000000000000000e+03,-5.269000000000000000e+03,3.374000000000000000e+03,2.750000000000000000e+02,3.660000000000000000e+02,-1.170000000000000000e+02,9.210000000000000000e+02,-9.590000000000000000e+02,-9.700000000000000000e+02,-1.276000000000000000e+03,2.056000000000000000e+03,-2.575000000000000000e+03,2.925000000000000000e+03,-5.188000000000000000e+03,-5.199000000000000000e+03,-2.192000000000000000e+03,5.992000000000000000e+03,-9.220000000000000000e+02,-1.052000000000000000e+03,-2.854000000000000000e+03,3.478000000000000000e+03,2.710000000000000000e+02,-1.403800000000000000e+04,1.282800000000000000e+04,-5.870000000000000000e+03,2.173500000000000000e+04,-8.869000000000000000e+03,2.571000000000000000e+03,8.650000000000000000e+02,7.497000000000000000e+03,-1.784000000000000000e+03,-2.943000000000000000e+03,-1.600000000000000000e+03,-6.120000000000000000e+02,-1.180000000000000000e+03,1.172000000000000000e+03,6.350000000000000000e+02,-1.248000000000000000e+03,-6.400000000000000000e+02,4.600000000000000000e+02,7.288000000000000000e+03,5.599000000000000000e+03,2.335000000000000000e+03,1.659900000000000000e+04,-5.800000000000000000e+02,5.950000000000000000e+02,1.472000000000000000e+03,-7.369000000000000000e+03,-6.644000000000000000e+03,-1.098500000000000000e+04,3.761000000000000000e+03,-6.813000000000000000e+03,5.597000000000000000e+03,-2.012000000000000000e+03,-1.800000000000000000e+03,1.577000000000000000e+03,1.111500000000000000e+04,6.340000000000000000e+03,1.269400000000000000e+04,-1.366600000000000000e+04,1.334000000000000000e+03,3.470000000000000000e+02,-6.890000000000000000e+02,1.801000000000000000e+03,-2.150000000000000000e+02,-1.442000000000000000e+03,4.616000000000000000e+03,5.262000000000000000e+03,4.950000000000000000e+03,6.309000000000000000e+03,6.500000000000000000e+03,-4.344000000000000000e+03,4.514000000000000000e+03,3.291000000000000000e+03,1.061900000000000000e+04,8.350000000000000000e+03,-6.000000000000000000e+03,-1.599300000000000000e+04,-5.499000000000000000e+03,-1.933000000000000000e+03,-1.322000000000000000e+03,-3.027000000000000000e+03,3.611000000000000000e+03,5.744000000000000000e+03,1.319000000000000000e+04,6.170000000000000000e+03,5.509000000000000000e+03,-1.859200000000000000e+04,-2.860000000000000000e+02,6.770000000000000000e+02,1.200000000000000000e+02,-2.032000000000000000e+03,-1.433000000000000000e+03,-4.020000000000000000e+02,1.017000000000000000e+04,2.975000000000000000e+03,1.767000000000000000e+03,7.690000000000000000e+02,4.390000000000000000e+02,-9.630000000000000000e+02,-1.226000000000000000e+03,-6.236000000000000000e+03,2.073000000000000000e+03,-1.153000000000000000e+03,1.082700000000000000e+04,8.118000000000000000e+03,1.255000000000000000e+03,1.177000000000000000e+03,1.319200000000000000e+04,1.376000000000000000e+04,-1.064000000000000000e+03,7.924000000000000000e+03,-2.419000000000000000e+03,-2.174000000000000000e+03,-3.260000000000000000e+02,-1.567000000000000000e+03,-4.430000000000000000e+02,2.190000000000000000e+02,1.840000000000000000e+03,-2.143000000000000000e+03,6.480000000000000000e+02,-1.840000000000000000e+02,-2.886000000000000000e+03,-1.628800000000000000e+04,-1.069500000000000000e+04,-1.123000000000000000e+04,-5.428000000000000000e+03,-1.633000000000000000e+03,-4.603000000000000000e+03,6.464000000000000000e+03,-1.794000000000000000e+03,6.641000000000000000e+03,-3.925000000000000000e+03,5.906000000000000000e+03,-8.639000000000000000e+03,1.930000000000000000e+03,-1.434100000000000000e+04,-8.403000000000000000e+03,-2.569000000000000000e+03,6.994000000000000000e+03,9.084000000000000000e+03,-4.069000000000000000e+03,5.090000000000000000e+02,1.404000000000000000e+03,1.202000000000000000e+03,4.920000000000000000e+02,1.972000000000000000e+03,-5.800000000000000000e+02,-6.200000000000000000e+02,-5.570000000000000000e+02,-5.015000000000000000e+03,-1.098100000000000000e+04,-5.792000000000000000e+03,5.974000000000000000e+03,-3.171000000000000000e+03,-2.217000000000000000e+03,-1.526700000000000000e+04,-2.422000000000000000e+03,1.815200000000000000e+04,-1.032900000000000000e+04,1.931000000000000000e+03,-2.517000000000000000e+03,1.028900000000000000e+04,-8.554000000000000000e+03,6.130000000000000000e+02,-3.425000000000000000e+03,-1.229600000000000000e+04,9.210000000000000000e+03,6.597000000000000000e+03,7.609000000000000000e+03,3.816000000000000000e+03,-3.786000000000000000e+03,2.278000000000000000e+03,4.270000000000000000e+02,-5.670000000000000000e+02,-1.018000000000000000e+03,-6.830000000000000000e+02,5.010000000000000000e+02,-3.253000000000000000e+03,-1.244000000000000000e+03,-1.527300000000000000e+04,-7.002000000000000000e+03,-2.421800000000000000e+04,-1.611000000000000000e+03,-1.250000000000000000e+02,1.265800000000000000e+04,-6.706000000000000000e+03,6.274000000000000000e+03,1.350000000000000000e+02,2.068000000000000000e+03,-9.039000000000000000e+03,-9.835000000000000000e+03,7.675000000000000000e+03,-2.328000000000000000e+03,-8.727000000000000000e+03,-3.559000000000000000e+03,-1.202000000000000000e+03,-6.022000000000000000e+03,9.973000000000000000e+03,-2.001000000000000000e+03,2.810000000000000000e+02,-2.144000000000000000e+03,-1.701000000000000000e+03,-1.522000000000000000e+03,-2.279000000000000000e+03,1.219000000000000000e+03,-6.560000000000000000e+02,1.981000000000000000e+03,-8.673000000000000000e+03,7.079000000000000000e+03,-1.015400000000000000e+04,-3.882000000000000000e+03,7.727000000000000000e+03,-1.064800000000000000e+04,9.863000000000000000e+03,-1.808000000000000000e+03,2.560000000000000000e+03,2.200000000000000000e+03,1.563400000000000000e+04,-1.611000000000000000e+03,1.940000000000000000e+03,-5.721000000000000000e+03,3.887000000000000000e+03,-1.164400000000000000e+04,-1.321000000000000000e+04,-1.165000000000000000e+04,-1.825000000000000000e+03,-2.454000000000000000e+03,2.220000000000000000e+02,-1.300000000000000000e+02,1.225000000000000000e+03,5.320000000000000000e+02,-1.131000000000000000e+03,-3.350000000000000000e+03,-5.906000000000000000e+03,-9.728000000000000000e+03,-8.285000000000000000e+03,2.316000000000000000e+03,4.344000000000000000e+03,-5.152000000000000000e+03,5.728000000000000000e+03,1.022900000000000000e+04,-3.810000000000000000e+03,-5.159000000000000000e+03,2.813000000000000000e+03,-3.165000000000000000e+03,-6.535000000000000000e+03,-3.359000000000000000e+03,3.965000000000000000e+03,-8.671000000000000000e+03,6.678000000000000000e+03,-2.500000000000000000e+02,-5.433000000000000000e+03,-6.856000000000000000e+03,-2.659000000000000000e+03,-1.901000000000000000e+03,-1.127000000000000000e+03,-9.910000000000000000e+02,-1.623000000000000000e+03,-1.201000000000000000e+03,-1.385000000000000000e+03,-3.970000000000000000e+02,-2.975000000000000000e+03,-6.975000000000000000e+03,-4.785000000000000000e+03,1.799000000000000000e+03,5.600000000000000000e+01,4.082000000000000000e+03,1.707400000000000000e+04,5.930000000000000000e+03,-1.030200000000000000e+04,8.450000000000000000e+03,-1.806400000000000000e+04,3.372000000000000000e+03,6.502000000000000000e+03,-7.074000000000000000e+03,6.475000000000000000e+03,-2.331000000000000000e+03,-3.540000000000000000e+03,8.879000000000000000e+03,-3.861000000000000000e+03,-4.273000000000000000e+03,-1.078300000000000000e+04,-1.649000000000000000e+03,-1.220000000000000000e+02,-3.230000000000000000e+02,-1.779000000000000000e+03,-1.640000000000000000e+03,-1.705000000000000000e+03,-7.500000000000000000e+02,-4.541000000000000000e+03,6.604000000000000000e+03,-1.619100000000000000e+04,-1.657000000000000000e+03,9.742000000000000000e+03,-1.874000000000000000e+03,-1.069800000000000000e+04,9.484000000000000000e+03,1.071700000000000000e+04,3.905000000000000000e+03,-4.146000000000000000e+03,3.907000000000000000e+03,9.386000000000000000e+03,-1.114800000000000000e+04,-5.891000000000000000e+03,3.862000000000000000e+03,-8.001000000000000000e+03,3.408000000000000000e+03,3.873000000000000000e+03,1.078300000000000000e+04,-5.178000000000000000e+03,-4.490000000000000000e+02,-8.830000000000000000e+02,-1.084000000000000000e+03,-1.519000000000000000e+03,4.650000000000000000e+02,5.290000000000000000e+02,2.020000000000000000e+02,-7.849000000000000000e+03,1.073700000000000000e+04,-9.700000000000000000e+01,1.365500000000000000e+04,-1.211400000000000000e+04,-1.950000000000000000e+02,-1.088000000000000000e+03,2.442000000000000000e+03,-2.121500000000000000e+04,-5.887000000000000000e+03,2.763000000000000000e+03,-3.640000000000000000e+03,-8.121000000000000000e+03,-2.362000000000000000e+03,6.557000000000000000e+03,9.320000000000000000e+02,4.406000000000000000e+03,3.491000000000000000e+03,-3.264000000000000000e+03,-2.570000000000000000e+03,-1.064200000000000000e+04,-3.184000000000000000e+03,-1.400000000000000000e+01,-3.590000000000000000e+02,-1.897000000000000000e+03,-1.274000000000000000e+03,-2.271000000000000000e+03,-2.271000000000000000e+03,-8.329000000000000000e+03,-1.556700000000000000e+04,-4.170000000000000000e+03,-7.685000000000000000e+03,9.101000000000000000e+03,-3.290000000000000000e+03,6.348000000000000000e+03,-1.951800000000000000e+04,1.757500000000000000e+04,1.970000000000000000e+03,6.935000000000000000e+03,5.480000000000000000e+03,3.870000000000000000e+02,4.800000000000000000e+03,1.024300000000000000e+04,-2.647000000000000000e+03,1.613000000000000000e+03,3.063000000000000000e+03,9.687000000000000000e+03,9.580000000000000000e+02,-3.206000000000000000e+03,-4.760000000000000000e+02,-2.530000000000000000e+02,-6.990000000000000000e+02,-3.108000000000000000e+03,-1.848000000000000000e+03,9.450000000000000000e+02,1.340000000000000000e+02,-2.878000000000000000e+03,1.790000000000000000e+03,1.060900000000000000e+04,9.750000000000000000e+02,-1.268000000000000000e+03,-8.928000000000000000e+03,1.270800000000000000e+04,-4.046000000000000000e+03,1.090000000000000000e+02,-2.478000000000000000e+03,-6.864000000000000000e+03,2.741000000000000000e+03,-3.375000000000000000e+03,-1.160300000000000000e+04,8.344000000000000000e+03,4.736000000000000000e+03,1.782000000000000000e+03,-1.189600000000000000e+04,3.048000000000000000e+03,-2.075000000000000000e+03,-1.757000000000000000e+03,-1.214000000000000000e+03,-1.357000000000000000e+03,-4.100000000000000000e+02,6.540000000000000000e+02,-8.630000000000000000e+02,-5.050000000000000000e+02,-2.496000000000000000e+03,-7.531000000000000000e+03,1.887000000000000000e+03,-9.988000000000000000e+03,-9.177000000000000000e+03,4.906000000000000000e+03,-3.646000000000000000e+03,-5.352000000000000000e+03,-4.027000000000000000e+03,1.231000000000000000e+04,2.557000000000000000e+03,-1.164000000000000000e+03,6.348000000000000000e+03,-1.415000000000000000e+03,1.550000000000000000e+02,-3.341000000000000000e+03,-2.168000000000000000e+03,-7.310000000000000000e+03,-3.144000000000000000e+03,-5.925000000000000000e+03,-1.857000000000000000e+03,-1.414000000000000000e+03,-2.900000000000000000e+02,-9.720000000000000000e+02,-5.950000000000000000e+02,-1.440000000000000000e+03,1.461000000000000000e+03,-1.192000000000000000e+03,-1.352000000000000000e+03,-2.680000000000000000e+02,6.200000000000000000e+02,-1.337900000000000000e+04,-1.639000000000000000e+03,-3.202000000000000000e+03,1.154200000000000000e+04,-6.867000000000000000e+03,1.301000000000000000e+03,-9.861000000000000000e+03,2.958000000000000000e+03,1.193600000000000000e+04,3.969000000000000000e+03,1.298400000000000000e+04,7.355000000000000000e+03,-2.846000000000000000e+03,1.103100000000000000e+04,7.873000000000000000e+03,7.420000000000000000e+03,6.100000000000000000e+01,-1.423000000000000000e+03,-5.750000000000000000e+02,-1.800000000000000000e+01,0.000000000000000000e+00,-1.120000000000000000e+02,-1.220000000000000000e+03,8.270000000000000000e+02,-8.990000000000000000e+02,1.930000000000000000e+02,-9.820000000000000000e+02,-1.549000000000000000e+03,-3.613000000000000000e+03,-1.846800000000000000e+04,5.801000000000000000e+03,-4.415000000000000000e+03,-9.742000000000000000e+03,-5.395000000000000000e+03,-1.436700000000000000e+04,-1.359100000000000000e+04,-1.055600000000000000e+04,-2.222400000000000000e+04,-1.237400000000000000e+04,-2.749000000000000000e+03,-4.044000000000000000e+03,-1.212000000000000000e+03,-2.960000000000000000e+02,9.410000000000000000e+02,2.600000000000000000e+02,-5.420000000000000000e+02,-1.029000000000000000e+03,-3.960000000000000000e+02,0.000000000000000000e+00,-2.400000000000000000e+01,3.960000000000000000e+02,6.260000000000000000e+02,-1.068000000000000000e+03,-2.340000000000000000e+02,-9.080000000000000000e+02,-2.652000000000000000e+03,-2.692000000000000000e+03,-6.873000000000000000e+03,-1.052400000000000000e+04,-8.843000000000000000e+03,-6.333000000000000000e+03,6.670000000000000000e+02,-2.371000000000000000e+03,-5.303000000000000000e+03,-1.067800000000000000e+04,-1.265900000000000000e+04,-7.390000000000000000e+03,-3.863000000000000000e+03,-3.738000000000000000e+03,-2.275000000000000000e+03,1.690000000000000000e+02,-4.400000000000000000e+02,-1.190000000000000000e+02,6.090000000000000000e+02,-3.730000000000000000e+02,-8.800000000000000000e+01,-1.500000000000000000e+01,-9.000000000000000000e+00,-1.330000000000000000e+02,-5.140000000000000000e+02,7.200000000000000000e+01,-7.680000000000000000e+02,-2.910000000000000000e+02,-1.692000000000000000e+03,-2.224000000000000000e+03,-4.230000000000000000e+02,-4.479000000000000000e+03,-1.627000000000000000e+03,-3.907000000000000000e+03,-5.355000000000000000e+03,-2.834000000000000000e+03,-7.760000000000000000e+02,-1.642000000000000000e+03,-3.999000000000000000e+03,1.603000000000000000e+03,-2.276000000000000000e+03,-5.114000000000000000e+03,-2.633000000000000000e+03,4.560000000000000000e+02,2.070000000000000000e+02,-3.400000000000000000e+02,4.600000000000000000e+01,0.000000000000000000e+00,-9.000000000000000000e+00,-1.500000000000000000e+01,-1.100000000000000000e+02,-1.001000000000000000e+03
-1.500000000000009326e+00,3.030000000000007176e+01,-1.269999999999999929e+01,2.849999999999997158e+01,-3.850000000000009237e+01,-6.729999999999988347e+01,3.199999999999998845e+00,1.600000000000013856e+00,2.299999999999839950e+00,-5.500000000000679456e+00,2.319999999999991402e+01,8.819999999999949125e+01,-1.233999999999977888e+02,-1.473000000000019156e+02,3.049999999999997513e+01,1.307000000000029445e+02,-1.294999999999990052e+02,-1.377999999999991871e+02,2.229999999999997939e+01,-2.824999999999993179e+02,-2.299999999999989697e+01,-1.289000000000010004e+02,1.276000000000016570e+02,-1.646999999999984539e+02,-5.199999999999999289e+00,-1.400000000000001066e+01,2.179999999999998650e+01,3.810000000000004405e+01,-3.499999999999997335e+00,-1.649999999999994671e+01,-1.400000000000001599e+01,-1.939999999999999147e+01,-1.220000000000000639e+01,-1.419999999999999041e+01,-7.070000000000015916e+01,-6.890000000000021885e+01,-6.570000000000020179e+01,3.559999999999998721e+01,2.815999999999995680e+02,1.239999999999938929e+01,1.102999999999997414e+02,-1.639999999999997016e+01,3.611000000000007617e+02,1.259999999999999858e+02,-1.074999999999987494e+02,-2.290999999999983174e+02,-3.290000000000019895e+02,-1.011000000000006622e+02,-5.062000000000030582e+02,-2.189999999999903224e+01,-4.469999999999995453e+02,2.951999999999981696e+02,1.035999999999999375e+02,-1.420000000000006146e+01,-4.079999999999992610e+01,-4.199999999999985967e+00,2.290000000000006253e+01,-2.360000000000000853e+01,-1.119999999999998153e+01,-9.750000000000018474e+01,5.539999999999988489e+01,5.239999999999987779e+01,-8.910000000000006537e+01,-3.800000000000009148e+00,-4.530000000000020322e+01,-1.862999999999975955e+02,-3.142999999999991587e+02,-7.479999999999944293e+01,-1.964999999999949694e+02,8.800000000000125056e+00,-4.447999999999954639e+02,2.758999999999996362e+02,-7.060000000000010800e+01,-5.620999999999984311e+02,-6.684999999999968168e+02,-5.563999999999987267e+02,-5.160999999999996817e+02,2.629000000000003752e+02,-4.300000000000112976e+01,-3.119000000000006025e+02,-5.030000000000001847e+01,-3.110000000000011866e+01,-2.909999999999996945e+01,-3.619999999999993889e+01,-2.299999999999997513e+01,1.909999999999999432e+01,3.499999999999997780e+00,-7.189999999999983515e+01,-2.399999999999997691e+00,-2.750000000000002487e+01,-1.360999999999997385e+02,4.559999999999990195e+01,1.232000000000003297e+02,1.079999999999998437e+02,3.401999999999998749e+02,-2.773000000000002387e+02,-3.871000000000019554e+02,-3.673999999999995794e+02,-9.296000000000040018e+02,1.458000000000012903e+02,-6.248000000000091632e+02,-8.268999999999996362e+02,-3.341999999999982265e+02,-8.408999999999995225e+02,-5.878999999999991815e+02,-1.306999999999977433e+02,-3.847000000000009550e+02,-3.756999999999999886e+02,1.437999999999997556e+02,3.099999999999999201e+00,5.179999999999996874e+01,-5.189999999999990621e+01,-1.439999999999997726e+01,1.209999999999998010e+01,-3.769999999999999574e+01,-6.869999999999994600e+01,-5.469999999999999574e+01,-8.260000000000017906e+01,-9.689999999999992042e+01,7.570000000000027285e+01,1.560999999999994259e+02,-4.132000000000050477e+02,-4.112000000000024329e+02,-7.155999999999917236e+02,-8.180000000000026148e+02,-2.180000000000262617e+01,2.101999999999986812e+02,-1.762299999999996544e+03,1.234700000000003229e+03,1.201000000000003354e+02,-7.028999999999970214e+02,9.300000000001308109e+00,2.564000000000014552e+02,-3.619999999999882334e+01,-1.191600000000004457e+03,1.583499999999991132e+03,6.172000000000015234e+02,1.218999999999998352e+02,4.399999999999999289e+01,3.999999999999968026e-01,-1.559999999999998188e+01,-4.910000000000001563e+01,-3.480000000000000426e+01,-2.749999999999998224e+01,5.580000000000009663e+01,-1.767999999999998408e+02,-2.802000000000005571e+02,5.810000000000022169e+01,1.374999999999990905e+02,-7.283000000000038199e+02,-1.245500000000016826e+03,1.752000000000069235e+02,-4.812999999999979650e+02,-6.209000000000029331e+02,1.699400000000012369e+03,-7.177999999999988177e+02,7.838000000000073442e+02,-9.033000000000000682e+02,7.710999999999957026e+02,-4.262000000000043087e+02,-3.738000000000038767e+02,3.746999999999985107e+02,-1.949100000000017872e+03,-8.861999999999947022e+02,6.514000000000011141e+02,3.130000000000001847e+01,1.330000000000003446e+01,2.659999999999996945e+01,5.709999999999992326e+01,-7.780000000000013927e+01,-6.559999999999986642e+01,-6.219999999999991758e+01,-3.339999999999997726e+01,-2.019000000000005741e+02,-5.099999999999966782e+00,2.155999999999994543e+02,-1.149100000000002638e+03,-1.433099999999994452e+03,6.006000000000016144e+02,-6.080999999999992269e+02,-3.283000000000172349e+02,1.345799999999996999e+03,-2.035800000000014961e+03,3.010000000000061959e+01,6.558999999999975898e+02,4.181000000000072987e+02,6.487999999999969987e+02,-7.050000000000038369e+01,-5.203000000000048431e+02,1.076700000000005957e+03,6.223999999999915644e+02,8.878999999999933834e+02,4.414000000000004320e+02,-4.330000000000000426e+01,-1.234999999999999432e+02,-4.869999999999995310e+01,-6.090000000000008384e+01,-5.659999999999997300e+01,-6.530000000000019611e+01,7.289999999999999147e+01,-7.480000000000003979e+01,-2.919999999999997158e+02,1.626999999999998749e+02,-6.000000000000012790e+01,5.951000000000035470e+02,-8.838000000000047294e+02,-5.430999999999936563e+02,-7.959999999999757847e+01,-1.378999999999993520e+02,5.150000000000038654e+02,-1.063100000000008322e+03,1.338999999999989541e+02,1.471000000000009322e+02,-6.117000000000089130e+02,-2.604999999999982947e+02,3.270000000000000568e+02,-4.690000000000364366e+01,3.206000000000016712e+02,-1.329100000000006730e+03,1.799100000000019008e+03,-1.942000000000009265e+02,-6.460000000000029274e+01,-1.210000000000000000e+02,-4.429999999999985505e+01,-8.109999999999972431e+01,-4.510000000000003695e+01,6.999999999999773070e-01,1.290999999999996248e+02,-1.716000000000003638e+02,-1.476599999999997863e+03,-6.606000000000007049e+02,6.700999999999997954e+02,7.435999999999943384e+02,-5.860000000000219700e+01,-3.918999999999882675e+02,6.043000000000007503e+02,-6.298999999999980446e+02,-9.029999999999895977e+01,-5.819000000000063437e+02,3.404999999999913598e+02,-3.149999999999954881e+01,-8.858000000000137106e+02,-3.632000000000160753e+02,-9.342999999999959755e+02,-9.289999999999881197e+01,5.705999999999977490e+02,-1.050999999999986585e+02,-5.268999999999982720e+02,3.374000000000004889e+02,2.749999999999957012e+01,3.659999999999994458e+01,-1.170000000000003126e+01,9.209999999999966747e+01,-9.590000000000004832e+01,-9.699999999999953104e+01,-1.276000000000004633e+02,2.055999999999993975e+02,-2.574999999999993747e+02,2.925000000000004547e+02,-5.188000000000012051e+02,-5.198999999999983856e+02,-2.191999999999997897e+02,5.992000000000036835e+02,-9.220000000000068496e+01,-1.052000000000017081e+02,-2.854000000000115165e+02,3.477999999999940997e+02,2.710000000000086118e+01,-1.403799999999971305e+03,1.282799999999998136e+03,-5.869999999999995453e+02,2.173500000000014552e+03,-8.869000000000114596e+02,2.571000000000009322e+02,8.650000000000066791e+01,7.497000000000138016e+02,-1.784000000000001194e+02,-2.943000000000004093e+02,-1.599999999999998295e+02,-6.120000000000029416e+01,-1.180000000000000568e+02,1.172000000000002444e+02,6.349999999999995737e+01,-1.247999999999998693e+02,-6.400000000000071054e+01,4.599999999999992895e+01,7.287999999999933607e+02,5.598999999999955435e+02,2.334999999999973852e+02,1.659899999999979173e+03,-5.799999999999926814e+01,5.950000000000004974e+01,1.471999999999997328e+02,-7.369000000000107775e+02,-6.644000000000012278e+02,-1.098499999999996135e+03,3.760999999999975216e+02,-6.813000000000082537e+02,5.597000000000019782e+02,-2.011999999999988802e+02,-1.800000000000013927e+02,1.577000000000011539e+02,1.111500000000008413e+03,6.340000000000028422e+02,1.269400000000000318e+03,-1.366600000000001955e+03,1.333999999999999773e+02,3.469999999999999574e+01,-6.890000000000010516e+01,1.801000000000003354e+02,-2.150000000000007461e+01,-1.442000000000000171e+02,4.615999999999987153e+02,5.261999999999984539e+02,4.950000000000023874e+02,6.309000000000005457e+02,6.499999999999909051e+02,-4.344000000000004889e+02,4.513999999999977035e+02,3.291000000000026944e+02,1.061900000000007367e+03,8.349999999999952252e+02,-6.000000000000045475e+02,-1.599300000000019963e+03,-5.499000000000014552e+02,-1.933000000000029388e+02,-1.322000000000018645e+02,-3.027000000000022055e+02,3.611000000000026375e+02,5.743999999999959982e+02,1.319000000000019782e+03,6.169999999999973852e+02,5.508999999999986130e+02,-1.859199999999995953e+03,-2.859999999999999432e+01,6.770000000000001705e+01,1.199999999999998579e+01,-2.031999999999996191e+02,-1.432999999999999829e+02,-4.020000000000006679e+01,1.016999999999996703e+03,2.975000000000012506e+02,1.767000000000011823e+02,7.689999999999965041e+01,4.389999999999887592e+01,-9.629999999999965610e+01,-1.226000000000000938e+02,-6.235999999999977490e+02,2.073000000000002103e+02,-1.153000000000026688e+02,1.082700000000004138e+03,8.117999999999781267e+02,1.254999999999990052e+02,1.176999999999990223e+02,1.319199999999995498e+03,1.376000000000002728e+03,-1.064000000000019099e+02,7.923999999999999773e+02,-2.419000000000034731e+02,-2.173999999999974193e+02,-3.260000000000016485e+01,-1.567000000000003581e+02,-4.429999999999996163e+01,2.190000000000000568e+01,1.840000000000016485e+02,-2.143000000000003240e+02,6.480000000000019611e+01,-1.839999999999999503e+01,-2.886000000000009322e+02,-1.628800000000011096e+03,-1.069499999999997499e+03,-1.123000000000006366e+03,-5.427999999999989313e+02,-1.633000000000016598e+02,-4.602999999999946112e+02,6.463999999999967940e+02,-1.794000000000006025e+02,6.641000000000044565e+02,-3.924999999999876081e+02,5.905999999999895635e+02,-8.639000000000038426e+02,1.929999999999984368e+02,-1.434100000000000819e+03,-8.403000000000024556e+02,-2.569000000000013415e+02,6.993999999999917918e+02,9.083999999999975898e+02,-4.069000000000114028e+02,5.089999999999987068e+01,1.403999999999999204e+02,1.202000000000000597e+02,4.919999999999998153e+01,1.971999999999990507e+02,-5.800000000000019185e+01,-6.200000000000003553e+01,-5.570000000000005969e+01,-5.014999999999978400e+02,-1.098100000000003547e+03,-5.791999999999985675e+02,5.974000000000003183e+02,-3.171000000000026375e+02,-2.216999999999999886e+02,-1.526699999999994589e+03,-2.421999999999999886e+02,1.815200000000014143e+03,-1.032899999999996680e+03,1.930999999999999091e+02,-2.517000000000038824e+02,1.028900000000021464e+03,-8.554000000000152113e+02,6.129999999999965610e+01,-3.425000000000013642e+02,-1.229599999999994452e+03,9.210000000000056843e+02,6.596999999999967486e+02,7.609000000000028194e+02,3.816000000000005912e+02,-3.785999999999997385e+02,2.278000000000003524e+02,4.269999999999999574e+01,-5.669999999999997442e+01,-1.017999999999998124e+02,-6.829999999999988347e+01,5.009999999999995879e+01,-3.253000000000011482e+02,-1.243999999999999204e+02,-1.527299999999996317e+03,-7.002000000000005002e+02,-2.421799999999999727e+03,-1.611000000000037744e+02,-1.250000000000034461e+01,1.265800000000009277e+03,-6.706000000000013870e+02,6.273999999999977035e+02,1.349999999999683098e+01,2.068000000000008640e+02,-9.038999999999880401e+02,-9.834999999999863576e+02,7.675000000000077307e+02,-2.328000000000002103e+02,-8.727000000000018645e+02,-3.559000000000018531e+02,-1.201999999999961801e+02,-6.022000000000060709e+02,9.972999999999969987e+02,-2.000999999999991417e+02,2.810000000000003340e+01,-2.144000000000008868e+02,-1.700999999999992838e+02,-1.521999999999991928e+02,-2.279000000000000057e+02,1.218999999999992383e+02,-6.559999999999999432e+01,1.981000000000006480e+02,-8.672999999999926786e+02,7.078999999999954298e+02,-1.015399999999992929e+03,-3.881999999999974875e+02,7.727000000000109594e+02,-1.064800000000017008e+03,9.862999999999933607e+02,-1.808000000000037062e+02,2.559999999999961346e+02,2.200000000000005969e+02,1.563400000000015325e+03,-1.610999999999973795e+02,1.939999999999979536e+02,-5.720999999999975216e+02,3.886999999999974307e+02,-1.164399999999994179e+03,-1.320999999999996135e+03,-1.164999999999992497e+03,-1.824999999999997726e+02,-2.453999999999994088e+02,2.220000000000000995e+01,-1.300000000000000533e+01,1.225000000000001705e+02,5.320000000000041496e+01,-1.130999999999999375e+02,-3.349999999999994316e+02,-5.906000000000021828e+02,-9.728000000000089358e+02,-8.285000000000023874e+02,2.315999999999977206e+02,4.344000000000000341e+02,-5.152000000000030013e+02,5.727999999999972260e+02,1.022900000000008617e+03,-3.809999999999979536e+02,-5.159000000000050932e+02,2.813000000000110958e+02,-3.164999999999972147e+02,-6.534999999999981810e+02,-3.359000000000001478e+02,3.964999999999990905e+02,-8.671000000000028649e+02,6.678000000000031378e+02,-2.500000000000029843e+01,-5.432999999999949523e+02,-6.856000000000044565e+02,-2.658999999999997499e+02,-1.900999999999999943e+02,-1.126999999999999318e+02,-9.910000000000017906e+01,-1.623000000000002672e+02,-1.201000000000007901e+02,-1.385000000000012221e+02,-3.970000000000015206e+01,-2.974999999999986926e+02,-6.975000000000010232e+02,-4.785000000000014211e+02,1.799000000000010573e+02,5.599999999998876099e+00,4.081999999999998181e+02,1.707399999999998272e+03,5.929999999999805596e+02,-1.030199999999994361e+03,8.450000000000201226e+02,-1.806400000000018736e+03,3.372000000000008413e+02,6.501999999999999318e+02,-7.073999999999982720e+02,6.475000000000010232e+02,-2.330999999999987153e+02,-3.539999999999979536e+02,8.879000000000105501e+02,-3.861000000000063324e+02,-4.273000000000007503e+02,-1.078300000000001774e+03,-1.648999999999999204e+02,-1.219999999999998508e+01,-3.229999999999999005e+01,-1.778999999999999773e+02,-1.640000000000003411e+02,-1.705000000000005969e+02,-7.499999999999904787e+01,-4.540999999999974648e+02,6.604000000000014552e+02,-1.619100000000004002e+03,-1.656999999999997613e+02,9.742000000000084583e+02,-1.873999999999987836e+02,-1.069800000000002456e+03,9.483999999999920192e+02,1.071700000000007776e+03,3.904999999999952252e+02,-4.145999999999971806e+02,3.907000000000015802e+02,9.386000000000135515e+02,-1.114799999999989950e+03,-5.891000000000086629e+02,3.862000000000002728e+02,-8.001000000000032060e+02,3.407999999999992156e+02,3.872999999999993861e+02,1.078299999999996317e+03,-5.178000000000009777e+02,-4.489999999999999858e+01,-8.829999999999996874e+01,-1.083999999999998067e+02,-1.518999999999992383e+02,4.650000000000000711e+01,5.290000000000051017e+01,2.020000000000005969e+01,-7.849000000000033879e+02,1.073700000000002319e+03,-9.700000000001221423e+00,1.365500000000005457e+03,-1.211400000000020327e+03,-1.949999999999873523e+01,-1.087999999999968566e+02,2.442000000000013529e+02,-2.121500000000000455e+03,-5.887000000000028876e+02,2.763000000000020577e+02,-3.640000000000003979e+02,-8.121000000000094587e+02,-2.361999999999948159e+02,6.556999999999978854e+02,9.320000000000071338e+01,4.406000000000024102e+02,3.490999999999977490e+02,-3.264000000000017394e+02,-2.569999999999995453e+02,-1.064199999999998909e+03,-3.183999999999995794e+02,-1.400000000000009681e+00,-3.589999999999999858e+01,-1.896999999999996476e+02,-1.273999999999994799e+02,-2.270999999999992554e+02,-2.270999999999993975e+02,-8.328999999999966803e+02,-1.556700000000003229e+03,-4.170000000000150635e+02,-7.685000000000110276e+02,9.100999999999847887e+02,-3.289999999999948841e+02,6.348000000000190539e+02,-1.951799999999987449e+03,1.757499999999995453e+03,1.969999999999992895e+02,6.934999999999838565e+02,5.480000000000006821e+02,3.869999999999959073e+01,4.799999999999940314e+02,1.024300000000011096e+03,-2.647000000000010687e+02,1.612999999999991303e+02,3.063000000000012619e+02,9.687000000000108457e+02,9.580000000000032401e+01,-3.206000000000003070e+02,-4.760000000000000853e+01,-2.529999999999997229e+01,-6.989999999999997726e+01,-3.108000000000008072e+02,-1.848000000000006651e+02,9.450000000000034106e+01,1.339999999999969482e+01,-2.878000000000000682e+02,1.789999999999995737e+02,1.060899999999996226e+03,9.750000000000001421e+01,-1.268000000000008640e+02,-8.928000000000065484e+02,1.270799999999991996e+03,-4.045999999999967258e+02,1.089999999999992752e+01,-2.477999999999985334e+02,-6.863999999999849706e+02,2.741000000000002501e+02,-3.374999999999995453e+02,-1.160299999999997908e+03,8.344000000000121418e+02,4.736000000000035470e+02,1.782000000000000455e+02,-1.189599999999999000e+03,3.047999999999976239e+02,-2.074999999999994884e+02,-1.757000000000000455e+02,-1.213999999999998636e+02,-1.356999999999998749e+02,-4.099999999999998579e+01,6.539999999999969305e+01,-8.629999999999965610e+01,-5.049999999999966604e+01,-2.495999999999999091e+02,-7.530999999999980901e+02,1.887000000000005002e+02,-9.987999999999921101e+02,-9.176999999999982265e+02,4.905999999999986585e+02,-3.645999999999986017e+02,-5.351999999999979991e+02,-4.026999999999946453e+02,1.230999999999988859e+03,2.557000000000032855e+02,-1.164000000000001904e+02,6.348000000000004093e+02,-1.415000000000000000e+02,1.550000000000001243e+01,-3.340999999999995111e+02,-2.168000000000015177e+02,-7.310000000000047748e+02,-3.144000000000027626e+02,-5.925000000000061391e+02,-1.857000000000033424e+02,-1.414000000000000057e+02,-2.900000000000001066e+01,-9.720000000000001705e+01,-5.949999999999990763e+01,-1.439999999999995737e+02,1.461000000000003070e+02,-1.191999999999989228e+02,-1.352000000000002728e+02,-2.679999999999998295e+01,6.200000000000073186e+01,-1.337899999999988495e+03,-1.638999999999996930e+02,-3.202000000000051614e+02,1.154199999999993679e+03,-6.866999999999933380e+02,1.300999999999975216e+02,-9.860999999999901320e+02,2.957999999999993861e+02,1.193599999999995134e+03,3.968999999999921897e+02,1.298399999999999181e+03,7.355000000000009095e+02,-2.845999999999989996e+02,1.103100000000002410e+03,7.872999999999990450e+02,7.420000000000007958e+02,6.100000000000020073e+00,-1.422999999999999829e+02,-5.750000000000002842e+01,-1.800000000000000266e+00,0.000000000000000000e+00,-1.120000000000000462e+01,-1.220000000000000853e+02,8.270000000000021600e+01,-8.990000000000043201e+01,1.930000000000002913e+01,-9.820000000000011653e+01,-1.549000000000000909e+02,-3.612999999999995566e+02,-1.846800000000000182e+03,5.801000000000003638e+02,-4.414999999999963052e+02,-9.742000000000008413e+02,-5.394999999999960210e+02,-1.436700000000009368e+03,-1.359100000000006503e+03,-1.055599999999988313e+03,-2.222399999999993270e+03,-1.237400000000003729e+03,-2.749000000000007731e+02,-4.044000000000001478e+02,-1.212000000000003013e+02,-2.959999999999995879e+01,9.410000000000017906e+01,2.599999999999987921e+01,-5.420000000000002416e+01,-1.029000000000000483e+02,-3.959999999999999432e+01,0.000000000000000000e+00,-2.400000000000000355e+00,3.960000000000007958e+01,6.259999999999971010e+01,-1.067999999999999403e+02,-2.339999999999998082e+01,-9.080000000000049454e+01,-2.652000000000009550e+02,-2.691999999999998181e+02,-6.872999999999985903e+02,-1.052399999999999181e+03,-8.843000000000068894e+02,-6.333000000000029104e+02,6.670000000000004547e+01,-2.370999999999989143e+02,-5.302999999999993861e+02,-1.067799999999991314e+03,-1.265899999999998499e+03,-7.389999999999994316e+02,-3.863000000000016030e+02,-3.738000000000013188e+02,-2.275000000000004832e+02,1.690000000000000213e+01,-4.400000000000019895e+01,-1.189999999999997549e+01,6.090000000000019043e+01,-3.730000000000001137e+01,-8.800000000000002487e+00,-1.500000000000000000e+00,-9.000000000000001332e-01,-1.329999999999998472e+01,-5.140000000000008384e+01,7.200000000000007283e+00,-7.680000000000003979e+01,-2.910000000000009024e+01,-1.692000000000013813e+02,-2.223999999999998636e+02,-4.229999999999984794e+01,-4.479000000000025921e+02,-1.627000000000008413e+02,-3.907000000000022624e+02,-5.354999999999996589e+02,-2.834000000000022510e+02,-7.760000000000017906e+01,-1.642000000000001023e+02,-3.998999999999969646e+02,1.602999999999981071e+02,-2.275999999999994543e+02,-5.114000000000021942e+02,-2.632999999999990450e+02,4.560000000000004405e+01,2.069999999999998508e+01,-3.400000000000020606e+01,4.599999999999988098e+00,0.000000000000000000e+00,-9.000000000000001332e-01,-1.500000000000000000e+00,-1.100000000000000000e+01,-1.000999999999985874e+02
7.499999999999997780e-01,3.029999999999993587e+00,-1.269999999999999796e+00,2.850000000000002753e+00,-3.849999999999980993e+00,-6.729999999999991545e+00,3.199999999999996736e-01,1.599999999999996425e-01,2.300000000000268496e-01,-5.500000000000313527e-01,2.320000000000012719e+00,8.820000000000062457e+00,-1.234000000000007269e+01,-1.472999999999999865e+01,3.050000000000038014e+00,1.307000000000002693e+01,-1.294999999999997620e+01,-1.377999999999992475e+01,2.229999999999991100e+00,-2.824999999999996092e+01,-2.300000000000030465e+00,-1.288999999999992419e+01,1.276000000000011525e+01,-1.647000000000037900e+01,-5.199999999999993516e-01,-1.400000000000000355e+00,2.180000000000001048e+00,3.809999999999987619e+00,-3.499999999999998668e-01,-1.649999999999996358e+00,-1.399999999999999911e+00,-1.940000000000001057e+00,-1.219999999999999529e+00,-1.420000000000000373e+00,-7.069999999999994067e+00,-6.889999999999985469e+00,-6.569999999999990514e+00,3.560000000000004938e+00,2.815999999999993975e+01,1.240000000000041069e+00,1.103000000000006864e+01,-1.640000000000011449e+00,3.610999999999988574e+01,1.260000000000000853e+01,-1.074999999999983125e+01,-2.291000000000001791e+01,-3.289999999999982094e+01,-1.011000000000009713e+01,-5.061999999999964217e+01,-2.189999999999858282e+00,-4.470000000000013785e+01,2.951999999999977931e+01,1.036000000000000654e+01,-1.419999999999998153e+00,-4.079999999999982307e+00,-4.199999999999982636e-01,2.289999999999996039e+00,-2.359999999999999876e+00,-1.119999999999999885e+00,-9.749999999999969802e+00,5.540000000000014246e+00,5.240000000000009095e+00,-8.909999999999984155e+00,-3.800000000000001710e-01,-4.530000000000147686e+00,-1.863000000000000256e+01,-3.142999999999987892e+01,-7.479999999999976446e+00,-1.964999999999951541e+01,8.799999999999965627e-01,-4.447999999999954923e+01,2.758999999999964814e+01,-7.059999999999984510e+00,-5.621000000000002927e+01,-6.684999999999958220e+01,-5.563999999999995083e+01,-5.160999999999990706e+01,2.628999999999989257e+01,-4.299999999999859490e+00,-3.118999999999979167e+01,-5.029999999999996696e+00,-3.109999999999981668e+00,-2.909999999999999254e+00,-3.620000000000000551e+00,-2.300000000000002043e+00,1.910000000000001252e+00,3.499999999999994782e-01,-7.190000000000003055e+00,-2.400000000000009626e-01,-2.749999999999998224e+00,-1.360999999999999233e+01,4.560000000000009379e+00,1.231999999999994877e+01,1.080000000000010907e+01,3.402000000000045077e+01,-2.772999999999986542e+01,-3.871000000000054087e+01,-3.673999999999995225e+01,-9.296000000000034902e+01,1.457999999999995744e+01,-6.247999999999948528e+01,-8.269000000000053774e+01,-3.342000000000061988e+01,-8.409000000000024500e+01,-5.879000000000011994e+01,-1.306999999999989548e+01,-3.846999999999979991e+01,-3.757000000000017792e+01,1.437999999999999368e+01,3.100000000000003308e-01,5.180000000000001492e+00,-5.190000000000001279e+00,-1.440000000000001057e+00,1.209999999999999964e+00,-3.770000000000002682e+00,-6.869999999999997442e+00,-5.469999999999998863e+00,-8.259999999999967812e+00,-9.690000000000013713e+00,7.569999999999981632e+00,1.561000000000000654e+01,-4.131999999999958817e+01,-4.112000000000033140e+01,-7.155999999999993122e+01,-8.180000000000013927e+01,-2.179999999999808757e+00,2.102000000000019497e+01,-1.762300000000003024e+02,1.234699999999999420e+02,1.200999999999989853e+01,-7.029000000000014836e+01,9.300000000000465672e-01,2.563999999999997925e+01,-3.620000000000196838e+00,-1.191600000000003803e+02,1.583500000000007333e+02,6.171999999999982833e+01,1.218999999999995865e+01,4.400000000000003020e+00,3.999999999999975797e-02,-1.560000000000001164e+00,-4.909999999999999254e+00,-3.479999999999995097e+00,-2.750000000000000000e+00,5.579999999999994742e+00,-1.767999999999998550e+01,-2.801999999999996405e+01,5.810000000000003162e+00,1.375000000000004619e+01,-7.282999999999998408e+01,-1.245500000000007930e+02,1.751999999999967272e+01,-4.813000000000003098e+01,-6.208999999999986130e+01,1.699399999999997988e+02,-7.177999999999990166e+01,7.837999999999946965e+01,-9.032999999999991303e+01,7.711000000000068155e+01,-4.261999999999954980e+01,-3.737999999999991019e+01,3.747000000000011966e+01,-1.949099999999969270e+02,-8.862000000000013245e+01,6.514000000000007162e+01,3.130000000000000338e+00,1.330000000000000737e+00,2.660000000000001474e+00,5.710000000000016840e+00,-7.779999999999989591e+00,-6.559999999999996056e+00,-6.220000000000013962e+00,-3.340000000000001190e+00,-2.019000000000000128e+01,-5.100000000000110001e-01,2.156000000000004491e+01,-1.149100000000019861e+02,-1.433100000000002865e+02,6.005999999999994543e+01,-6.081000000000044992e+01,-3.282999999999776009e+01,1.345799999999995862e+02,-2.035799999999991314e+02,3.010000000000152109e+00,6.559000000000037289e+01,4.181000000000005912e+01,6.488000000000013756e+01,-7.049999999999863931e+00,-5.203000000000008640e+01,1.076700000000001296e+02,6.223999999999944066e+01,8.878999999999933834e+01,4.413999999999992951e+01,-4.330000000000033822e+00,-1.234999999999998366e+01,-4.870000000000003659e+00,-6.090000000000006963e+00,-5.660000000000003695e+00,-6.529999999999978932e+00,7.290000000000016911e+00,-7.480000000000015525e+00,-2.919999999999997087e+01,1.626999999999998536e+01,-6.000000000000022204e+00,5.951000000000037460e+01,-8.838000000000127443e+01,-5.431000000000041439e+01,-7.960000000000087006e+00,-1.378999999999990322e+01,5.149999999999867129e+01,-1.063099999999981549e+02,1.338999999999991530e+01,1.470999999999980723e+01,-6.116999999999944038e+01,-2.605000000000041993e+01,3.269999999999991758e+01,-4.690000000000122959e+00,3.205999999999990990e+01,-1.329099999999987176e+02,1.799099999999979502e+02,-1.941999999999997328e+01,-6.460000000000015952e+00,-1.209999999999999609e+01,-4.430000000000006821e+00,-8.110000000000002984e+00,-4.509999999999992681e+00,7.000000000000924927e-02,1.291000000000001435e+01,-1.716000000000000725e+01,-1.476600000000001671e+02,-6.605999999999963279e+01,6.700999999999984880e+01,7.435999999999933152e+01,-5.859999999999986997e+00,-3.918999999999906692e+01,6.042999999999980787e+01,-6.299000000000035016e+01,-9.029999999999995808e+00,-5.819000000000158224e+01,3.405000000000144667e+01,-3.149999999999803180e+00,-8.858000000000042462e+01,-3.631999999999958817e+01,-9.343000000000087368e+01,-9.289999999999674074e+00,5.706000000000002359e+01,-1.051000000000028933e+01,-5.269000000000008299e+01,3.373999999999995936e+01,2.750000000000027978e+00,3.659999999999995701e+00,-1.169999999999998375e+00,9.210000000000020393e+00,-9.590000000000040714e+00,-9.700000000000066791e+00,-1.275999999999992696e+01,2.056000000000031847e+01,-2.575000000000006040e+01,2.925000000000003553e+01,-5.188000000000015177e+01,-5.199000000000051358e+01,-2.191999999999989157e+01,5.991999999999902826e+01,-9.219999999999963336e+00,-1.052000000000010083e+01,-2.853999999999973269e+01,3.478000000000039904e+01,2.710000000000242437e+00,-1.403799999999994839e+02,1.282800000000013085e+02,-5.870000000000025864e+01,2.173499999999987438e+02,-8.869000000000279726e+01,2.571000000000006125e+01,8.649999999999966604e+00,7.496999999999836461e+01,-1.784000000000001052e+01,-2.943000000000000327e+01,-1.600000000000000711e+01,-6.120000000000032969e+00,-1.180000000000001670e+01,1.171999999999996511e+01,6.350000000000002309e+00,-1.248000000000000398e+01,-6.400000000000116707e+00,4.600000000000300737e+00,7.288000000000025125e+01,5.598999999999994515e+01,2.334999999999999076e+01,1.659899999999962574e+02,-5.799999999999954525e+00,5.949999999999999289e+00,1.471999999999991005e+01,-7.368999999999685713e+01,-6.644000000000059458e+01,-1.098500000000002927e+02,3.760999999999982890e+01,-6.813000000000043599e+01,5.597000000000090836e+01,-2.011999999999996902e+01,-1.799999999999992539e+01,1.577000000000028912e+01,1.111499999999986557e+02,6.340000000000112834e+01,1.269399999999996282e+02,-1.366600000000003945e+02,1.334000000000000519e+01,3.469999999999998419e+00,-6.889999999999998792e+00,1.801000000000003709e+01,-2.149999999999999467e+00,-1.442000000000000881e+01,4.616000000000053660e+01,5.261999999999996191e+01,4.950000000000035527e+01,6.308999999999998209e+01,6.499999999999961631e+01,-4.343999999999995509e+01,4.513999999999933266e+01,3.291000000000056502e+01,1.061900000000000404e+02,8.349999999999899103e+01,-6.000000000000041211e+01,-1.599299999999984152e+02,-5.498999999999995225e+01,-1.933000000000016882e+01,-1.321999999999957609e+01,-3.027000000000009550e+01,3.610999999999988574e+01,5.744000000000021089e+01,1.319000000000006025e+02,6.170000000000005258e+01,5.509000000000004604e+01,-1.859199999999999307e+02,-2.860000000000000320e+00,6.769999999999992468e+00,1.200000000000001954e+00,-2.031999999999986883e+01,-1.432999999999996454e+01,-4.019999999999998685e+00,1.016999999999997044e+02,2.974999999999997513e+01,1.766999999999995552e+01,7.690000000000019931e+00,4.389999999999845137e+00,-9.629999999999853344e+00,-1.225999999999997137e+01,-6.235999999999983601e+01,2.072999999999979792e+01,-1.152999999999999581e+01,1.082699999999980207e+02,8.118000000000135685e+01,1.254999999999999893e+01,1.176999999999991431e+01,1.319200000000006696e+02,1.375999999999997385e+02,-1.063999999999998280e+01,7.924000000000060595e+01,-2.419000000000015405e+01,-2.174000000000006239e+01,-3.259999999999999343e+00,-1.566999999999995197e+01,-4.430000000000006821e+00,2.189999999999997282e+00,1.840000000000003055e+01,-2.143000000000002814e+01,6.479999999999988880e+00,-1.839999999999998970e+00,-2.885999999999999588e+01,-1.628799999999999670e+02,-1.069500000000006281e+02,-1.123000000000000398e+02,-5.428000000000076852e+01,-1.633000000000044594e+01,-4.603000000000058378e+01,6.464000000000044110e+01,-1.793999999999984851e+01,6.640999999999939973e+01,-3.925000000000001421e+01,5.906000000000038597e+01,-8.639000000000207535e+01,1.930000000000004334e+01,-1.434100000000005366e+02,-8.403000000000004377e+01,-2.568999999999926587e+01,6.993999999999998352e+01,9.084000000000010289e+01,-4.068999999999873296e+01,5.090000000000022062e+00,1.404000000000000625e+01,1.201999999999997470e+01,4.920000000000000817e+00,1.972000000000006992e+01,-5.799999999999946532e+00,-6.200000000000010836e+00,-5.569999999999993179e+00,-5.015000000000017621e+01,-1.098099999999994054e+02,-5.792000000000002302e+01,5.974000000000064148e+01,-3.171000000000019980e+01,-2.216999999999995197e+01,-1.526699999999992485e+02,-2.421999999999984254e+01,1.815200000000018008e+02,-1.032900000000021805e+02,1.930999999999972161e+01,-2.517000000000020066e+01,1.028899999999996311e+02,-8.553999999999965098e+01,6.130000000000119798e+00,-3.424999999999921840e+01,-1.229600000000005906e+02,9.210000000000033538e+01,6.597000000000014097e+01,7.609000000000007446e+01,3.816000000000003922e+01,-3.785999999999989996e+01,2.277999999999995140e+01,4.269999999999999574e+00,-5.669999999999999041e+00,-1.018000000000002103e+01,-6.830000000000017835e+00,5.010000000000026432e+00,-3.252999999999996561e+01,-1.244000000000017714e+01,-1.527299999999995634e+02,-7.001999999999972601e+01,-2.421799999999986142e+02,-1.610999999999982180e+01,-1.249999999999799494e+00,1.265800000000013057e+02,-6.706000000000129546e+01,6.274000000000026489e+01,1.350000000000246558e+00,2.067999999999949878e+01,-9.038999999999848001e+01,-9.834999999999865850e+01,7.675000000000017053e+01,-2.327999999999997982e+01,-8.727000000000076341e+01,-3.559000000000050079e+01,-1.202000000000028912e+01,-6.021999999999955122e+01,9.973000000000060083e+01,-2.000999999999998025e+01,2.809999999999995612e+00,-2.143999999999992312e+01,-1.701000000000007617e+01,-1.521999999999995801e+01,-2.279000000000003112e+01,1.219000000000005457e+01,-6.559999999999982734e+00,1.981000000000000583e+01,-8.672999999999905185e+01,7.079000000000051784e+01,-1.015400000000006884e+02,-3.882000000000016371e+01,7.726999999999942759e+01,-1.064800000000013682e+02,9.862999999999942702e+01,-1.807999999999982776e+01,2.559999999999965326e+01,2.199999999999987566e+01,1.563399999999992929e+02,-1.610999999999997456e+01,1.939999999999987779e+01,-5.720999999999999375e+01,3.887000000000031008e+01,-1.164400000000003530e+02,-1.320999999999995680e+02,-1.165000000000002416e+02,-1.825000000000000000e+01,-2.453999999999997073e+01,2.219999999999999751e+00,-1.300000000000000933e+00,1.225000000000004974e+01,5.319999999999986962e+00,-1.131000000000002181e+01,-3.350000000000009237e+01,-5.906000000000016570e+01,-9.727999999999973113e+01,-8.285000000000094644e+01,2.316000000000004633e+01,4.343999999999971351e+01,-5.151999999999858915e+01,5.728000000000043457e+01,1.022900000000005463e+02,-3.810000000000005116e+01,-5.158999999999947761e+01,2.813000000000006651e+01,-3.165000000000010516e+01,-6.535000000000060538e+01,-3.359000000000033026e+01,3.965000000000009095e+01,-8.671000000000010743e+01,6.677999999999940428e+01,-2.499999999999830358e+00,-5.433000000000028251e+01,-6.856000000000008754e+01,-2.658999999999999631e+01,-1.900999999999999801e+01,-1.126999999999997648e+01,-9.909999999999989484e+00,-1.622999999999994003e+01,-1.201000000000002466e+01,-1.384999999999985754e+01,-3.970000000000006413e+00,-2.974999999999999645e+01,-6.975000000000001421e+01,-4.784999999999970299e+01,1.798999999999999488e+01,5.600000000000758815e-01,4.081999999999995765e+01,1.707400000000043576e+02,5.929999999999989768e+01,-1.030200000000005502e+02,8.449999999999849365e+01,-1.806400000000007822e+02,3.372000000000006281e+01,6.502000000000106184e+01,-7.073999999999996646e+01,6.474999999999997158e+01,-2.331000000000041084e+01,-3.539999999999987068e+01,8.879000000000024784e+01,-3.860999999999950205e+01,-4.273000000000015319e+01,-1.078299999999997283e+02,-1.649000000000003041e+01,-1.220000000000000639e+00,-3.229999999999999982e+00,-1.778999999999997783e+01,-1.639999999999985292e+01,-1.704999999999991545e+01,-7.500000000000091482e+00,-4.540999999999993264e+01,6.603999999999943782e+01,-1.619099999999999113e+02,-1.657000000000006068e+01,9.741999999999855220e+01,-1.874000000000014055e+01,-1.069799999999985829e+02,9.484000000000065711e+01,1.071699999999983675e+02,3.905000000000040217e+01,-4.145999999999992269e+01,3.906999999999963080e+01,9.386000000000031207e+01,-1.114800000000009845e+02,-5.890999999999908709e+01,3.861999999999998323e+01,-8.001000000000027512e+01,3.408000000000011198e+01,3.872999999999995424e+01,1.078299999999993730e+02,-5.177999999999991587e+01,-4.489999999999999325e+00,-8.829999999999994742e+00,-1.083999999999999986e+01,-1.519000000000002437e+01,4.649999999999993250e+00,5.290000000000054214e+00,2.020000000000004903e+00,-7.848999999999955435e+01,1.073699999999996919e+02,-9.700000000001078870e-01,1.365499999999993577e+02,-1.211400000000000432e+02,-1.950000000000076117e+00,-1.087999999999994571e+01,2.442000000000009408e+01,-2.121500000000023931e+02,-5.886999999999983402e+01,2.762999999999957979e+01,-3.639999999999998437e+01,-8.121000000000010743e+01,-2.361999999999989797e+01,6.556999999999939632e+01,9.319999999999936335e+00,4.405999999999988859e+01,3.491000000000043713e+01,-3.264000000000012136e+01,-2.570000000000004903e+01,-1.064199999999997459e+02,-3.184000000000002473e+01,-1.400000000000005407e-01,-3.589999999999998970e+00,-1.897000000000005215e+01,-1.273999999999999133e+01,-2.271000000000002572e+01,-2.271000000000001862e+01,-8.328999999999965098e+01,-1.556700000000001580e+02,-4.169999999999980389e+01,-7.685000000000168541e+01,9.100999999999871193e+01,-3.289999999999928093e+01,6.348000000000002530e+01,-1.951799999999981310e+02,1.757499999999998863e+02,1.969999999999997442e+01,6.934999999999880060e+01,5.479999999999984794e+01,3.869999999999372164e+00,4.800000000000038369e+01,1.024299999999996231e+02,-2.646999999999996689e+01,1.613000000000005585e+01,3.062999999999986045e+01,9.686999999999980560e+01,9.579999999999969873e+00,-3.206000000000000227e+01,-4.759999999999999787e+00,-2.530000000000002469e+00,-6.989999999999989555e+00,-3.108000000000000895e+01,-1.847999999999984411e+01,9.449999999999967315e+00,1.340000000000084235e+00,-2.877999999999977376e+01,1.789999999999979607e+01,1.060899999999995060e+02,9.749999999999925393e+00,-1.267999999999988958e+01,-8.928000000000065484e+01,1.270800000000020304e+02,-4.046000000000015007e+01,1.089999999999974101e+00,-2.477999999999997627e+01,-6.863999999999985846e+01,2.741000000000001080e+01,-3.375000000000010658e+01,-1.160300000000005411e+02,8.344000000000046668e+01,4.735999999999992127e+01,1.782000000000002515e+01,-1.189600000000013438e+02,3.048000000000002530e+01,-2.074999999999991473e+01,-1.756999999999998607e+01,-1.214000000000001123e+01,-1.357000000000000917e+01,-4.099999999999993427e+00,6.540000000000068425e+00,-8.629999999999947491e+00,-5.050000000000004263e+00,-2.496000000000005414e+01,-7.531000000000042860e+01,1.887000000000003652e+01,-9.987999999999999545e+01,-9.177000000000103341e+01,4.906000000000036465e+01,-3.645999999999965269e+01,-5.351999999999910784e+01,-4.026999999999982549e+01,1.230999999999998948e+02,2.557000000000016371e+01,-1.163999999999987800e+01,6.348000000000068610e+01,-1.415000000000011582e+01,1.549999999999907674e+00,-3.341000000000013159e+01,-2.168000000000004235e+01,-7.309999999999897113e+01,-3.143999999999967798e+01,-5.925000000000017764e+01,-1.857000000000017081e+01,-1.413999999999997748e+01,-2.900000000000001688e+00,-9.719999999999989981e+00,-5.950000000000005507e+00,-1.440000000000003411e+01,1.460999999999998877e+01,-1.192000000000002657e+01,-1.352000000000007773e+01,-2.679999999999993499e+00,6.199999999999885603e+00,-1.337899999999993383e+02,-1.639000000000002899e+01,-3.201999999999989654e+01,1.154199999999980832e+02,-6.866999999999977433e+01,1.301000000000022894e+01,-9.860999999999998522e+01,2.957999999999977803e+01,1.193599999999997294e+02,3.968999999999940087e+01,1.298400000000002876e+02,7.354999999999984084e+01,-2.846000000000000441e+01,1.103099999999998602e+02,7.873000000000001819e+01,7.420000000000024443e+01,6.100000000000094236e-01,-1.422999999999995246e+01,-5.750000000000003553e+00,-1.799999999999999933e-01,0.000000000000000000e+00,-1.120000000000000329e+00,-1.219999999999999751e+01,8.270000000000029772e+00,-8.989999999999943370e+00,1.930000000000003713e+00,-9.820000000000010942e+00,-1.548999999999999666e+01,-3.612999999999988887e+01,-1.846799999999998363e+02,5.801000000000013301e+01,-4.414999999999950120e+01,-9.742000000000039961e+01,-5.394999999999961204e+01,-1.436699999999999307e+02,-1.359099999999998261e+02,-1.055600000000001728e+02,-2.222399999999992133e+02,-1.237400000000003359e+02,-2.748999999999990251e+01,-4.043999999999989825e+01,-1.212000000000001876e+01,-2.960000000000009734e+00,9.409999999999982379e+00,2.600000000000001865e+00,-5.419999999999970619e+00,-1.029000000000000092e+01,-3.960000000000001297e+00,0.000000000000000000e+00,-2.399999999999999911e-01,3.960000000000014619e+00,6.260000000000063736e+00,-1.068000000000003880e+01,-2.340000000000011848e+00,-9.080000000000021387e+00,-2.651999999999995339e+01,-2.691999999999997328e+01,-6.873000000000011767e+01,-1.052399999999985738e+02,-8.843000000000031946e+01,-6.332999999999965723e+01,6.669999999999997264e+00,-2.370999999999992980e+01,-5.302999999999972403e+01,-1.067800000000002854e+02,-1.265900000000004013e+02,-7.390000000000004832e+01,-3.862999999999995993e+01,-3.737999999999988177e+01,-2.274999999999995026e+01,1.690000000000000169e+00,-4.399999999999994138e+00,-1.189999999999997060e+00,6.089999999999981206e+00,-3.730000000000001315e+00,-8.800000000000002265e-01,-1.500000000000000222e-01,-8.999999999999999667e-02,-1.330000000000000515e+00,-5.140000000000010338e+00,7.200000000000024158e-01,-7.679999999999972182e+00,-2.909999999999992593e+00,-1.691999999999999815e+01,-2.224000000000005883e+01,-4.230000000000001315e+00,-4.478999999999979309e+01,-1.626999999999999247e+01,-3.907000000000039108e+01,-5.354999999999999005e+01,-2.834000000000012065e+01,-7.760000000000032649e+00,-1.641999999999995907e+01,-3.998999999999998067e+01,1.602999999999999758e+01,-2.276000000000005485e+01,-5.114000000000007873e+01,-2.633000000000004093e+01,4.560000000000005826e+00,2.069999999999996732e+00,-3.399999999999998135e+00,4.599999999999997424e-01,0.000000000000000000e+00,-8.999999999999999667e-02,-1.500000000000000222e-01,-1.100000000000000311e+00,-1.000999999999983103e+01
9.749999999999958700e-01,3.030000000000002136e-01,-1.269999999999999740e-01,2.850000000000000866e-01,-3.850000000000002309e-01,-6.730000000000004867e-01,3.199999999999997291e-02,1.600000000000005584e-02,2.299999999999835509e-02,-5.499999999999982681e-02,2.320000000000004836e-01,8.820000000000006724e-01,-1.233999999999993769e+00,-1.472999999999974108e+00,3.049999999999999378e-01,1.307000000000043682e+00,-1.294999999999999263e+00,-1.377999999999993230e+00,2.229999999999999205e-01,-2.824999999999951328e+00,-2.299999999999924327e-01,-1.289000000000001922e+00,1.276000000000022894e+00,-1.646999999999971154e+00,-5.200000000000001149e-02,-1.400000000000000966e-01,2.180000000000001104e-01,3.810000000000002829e-01,-3.499999999999994782e-02,-1.649999999999999800e-01,-1.399999999999999856e-01,-1.940000000000001446e-01,-1.220000000000001222e-01,-1.420000000000000429e-01,-7.070000000000005169e-01,-6.890000000000005009e-01,-6.570000000000001394e-01,3.560000000000005937e-01,2.815999999999992731e+00,1.239999999999998603e-01,1.103000000000012637e+00,-1.640000000000002567e-01,3.611000000000029075e+00,1.260000000000003784e+00,-1.074999999999968203e+00,-2.291000000000001258e+00,-3.289999999999988933e+00,-1.011000000000001231e+00,-5.061999999999970967e+00,-2.189999999999990288e-01,-4.469999999999955342e+00,2.951999999999955104e+00,1.036000000000000698e+00,-1.419999999999999318e-01,-4.080000000000003069e-01,-4.199999999999981526e-02,2.290000000000001479e-01,-2.360000000000000431e-01,-1.120000000000000162e-01,-9.750000000000007550e-01,5.540000000000002700e-01,5.240000000000002434e-01,-8.910000000000006803e-01,-3.800000000000001987e-02,-4.530000000000052873e-01,-1.863000000000004430e+00,-3.142999999999993577e+00,-7.480000000000005533e-01,-1.965000000000009628e+00,8.799999999999963407e-02,-4.447999999999983523e+00,2.758999999999997232e+00,-7.060000000000004050e-01,-5.620999999999996000e+00,-6.684999999999970299e+00,-5.563999999999977852e+00,-5.160999999999968502e+00,2.628999999999998227e+00,-4.300000000000002709e-01,-3.119000000000000661e+00,-5.029999999999998916e-01,-3.110000000000001097e-01,-2.910000000000002029e-01,-3.620000000000002660e-01,-2.300000000000000933e-01,1.910000000000000864e-01,3.499999999999994782e-02,-7.190000000000005276e-01,-2.400000000000003866e-02,-2.750000000000001887e-01,-1.360999999999996657e+00,4.560000000000002940e-01,1.231999999999995321e+00,1.080000000000002514e+00,3.401999999999998803e+00,-2.772999999999973486e+00,-3.870999999999949370e+00,-3.673999999999996824e+00,-9.295999999999979835e+00,1.458000000000005514e+00,-6.247999999999981569e+00,-8.268999999999998352e+00,-3.342000000000025839e+00,-8.409000000000011354e+00,-5.878999999999988901e+00,-1.307000000000025475e+00,-3.846999999999989761e+00,-3.756999999999949935e+00,1.437999999999997280e+00,3.100000000000008651e-02,5.180000000000003491e-01,-5.190000000000003499e-01,-1.440000000000002667e-01,1.210000000000000242e-01,-3.770000000000002238e-01,-6.870000000000004992e-01,-5.470000000000003748e-01,-8.260000000000000675e-01,-9.689999999999999725e-01,7.570000000000000062e-01,1.560999999999997279e+00,-4.132000000000006779e+00,-4.111999999999919275e+00,-7.155999999999973049e+00,-8.180000000000111626e+00,-2.180000000000032467e-01,2.101999999999992763e+00,-1.762300000000003308e+01,1.234699999999997821e+01,1.201000000000021384e+00,-7.028999999999896886e+00,9.300000000000627209e-02,2.563999999999999169e+00,-3.619999999999632401e-01,-1.191599999999998793e+01,1.583499999999989249e+01,6.171999999999981057e+00,1.219000000000002304e+00,4.400000000000002798e-01,4.000000000000024369e-03,-1.560000000000001386e-01,-4.910000000000002141e-01,-3.480000000000002536e-01,-2.750000000000001887e-01,5.580000000000003846e-01,-1.767999999999996907e+00,-2.802000000000005819e+00,5.809999999999906350e-01,1.374999999999991784e+00,-7.283000000000026120e+00,-1.245500000000019725e+01,1.752000000000024649e+00,-4.813000000000008605e+00,-6.209000000000034269e+00,1.699400000000021649e+01,-7.178000000000034575e+00,7.838000000000014289e+00,-9.033000000000093621e+00,7.710999999999916810e+00,-4.262000000000072397e+00,-3.738000000000015088e+00,3.747000000000018094e+00,-1.949100000000013821e+01,-8.861999999999955691e+00,6.514000000000009116e+00,3.129999999999996674e-01,1.329999999999997851e-01,2.660000000000002363e-01,5.710000000000002851e-01,-7.780000000000005800e-01,-6.560000000000004716e-01,-6.220000000000003304e-01,-3.340000000000002411e-01,-2.019000000000004125e+00,-5.100000000000171063e-02,2.155999999999992589e+00,-1.149099999999994459e+01,-1.433099999999998886e+01,6.006000000000009997e+00,-6.080999999999972871e+00,-3.283000000000000806e+00,1.345799999999990426e+01,-2.035799999999997212e+01,3.009999999999952713e-01,6.559000000000024144e+00,4.180999999999987615e+00,6.488000000000071488e+00,-7.049999999999841949e-01,-5.203000000000044700e+00,1.076700000000002788e+01,6.224000000000077470e+00,8.878999999999914294e+00,4.414000000000001478e+00,-4.330000000000047145e-01,-1.235000000000001652e+00,-4.870000000000003215e-01,-6.090000000000004299e-01,-5.660000000000003917e-01,-6.530000000000003579e-01,7.290000000000005365e-01,-7.480000000000005533e-01,-2.920000000000006146e+00,1.627000000000000224e+00,-6.000000000000011990e-01,5.951000000000018275e+00,-8.838000000000036493e+00,-5.430999999999984063e+00,-7.959999999999833875e-01,-1.379000000000001558e+00,5.149999999999978151e+00,-1.063099999999990963e+01,1.338999999999985979e+00,1.471000000000017849e+00,-6.116999999999988447e+00,-2.605000000000003091e+00,3.270000000000036433e+00,-4.690000000000298375e-01,3.206000000000040373e+00,-1.329099999999995951e+01,1.799100000000008848e+01,-1.942000000000003279e+00,-6.460000000000017950e-01,-1.210000000000002851e+00,-4.430000000000003380e-01,-8.110000000000006093e-01,-4.510000000000002340e-01,7.000000000000004483e-03,1.290999999999989933e+00,-1.716000000000001302e+00,-1.476599999999996982e+01,-6.605999999999989214e+00,6.700999999999999623e+00,7.435999999999953758e+00,-5.859999999999977449e-01,-3.919000000000019579e+00,6.043000000000038341e+00,-6.298999999999966626e+00,-9.029999999999946958e-01,-5.818999999999921791e+00,3.405000000000065086e+00,-3.149999999999927303e-01,-8.858000000000023633e+00,-3.631999999999850903e+00,-9.343000000000001748e+00,-9.289999999999756231e-01,5.705999999999970207e+00,-1.051000000000009038e+00,-5.268999999999997463e+00,3.374000000000006327e+00,2.750000000000000222e-01,3.660000000000002141e-01,-1.169999999999999651e-01,9.210000000000005960e-01,-9.590000000000007407e-01,-9.700000000000007505e-01,-1.276000000000001133e+00,2.055999999999989392e+00,-2.574999999999997513e+00,2.925000000000004263e+00,-5.187999999999992617e+00,-5.198999999999994515e+00,-2.191999999999994841e+00,5.991999999999942261e+00,-9.219999999999937135e-01,-1.052000000000020474e+00,-2.853999999999978332e+00,3.478000000000026848e+00,2.710000000000319376e-01,-1.403800000000006065e+01,1.282799999999995322e+01,-5.869999999999948592e+00,2.173499999999977561e+01,-8.869000000000134776e+00,2.570999999999986851e+00,8.650000000000298561e-01,7.497000000000041631e+00,-1.783999999999999364e+00,-2.943000000000004057e+00,-1.600000000000001643e+00,-6.120000000000002105e-01,-1.179999999999997939e+00,1.172000000000000375e+00,6.350000000000005640e-01,-1.247999999999999776e+00,-6.399999999999754774e-01,4.599999999999779821e-01,7.288000000000027789e+00,5.598999999999992205e+00,2.335000000000092779e+00,1.659899999999975151e+01,-5.800000000000036238e-01,5.949999999999971978e-01,1.471999999999991759e+00,-7.369000000000045958e+00,-6.644000000000008122e+00,-1.098500000000018950e+01,3.761000000000038312e+00,-6.813000000000006828e+00,5.597000000000146080e+00,-2.011999999999946720e+00,-1.800000000000000933e+00,1.577000000000015056e+00,1.111500000000003396e+01,6.340000000000047820e+00,1.269400000000002215e+01,-1.366600000000002524e+01,1.334000000000000741e+00,3.470000000000002527e-01,-6.890000000000005009e-01,1.800999999999995937e+00,-2.149999999999999689e-01,-1.441999999999999060e+00,4.615999999999989889e+00,5.261999999999990685e+00,4.950000000000017941e+00,6.309000000000008157e+00,6.500000000000013323e+00,-4.343999999999982542e+00,4.514000000000036650e+00,3.291000000000009251e+00,1.061900000000006372e+01,8.349999999999996092e+00,-5.999999999999826805e+00,-1.599300000000005539e+01,-5.498999999999960586e+00,-1.932999999999964968e+00,-1.322000000000057129e+00,-3.026999999999972157e+00,3.610999999999959797e+00,5.744000000000045958e+00,1.319000000000013273e+01,6.169999999999952855e+00,5.509000000000010999e+00,-1.859200000000000585e+01,-2.860000000000000875e-01,6.770000000000004903e-01,1.200000000000002315e-01,-2.031999999999999584e+00,-1.432999999999999607e+00,-4.020000000000000240e-01,1.016999999999999282e+01,2.975000000000007194e+00,1.766999999999997906e+00,7.689999999999994618e-01,4.390000000000477964e-01,-9.629999999999677707e-01,-1.225999999999992429e+00,-6.236000000000056609e+00,2.073000000000084331e+00,-1.153000000000000247e+00,1.082700000000024154e+01,8.117999999999916838e+00,1.255000000000009219e+00,1.177000000000017366e+00,1.319200000000010320e+01,1.375999999999991452e+01,-1.064000000000018709e+00,7.924000000000022581e+00,-2.419000000000036454e+00,-2.173999999999987054e+00,-3.259999999999989573e-01,-1.567000000000002391e+00,-4.430000000000003935e-01,2.190000000000000557e-01,1.840000000000005187e+00,-2.142999999999990912e+00,6.480000000000004645e-01,-1.839999999999998304e-01,-2.885999999999996568e+00,-1.628799999999992920e+01,-1.069500000000006423e+01,-1.123000000000005372e+01,-5.427999999999935099e+00,-1.632999999999970697e+00,-4.603000000000078806e+00,6.464000000000041268e+00,-1.793999999999986272e+00,6.640999999999856129e+00,-3.925000000000030465e+00,5.906000000000078742e+00,-8.639000000000068624e+00,1.929999999999996385e+00,-1.434099999999998509e+01,-8.402999999999750003e+00,-2.568999999999902251e+00,6.994000000000026418e+00,9.084000000000019170e+00,-4.068999999999927120e+00,5.090000000000010072e-01,1.403999999999997916e+00,1.201999999999997959e+00,4.920000000000003815e-01,1.971999999999983766e+00,-5.800000000000004041e-01,-6.200000000000003286e-01,-5.570000000000003837e-01,-5.014999999999982805e+00,-1.098099999999998921e+01,-5.791999999999974058e+00,5.973999999999964672e+00,-3.170999999999962515e+00,-2.216999999999982762e+00,-1.526700000000004209e+01,-2.421999999999981501e+00,1.815200000000000102e+01,-1.032899999999991181e+01,1.931000000000026251e+00,-2.516999999999994575e+00,1.028899999999972437e+01,-8.553999999999966519e+00,6.130000000000042082e-01,-3.424999999999983835e+00,-1.229600000000009707e+01,9.210000000000052367e+00,6.596999999999987097e+00,7.609000000000055941e+00,3.815999999999999837e+00,-3.785999999999996479e+00,2.277999999999999581e+00,4.270000000000003237e-01,-5.670000000000003926e-01,-1.017999999999999350e+00,-6.830000000000004956e-01,5.010000000000003340e-01,-3.253000000000000558e+00,-1.243999999999999106e+00,-1.527299999999994817e+01,-7.002000000000031754e+00,-2.421800000000023090e+01,-1.610999999999999099e+00,-1.250000000000067168e-01,1.265800000000006520e+01,-6.705999999999973760e+00,6.274000000000050647e+00,1.350000000000191880e-01,2.068000000000031147e+00,-9.039000000000131152e+00,-9.834999999999970655e+00,7.674999999999903899e+00,-2.327999999999982528e+00,-8.726999999999884849e+00,-3.558999999999938879e+00,-1.201999999999981972e+00,-6.021999999999970044e+00,9.973000000000002530e+00,-2.001000000000002554e+00,2.810000000000001386e-01,-2.144000000000001016e+00,-1.700999999999997625e+00,-1.521999999999991138e+00,-2.278999999999990145e+00,1.218999999999996975e+00,-6.560000000000001386e-01,1.981000000000000982e+00,-8.673000000000001819e+00,7.078999999999979309e+00,-1.015399999999994129e+01,-3.881999999999989459e+00,7.727000000000061597e+00,-1.064800000000007607e+01,9.862999999999887635e+00,-1.807999999999988283e+00,2.560000000000008491e+00,2.200000000000027711e+00,1.563400000000008916e+01,-1.610999999999994658e+00,1.940000000000036140e+00,-5.720999999999941465e+00,3.886999999999964484e+00,-1.164400000000013335e+01,-1.320999999999991736e+01,-1.165000000000001812e+01,-1.824999999999998845e+00,-2.453999999999997961e+00,2.220000000000000584e-01,-1.300000000000000600e-01,1.225000000000000089e+00,5.320000000000003615e-01,-1.130999999999999339e+00,-3.349999999999996980e+00,-5.905999999999928640e+00,-9.728000000000053049e+00,-8.284999999999966391e+00,2.316000000000020709e+00,4.344000000000043826e+00,-5.152000000000009017e+00,5.728000000000045056e+00,1.022899999999971499e+01,-3.809999999999983178e+00,-5.159000000000114383e+00,2.813000000000040135e+00,-3.164999999999984492e+00,-6.534999999999990372e+00,-3.358999999999980890e+00,3.965000000000027391e+00,-8.671000000000001151e+00,6.677999999999960856e+00,-2.499999999999999445e-01,-5.432999999999980290e+00,-6.856000000000066485e+00,-2.658999999999999808e+00,-1.901000000000001355e+00,-1.127000000000000002e+00,-9.910000000000006581e-01,-1.623000000000001330e+00,-1.200999999999998513e+00,-1.384999999999995124e+00,-3.970000000000005747e-01,-2.974999999999976552e+00,-6.974999999999980993e+00,-4.784999999999984155e+00,1.799000000000042565e+00,5.600000000001539857e-02,4.082000000000109097e+00,1.707399999999967122e+01,5.930000000000058336e+00,-1.030200000000018434e+01,8.449999999999995737e+00,-1.806400000000004624e+01,3.372000000000036302e+00,6.502000000000072610e+00,-7.074000000000032706e+00,6.474999999999941025e+00,-2.330999999999983086e+00,-3.539999999999972946e+00,8.879000000000043968e+00,-3.860999999999995769e+00,-4.273000000000002352e+00,-1.078300000000000658e+01,-1.649000000000001132e+00,-1.220000000000000667e-01,-3.230000000000001759e-01,-1.778999999999997472e+00,-1.639999999999993019e+00,-1.705000000000000293e+00,-7.500000000000007772e-01,-4.540999999999972836e+00,6.604000000000059600e+00,-1.619100000000010198e+01,-1.656999999999994699e+00,9.741999999999832127e+00,-1.873999999999954591e+00,-1.069800000000004836e+01,9.484000000000023078e+00,1.071700000000029185e+01,3.905000000000040217e+00,-4.145999999999979480e+00,3.907000000000011131e+00,9.385999999999937060e+00,-1.114800000000014180e+01,-5.890999999999910308e+00,3.862000000000001432e+00,-8.000999999999979906e+00,3.407999999999995921e+00,3.872999999999993115e+00,1.078299999999996217e+01,-5.178000000000004377e+00,-4.490000000000001767e-01,-8.830000000000006732e-01,-1.084000000000000297e+00,-1.518999999999998796e+00,4.649999999999998579e-01,5.290000000000003588e-01,2.020000000000002627e-01,-7.848999999999978883e+00,1.073700000000002319e+01,-9.699999999999324440e-02,1.365499999999993186e+01,-1.211400000000010380e+01,-1.949999999999807165e-01,-1.087999999999984535e+00,2.442000000000013937e+00,-2.121500000000024500e+01,-5.887000000000008448e+00,2.762999999999954603e+00,-3.640000000000012559e+00,-8.121000000000035968e+00,-2.362000000000034294e+00,6.557000000000033246e+00,9.320000000000019380e-01,4.405999999999987260e+00,3.490999999999920611e+00,-3.263999999999971813e+00,-2.569999999999998508e+00,-1.064199999999999413e+01,-3.183999999999993058e+00,-1.400000000000018417e-02,-3.590000000000002633e-01,-1.896999999999982256e+00,-1.274000000000003352e+00,-2.270999999999991914e+00,-2.270999999999996355e+00,-8.328999999999982862e+00,-1.556700000000009965e+01,-4.169999999999924434e+00,-7.685000000000019149e+00,9.101000000000251333e+00,-3.290000000000008473e+00,6.348000000000180165e+00,-1.951800000000018542e+01,1.757500000000003126e+01,1.970000000000004636e+00,6.935000000000099973e+00,5.480000000000012861e+00,3.870000000000380913e-01,4.799999999999958078e+00,1.024299999999995237e+01,-2.646999999999993580e+00,1.613000000000013534e+00,3.063000000000015266e+00,9.687000000000113076e+00,9.580000000000120641e-01,-3.205999999999997296e+00,-4.760000000000002562e-01,-2.530000000000001137e-01,-6.990000000000005098e-01,-3.107999999999993435e+00,-1.848000000000007415e+00,9.450000000000007283e-01,1.339999999999999525e-01,-2.878000000000000558e+00,1.790000000000026459e+00,1.060900000000003729e+01,9.749999999999987566e-01,-1.267999999999978922e+00,-8.927999999999967073e+00,1.270800000000023644e+01,-4.046000000000010033e+00,1.090000000000081459e-01,-2.477999999999960679e+00,-6.864000000000007873e+00,2.740999999999983672e+00,-3.375000000000032863e+00,-1.160300000000017207e+01,8.343999999999956785e+00,4.736000000000019305e+00,1.782000000000003137e+00,-1.189599999999989066e+01,3.048000000000007148e+00,-2.075000000000000178e+00,-1.756999999999998785e+00,-1.213999999999998414e+00,-1.356999999999999762e+00,-4.100000000000002531e-01,6.540000000000004698e-01,-8.630000000000007665e-01,-5.050000000000003375e-01,-2.495999999999991115e+00,-7.530999999999989925e+00,1.886999999999998012e+00,-9.987999999999898293e+00,-9.176999999999916113e+00,4.905999999999995254e+00,-3.646000000000020780e+00,-5.352000000000018076e+00,-4.026999999999980595e+00,1.231000000000006267e+01,2.557000000000091422e+00,-1.163999999999991708e+00,6.348000000000060261e+00,-1.414999999999964952e+00,1.550000000000081868e-01,-3.341000000000001968e+00,-2.167999999999967287e+00,-7.309999999999962306e+00,-3.143999999999978812e+00,-5.925000000000018474e+00,-1.856999999999953577e+00,-1.414000000000000368e+00,-2.900000000000001465e-01,-9.720000000000007523e-01,-5.950000000000004174e-01,-1.439999999999998614e+00,1.460999999999992083e+00,-1.191999999999997728e+00,-1.351999999999998314e+00,-2.680000000000000160e-01,6.199999999999868949e-01,-1.337900000000004574e+01,-1.639000000000026880e+00,-3.201999999999924018e+00,1.154199999999996251e+01,-6.866999999999952031e+00,1.301000000000018808e+00,-9.861000000000023746e+00,2.957999999999958440e+00,1.193599999999996975e+01,3.968999999999957229e+00,1.298399999999991827e+01,7.354999999999988880e+00,-2.845999999999996088e+00,1.103100000000000414e+01,7.873000000000025089e+00,7.420000000000013252e+00,6.100000000000102562e-02,-1.422999999999986276e+00,-5.750000000000000666e-01,-1.800000000000000211e-02,0.000000000000000000e+00,-1.120000000000000440e-01,-1.220000000000001750e+00,8.270000000000006235e-01,-8.990000000000006875e-01,1.930000000000001159e-01,-9.820000000000007612e-01,-1.549000000000001931e+00,-3.613000000000008871e+00,-1.846799999999999642e+01,5.800999999999975287e+00,-4.414999999999976943e+00,-9.742000000000018645e+00,-5.395000000000014673e+00,-1.436699999999994226e+01,-1.359099999999999753e+01,-1.055599999999991923e+01,-2.222400000000012454e+01,-1.237400000000004496e+01,-2.749000000000001886e+00,-4.043999999999991601e+00,-1.211999999999999078e+00,-2.959999999999997078e-01,9.410000000000007248e-01,2.600000000000005085e-01,-5.419999999999998153e-01,-1.029000000000000359e+00,-3.960000000000002407e-01,0.000000000000000000e+00,-2.400000000000000050e-02,3.960000000000002962e-01,6.260000000000004450e-01,-1.067999999999998284e+00,-2.339999999999999858e-01,-9.080000000000006954e-01,-2.651999999999991697e+00,-2.692000000000025484e+00,-6.873000000000040188e+00,-1.052399999999981617e+01,-8.843000000000017735e+00,-6.332999999999977980e+00,6.670000000000000373e-01,-2.371000000000007102e+00,-5.302999999999951086e+00,-1.067800000000001148e+01,-1.265899999999980885e+01,-7.389999999999988134e+00,-3.863000000000011536e+00,-3.737999999999989775e+00,-2.275000000000003020e+00,1.690000000000000668e-01,-4.400000000000002798e-01,-1.189999999999998836e-01,6.090000000000003189e-01,-3.730000000000002203e-01,-8.800000000000005040e-02,-1.499999999999999944e-02,-9.000000000000001055e-03,-1.330000000000000904e-01,-5.140000000000003455e-01,7.200000000000014722e-02,-7.680000000000005711e-01,-2.910000000000001474e-01,-1.692000000000000837e+00,-2.223999999999993094e+00,-4.230000000000002092e-01,-4.478999999999992099e+00,-1.626999999999993340e+00,-3.906999999999964057e+00,-5.355000000000001315e+00,-2.833999999999988084e+00,-7.760000000000004672e-01,-1.641999999999995019e+00,-3.998999999999949040e+00,1.603000000000004421e+00,-2.275999999999999357e+00,-5.114000000000012314e+00,-2.632999999999994678e+00,4.560000000000002940e-01,2.069999999999998508e-01,-3.400000000000001910e-01,4.599999999999990208e-02,0.000000000000000000e+00,-9.000000000000001055e-03,-1.499999999999999944e-02,-1.100000000000000283e-01,-1.001000000000000556e+00
