3.300000000000000000e+01,-1.300000000000000000e+02,4.040000000000000000e+02,-5.850000000000000000e+02,-1.718000000000000000e+03,-1.025000000000000000e+03,-4.260000000000000000e+02,-6.210000000000000000e+02,1.742000000000000000e+03,-1.863000000000000000e+03,5.310000000000000000e+02,-9.170000000000000000e+02,-8.600000000000000000e+02,-8.370000000000000000e+02,-2.707000000000000000e+03,1.680000000000000000e+03,-7.900000000000000000e+02,-2.446000000000000000e+03,-2.327000000000000000e+03,1.365000000000000000e+03,-2.107000000000000000e+03,-1.176000000000000000e+03,-2.844000000000000000e+03,-6.990000000000000000e+02,-1.400000000000000000e+02,-7.600000000000000000e+01,-5.500000000000000000e+01,-1.180000000000000000e+02,-8.060000000000000000e+02,-1.120000000000000000e+03,9.030000000000000000e+02,-8.960000000000000000e+02,-8.220000000000000000e+02,1.030000000000000000e+02,-6.610000000000000000e+02,2.440000000000000000e+02,-3.130000000000000000e+02,1.925000000000000000e+03,-2.062000000000000000e+03,-3.161000000000000000e+03,-1.188000000000000000e+03,3.820000000000000000e+02,2.250000000000000000e+02,-4.717000000000000000e+03,3.199000000000000000e+03,-2.433000000000000000e+03,-1.165000000000000000e+03,1.000000000000000000e+01,-5.510000000000000000e+02,-1.960000000000000000e+03,-1.621000000000000000e+03,1.992000000000000000e+03,-3.960000000000000000e+02,-4.620000000000000000e+02,-1.840000000000000000e+02,-2.140000000000000000e+02,-4.560000000000000000e+02,2.060000000000000000e+02,3.320000000000000000e+02,-6.480000000000000000e+02,8.900000000000000000e+02,4.700000000000000000e+01,-1.769000000000000000e+03,1.090000000000000000e+02,-1.087000000000000000e+03,1.461000000000000000e+03,-1.435000000000000000e+03,4.220000000000000000e+02,-3.060000000000000000e+02,-5.753000000000000000e+03,-1.103000000000000000e+03,1.552000000000000000e+03,-8.660000000000000000e+02,-2.373000000000000000e+03,-7.280000000000000000e+02,-5.439000000000000000e+03,5.990000000000000000e+02,1.450000000000000000e+03,-3.077000000000000000e+03,-2.744000000000000000e+03,-1.570000000000000000e+02,-6.300000000000000000e+01,-5.200000000000000000e+01,-4.080000000000000000e+02,-7.810000000000000000e+02,3.040000000000000000e+02,-6.520000000000000000e+02,-6.590000000000000000e+02,-8.750000000000000000e+02,5.050000000000000000e+02,-2.650000000000000000e+02,4.530000000000000000e+02,6.770000000000000000e+02,-1.331000000000000000e+03,-2.611000000000000000e+03,-2.167000000000000000e+03,7.202000000000000000e+03,5.563000000000000000e+03,2.584000000000000000e+03,-9.420000000000000000e+02,-1.225000000000000000e+03,-1.358000000000000000e+03,3.831000000000000000e+03,-7.030000000000000000e+03,-3.368000000000000000e+03,-4.030000000000000000e+02,-4.634000000000000000e+03,4.466000000000000000e+03,-6.210000000000000000e+02,-5.730000000000000000e+02,-6.800000000000000000e+01,-4.400000000000000000e+01,-3.000000000000000000e+02,-6.190000000000000000e+02,-8.900000000000000000e+01,-3.240000000000000000e+02,-4.230000000000000000e+03,-1.915000000000000000e+03,1.700000000000000000e+03,-4.240000000000000000e+02,1.547000000000000000e+03,-3.947000000000000000e+03,-5.426000000000000000e+03,-4.314000000000000000e+03,2.296000000000000000e+03,-5.490000000000000000e+02,8.750000000000000000e+02,-8.381000000000000000e+03,-4.216000000000000000e+03,2.215000000000000000e+03,7.608000000000000000e+03,4.211000000000000000e+03,-4.522000000000000000e+03,-9.900000000000000000e+01,-7.554000000000000000e+03,-4.706000000000000000e+03,-1.300000000000000000e+02,-6.700000000000000000e+01,-3.130000000000000000e+02,-1.960000000000000000e+02,8.030000000000000000e+02,-3.170000000000000000e+02,1.720000000000000000e+02,1.547000000000000000e+03,-6.766000000000000000e+03,-9.108000000000000000e+03,3.056000000000000000e+03,6.756000000000000000e+03,-5.790000000000000000e+03,-5.310000000000000000e+02,-1.140000000000000000e+03,5.329000000000000000e+03,-5.045000000000000000e+03,-3.182000000000000000e+03,-3.751000000000000000e+03,-2.640000000000000000e+03,1.738400000000000000e+04,-4.454000000000000000e+03,-8.294000000000000000e+03,8.200000000000000000e+02,-2.864000000000000000e+03,-4.290000000000000000e+03,-1.122600000000000000e+04,-3.976000000000000000e+03,-3.380000000000000000e+03,-8.790000000000000000e+02,-4.210000000000000000e+02,-4.140000000000000000e+02,-3.440000000000000000e+02,8.520000000000000000e+02,-6.900000000000000000e+02,-7.340000000000000000e+02,-5.892000000000000000e+03,-4.806000000000000000e+03,4.435000000000000000e+03,7.376000000000000000e+03,-1.290000000000000000e+03,1.025500000000000000e+04,8.350000000000000000e+02,2.885000000000000000e+03,-4.770000000000000000e+03,5.501000000000000000e+03,2.650000000000000000e+02,-3.039000000000000000e+03,-4.305000000000000000e+03,-1.936000000000000000e+03,4.528000000000000000e+03,-5.555000000000000000e+03,2.726000000000000000e+03,-8.700000000000000000e+03,-1.303000000000000000e+03,-1.930000000000000000e+02,-9.174000000000000000e+03,-1.142000000000000000e+03,-3.500000000000000000e+01,-1.280000000000000000e+02,3.480000000000000000e+02,2.410000000000000000e+02,-1.283000000000000000e+03,7.092000000000000000e+03,4.910000000000000000e+03,2.787000000000000000e+03,5.982000000000000000e+03,1.783000000000000000e+03,4.660000000000000000e+02,1.190000000000000000e+03,1.847000000000000000e+03,5.300000000000000000e+01,6.948000000000000000e+03,-3.268000000000000000e+03,1.625000000000000000e+03,8.965000000000000000e+03,1.753000000000000000e+03,2.218000000000000000e+03,4.891000000000000000e+03,-3.660000000000000000e+03,5.685000000000000000e+03,-6.906000000000000000e+03,-3.833000000000000000e+03,5.250000000000000000e+03,-8.900000000000000000e+03,-5.780000000000000000e+02,-2.280000000000000000e+02,-5.470000000000000000e+02,5.520000000000000000e+02,1.430000000000000000e+03,1.549000000000000000e+03,4.907000000000000000e+03,7.094000000000000000e+03,4.240000000000000000e+02,-7.690000000000000000e+03,-4.306000000000000000e+03,1.378000000000000000e+03,-1.264500000000000000e+04,-4.311000000000000000e+03,-1.222000000000000000e+03,-2.859000000000000000e+03,1.847000000000000000e+03,-4.343000000000000000e+03,-2.963000000000000000e+03,-4.982000000000000000e+03,2.608000000000000000e+03,3.262000000000000000e+03,4.966000000000000000e+03,-1.291000000000000000e+03,-1.034000000000000000e+03,-7.690000000000000000e+02,-1.430000000000000000e+02,-7.593000000000000000e+03,-3.395000000000000000e+03,-2.820000000000000000e+02,-2.610000000000000000e+02,1.134000000000000000e+03,-9.820000000000000000e+02,3.170000000000000000e+02,5.739000000000000000e+03,1.254500000000000000e+04,-8.420000000000000000e+02,-5.193000000000000000e+03,5.316000000000000000e+03,8.217000000000000000e+03,-1.107000000000000000e+03,1.256400000000000000e+04,-9.689000000000000000e+03,2.929000000000000000e+03,-4.362000000000000000e+03,5.082000000000000000e+03,5.242000000000000000e+03,1.485000000000000000e+03,-1.817000000000000000e+03,-9.900000000000000000e+03,2.203000000000000000e+03,1.014800000000000000e+04,4.625000000000000000e+03,-7.490000000000000000e+02,-6.418000000000000000e+03,-6.862000000000000000e+03,-2.348000000000000000e+03,-2.900000000000000000e+02,-7.550000000000000000e+02,5.620000000000000000e+02,-7.050000000000000000e+02,1.541000000000000000e+03,3.047000000000000000e+03,6.220000000000000000e+03,-1.873000000000000000e+03,2.458000000000000000e+03,-2.479000000000000000e+03,-1.069200000000000000e+04,-6.640000000000000000e+02,-6.253000000000000000e+03,-1.273200000000000000e+04,-2.340000000000000000e+03,1.714000000000000000e+03,-6.729000000000000000e+03,1.327600000000000000e+04,1.537000000000000000e+04,4.609000000000000000e+03,3.349000000000000000e+03,4.242000000000000000e+03,-1.645000000000000000e+03,1.590000000000000000e+03,-4.155000000000000000e+03,4.280000000000000000e+03,-2.537000000000000000e+03,-2.305000000000000000e+03,-1.570000000000000000e+02,3.900000000000000000e+01,4.060000000000000000e+02,1.730000000000000000e+02,1.366000000000000000e+03,2.039000000000000000e+03,-1.190000000000000000e+03,-5.067000000000000000e+03,-2.997000000000000000e+03,-1.398700000000000000e+04,7.580000000000000000e+02,-7.697000000000000000e+03,-4.987000000000000000e+03,-4.055000000000000000e+03,-2.039000000000000000e+03,-1.441800000000000000e+04,7.075000000000000000e+03,1.022000000000000000e+04,-8.233000000000000000e+03,4.654000000000000000e+03,1.623300000000000000e+04,-2.103000000000000000e+03,4.000000000000000000e+03,2.627000000000000000e+03,-7.233000000000000000e+03,-4.445000000000000000e+03,-4.200000000000000000e+02,-2.140000000000000000e+03,-3.560000000000000000e+02,-3.900000000000000000e+01,9.000000000000000000e+02,2.076000000000000000e+03,6.200000000000000000e+01,-5.400000000000000000e+01,-4.370000000000000000e+03,-9.914000000000000000e+03,-1.770900000000000000e+04,-1.188900000000000000e+04,2.990000000000000000e+03,-8.157000000000000000e+03,-7.540000000000000000e+02,-1.400700000000000000e+04,9.191000000000000000e+03,9.463000000000000000e+03,-1.030000000000000000e+03,-2.427000000000000000e+03,2.864000000000000000e+03,-6.284000000000000000e+03,8.125000000000000000e+03,-2.184000000000000000e+03,-5.445000000000000000e+03,4.669000000000000000e+03,-1.807000000000000000e+03,-9.296000000000000000e+03,-7.750000000000000000e+02,9.700000000000000000e+01,-2.750000000000000000e+02,-3.680000000000000000e+02,5.970000000000000000e+02,-4.610000000000000000e+02,-6.960000000000000000e+02,-1.259000000000000000e+03,-5.802000000000000000e+03,-1.252900000000000000e+04,-6.570000000000000000e+02,8.297000000000000000e+03,-1.625000000000000000e+03,-2.033000000000000000e+03,9.999000000000000000e+03,-5.674000000000000000e+03,-1.179300000000000000e+04,-1.679000000000000000e+03,1.081900000000000000e+04,7.773000000000000000e+03,-6.590000000000000000e+02,6.670000000000000000e+03,-1.662000000000000000e+03,-1.191400000000000000e+04,6.479000000000000000e+03,-7.359000000000000000e+03,-5.370000000000000000e+03,-4.335000000000000000e+03,-1.333000000000000000e+03,-5.430000000000000000e+02,-4.500000000000000000e+01,-2.250000000000000000e+02,3.200000000000000000e+02,3.540000000000000000e+02,6.540000000000000000e+02,-8.030000000000000000e+02,-2.177000000000000000e+03,-4.901000000000000000e+03,9.732000000000000000e+03,4.979000000000000000e+03,-4.131000000000000000e+03,-2.124000000000000000e+03,1.590000000000000000e+02,6.004000000000000000e+03,1.481000000000000000e+03,1.042700000000000000e+04,-1.106400000000000000e+04,-5.729000000000000000e+03,-9.300000000000000000e+02,-1.922000000000000000e+03,1.751100000000000000e+04,-4.810000000000000000e+03,5.563000000000000000e+03,1.700000000000000000e+02,-3.168000000000000000e+03,3.676000000000000000e+03,1.053000000000000000e+03,-9.270000000000000000e+02,2.410000000000000000e+02,1.900000000000000000e+01,1.310000000000000000e+03,-1.500000000000000000e+01,-1.447000000000000000e+03,-1.723000000000000000e+03,-4.474000000000000000e+03,-6.945000000000000000e+03,-2.390000000000000000e+03,-1.420900000000000000e+04,-3.996000000000000000e+03,2.726000000000000000e+03,-1.628300000000000000e+04,2.770000000000000000e+02,6.780000000000000000e+02,-3.112000000000000000e+03,3.756000000000000000e+03,1.044800000000000000e+04,8.021000000000000000e+03,-1.133100000000000000e+04,-5.058000000000000000e+03,3.590000000000000000e+02,-1.443400000000000000e+04,5.326000000000000000e+03,6.972000000000000000e+03,-3.270000000000000000e+02,8.136000000000000000e+03,2.090000000000000000e+02,-1.570000000000000000e+02,-2.910000000000000000e+02,1.320000000000000000e+02,1.055000000000000000e+03,-1.300000000000000000e+01,-3.111000000000000000e+03,-6.260000000000000000e+03,-2.701000000000000000e+03,-8.450000000000000000e+02,-7.491000000000000000e+03,-8.095000000000000000e+03,-1.160000000000000000e+03,-4.304000000000000000e+03,-1.299800000000000000e+04,-2.577000000000000000e+03,-1.168000000000000000e+03,5.746000000000000000e+03,-1.070000000000000000e+03,8.905000000000000000e+03,-6.836000000000000000e+03,3.900000000000000000e+01,5.322000000000000000e+03,-7.330000000000000000e+03,7.386000000000000000e+03,4.390000000000000000e+02,-4.736000000000000000e+03,3.164000000000000000e+03,-1.717000000000000000e+03,-1.160000000000000000e+02,-3.050000000000000000e+02,-1.802000000000000000e+03,8.670000000000000000e+02,-6.490000000000000000e+02,-5.960000000000000000e+02,2.070000000000000000e+03,5.150000000000000000e+03,5.331000000000000000e+03,2.754000000000000000e+03,1.821000000000000000e+03,5.866000000000000000e+03,-1.148000000000000000e+03,-1.771900000000000000e+04,-1.142100000000000000e+04,-5.734000000000000000e+03,-1.058200000000000000e+04,-1.095800000000000000e+04,-9.813000000000000000e+03,5.125000000000000000e+03,1.081000000000000000e+04,1.732000000000000000e+03,-1.171300000000000000e+04,1.283400000000000000e+04,-6.830000000000000000e+02,-6.673000000000000000e+03,2.078000000000000000e+03,-2.501000000000000000e+03,-1.287000000000000000e+03,-4.760000000000000000e+02,-6.910000000000000000e+02,-6.730000000000000000e+02,-2.894000000000000000e+03,5.466000000000000000e+03,1.180900000000000000e+04,1.595000000000000000e+03,-4.982000000000000000e+03,-3.939000000000000000e+03,-2.005000000000000000e+03,-5.218000000000000000e+03,1.906000000000000000e+03,7.682000000000000000e+03,-1.745500000000000000e+04,-2.007000000000000000e+04,-1.574200000000000000e+04,-3.520000000000000000e+02,-1.102100000000000000e+04,-1.221000000000000000e+03,4.784000000000000000e+03,7.194000000000000000e+03,-1.194100000000000000e+04,9.809000000000000000e+03,-3.962000000000000000e+03,1.550000000000000000e+02,-1.330000000000000000e+03,-1.094000000000000000e+03,-1.180000000000000000e+02,-1.081000000000000000e+03,8.360000000000000000e+02,1.439000000000000000e+03,-4.283000000000000000e+03,7.540000000000000000e+02,7.583000000000000000e+03,9.664000000000000000e+03,-5.987000000000000000e+03,-3.804000000000000000e+03,-2.330000000000000000e+03,-1.219000000000000000e+03,-5.541000000000000000e+03,-5.931000000000000000e+03,-1.570000000000000000e+03,7.795000000000000000e+03,1.303000000000000000e+03,9.570000000000000000e+03,1.416900000000000000e+04,-1.073600000000000000e+04,-1.200000000000000000e+02,6.000000000000000000e+03,1.435000000000000000e+03,3.670000000000000000e+02,4.491000000000000000e+03,2.444000000000000000e+03,3.030000000000000000e+03,-1.826000000000000000e+03,-8.950000000000000000e+02,3.000000000000000000e+01,5.600000000000000000e+01,-5.070000000000000000e+02,-3.421000000000000000e+03,4.755000000000000000e+03,-6.360000000000000000e+02,1.524900000000000000e+04,6.364000000000000000e+03,1.173800000000000000e+04,-7.700000000000000000e+02,1.305000000000000000e+03,-1.720000000000000000e+03,-6.242000000000000000e+03,1.055000000000000000e+03,-7.542000000000000000e+03,-5.181000000000000000e+03,-8.887000000000000000e+03,6.092000000000000000e+03,-3.779000000000000000e+03,-8.495000000000000000e+03,-1.616000000000000000e+03,1.194300000000000000e+04,7.580000000000000000e+03,2.922000000000000000e+03,1.160000000000000000e+02,7.090000000000000000e+02,-1.173000000000000000e+03,-2.830000000000000000e+02,-3.770000000000000000e+02,-5.650000000000000000e+02,-3.320000000000000000e+02,3.399000000000000000e+03,6.080000000000000000e+03,4.944000000000000000e+03,-2.710000000000000000e+02,-3.837000000000000000e+03,8.490000000000000000e+03,-7.449000000000000000e+03,-3.928000000000000000e+03,4.612000000000000000e+03,-1.334700000000000000e+04,4.530000000000000000e+02,-1.901000000000000000e+03,-9.891000000000000000e+03,-1.316000000000000000e+04,1.677700000000000000e+04,-8.100000000000000000e+01,-1.166000000000000000e+03,1.270000000000000000e+02,-4.378000000000000000e+03,2.608000000000000000e+03,5.484000000000000000e+03,-1.665000000000000000e+03,-4.739000000000000000e+03,-1.200000000000000000e+03,5.000000000000000000e+01,-2.500000000000000000e+02,-1.918000000000000000e+03,1.800000000000000000e+02,-7.360000000000000000e+02,2.449000000000000000e+03,1.026500000000000000e+04,-3.545000000000000000e+03,-2.717000000000000000e+03,-1.150100000000000000e+04,-1.984000000000000000e+03,1.411000000000000000e+03,8.412000000000000000e+03,1.106300000000000000e+04,-6.166000000000000000e+03,5.162000000000000000e+03,4.763000000000000000e+03,4.393000000000000000e+03,-4.199000000000000000e+03,-4.990000000000000000e+02,9.110000000000000000e+02,-8.957000000000000000e+03,5.715000000000000000e+03,-4.528000000000000000e+03,-6.298000000000000000e+03,2.766000000000000000e+03,-1.046000000000000000e+03,-2.320000000000000000e+02,-2.640000000000000000e+02,-1.003000000000000000e+03,6.690000000000000000e+02,-1.033000000000000000e+03,-1.960000000000000000e+02,2.157000000000000000e+03,1.687300000000000000e+04,-7.750000000000000000e+02,4.259000000000000000e+03,7.871000000000000000e+03,9.215000000000000000e+03,-1.292200000000000000e+04,3.920000000000000000e+03,-5.768000000000000000e+03,-4.792000000000000000e+03,6.707000000000000000e+03,-9.670000000000000000e+03,-5.171000000000000000e+03,1.416000000000000000e+03,-7.057000000000000000e+03,-3.964000000000000000e+03,-2.555000000000000000e+03,9.970000000000000000e+02,-1.806000000000000000e+03,-4.735000000000000000e+03,-8.400000000000000000e+01,-1.900000000000000000e+01,9.400000000000000000e+01,-9.300000000000000000e+01,-8.880000000000000000e+02,1.830000000000000000e+02,-6.160000000000000000e+02,4.970000000000000000e+02,6.029000000000000000e+03,1.857100000000000000e+04,4.315000000000000000e+03,1.700000000000000000e+03,-1.518000000000000000e+03,1.405000000000000000e+03,-5.728000000000000000e+03,-5.706000000000000000e+03,1.048100000000000000e+04,-1.565000000000000000e+03,-9.280000000000000000e+02,-3.762000000000000000e+03,1.760000000000000000e+03,-4.058000000000000000e+03,-1.477700000000000000e+04,-4.921000000000000000e+03,5.360000000000000000e+03,-1.125000000000000000e+03,-4.189000000000000000e+03,-9.230000000000000000e+02,-1.620000000000000000e+02,0.000000000000000000e+00,0.000000000000000000e+00,0.000000000000000000e+00,0.000000000000000000e+00,4.780000000000000000e+02,3.150000000000000000e+02,6.700000000000000000e+02,-1.280000000000000000e+02,7.731000000000000000e+03,4.810000000000000000e+02,1.218000000000000000e+03,-8.520000000000000000e+02,1.316700000000000000e+04,8.658000000000000000e+03,3.941000000000000000e+03,-1.614000000000000000e+03,-1.800000000000000000e+01,-3.350000000000000000e+02,-1.077700000000000000e+04,-1.311800000000000000e+04,-8.860000000000000000e+03,-2.155000000000000000e+03,9.724000000000000000e+03,8.828000000000000000e+03,-6.470000000000000000e+02,-3.200000000000000000e+01,9.300000000000000000e+02,-8.200000000000000000e+01,0.000000000000000000e+00,0.000000000000000000e+00,0.000000000000000000e+00,0.000000000000000000e+00,-9.100000000000000000e+01,-1.670000000000000000e+02,1.400000000000000000e+01,-4.970000000000000000e+02,-1.330000000000000000e+03,-4.860000000000000000e+03,-3.300000000000000000e+03,-2.343000000000000000e+03,-4.606000000000000000e+03,-1.703000000000000000e+03,-4.599000000000000000e+03,-8.295000000000000000e+03,-5.908000000000000000e+03,-4.457000000000000000e+03,-6.214000000000000000e+03,-8.062000000000000000e+03,-7.131000000000000000e+03,-1.607000000000000000e+03,1.697000000000000000e+03,1.597000000000000000e+03,1.431000000000000000e+03,3.090000000000000000e+02,-6.110000000000000000e+02,-1.538000000000000000e+03,0.000000000000000000e+00,0.000000000000000000e+00,0.000000000000000000e+00,0.000000000000000000e+00,7.340000000000000000e+02,1.050000000000000000e+02,5.590000000000000000e+02,8.160000000000000000e+02,3.440000000000000000e+02,-8.900000000000000000e+01,-5.780000000000000000e+02,3.740000000000000000e+02,-2.095000000000000000e+03,-8.900000000000000000e+01,-5.500000000000000000e+01,-8.330000000000000000e+02,-1.658000000000000000e+03,-2.367000000000000000e+03,-2.536000000000000000e+03,-3.110000000000000000e+03,-4.370000000000000000e+02,-5.600000000000000000e+02,-1.029000000000000000e+03,-4.630000000000000000e+02,2.620000000000000000e+02,-3.660000000000000000e+02,-4.030000000000000000e+02,-5.300000000000000000e+01,0.000000000000000000e+00,0.000000000000000000e+00,0.000000000000000000e+00,0.000000000000000000e+00,-5.400000000000000000e+02
4.199999999999953104e+00,-1.300000000000000355e+01,4.040000000000028280e+01,-5.850000000000000000e+01,-1.718000000000004945e+02,-1.025000000000001563e+02,-4.259999999999975984e+01,-6.209999999999991616e+01,1.742000000000007560e+02,-1.862999999999996419e+02,5.310000000000000142e+01,-9.170000000000163709e+01,-8.599999999999972999e+01,-8.370000000000042917e+01,-2.707000000000014666e+02,1.679999999999992326e+02,-7.899999999999997158e+01,-2.446000000000007901e+02,-2.326999999999990507e+02,1.365000000000002274e+02,-2.107000000000003297e+02,-1.176000000000000512e+02,-2.844000000000006594e+02,-6.989999999999989200e+01,-1.400000000000000178e+01,-7.600000000000000533e+00,-5.500000000000000888e+00,-1.180000000000000249e+01,-8.060000000000015064e+01,-1.120000000000005116e+02,9.029999999999986926e+01,-8.960000000000033538e+01,-8.219999999999996021e+01,1.029999999999995097e+01,-6.610000000000009379e+01,2.439999999999997726e+01,-3.130000000000000071e+01,1.924999999999998010e+02,-2.062000000000000455e+02,-3.160999999999971237e+02,-1.187999999999997556e+02,3.820000000000001705e+01,2.250000000000055778e+01,-4.716999999999994770e+02,3.199000000000002046e+02,-2.433000000000023704e+02,-1.164999999999991900e+02,1.000000000000177192e+00,-5.510000000000081144e+01,-1.960000000000002274e+02,-1.620999999999997101e+02,1.991999999999999602e+02,-3.960000000000002274e+01,-4.620000000000000284e+01,-1.839999999999999858e+01,-2.139999999999998437e+01,-4.559999999999975273e+01,2.060000000000000497e+01,3.319999999999995310e+01,-6.479999999999982663e+01,8.900000000000007105e+01,4.700000000000008171e+00,-1.769000000000001478e+02,1.090000000000002345e+01,-1.087000000000014808e+02,1.461000000000007617e+02,-1.434999999999998295e+02,4.220000000000014495e+01,-3.060000000000004405e+01,-5.752999999999969987e+02,-1.102999999999999403e+02,1.552000000000009550e+02,-8.660000000000060538e+01,-2.373000000000000398e+02,-7.279999999999954241e+01,-5.438999999999962256e+02,5.990000000000004832e+01,1.449999999999996305e+02,-3.076999999999991360e+02,-2.744000000000009436e+02,-1.570000000000000107e+01,-6.300000000000001599e+00,-5.199999999999999289e+00,-4.080000000000001137e+01,-7.809999999999949694e+01,3.040000000000000213e+01,-6.520000000000010232e+01,-6.590000000000014779e+01,-8.750000000000009948e+01,5.050000000000003553e+01,-2.650000000000001776e+01,4.529999999999990479e+01,6.770000000000038654e+01,-1.331000000000002785e+02,-2.610999999999991701e+02,-2.166999999999992781e+02,7.202000000000015234e+02,5.563000000000034788e+02,2.584000000000079922e+02,-9.420000000000035811e+01,-1.225000000000006253e+02,-1.358000000000011767e+02,3.830999999999996817e+02,-7.030000000000022737e+02,-3.368000000000018872e+02,-4.030000000000022453e+01,-4.634000000000008299e+02,4.465999999999969532e+02,-6.210000000000003695e+01,-5.730000000000003979e+01,-6.799999999999995381e+00,-4.399999999999999467e+00,-3.000000000000015987e+01,-6.189999999999986358e+01,-8.899999999999998579e+00,-3.240000000000003411e+01,-4.230000000000014779e+02,-1.914999999999994884e+02,1.700000000000003126e+02,-4.239999999999999858e+01,1.547000000000006992e+02,-3.947000000000003297e+02,-5.425999999999982037e+02,-4.313999999999914507e+02,2.295999999999997954e+02,-5.490000000000036096e+01,8.749999999999997158e+01,-8.381000000000077534e+02,-4.216000000000000796e+02,2.214999999999996305e+02,7.608000000000066620e+02,4.210999999999979195e+02,-4.521999999999997044e+02,-9.899999999997870503e+00,-7.554000000000061164e+02,-4.706000000000028081e+02,-1.299999999999999645e+01,-6.700000000000001066e+00,-3.130000000000002913e+01,-1.960000000000000142e+01,8.030000000000009663e+01,-3.169999999999976126e+01,1.720000000000022311e+01,1.547000000000002728e+02,-6.765999999999994543e+02,-9.107999999999989313e+02,3.056000000000007049e+02,6.756000000000037744e+02,-5.789999999999962483e+02,-5.309999999999943299e+01,-1.139999999999995737e+02,5.328999999999857664e+02,-5.044999999999987494e+02,-3.181999999999998181e+02,-3.750999999999996248e+02,-2.640000000000001137e+02,1.738399999999997362e+03,-4.454000000000014552e+02,-8.294000000000087311e+02,8.199999999999972999e+01,-2.863999999999998067e+02,-4.290000000000000000e+02,-1.122600000000004002e+03,-3.975999999999951910e+02,-3.379999999999998295e+02,-8.790000000000006253e+01,-4.209999999999999432e+01,-4.140000000000003411e+01,-3.439999999999999858e+01,8.519999999999986073e+01,-6.899999999999974420e+01,-7.340000000000013358e+01,-5.891999999999985675e+02,-4.806000000000000796e+02,4.434999999999978968e+02,7.375999999999963848e+02,-1.290000000000014211e+02,1.025500000000005002e+03,8.350000000000000000e+01,2.885000000000032401e+02,-4.770000000000095497e+02,5.501000000000001364e+02,2.650000000000046541e+01,-3.038999999999993520e+02,-4.304999999999986926e+02,-1.935999999999980616e+02,4.528000000000012619e+02,-5.554999999999904503e+02,2.725999999999976353e+02,-8.699999999999954525e+02,-1.303000000000009493e+02,-1.929999999999990123e+01,-9.174000000000003183e+02,-1.142000000000000028e+02,-3.500000000000000888e+00,-1.280000000000000249e+01,3.479999999999998295e+01,2.409999999999997300e+01,-1.283000000000001251e+02,7.091999999999965212e+02,4.909999999999988631e+02,2.786999999999998181e+02,5.981999999999995907e+02,1.782999999999996135e+02,4.660000000000240306e+01,1.189999999999993889e+02,1.847000000000008129e+02,5.300000000000455458e+00,6.948000000000007503e+02,-3.267999999999974534e+02,1.624999999999975557e+02,8.965000000000035243e+02,1.752999999999997272e+02,2.218000000000026262e+02,4.891000000000036607e+02,-3.659999999999999432e+02,5.685000000000022737e+02,-6.906000000000037744e+02,-3.833000000000034220e+02,5.249999999999959073e+02,-8.900000000000001137e+02,-5.780000000000000426e+01,-2.279999999999998295e+01,-5.469999999999997442e+01,5.520000000000027995e+01,1.429999999999988631e+02,1.548999999999995794e+02,4.907000000000013529e+02,7.093999999999997499e+02,4.240000000000036096e+01,-7.690000000000007958e+02,-4.305999999999951910e+02,1.377999999999995850e+02,-1.264499999999994088e+03,-4.310999999999999659e+02,-1.222000000000016939e+02,-2.859000000000006025e+02,1.847000000000004718e+02,-4.343000000000008072e+02,-2.963000000000004093e+02,-4.982000000000017508e+02,2.607999999999967713e+02,3.261999999999936222e+02,4.965999999999951342e+02,-1.291000000000002217e+02,-1.033999999999991388e+02,-7.690000000000142677e+01,-1.430000000000179483e+01,-7.592999999999998408e+02,-3.394999999999999432e+02,-2.820000000000001705e+01,-2.609999999999999787e+01,1.133999999999999631e+02,-9.819999999999986073e+01,3.169999999999998863e+01,5.739000000000004320e+02,1.254500000000003183e+03,-8.420000000000132445e+01,-5.193000000000016598e+02,5.315999999999976353e+02,8.216999999999962938e+02,-1.107000000000001450e+02,1.256400000000000318e+03,-9.689000000000064574e+02,2.928999999999981583e+02,-4.362000000000030013e+02,5.081999999999975444e+02,5.242000000000036835e+02,1.485000000000021885e+02,-1.817000000000002728e+02,-9.899999999999793090e+02,2.202999999999976239e+02,1.014800000000002569e+03,4.624999999999993179e+02,-7.490000000000262048e+01,-6.417999999999915417e+02,-6.862000000000000455e+02,-2.348000000000000682e+02,-2.900000000000003197e+01,-7.549999999999997158e+01,5.619999999999974705e+01,-7.049999999999987210e+01,1.541000000000001364e+02,3.046999999999952138e+02,6.219999999999997726e+02,-1.873000000000015461e+02,2.457999999999994714e+02,-2.479000000000011426e+02,-1.069199999999985948e+03,-6.639999999999682245e+01,-6.252999999999987040e+02,-1.273200000000006185e+03,-2.339999999999968168e+02,1.713999999999972772e+02,-6.729000000000022510e+02,1.327600000000000819e+03,1.536999999999998408e+03,4.608999999999988972e+02,3.348999999999958277e+02,4.241999999999936790e+02,-1.644999999999994600e+02,1.589999999999995453e+02,-4.155000000000000000e+02,4.279999999999979536e+02,-2.536999999999999886e+02,-2.305000000000000000e+02,-1.569999999999998508e+01,3.899999999999995026e+00,4.059999999999995879e+01,1.730000000000010374e+01,1.366000000000004491e+02,2.039000000000010573e+02,-1.189999999999980389e+02,-5.066999999999982833e+02,-2.997000000000072646e+02,-1.398699999999988222e+03,7.579999999999999716e+01,-7.696999999999943611e+02,-4.986999999999953843e+02,-4.054999999999998863e+02,-2.039000000000005173e+02,-1.441799999999997681e+03,7.074999999999912461e+02,1.022000000000000568e+03,-8.233000000000072305e+02,4.654000000000012847e+02,1.623300000000007685e+03,-2.103000000000015177e+02,4.000000000000070486e+02,2.626999999999992497e+02,-7.232999999999938154e+02,-4.445000000000005684e+02,-4.200000000000001421e+01,-2.139999999999998010e+02,-3.560000000000000853e+01,-3.900000000000001688e+00,8.999999999999971578e+01,2.076000000000002785e+02,6.200000000000031264e+00,-5.400000000000005684e+00,-4.370000000000055707e+02,-9.914000000000012278e+02,-1.770899999999990314e+03,-1.188900000000005321e+03,2.990000000000004547e+02,-8.157000000000002728e+02,-7.540000000000183888e+01,-1.400699999999997772e+03,9.190999999999903594e+02,9.463000000000057526e+02,-1.030000000000006111e+02,-2.427000000000011823e+02,2.863999999999998067e+02,-6.283999999999995225e+02,8.125000000000002274e+02,-2.184000000000018815e+02,-5.445000000000021600e+02,4.668999999999955435e+02,-1.806999999999987665e+02,-9.296000000000045702e+02,-7.750000000000007105e+01,9.699999999999995737e+00,-2.750000000000000355e+01,-3.680000000000001847e+01,5.969999999999961204e+01,-4.610000000000003695e+01,-6.959999999999992326e+01,-1.259000000000007731e+02,-5.801999999999991360e+02,-1.252900000000001683e+03,-6.570000000000095497e+01,8.296999999999994770e+02,-1.624999999999996589e+02,-2.033000000000012335e+02,9.998999999999994088e+02,-5.674000000000017963e+02,-1.179300000000013824e+03,-1.679000000000001478e+02,1.081899999999996908e+03,7.772999999999935881e+02,-6.589999999999827196e+01,6.669999999999904503e+02,-1.662000000000006992e+02,-1.191399999999998727e+03,6.479000000000011141e+02,-7.358999999999991815e+02,-5.370000000000046612e+02,-4.335000000000006253e+02,-1.332999999999999829e+02,-5.429999999999999716e+01,-4.500000000000002665e+00,-2.250000000000000000e+01,3.199999999999984013e+01,3.540000000000006253e+01,6.540000000000037517e+01,-8.030000000000087823e+01,-2.177000000000001876e+02,-4.901000000000009891e+02,9.731999999999976581e+02,4.978999999999945203e+02,-4.130999999999966121e+02,-2.124000000000017963e+02,1.590000000000004121e+01,6.004000000000045247e+02,1.480999999999996817e+02,1.042699999999999591e+03,-1.106399999999998954e+03,-5.728999999999996362e+02,-9.299999999999886313e+01,-1.922000000000060709e+02,1.751100000000017189e+03,-4.810000000000026148e+02,5.562999999999992724e+02,1.699999999999947065e+01,-3.167999999999985334e+02,3.676000000000012733e+02,1.052999999999999545e+02,-9.269999999999994600e+01,2.409999999999997655e+01,1.899999999999998135e+00,1.310000000000003695e+02,-1.500000000000042633e+00,-1.446999999999993065e+02,-1.723000000000000114e+02,-4.474000000000007162e+02,-6.945000000000019327e+02,-2.389999999999993747e+02,-1.420900000000003729e+03,-3.995999999999990564e+02,2.725999999999987153e+02,-1.628300000000007230e+03,2.770000000000054996e+01,6.779999999999863292e+01,-3.111999999999993634e+02,3.755999999999969532e+02,1.044800000000002456e+03,8.020999999999901320e+02,-1.133099999999992860e+03,-5.058000000000000682e+02,3.590000000000033964e+01,-1.443400000000006230e+03,5.326000000000015007e+02,6.972000000000007276e+02,-3.270000000000025864e+01,8.136000000000000227e+02,2.089999999999997726e+01,-1.570000000000000107e+01,-2.909999999999994458e+01,1.320000000000036167e+01,1.054999999999999005e+02,-1.300000000000023137e+00,-3.111000000000004206e+02,-6.259999999999990905e+02,-2.701000000000010459e+02,-8.449999999999984368e+01,-7.490999999999989996e+02,-8.095000000000012506e+02,-1.160000000000001705e+02,-4.303999999999929287e+02,-1.299799999999997453e+03,-2.576999999999981128e+02,-1.167999999999971266e+02,5.745999999999932015e+02,-1.069999999999988916e+02,8.904999999999984084e+02,-6.835999999999984311e+02,3.899999999998696509e+00,5.322000000000026603e+02,-7.330000000000018190e+02,7.386000000000011596e+02,4.389999999999947988e+01,-4.736000000000003070e+02,3.164000000000000909e+02,-1.716999999999999602e+02,-1.159999999999999609e+01,-3.050000000000000711e+01,-1.801999999999996476e+02,8.670000000000042917e+01,-6.490000000000020464e+01,-5.959999999999999432e+01,2.069999999999990905e+02,5.149999999999998863e+02,5.331000000000015007e+02,2.753999999999999773e+02,1.821000000000019838e+02,5.865999999999976353e+02,-1.147999999999997556e+02,-1.771900000000001455e+03,-1.142099999999999454e+03,-5.733999999999977035e+02,-1.058199999999988904e+03,-1.095800000000010414e+03,-9.812999999999993861e+02,5.124999999999955662e+02,1.081000000000002274e+03,1.732000000000022624e+02,-1.171299999999997453e+03,1.283400000000005321e+03,-6.829999999999870397e+01,-6.672999999999954071e+02,2.078000000000004945e+02,-2.500999999999998238e+02,-1.286999999999999886e+02,-4.759999999999996589e+01,-6.909999999999983800e+01,-6.730000000000025295e+01,-2.893999999999990678e+02,5.466000000000007049e+02,1.180899999999996226e+03,1.595000000000001990e+02,-4.981999999999981696e+02,-3.938999999999974193e+02,-2.004999999999986642e+02,-5.218000000000007503e+02,1.905999999999979480e+02,7.681999999999958391e+02,-1.745499999999992951e+03,-2.006999999999998636e+03,-1.574199999999999591e+03,-3.520000000000131735e+01,-1.102099999999992406e+03,-1.221000000000003922e+02,4.783999999999961688e+02,7.194000000000013415e+02,-1.194100000000012187e+03,9.809000000000103228e+02,-3.961999999999990223e+02,1.549999999999967848e+01,-1.330000000000001421e+02,-1.094000000000001052e+02,-1.179999999999999893e+01,-1.080999999999998948e+02,8.360000000000012221e+01,1.438999999999993236e+02,-4.283000000000010914e+02,7.540000000000040359e+01,7.582999999999922238e+02,9.664000000000049795e+02,-5.986999999999965212e+02,-3.804000000000061732e+02,-2.329999999999990905e+02,-1.218999999999983146e+02,-5.541000000000030923e+02,-5.931000000000052523e+02,-1.569999999999980673e+02,7.795000000000013642e+02,1.303000000000018304e+02,9.570000000000043201e+02,1.416900000000007367e+03,-1.073600000000005139e+03,-1.200000000000015632e+01,5.999999999999904503e+02,1.435000000000010800e+02,3.669999999999987494e+01,4.490999999999988290e+02,2.443999999999988972e+02,3.030000000000003979e+02,-1.826000000000002501e+02,-8.949999999999995737e+01,3.000000000000001776e+00,5.600000000000070699e+00,-5.070000000000032969e+01,-3.421000000000029786e+02,4.754999999999986358e+02,-6.360000000000016485e+01,1.524899999999999181e+03,6.363999999999969077e+02,1.173800000000006094e+03,-7.700000000000062528e+01,1.305000000000013927e+02,-1.719999999999986926e+02,-6.241999999999995907e+02,1.054999999999995168e+02,-7.542000000000047066e+02,-5.181000000000003638e+02,-8.886999999999986812e+02,6.091999999999977717e+02,-3.779000000000101522e+02,-8.494999999999998863e+02,-1.616000000000005059e+02,1.194299999999965621e+03,7.579999999999973852e+02,2.922000000000054456e+02,1.159999999999752163e+01,7.089999999999992042e+01,-1.173000000000001108e+02,-2.830000000000001492e+01,-3.769999999999997442e+01,-5.650000000000002842e+01,-3.320000000000005969e+01,3.399000000000020236e+02,6.079999999999989768e+02,4.944000000000002615e+02,-2.710000000000072617e+01,-3.837000000000007276e+02,8.489999999999976126e+02,-7.449000000000000909e+02,-3.927999999999991019e+02,4.611999999999975444e+02,-1.334700000000008686e+03,4.529999999999965610e+01,-1.900999999999936279e+02,-9.890999999999962711e+02,-1.315999999999986812e+03,1.677699999999990268e+03,-8.100000000002268052e+00,-1.166000000000010459e+02,1.269999999999924967e+01,-4.378000000000002956e+02,2.607999999999993861e+02,5.483999999999987267e+02,-1.665000000000000000e+02,-4.739000000000002046e+02,-1.200000000000000000e+02,4.999999999999984901e+00,-2.499999999999996092e+01,-1.918000000000003524e+02,1.799999999999985079e+01,-7.360000000000026432e+01,2.449000000000010573e+02,1.026499999999997044e+03,-3.545000000000014779e+02,-2.717000000000028308e+02,-1.150100000000000819e+03,-1.983999999999976467e+02,1.411000000000004491e+02,8.411999999999937927e+02,1.106300000000013370e+03,-6.165999999999992269e+02,5.162000000000000455e+02,4.763000000000001251e+02,4.393000000000038199e+02,-4.199000000000003183e+02,-4.989999999999989910e+01,9.109999999999996589e+01,-8.956999999999922011e+02,5.715000000000001137e+02,-4.528000000000043315e+02,-6.297999999999972260e+02,2.765999999999992838e+02,-1.046000000000000369e+02,-2.319999999999999218e+01,-2.639999999999999503e+01,-1.002999999999998977e+02,6.690000000000000568e+01,-1.032999999999993719e+02,-1.959999999999995879e+01,2.157000000000010402e+02,1.687299999999992451e+03,-7.749999999999803890e+01,4.258999999999986130e+02,7.870999999999954753e+02,9.215000000000023874e+02,-1.292200000000007321e+03,3.919999999999973852e+02,-5.767999999999889269e+02,-4.791999999999979991e+02,6.707000000000065256e+02,-9.670000000000037517e+02,-5.171000000000036607e+02,1.416000000000013017e+02,-7.056999999999959527e+02,-3.963999999999984425e+02,-2.555000000000002274e+02,9.969999999999767226e+01,-1.806000000000003354e+02,-4.734999999999984652e+02,-8.399999999999801403e+00,-1.899999999999998135e+00,9.400000000000016342e+00,-9.299999999999997158e+00,-8.880000000000011084e+01,1.830000000000007532e+01,-6.160000000000001563e+01,4.969999999999991047e+01,6.029000000000004320e+02,1.857099999999991496e+03,4.314999999999981242e+02,1.700000000000005116e+02,-1.518000000000000398e+02,1.405000000000011084e+02,-5.728000000000017735e+02,-5.706000000000007049e+02,1.048100000000001501e+03,-1.564999999999999716e+02,-9.279999999999874660e+01,-3.762000000000043656e+02,1.759999999999996874e+02,-4.058000000000016030e+02,-1.477699999999996635e+03,-4.920999999999988859e+02,5.360000000000012506e+02,-1.125000000000002416e+02,-4.188999999999993520e+02,-9.229999999999992610e+01,-1.619999999999990337e+01,0.000000000000000000e+00,0.000000000000000000e+00,0.000000000000000000e+00,0.000000000000000000e+00,4.780000000000016769e+01,3.150000000000003197e+01,6.699999999999991473e+01,-1.279999999999997584e+01,7.731000000000001364e+02,4.810000000000003695e+01,1.217999999999999829e+02,-8.519999999999974705e+01,1.316700000000005957e+03,8.658000000000020009e+02,3.940999999999974648e+02,-1.614000000000005173e+02,-1.799999999999632561e+00,-3.350000000000088107e+01,-1.077700000000003229e+03,-1.311800000000001774e+03,-8.860000000000004547e+02,-2.155000000000003979e+02,9.724000000000008868e+02,8.827999999999992724e+02,-6.469999999999986073e+01,-3.199999999999996625e+00,9.299999999999990052e+01,-8.199999999999993960e+00,0.000000000000000000e+00,0.000000000000000000e+00,0.000000000000000000e+00,0.000000000000000000e+00,-9.099999999999971223e+00,-1.669999999999998508e+01,1.399999999999999023e+00,-4.970000000000000284e+01,-1.330000000000000853e+02,-4.859999999999994884e+02,-3.300000000000011369e+02,-2.342999999999994429e+02,-4.606000000000009891e+02,-1.703000000000000398e+02,-4.598999999999996930e+02,-8.294999999999989768e+02,-5.907999999999993861e+02,-4.457000000000015234e+02,-6.214000000000011141e+02,-8.062000000000031150e+02,-7.131000000000000227e+02,-1.607000000000004150e+02,1.697000000000001307e+02,1.597000000000000171e+02,1.431000000000000512e+02,3.089999999999996660e+01,-6.110000000000009379e+01,-1.538000000000002956e+02,0.000000000000000000e+00,0.000000000000000000e+00,0.000000000000000000e+00,0.000000000000000000e+00,7.339999999999977831e+01,1.050000000000000178e+01,5.590000000000001279e+01,8.160000000000003695e+01,3.440000000000002700e+01,-8.899999999999986144e+00,-5.780000000000008242e+01,3.739999999999998437e+01,-2.094999999999995168e+02,-8.900000000000035882e+00,-5.499999999999822364e+00,-8.329999999999935767e+01,-1.658000000000002103e+02,-2.367000000000013245e+02,-2.535999999999997385e+02,-3.110000000000005684e+02,-4.369999999999996732e+01,-5.599999999999983658e+01,-1.029000000000005457e+02,-4.630000000000015348e+01,2.619999999999999574e+01,-3.659999999999993747e+01,-4.030000000000001137e+01,-5.299999999999995381e+00,0.000000000000000000e+00,0.000000000000000000e+00,0.000000000000000000e+00,0.000000000000000000e+00,-5.400000000000049738e+01
1.319999999999991847e+00,-1.300000000000002043e+00,4.039999999999971614e+00,-5.850000000000007638e+00,-1.717999999999999616e+01,-1.024999999999999467e+01,-4.259999999999996234e+00,-6.210000000000005294e+00,1.741999999999986315e+01,-1.862999999999994927e+01,5.309999999999999609e+00,-9.169999999999880913e+00,-8.599999999999992539e+00,-8.370000000000024087e+00,-2.707000000000012463e+01,1.679999999999999361e+01,-7.899999999999975486e+00,-2.446000000000006480e+01,-2.327000000000003155e+01,1.365000000000010161e+01,-2.107000000000001805e+01,-1.175999999999991807e+01,-2.843999999999993378e+01,-6.989999999999981561e+00,-1.400000000000000799e+00,-7.600000000000002309e-01,-5.500000000000001554e-01,-1.180000000000000160e+00,-8.060000000000005826e+00,-1.120000000000005436e+01,9.029999999999994031e+00,-8.959999999999995524e+00,-8.220000000000009521e+00,1.030000000000008242e+00,-6.609999999999985221e+00,2.439999999999999947e+00,-3.129999999999995897e+00,1.925000000000007461e+01,-2.062000000000001165e+01,-3.160999999999991772e+01,-1.188000000000003453e+01,3.819999999999998064e+00,2.249999999999952038e+00,-4.717000000000003013e+01,3.199000000000002331e+01,-2.433000000000046015e+01,-1.165000000000009095e+01,1.000000000000158262e-01,-5.509999999999958931e+00,-1.959999999999992681e+01,-1.620999999999975572e+01,1.992000000000000526e+01,-3.960000000000000853e+00,-4.620000000000000107e+00,-1.840000000000000746e+00,-2.140000000000001013e+00,-4.560000000000000497e+00,2.060000000000001386e+00,3.320000000000014495e+00,-6.480000000000014637e+00,8.900000000000002132e+00,4.700000000000005285e-01,-1.769000000000000838e+01,1.089999999999999414e+00,-1.086999999999999567e+01,1.460999999999997989e+01,-1.434999999999998188e+01,4.219999999999996199e+00,-3.059999999999968523e+00,-5.752999999999981640e+01,-1.102999999999995140e+01,1.551999999999998359e+01,-8.659999999999891784e+00,-2.373000000000019227e+01,-7.279999999999976268e+00,-5.438999999999996504e+01,5.990000000000082814e+00,1.450000000000012790e+01,-3.076999999999991786e+01,-2.743999999999987693e+01,-1.570000000000000284e+00,-6.300000000000000044e-01,-5.200000000000002398e-01,-4.080000000000000071e+00,-7.809999999999980069e+00,3.040000000000007585e+00,-6.520000000000003126e+00,-6.589999999999987423e+00,-8.749999999999984013e+00,5.049999999999989164e+00,-2.650000000000000355e+00,4.530000000000003801e+00,6.770000000000013785e+00,-1.330999999999996675e+01,-2.610999999999989285e+01,-2.167000000000014381e+01,7.201999999999985391e+01,5.562999999999989598e+01,2.583999999999986841e+01,-9.420000000000047891e+00,-1.224999999999967670e+01,-1.358000000000002849e+01,3.830999999999993122e+01,-7.029999999999985505e+01,-3.368000000000043315e+01,-4.029999999999965610e+00,-4.634000000000004604e+01,4.465999999999969106e+01,-6.210000000000000853e+00,-5.730000000000003979e+00,-6.800000000000001599e-01,-4.400000000000001688e-01,-2.999999999999994227e+00,-6.190000000000010161e+00,-8.900000000000007905e-01,-3.239999999999977565e+00,-4.229999999999996163e+01,-1.914999999999999858e+01,1.699999999999995737e+01,-4.239999999999995772e+00,1.546999999999989761e+01,-3.946999999999987807e+01,-5.426000000000056644e+01,-4.313999999999955293e+01,2.296000000000007546e+01,-5.489999999999958469e+00,8.749999999999710454e+00,-8.380999999999966121e+01,-4.215999999999998948e+01,2.214999999999967883e+01,7.608000000000052410e+01,4.210999999999975785e+01,-4.522000000000032571e+01,-9.899999999999223865e-01,-7.554000000000000625e+01,-4.705999999999967542e+01,-1.300000000000000266e+00,-6.700000000000001510e-01,-3.129999999999998561e+00,-1.960000000000001075e+00,8.029999999999995808e+00,-3.170000000000019025e+00,1.720000000000015739e+00,1.547000000000004860e+01,-6.766000000000008185e+01,-9.107999999999977092e+01,3.056000000000005201e+01,6.756000000000007333e+01,-5.789999999999986358e+01,-5.309999999999988063e+00,-1.140000000000015135e+01,5.328999999999990678e+01,-5.044999999999975415e+01,-3.181999999999978712e+01,-3.750999999999985590e+01,-2.639999999999959002e+01,1.738400000000006571e+02,-4.454000000000047521e+01,-8.294000000000016826e+01,8.200000000000171596e+00,-2.864000000000012491e+01,-4.290000000000051017e+01,-1.122599999999988682e+02,-3.976000000000102830e+01,-3.380000000000001847e+01,-8.789999999999997371e+00,-4.209999999999999076e+00,-4.139999999999998792e+00,-3.440000000000004388e+00,8.520000000000015561e+00,-6.900000000000028777e+00,-7.339999999999982094e+00,-5.892000000000000881e+01,-4.806000000000011596e+01,4.434999999999999432e+01,7.376000000000033197e+01,-1.290000000000001279e+01,1.025499999999997414e+02,8.350000000000031619e+00,2.885000000000014353e+01,-4.770000000000017337e+01,5.500999999999994827e+01,2.650000000000179323e+00,-3.039000000000015334e+01,-4.304999999999991900e+01,-1.935999999999999588e+01,4.528000000000004377e+01,-5.554999999999960636e+01,2.725999999999964629e+01,-8.700000000000072475e+01,-1.303000000000012015e+01,-1.929999999999987725e+00,-9.173999999999998067e+01,-1.142000000000000348e+01,-3.500000000000000888e-01,-1.280000000000000249e+00,3.480000000000010640e+00,2.409999999999998366e+00,-1.283000000000000540e+01,7.092000000000021487e+01,4.909999999999999432e+01,2.786999999999994415e+01,5.981999999999989370e+01,1.783000000000008356e+01,4.659999999999972609e+00,1.189999999999992042e+01,1.847000000000000242e+01,5.300000000000616440e-01,6.948000000000038767e+01,-3.267999999999963734e+01,1.624999999999964473e+01,8.965000000000050306e+01,1.753000000000023562e+01,2.217999999999970839e+01,4.890999999999998948e+01,-3.659999999999998721e+01,5.685000000000076881e+01,-6.905999999999986017e+01,-3.833000000000004093e+01,5.249999999999968026e+01,-8.900000000000004263e+01,-5.779999999999998472e+00,-2.280000000000001137e+00,-5.469999999999997975e+00,5.519999999999952500e+00,1.429999999999999716e+01,1.548999999999998778e+01,4.906999999999982265e+01,7.094000000000023931e+01,4.239999999999968239e+00,-7.689999999999987779e+01,-4.306000000000025096e+01,1.378000000000007397e+01,-1.264500000000006708e+02,-4.310999999999980048e+01,-1.222000000000000774e+01,-2.859000000000022368e+01,1.847000000000027242e+01,-4.342999999999981497e+01,-2.962999999999987111e+01,-4.981999999999997897e+01,2.607999999999974250e+01,3.261999999999957112e+01,4.966000000000003212e+01,-1.290999999999999304e+01,-1.034000000000008868e+01,-7.689999999999758806e+00,-1.429999999999847171e+00,-7.592999999999997840e+01,-3.394999999999999574e+01,-2.820000000000000284e+00,-2.609999999999999432e+00,1.134000000000006736e+01,-9.819999999999973639e+00,3.170000000000001705e+00,5.739000000000042689e+01,1.254500000000000597e+02,-8.420000000000088747e+00,-5.192999999999993577e+01,5.315999999999910131e+01,8.217000000000008697e+01,-1.106999999999990081e+01,1.256399999999996169e+02,-9.689000000000105217e+01,2.928999999999988546e+01,-4.362000000000025324e+01,5.081999999999963080e+01,5.242000000000036408e+01,1.485000000000009912e+01,-1.816999999999983118e+01,-9.900000000000059686e+01,2.203000000000039904e+01,1.014800000000002171e+02,4.624999999999997158e+01,-7.489999999999922053e+00,-6.418000000000027683e+01,-6.861999999999997613e+01,-2.348000000000001464e+01,-2.899999999999998135e+00,-7.549999999999997158e+00,5.619999999999996554e+00,-7.049999999999998934e+00,1.541000000000002679e+01,3.046999999999986386e+01,6.219999999999977547e+01,-1.872999999999997911e+01,2.458000000000008356e+01,-2.478999999999959414e+01,-1.069199999999988222e+02,-6.640000000000095604e+00,-6.252999999999993719e+01,-1.273199999999992826e+02,-2.340000000000003766e+01,1.714000000000005386e+01,-6.729000000000029047e+01,1.327599999999985130e+02,1.536999999999998465e+02,4.609000000000069264e+01,3.348999999999992383e+01,4.242000000000005144e+01,-1.644999999999996732e+01,1.590000000000007496e+01,-4.154999999999995453e+01,4.279999999999996163e+01,-2.537000000000000455e+01,-2.305000000000000071e+01,-1.570000000000000728e+00,3.899999999999999023e-01,4.060000000000026255e+00,1.730000000000001092e+00,1.366000000000000902e+01,2.038999999999997215e+01,-1.189999999999986890e+01,-5.066999999999966775e+01,-2.997000000000000597e+01,-1.398699999999988108e+02,7.580000000000240767e+00,-7.696999999999907516e+01,-4.986999999999954269e+01,-4.054999999999996163e+01,-2.038999999999983004e+01,-1.441799999999992110e+02,7.074999999999951683e+01,1.022000000000001876e+02,-8.233000000000106411e+01,4.653999999999992099e+01,1.623300000000046737e+02,-2.103000000000007574e+01,3.999999999999995737e+01,2.626999999999985391e+01,-7.232999999999984198e+01,-4.444999999999981810e+01,-4.200000000000000178e+00,-2.140000000000000924e+01,-3.559999999999995612e+00,-3.899999999999995692e-01,8.999999999999923617e+00,2.075999999999994827e+01,6.199999999999992184e-01,-5.400000000000022560e-01,-4.369999999999976836e+01,-9.913999999999998636e+01,-1.770900000000004297e+02,-1.188899999999988921e+02,2.989999999999996305e+01,-8.157000000000023476e+01,-7.539999999999869473e+00,-1.400699999999997942e+02,9.190999999999978343e+01,9.462999999999908596e+01,-1.029999999999989235e+01,-2.426999999999992852e+01,2.864000000000007518e+01,-6.283999999999993236e+01,8.125000000000014211e+01,-2.183999999999954866e+01,-5.445000000000003126e+01,4.669000000000010431e+01,-1.807000000000009265e+01,-9.295999999999959584e+01,-7.750000000000005329e+00,9.700000000000007505e-01,-2.750000000000001332e+00,-3.679999999999997939e+00,5.970000000000037055e+00,-4.609999999999997655e+00,-6.960000000000015064e+00,-1.258999999999996255e+01,-5.801999999999958391e+01,-1.252899999999986420e+02,-6.570000000000121965e+00,8.296999999999989939e+01,-1.624999999999983658e+01,-2.032999999999985974e+01,9.999000000000044963e+01,-5.674000000000002331e+01,-1.179300000000003479e+02,-1.678999999999989967e+01,1.081899999999988609e+02,7.773000000000187981e+01,-6.590000000000007851e+00,6.669999999999940599e+01,-1.661999999999990507e+01,-1.191399999999992048e+02,6.478999999999975046e+01,-7.358999999999991815e+01,-5.369999999999995310e+01,-4.334999999999968878e+01,-1.333000000000001606e+01,-5.430000000000002380e+00,-4.500000000000003997e-01,-2.250000000000000888e+00,3.199999999999963762e+00,3.539999999999975167e+00,6.539999999999927205e+00,-8.030000000000018900e+00,-2.177000000000014879e+01,-4.901000000000049539e+01,9.731999999999999318e+01,4.978999999999997073e+01,-4.131000000000016570e+01,-2.123999999999994159e+01,1.590000000000064473e+00,6.003999999999988546e+01,1.480999999999997740e+01,1.042699999999981628e+02,-1.106399999999999011e+02,-5.728999999999988546e+01,-9.299999999999446487e+00,-1.922000000000006636e+01,1.751100000000006958e+02,-4.809999999999980957e+01,5.562999999999990308e+01,1.699999999999984190e+00,-3.168000000000024130e+01,3.676000000000015433e+01,1.053000000000001535e+01,-9.269999999999994245e+00,2.410000000000001030e+00,1.900000000000003630e-01,1.310000000000000142e+01,-1.499999999999985789e-01,-1.447000000000005393e+01,-1.723000000000004306e+01,-4.474000000000011568e+01,-6.945000000000030127e+01,-2.390000000000006963e+01,-1.420900000000003160e+02,-3.996000000000019980e+01,2.726000000000001577e+01,-1.628300000000005809e+02,2.770000000000062190e+00,6.780000000000303118e+00,-3.111999999999995126e+01,3.756000000000030781e+01,1.044799999999992508e+02,8.021000000000094587e+01,-1.133100000000012386e+02,-5.057999999999954355e+01,3.590000000000050928e+00,-1.443400000000002592e+02,5.326000000000004775e+01,6.972000000000012676e+01,-3.269999999999920970e+00,8.135999999999991417e+01,2.089999999999997193e+00,-1.570000000000000506e+00,-2.910000000000003251e+00,1.319999999999993401e+00,1.055000000000000071e+01,-1.300000000000011702e-01,-3.110999999999988219e+01,-6.260000000000007248e+01,-2.701000000000007972e+01,-8.450000000000025935e+00,-7.491000000000040870e+01,-8.094999999999994600e+01,-1.160000000000005471e+01,-4.303999999999999915e+01,-1.299799999999991087e+02,-2.577000000000012037e+01,-1.167999999999991978e+01,5.745999999999990848e+01,-1.070000000000003304e+01,8.905000000000036664e+01,-6.836000000000021259e+01,3.899999999999397282e-01,5.322000000000078046e+01,-7.330000000000012506e+01,7.386000000000031207e+01,4.390000000000028102e+00,-4.735999999999982180e+01,3.163999999999991175e+01,-1.716999999999999460e+01,-1.159999999999999920e+00,-3.049999999999997158e+00,-1.802000000000007418e+01,8.670000000000111839e+00,-6.489999999999978897e+00,-5.959999999999999076e+00,2.070000000000006324e+01,5.150000000000002842e+01,5.330999999999986017e+01,2.754000000000004178e+01,1.821000000000010743e+01,5.866000000000138215e+01,-1.147999999999995779e+01,-1.771900000000001114e+02,-1.142099999999996101e+02,-5.733999999999942077e+01,-1.058200000000011869e+02,-1.095799999999988188e+02,-9.813000000000045020e+01,5.124999999999998579e+01,1.081000000000008185e+02,1.732000000000030226e+01,-1.171299999999991996e+02,1.283400000000003160e+02,-6.830000000000071125e+00,-6.673000000000088505e+01,2.078000000000001180e+01,-2.500999999999999801e+01,-1.287000000000001343e+01,-4.759999999999998899e+00,-6.910000000000017017e+00,-6.729999999999998650e+00,-2.893999999999963180e+01,5.466000000000021686e+01,1.180900000000002024e+02,1.595000000000005258e+01,-4.982000000000086715e+01,-3.938999999999993662e+01,-2.004999999999982663e+01,-5.217999999999940997e+01,1.906000000000015859e+01,7.682000000000000739e+01,-1.745500000000006935e+02,-2.006999999999997044e+02,-1.574200000000021191e+02,-3.519999999999927631e+00,-1.102100000000007185e+02,-1.220999999999990848e+01,4.784000000000001762e+01,7.193999999999981299e+01,-1.194100000000003661e+02,9.809000000000034447e+01,-3.961999999999998323e+01,1.550000000000057110e+00,-1.329999999999998650e+01,-1.094000000000000306e+01,-1.180000000000000160e+00,-1.081000000000000050e+01,8.359999999999912390e+00,1.439000000000000945e+01,-4.282999999999965013e+01,7.539999999999923652e+00,7.582999999999948670e+01,9.663999999999984425e+01,-5.986999999999996902e+01,-3.804000000000018389e+01,-2.330000000000014992e+01,-1.218999999999993200e+01,-5.541000000000008185e+01,-5.931000000000032202e+01,-1.569999999999947171e+01,7.794999999999944862e+01,1.303000000000023206e+01,9.569999999999987494e+01,1.416899999999990882e+02,-1.073599999999994452e+02,-1.200000000000268185e+00,6.000000000000027001e+01,1.435000000000002451e+01,3.670000000000056328e+00,4.491000000000008185e+01,2.443999999999998352e+01,3.030000000000000782e+01,-1.825999999999999446e+01,-8.949999999999990408e+00,3.000000000000000444e-01,5.600000000000020517e-01,-5.069999999999978968e+00,-3.421000000000014296e+01,4.755000000000015348e+01,-6.360000000000004761e+00,1.524900000000002365e+02,6.363999999999990820e+01,1.173799999999996970e+02,-7.700000000000083666e+00,1.304999999999999716e+01,-1.719999999999982521e+01,-6.242000000000147253e+01,1.055000000000006644e+01,-7.541999999999998749e+01,-5.181000000000027939e+01,-8.887000000000024613e+01,6.092000000000021487e+01,-3.778999999999970782e+01,-8.494999999999990337e+01,-1.615999999999992554e+01,1.194300000000000779e+02,7.579999999999998295e+01,2.922000000000015874e+01,1.160000000000123155e+00,7.089999999999996305e+00,-1.173000000000000220e+01,-2.830000000000000071e+00,-3.770000000000001350e+00,-5.649999999999995914e+00,-3.320000000000006501e+00,3.398999999999988830e+01,6.079999999999979110e+01,4.943999999999998352e+01,-2.709999999999888054e+00,-3.836999999999999034e+01,8.489999999999932356e+01,-7.449000000000131649e+01,-3.927999999999999403e+01,4.612000000000016087e+01,-1.334699999999992883e+02,4.530000000000028670e+00,-1.901000000000042078e+01,-9.890999999999978343e+01,-1.316000000000015007e+02,1.677699999999979354e+02,-8.100000000001772449e-01,-1.166000000000002146e+01,1.270000000000003348e+00,-4.378000000000020719e+01,2.607999999999992369e+01,5.483999999999966946e+01,-1.664999999999995239e+01,-4.738999999999997215e+01,-1.199999999999999289e+01,4.999999999999987788e-01,-2.500000000000000000e+00,-1.917999999999997485e+01,1.799999999999984945e+00,-7.360000000000014531e+00,2.449000000000039634e+01,1.026499999999998067e+02,-3.545000000000006679e+01,-2.717000000000003723e+01,-1.150100000000004599e+02,-1.984000000000003894e+01,1.410999999999998522e+01,8.411999999999916611e+01,1.106299999999991428e+02,-6.166000000000019554e+01,5.162000000000000455e+01,4.762999999999977518e+01,4.393000000000078131e+01,-4.199000000000027200e+01,-4.989999999999989555e+00,9.109999999999782716e+00,-8.957000000000049056e+01,5.714999999999972857e+01,-4.528000000000049141e+01,-6.298000000000001819e+01,2.766000000000003567e+01,-1.046000000000000263e+01,-2.319999999999999840e+00,-2.639999999999999236e+00,-1.002999999999998337e+01,6.689999999999995062e+00,-1.033000000000002494e+01,-1.960000000000006182e+00,2.156999999999993278e+01,1.687299999999997056e+02,-7.750000000000017764e+00,4.258999999999983999e+01,7.871000000000036323e+01,9.214999999999953673e+01,-1.292199999999999420e+02,3.919999999999998153e+01,-5.767999999999994287e+01,-4.791999999999973880e+01,6.707000000000020634e+01,-9.669999999999970441e+01,-5.170999999999936136e+01,1.416000000000000725e+01,-7.057000000000006423e+01,-3.964000000000007873e+01,-2.555000000000010019e+01,9.969999999999973994e+00,-1.806000000000000583e+01,-4.735000000000007248e+01,-8.399999999999281375e-01,-1.900000000000010014e-01,9.399999999999977263e-01,-9.300000000000003819e-01,-8.879999999999988347e+00,1.830000000000001403e+00,-6.160000000000024123e+00,4.970000000000000639e+00,6.028999999999994941e+01,1.857100000000008606e+02,4.314999999999993463e+01,1.699999999999996803e+01,-1.517999999999999261e+01,1.405000000000010729e+01,-5.728000000000008640e+01,-5.705999999999970385e+01,1.048100000000005281e+02,-1.564999999999975877e+01,-9.280000000000008242e+00,-3.761999999999980560e+01,1.759999999999991971e+01,-4.058000000000038199e+01,-1.477699999999996123e+02,-4.920999999999989427e+01,5.359999999999982379e+01,-1.124999999999999112e+01,-4.189000000000005031e+01,-9.229999999999996874e+00,-1.619999999999989893e+00,0.000000000000000000e+00,0.000000000000000000e+00,0.000000000000000000e+00,0.000000000000000000e+00,4.780000000000002025e+00,3.150000000000001243e+00,6.699999999999991296e+00,-1.279999999999999805e+00,7.731000000000004491e+01,4.810000000000000497e+00,1.217999999999998018e+01,-8.519999999999949836e+00,1.316699999999996749e+02,8.658000000000002672e+01,3.941000000000007475e+01,-1.613999999999994373e+01,-1.799999999999899181e-01,-3.349999999999890399e+00,-1.077699999999996692e+02,-1.311800000000005184e+02,-8.860000000000009379e+01,-2.154999999999997584e+01,9.724000000000008015e+01,8.827999999999970271e+01,-6.470000000000014850e+00,-3.199999999999987854e-01,9.299999999999991829e+00,-8.200000000000028377e-01,0.000000000000000000e+00,0.000000000000000000e+00,0.000000000000000000e+00,0.000000000000000000e+00,-9.099999999999965894e-01,-1.670000000000000373e+00,1.400000000000000688e-01,-4.970000000000007745e+00,-1.329999999999992966e+01,-4.860000000000005116e+01,-3.300000000000004263e+01,-2.342999999999996774e+01,-4.606000000000003070e+01,-1.703000000000000824e+01,-4.598999999999982435e+01,-8.294999999999996021e+01,-5.908000000000003382e+01,-4.457000000000007134e+01,-6.213999999999960977e+01,-8.061999999999984823e+01,-7.130999999999988859e+01,-1.606999999999996831e+01,1.697000000000001663e+01,1.597000000000002196e+01,1.431000000000003070e+01,3.089999999999997193e+00,-6.109999999999997655e+00,-1.538000000000002565e+01,0.000000000000000000e+00,0.000000000000000000e+00,0.000000000000000000e+00,0.000000000000000000e+00,7.339999999999992752e+00,1.050000000000000266e+00,5.589999999999985647e+00,8.160000000000003695e+00,3.440000000000003944e+00,-8.899999999999985700e-01,-5.779999999999999361e+00,3.740000000000002878e+00,-2.094999999999994955e+01,-8.899999999999965716e-01,-5.500000000000234701e-01,-8.330000000000074678e+00,-1.658000000000005869e+01,-2.366999999999997328e+01,-2.536000000000002075e+01,-3.109999999999993747e+01,-4.369999999999975238e+00,-5.599999999999987210e+00,-1.028999999999996540e+01,-4.630000000000000782e+00,2.619999999999996554e+00,-3.659999999999988152e+00,-4.029999999999995808e+00,-5.299999999999995826e-01,0.000000000000000000e+00,0.000000000000000000e+00,0.000000000000000000e+00,0.000000000000000000e+00,-5.399999999999929301e+00
1.024999999999982370e+00,-1.310000000000001719e-01,4.670000000000003038e-01,-5.730000000000003979e-01,-1.697999999999996179e+00,-1.039000000000000590e+00,-3.680000000000002158e-01,-6.440000000000004610e-01,1.859000000000007757e+00,-1.922999999999996934e+00,5.879999999999999671e-01,-9.780000000000007576e-01,-6.830000000000004956e-01,-8.760000000000006670e-01,-2.733000000000008978e+00,1.648999999999980703e+00,-7.200000000000005285e-01,-2.360999999999987331e+00,-2.380999999999982908e+00,1.406000000000007022e+00,-2.152000000000001023e+00,-1.178999999999990722e+00,-2.953999999999996628e+00,-6.880000000000008331e-01,-1.570000000000000562e-01,-8.200000000000001732e-02,-4.999999999999999584e-02,-1.140000000000000180e-01,-7.440000000000004388e-01,-1.095000000000002416e+00,8.720000000000005524e-01,-9.640000000000007452e-01,-7.730000000000004645e-01,6.100000000000010969e-02,-6.730000000000004867e-01,2.290000000000000924e-01,-3.760000000000003340e-01,2.016999999999994575e+00,-2.007000000000011664e+00,-3.173999999999984833e+00,-1.052000000000000046e+00,3.269999999999999019e-01,4.530000000000002913e-01,-4.726999999999986102e+00,3.158999999999998920e+00,-2.367999999999990113e+00,-1.359999999999984333e+00,1.299999999999952235e-02,-6.040000000000004254e-01,-2.145000000000000462e+00,-1.574999999999991074e+00,1.906000000000022343e+00,-3.930000000000002380e-01,-4.580000000000002958e-01,-2.000000000000001221e-01,-2.290000000000001201e-01,-4.590000000000002967e-01,2.210000000000000853e-01,3.290000000000000702e-01,-6.120000000000003215e-01,9.150000000000007017e-01,9.700000000000053024e-02,-1.691999999999997284e+00,1.209999999999999132e-01,-8.970000000000006857e-01,1.510000000000003340e+00,-1.392000000000002347e+00,4.949999999999997735e-01,-3.090000000000002744e-01,-5.737999999999936485e+00,-1.062000000000000055e+00,1.736999999999997879e+00,-7.520000000000005569e-01,-2.481999999999981998e+00,-5.800000000000006262e-01,-5.482999999999972118e+00,5.830000000000001847e-01,1.465000000000022284e+00,-3.140999999999990688e+00,-2.690000000000005720e+00,-1.620000000000000606e-01,-6.600000000000003086e-02,-4.700000000000001399e-02,-4.060000000000002496e-01,-8.180000000000005045e-01,3.300000000000001266e-01,-6.800000000000008260e-01,-6.160000000000004361e-01,-7.960000000000005960e-01,4.280000000000002691e-01,-2.480000000000002203e-01,2.900000000000003131e-01,9.280000000000004912e-01,-1.197000000000000730e+00,-2.591999999999985871e+00,-2.070999999999995733e+00,7.777999999999944514e+00,6.115999999999975678e+00,2.523999999999947619e+00,-9.539999999999999591e-01,-1.135999999999996346e+00,-1.445999999999999064e+00,3.783999999999997588e+00,-6.732000000000012641e+00,-2.871999999999975905e+00,-2.630000000000001226e-01,-4.726999999999994984e+00,4.519999999999994245e+00,-6.220000000000004414e-01,-5.570000000000003837e-01,-6.800000000000000488e-02,-4.700000000000001399e-02,-3.070000000000002172e-01,-6.090000000000004299e-01,-1.110000000000001819e-01,-3.420000000000002482e-01,-4.182999999999989171e+00,-1.924000000000008370e+00,1.604000000000003645e+00,-2.880000000000024762e-01,1.539999999999994706e+00,-3.553999999999987391e+00,-4.888999999999979806e+00,-4.141999999999940840e+00,2.976999999999988766e+00,-4.199999999998038636e-02,1.810000000000078768e-01,-8.699999999999990408e+00,-4.370999999999977348e+00,2.050000000000039790e+00,7.358999999999948471e+00,5.195000000000086438e+00,-3.755000000000011440e+00,3.410000000000142917e-01,-7.566999999999947768e+00,-4.860000000000016307e+00,-1.290000000000000313e-01,-7.499999999999999722e-02,-3.250000000000002331e-01,-1.890000000000001124e-01,7.390000000000004343e-01,-3.810000000000002829e-01,2.320000000000000950e-01,1.495999999999996000e+00,-7.027000000000010793e+00,-9.490999999999994330e+00,1.924999999999989386e+00,5.964000000000054591e+00,-6.123999999999979238e+00,-2.889999999999900981e-01,-1.223999999999990873e+00,5.354999999999880522e+00,-3.859000000000007535e+00,-2.453999999999986859e+00,-2.991000000000009429e+00,-2.471999999999997755e+00,1.646600000000001529e+01,-4.691999999999980631e+00,-8.325999999999948997e+00,1.205000000000003846e+00,-2.044999999999986162e+00,-4.048000000000073761e+00,-1.210899999999982057e+01,-4.545999999999979835e+00,-3.232999999999998320e+00,-7.840000000000001412e-01,-4.290000000000002700e-01,-4.170000000000002593e-01,-2.160000000000001363e-01,8.260000000000006226e-01,-7.410000000000005471e-01,-8.750000000000000000e-01,-6.125999999999993229e+00,-4.316000000000012271e+00,4.855000000000010196e+00,7.704999999999980531e+00,-1.043999999999996708e+00,1.009600000000007824e+01,-4.580000000000012950e-01,2.309999999999987619e+00,-5.049999999999966960e+00,5.662000000000002586e+00,1.270000000000201801e-01,-1.784999999999997033e+00,-3.346999999999962672e+00,-1.400999999999976042e+00,3.930999999999996053e+00,-6.269000000000001016e+00,3.307000000000039464e+00,-8.947999999999995069e+00,-1.981999999999995321e+00,-6.569999999999965867e-01,-9.121999999999992781e+00,-1.139000000000000234e+00,-3.700000000000001205e-02,-1.260000000000000286e-01,3.280000000000001803e-01,2.159999999999999698e-01,-9.660000000000005249e-01,7.902999999999990699e+00,5.156000000000001471e+00,2.608999999999991548e+00,6.088000000000008072e+00,1.771999999999998909e+00,5.299999999999160938e-02,3.740000000000084923e-01,1.914000000000009027e+00,6.090000000000022062e-01,7.270000000000033324e+00,-3.408000000000008356e+00,2.259000000000005226e+00,1.049599999999992761e+01,1.018000000000004679e+00,1.945000000000023377e+00,5.434000000000029473e+00,-3.830999999999998629e+00,6.057000000000026141e+00,-6.614000000000048729e+00,-4.009999999999947384e+00,4.477999999999990877e+00,-8.927000000000006708e+00,-6.290000000000002256e-01,-2.400000000000001021e-01,-5.330000000000003624e-01,5.350000000000003642e-01,1.528999999999977266e+00,1.902999999999988701e+00,5.127999999999999226e+00,7.224000000000012633e+00,-5.699999999999934286e-02,-7.613999999999973234e+00,-4.236999999999972566e+00,4.270000000000032103e-01,-1.338000000000007539e+01,-4.933999999999996611e+00,-1.036000000000004917e+00,-2.805000000000005933e+00,1.750000000000003109e+00,-4.884999999999983800e+00,-2.145999999999992358e+00,-4.602000000000012747e+00,3.024000000000027999e+00,3.805000000000083649e+00,5.230999999999946581e+00,-2.372000000000000774e+00,-7.729999999999904725e-01,-1.180000000000050786e+00,-2.149999999999727684e-01,-8.002000000000002444e+00,-3.625000000000000888e+00,-3.060000000000001608e-01,-2.820000000000001950e-01,1.217000000000002302e+00,-1.025000000000000133e+00,1.940000000000000058e-01,5.187999999999981071e+00,1.208299999999992558e+01,-1.505000000000002558e+00,-5.122999999999985121e+00,5.296000000000011809e+00,7.790000000000015135e+00,-1.478999999999996540e+00,1.296500000000014197e+01,-8.545999999999999375e+00,2.980999999999983885e+00,-4.098999999999985100e+00,4.666999999999980275e+00,5.656999999999984929e+00,1.844000000000004968e+00,-2.219999999999987317e+00,-9.524000000000087951e+00,2.263999999999978030e+00,9.304999999999962412e+00,3.962999999999953893e+00,-1.083999999999998298e+00,-6.276000000000061974e+00,-7.090000000000002522e+00,-2.453000000000000291e+00,-2.820000000000001394e-01,-7.570000000000005613e-01,5.720000000000003970e-01,-5.850000000000002975e-01,1.509000000000008557e+00,2.880000000000019433e+00,5.882000000000036088e+00,-2.383000000000007557e+00,2.570000000000005613e+00,-2.785000000000040554e+00,-1.118800000000005568e+01,-8.119999999999796270e-01,-6.178000000000000824e+00,-1.272499999999975628e+01,-2.014999999999985913e+00,8.420000000000026352e-01,-6.237999999999973788e+00,1.205100000000017957e+01,1.485099999999988363e+01,5.167999999999982386e+00,3.804000000000011816e+00,5.122000000000008768e+00,-2.089999999999993197e+00,1.325999999999999845e+00,-3.551000000000001044e+00,5.039999999999984936e+00,-2.342999999999999972e+00,-2.082000000000000295e+00,-1.540000000000000535e-01,1.999999999999999001e-02,3.710000000000001075e-01,1.740000000000000990e-01,1.416999999999988047e+00,2.124000000000008548e+00,-1.327000000000012614e+00,-5.471999999999949793e+00,-2.967999999999957783e+00,-1.404900000000001370e+01,4.490000000000210489e-01,-7.923999999999982613e+00,-4.575999999999997847e+00,-3.288999999999993040e+00,-2.381000000000003780e+00,-1.469600000000020934e+01,6.691999999999798554e+00,9.006000000000071282e+00,-7.814999999999958646e+00,4.972000000000007525e+00,1.573199999999970444e+01,-1.597999999999997423e+00,4.871000000000060837e+00,1.794000000000031791e+00,-7.707999999999925578e+00,-3.895999999999994579e+00,-3.539999999999999258e-01,-1.987000000000001432e+00,-3.590000000000002078e-01,-8.999999999999990646e-03,9.470000000000007301e-01,2.031000000000006800e+00,8.699999999999992462e-02,1.660000000000005360e-01,-4.279000000000059423e+00,-1.010399999999996545e+01,-1.796999999999994557e+01,-1.165300000000007508e+01,3.350000000000006306e+00,-7.949000000000011390e+00,-1.234999999999975451e+00,-1.391600000000005899e+01,1.017499999999995630e+01,9.315999999999995396e+00,-4.969999999999852314e-01,-2.684000000000001496e+00,3.292000000000002480e+00,-6.926000000000017920e+00,8.515999999999925407e+00,-2.541000000000006587e+00,-5.198999999999986521e+00,4.013000000000002565e+00,-1.848999999999986432e+00,-9.152000000000057867e+00,-6.450000000000003508e-01,1.310000000000000608e-01,-2.690000000000001834e-01,-3.580000000000002069e-01,6.770000000000004903e-01,-4.990000000000001101e-01,-7.010000000000004006e-01,-1.132000000000004114e+00,-5.631999999999960593e+00,-1.256200000000009886e+01,-9.700000000000065237e-01,8.179000000000005599e+00,-1.583000000000011953e+00,-1.738000000000001766e+00,1.006899999999995288e+01,-6.303000000000015923e+00,-1.232699999999996798e+01,-2.311999999999997613e+00,1.095500000000007823e+01,7.834000000000046704e+00,7.699999999998974332e-02,5.550000000000088640e+00,-1.800999999999996160e+00,-1.130500000000000149e+01,6.185000000000027143e+00,-7.149999999999955058e+00,-6.291000000000006587e+00,-4.436000000000015930e+00,-1.222999999999999421e+00,-5.200000000000003508e-01,-6.200000000000002037e-02,-2.360000000000001263e-01,3.380000000000001892e-01,4.220000000000002638e-01,6.130000000000004334e-01,-6.709999999999998188e-01,-2.113999999999990997e+00,-5.193000000000011163e+00,9.921999999999972175e+00,5.224999999999960565e+00,-3.778999999999983039e+00,-2.084999999999975095e+00,-1.758999999999992125e+00,5.705999999999972871e+00,1.489000000000025858e+00,9.538000000000121048e+00,-1.079500000000006388e+01,-5.977999999999981107e+00,-1.063999999999905022e+00,-2.475000000000043610e+00,1.725299999999989708e+01,-4.474999999999963229e+00,4.998999999999996113e+00,1.600000000000018630e-01,-3.469000000000001638e+00,3.030999999999993477e+00,9.530000000000007354e-01,-9.240000000000005986e-01,2.370000000000000440e-01,3.199999999999999373e-02,1.288000000000005141e+00,7.000000000000054790e-03,-1.464999999999998748e+00,-1.466000000000016845e+00,-4.296000000000018915e+00,-6.838999999999993307e+00,-1.696000000000008168e+00,-1.363599999999991041e+01,-3.289999999999939639e+00,2.063000000000015710e+00,-1.658100000000019847e+01,2.630000000000072280e-01,6.410000000000046771e-01,-3.271000000000008789e+00,3.279000000000030113e+00,1.066800000000002413e+01,7.973000000000043386e+00,-1.102000000000009372e+01,-4.753000000000011660e+00,2.660000000000016795e-01,-1.437399999999988864e+01,5.147000000000001130e+00,6.635000000000013110e+00,-6.029999999999994253e-01,7.880000000000002558e+00,1.800000000000001044e-01,-1.550000000000000822e-01,-2.850000000000001421e-01,1.729999999999999871e-01,9.570000000000002949e-01,-2.200000000000027281e-02,-2.828999999999998405e+00,-6.169999999999934204e+00,-2.409000000000009578e+00,-9.969999999999979989e-01,-7.732000000000022411e+00,-8.588999999999952450e+00,-1.515000000000009894e+00,-4.506999999999909079e+00,-1.334200000000013020e+01,-3.296999999999942865e+00,-1.173000000000002707e+00,6.367000000000089699e+00,-1.581999999999997630e+00,9.341000000000029502e+00,-6.771000000000027441e+00,-2.250000000000053069e-01,5.280999999999838934e+00,-7.370999999999942709e+00,7.816999999999928228e+00,4.959999999999992193e-01,-5.231999999999978890e+00,3.037000000000001698e+00,-1.602999999999999092e+00,-1.369999999999999829e-01,-2.820000000000001950e-01,-1.780000000000003135e+00,8.459999999999994191e-01,-6.420000000000014584e-01,-3.449999999999993072e-01,2.448999999999988297e+00,5.065000000000006608e+00,4.050999999999983281e+00,2.804000000000027359e+00,9.040000000000087965e-01,5.586000000000078458e+00,-1.612000000000008759e+00,-1.623299999999994370e+01,-1.097299999999982489e+01,-5.101999999999993207e+00,-1.033700000000006547e+01,-1.193499999999997740e+01,-9.476999999999964786e+00,5.964999999999990088e+00,1.108800000000002406e+01,1.453000000000050695e+00,-1.194699999999999740e+01,1.302399999999999736e+01,-6.059999999999866604e-01,-6.717999999999985761e+00,2.011999999999992017e+00,-2.408000000000001251e+00,-1.279000000000001247e+00,-4.710000000000003628e-01,-6.560000000000004716e-01,-6.620000000000004770e-01,-2.923999999999983057e+00,5.826999999999999069e+00,1.213500000000007439e+01,1.160000000000006359e+00,-5.493999999999938488e+00,-3.544999999999995932e+00,-2.439000000000008495e+00,-6.236999999999936151e+00,1.199000000000000066e+00,8.822000000000127073e+00,-1.715300000000006619e+01,-2.033100000000016649e+01,-1.555200000000009730e+01,-8.399999999998197797e-02,-1.184799999999995990e+01,-8.189999999999969527e-01,4.700000000000013500e+00,6.578000000000057135e+00,-1.143999999999997996e+01,9.706000000000059913e+00,-3.788999999999978829e+00,-1.100000000000016381e-01,-1.380000000000001004e+00,-1.058000000000000274e+00,-1.060000000000000109e-01,-1.070999999999999952e+00,8.120000000000006102e-01,1.486999999999997213e+00,-4.416999999999980275e+00,7.990000000000063718e-01,8.543000000000184002e+00,9.600999999999947576e+00,-5.724999999999982769e+00,-3.589000000000023949e+00,-1.702999999999985636e+00,-1.501999999999994229e+00,-4.817999999999906358e+00,-6.211999999999978428e+00,-1.448000000000003062e+00,7.836000000000050925e+00,6.880000000000021654e-01,9.588999999999936463e+00,1.471400000000008745e+01,-1.036100000000014809e+01,2.570000000000395302e-01,6.055000000000031690e+00,1.239999999999998881e+00,2.190000000000015268e-01,4.312999999999911793e+00,1.835000000000002629e+00,3.391000000000002679e+00,-1.571000000000000618e+00,-9.150000000000007017e-01,5.399999999999992306e-02,6.200000000000011058e-02,-5.330000000000005844e-01,-3.598000000000011411e+00,4.689999999999979075e+00,-2.339999999999974600e-01,1.593400000000006855e+01,6.334000000000014730e+00,1.096900000000010422e+01,-2.676999999999990276e+00,1.066000000000042469e+00,-1.374000000000000554e+00,-6.594999999999938467e+00,9.000000000000356326e-02,-8.735999999999986443e+00,-5.128999999999989790e+00,-8.675000000000022027e+00,7.094000000000145079e+00,-4.135999999999933507e+00,-7.625999999999989676e+00,-2.260999999999984578e+00,1.215299999999993297e+01,6.916000000000011028e+00,3.072999999999977305e+00,4.429999999999967297e-01,9.430000000000009486e-01,-8.160000000000003917e-01,-3.080000000000001625e-01,-3.930000000000002380e-01,-5.120000000000003437e-01,-1.730000000000002092e-01,2.938999999999992951e+00,5.617999999999960359e+00,4.946000000000037922e+00,-2.660000000000100617e-01,-3.727000000000005198e+00,8.108000000000076923e+00,-8.026999999999921087e+00,-4.496000000000001329e+00,4.278999999999992809e+00,-1.338100000000010859e+01,3.059999999999895581e-01,-1.841999999999972104e+00,-9.674999999999863931e+00,-1.238900000000004908e+01,1.729399999999987969e+01,1.720000000000013740e-01,-2.197000000000016495e+00,-4.470000000000040608e-01,-4.137999999999981249e+00,2.127000000000010438e+00,5.247000000000016762e+00,-1.737000000000002320e+00,-4.881999999999998785e+00,-1.043000000000000593e+00,6.699999999999992073e-02,-2.530000000000001692e-01,-1.950999999999996293e+00,1.020000000000000073e-01,-8.670000000000007701e-01,2.031999999999983597e+00,1.044400000000002571e+01,-3.709000000000008956e+00,-3.089000000000030610e+00,-1.058200000000008423e+01,-2.987999999999994216e+00,1.892000000000010340e+00,8.677999999999979508e+00,1.067899999999994165e+01,-5.944999999999992291e+00,5.661999999999979494e+00,4.943999999999984851e+00,4.899999999999955946e+00,-2.527000000000002800e+00,-2.279999999999836047e-01,1.107000000000021744e+00,-8.475000000000022737e+00,5.489000000000034518e+00,-4.899000000000012456e+00,-6.312000000000011823e+00,2.991000000000002768e+00,-1.079000000000000625e+00,-2.480000000000001648e-01,-2.790000000000001368e-01,-9.980000000000007754e-01,5.650000000000003908e-01,-1.081999999999997186e+00,-1.790000000000003810e-01,2.055999999999997385e+00,1.712199999999997857e+01,-5.529999999999917204e-01,4.160999999999993371e+00,7.569000000000044359e+00,9.195999999999983743e+00,-1.300899999999994527e+01,3.525000000000008793e+00,-5.930000000000037907e+00,-4.411999999999987487e+00,6.843999999999926587e+00,-9.216999999999982762e+00,-4.430999999999999162e+00,2.626000000000013657e+00,-6.696999999999924569e+00,-4.101999999999979885e+00,-2.462999999999970768e+00,8.190000000000101643e-01,-1.777999999999995806e+00,-4.796999999999991715e+00,-1.879999999999966143e-01,1.000000000000007133e-02,9.800000000000003153e-02,-7.199999999999999456e-02,-8.800000000000006706e-01,1.840000000000001912e-01,-6.400000000000003464e-01,4.480000000000003424e-01,5.757000000000004114e+00,1.868699999999990524e+01,4.037999999999988709e+00,1.159000000000007802e+00,-1.734999999999999876e+00,2.146000000000044317e+00,-5.262999999999984801e+00,-5.960999999999966548e+00,9.225000000000010303e+00,-1.720000000000007967e+00,-1.710999999999945675e+00,-3.271999999999962494e+00,2.527000000000009461e+00,-3.976999999999975444e+00,-1.410300000000002818e+01,-4.431000000000003602e+00,5.778999999999988368e+00,-3.369999999999961915e-01,-3.997000000000001219e+00,-9.620000000000034079e-01,-1.380000000000005667e-01,0.000000000000000000e+00,0.000000000000000000e+00,0.000000000000000000e+00,0.000000000000000000e+00,4.820000000000002616e-01,2.800000000000003042e-01,6.430000000000003491e-01,-1.260000000000000564e-01,7.865000000000001990e+00,3.510000000000014220e-01,9.289999999999989377e-01,-1.012000000000004007e+00,1.264200000000004742e+01,8.250000000000019540e+00,3.274999999999980371e+00,-2.159999999999997922e+00,1.829999999999986082e-01,-1.889999999999923685e-01,-1.022699999999993636e+01,-1.268599999999989514e+01,-9.235999999999993548e+00,-2.338999999999992863e+00,9.497000000000005215e+00,8.674000000000013699e+00,-2.489999999999999436e-01,2.939999999999998170e-01,9.860000000000002096e-01,-1.760000000000002118e-01,0.000000000000000000e+00,0.000000000000000000e+00,0.000000000000000000e+00,0.000000000000000000e+00,-1.269999999999999463e-01,-2.080000000000000182e-01,-9.999999999999995004e-03,-5.040000000000003366e-01,-1.439000000000003610e+00,-5.129000000000002224e+00,-3.464999999999998082e+00,-2.404999999999999805e+00,-4.791000000000007475e+00,-2.020999999999994579e+00,-4.677999999999987502e+00,-7.891000000000013337e+00,-5.255999999999989569e+00,-4.068999999999983075e+00,-6.563999999999997392e+00,-8.633000000000050633e+00,-7.343999999999961226e+00,-1.648999999999998911e+00,1.713999999999999968e+00,1.557999999999998719e+00,1.374000000000001442e+00,3.029999999999997140e-01,-5.580000000000003846e-01,-1.478999999999995207e+00,0.000000000000000000e+00,0.000000000000000000e+00,0.000000000000000000e+00,0.000000000000000000e+00,7.070000000000005169e-01,1.070000000000000673e-01,5.610000000000003872e-01,8.200000000000005063e-01,3.260000000000001785e-01,-7.199999999999984190e-02,-5.330000000000003624e-01,3.900000000000002909e-01,-2.023999999999996025e+00,-7.599999999999999811e-02,-1.080000000000001376e-01,-7.849999999999930367e-01,-1.851999999999998758e+00,-2.676999999999999602e+00,-2.899999999999987477e+00,-3.434999999999993836e+00,-4.250000000000001554e-01,-4.980000000000003313e-01,-1.094000000000000306e+00,-4.500000000000002887e-01,2.950000000000000400e-01,-3.080000000000001625e-01,-4.290000000000001590e-01,-3.600000000000003197e-02,0.000000000000000000e+00,0.000000000000000000e+00,0.000000000000000000e+00,0.000000000000000000e+00,-5.410000000000003695e-01
