-1.000000000000000000e+00,-5.750000000000000000e+02,-3.260000000000000000e+02,-4.610000000000000000e+02,6.310000000000000000e+02,-1.720000000000000000e+02,-7.890000000000000000e+02,9.180000000000000000e+02,-1.060000000000000000e+02,-6.420000000000000000e+02,1.015000000000000000e+03,-7.950000000000000000e+02,-2.500000000000000000e+01,1.437000000000000000e+03,-8.310000000000000000e+02,2.430000000000000000e+02,1.055000000000000000e+03,-3.240000000000000000e+03,6.400000000000000000e+01,-2.115000000000000000e+03,1.221000000000000000e+03,-4.680000000000000000e+02,-3.090000000000000000e+03,1.839000000000000000e+03,-1.480000000000000000e+02,-1.970000000000000000e+02,-2.000000000000000000e+02,-1.290000000000000000e+02,4.550000000000000000e+02,5.300000000000000000e+01,2.870000000000000000e+02,-1.880000000000000000e+02,1.810000000000000000e+02,1.400000000000000000e+02,-1.300000000000000000e+01,-9.220000000000000000e+02,1.923000000000000000e+03,-4.860000000000000000e+02,-2.687000000000000000e+03,-1.115000000000000000e+03,1.100000000000000000e+03,1.460000000000000000e+02,2.360000000000000000e+02,-3.182000000000000000e+03,-7.730000000000000000e+03,1.362000000000000000e+03,-9.060000000000000000e+02,-3.770000000000000000e+02,-3.549000000000000000e+03,-1.575000000000000000e+03,3.860000000000000000e+02,-3.121000000000000000e+03,-5.500000000000000000e+01,-4.200000000000000000e+01,1.300000000000000000e+01,-8.800000000000000000e+01,-6.310000000000000000e+02,-4.330000000000000000e+02,3.540000000000000000e+02,1.810000000000000000e+02,-6.600000000000000000e+02,-2.880000000000000000e+02,-1.500000000000000000e+01,6.800000000000000000e+01,5.780000000000000000e+02,1.346000000000000000e+03,-7.250000000000000000e+02,9.620000000000000000e+02,-4.070000000000000000e+02,2.930000000000000000e+03,1.372000000000000000e+03,-4.353000000000000000e+03,-7.250000000000000000e+03,-5.256000000000000000e+03,-5.058000000000000000e+03,-3.963000000000000000e+03,-3.515000000000000000e+03,-4.282000000000000000e+03,-5.960000000000000000e+02,-1.695000000000000000e+03,-2.870000000000000000e+02,-4.730000000000000000e+02,-4.960000000000000000e+02,-2.000000000000000000e+01,4.000000000000000000e+00,-8.080000000000000000e+02,-1.240000000000000000e+02,4.450000000000000000e+02,-2.770000000000000000e+02,-8.060000000000000000e+02,6.770000000000000000e+02,-2.900000000000000000e+02,9.120000000000000000e+02,2.917000000000000000e+03,-1.051000000000000000e+03,-1.863000000000000000e+03,-2.341000000000000000e+03,-1.010000000000000000e+02,-1.346000000000000000e+03,-2.750000000000000000e+02,-9.380000000000000000e+03,-1.012400000000000000e+04,-2.277000000000000000e+03,-4.994000000000000000e+03,-2.919000000000000000e+03,-8.660000000000000000e+02,-2.318000000000000000e+03,-8.740000000000000000e+02,-1.600000000000000000e+02,-5.500000000000000000e+01,-1.400000000000000000e+01,-1.560000000000000000e+02,1.137000000000000000e+03,-1.610000000000000000e+02,-6.680000000000000000e+02,1.760000000000000000e+02,1.920000000000000000e+02,1.410000000000000000e+03,1.032000000000000000e+03,8.910000000000000000e+02,-1.700000000000000000e+02,-7.000000000000000000e+01,-6.378000000000000000e+03,-5.342000000000000000e+03,-2.562000000000000000e+03,4.460000000000000000e+03,5.379000000000000000e+03,4.004000000000000000e+03,-1.584000000000000000e+03,-3.231000000000000000e+03,5.497000000000000000e+03,4.934000000000000000e+03,-6.088000000000000000e+03,-1.348000000000000000e+03,-7.151000000000000000e+03,-3.081000000000000000e+03,-1.071000000000000000e+03,-7.450000000000000000e+02,-5.500000000000000000e+02,-4.000000000000000000e+01,-6.120000000000000000e+02,6.400000000000000000e+01,-1.860000000000000000e+02,-9.530000000000000000e+02,2.468000000000000000e+03,6.468000000000000000e+03,1.106000000000000000e+03,-4.036000000000000000e+03,1.205500000000000000e+04,-1.447000000000000000e+03,3.970000000000000000e+02,1.879000000000000000e+03,3.533000000000000000e+03,6.141000000000000000e+03,3.308000000000000000e+03,7.088000000000000000e+03,4.693000000000000000e+03,4.411000000000000000e+03,3.571000000000000000e+03,-4.261000000000000000e+03,5.100000000000000000e+03,-8.021000000000000000e+03,-4.860000000000000000e+03,-4.260000000000000000e+03,-2.180000000000000000e+02,5.400000000000000000e+01,-2.320000000000000000e+02,-9.800000000000000000e+01,-4.820000000000000000e+02,-2.760000000000000000e+02,-3.100000000000000000e+02,-5.350000000000000000e+02,4.521000000000000000e+03,6.320000000000000000e+02,-8.851000000000000000e+03,-3.747000000000000000e+03,1.263000000000000000e+04,-4.563000000000000000e+03,9.654000000000000000e+03,-3.230000000000000000e+02,-1.116600000000000000e+04,-2.120000000000000000e+03,2.772000000000000000e+03,3.564000000000000000e+03,-1.725000000000000000e+03,-1.448000000000000000e+03,-6.770000000000000000e+02,-6.386000000000000000e+03,3.427000000000000000e+03,3.006000000000000000e+03,-7.400000000000000000e+02,-3.840000000000000000e+03,-4.005000000000000000e+03,-5.000000000000000000e+02,-4.000000000000000000e+00,-2.900000000000000000e+02,3.020000000000000000e+02,1.640000000000000000e+02,3.900000000000000000e+01,-1.116000000000000000e+03,2.856000000000000000e+03,1.614000000000000000e+03,-8.125000000000000000e+03,1.733000000000000000e+03,6.098000000000000000e+03,-1.310700000000000000e+04,-5.342000000000000000e+03,5.520000000000000000e+02,2.297000000000000000e+03,-2.280000000000000000e+03,-3.519000000000000000e+03,-4.048000000000000000e+03,-1.118000000000000000e+03,1.137000000000000000e+03,5.953000000000000000e+03,-9.411000000000000000e+03,-4.932000000000000000e+03,7.384000000000000000e+03,3.793000000000000000e+03,-1.037600000000000000e+04,-4.889000000000000000e+03,-3.004000000000000000e+03,-7.480000000000000000e+02,-7.000000000000000000e+01,1.198000000000000000e+03,8.800000000000000000e+01,1.538000000000000000e+03,-3.150000000000000000e+02,3.463000000000000000e+03,7.806000000000000000e+03,-1.714000000000000000e+03,-6.880000000000000000e+02,-1.450000000000000000e+03,6.786000000000000000e+03,8.440000000000000000e+02,1.625000000000000000e+03,1.869000000000000000e+03,-6.281000000000000000e+03,-2.177000000000000000e+03,1.029000000000000000e+04,-6.449000000000000000e+03,7.360000000000000000e+02,5.321000000000000000e+03,1.518000000000000000e+03,3.483000000000000000e+03,5.511000000000000000e+03,3.884000000000000000e+03,-6.368000000000000000e+03,-7.805000000000000000e+03,-6.192000000000000000e+03,-6.030000000000000000e+02,2.550000000000000000e+02,1.113000000000000000e+03,7.930000000000000000e+02,1.714000000000000000e+03,-2.377000000000000000e+03,-1.837000000000000000e+03,1.341000000000000000e+03,-1.623000000000000000e+03,-7.157000000000000000e+03,-5.180000000000000000e+02,-9.660000000000000000e+02,2.789000000000000000e+03,-6.737000000000000000e+03,7.096000000000000000e+03,8.968000000000000000e+03,7.960000000000000000e+03,-7.125000000000000000e+03,2.763000000000000000e+03,-3.378000000000000000e+03,7.254000000000000000e+03,1.113000000000000000e+03,-4.542000000000000000e+03,-1.634000000000000000e+03,1.996000000000000000e+03,-6.550000000000000000e+02,-1.764000000000000000e+03,-1.236000000000000000e+03,-6.000000000000000000e+01,4.810000000000000000e+02,9.940000000000000000e+02,6.810000000000000000e+02,5.140000000000000000e+02,-3.565000000000000000e+03,-3.984000000000000000e+03,1.756000000000000000e+03,-3.694000000000000000e+03,-3.442000000000000000e+03,5.110000000000000000e+03,4.740000000000000000e+02,-3.472000000000000000e+03,6.430000000000000000e+02,-6.088000000000000000e+03,-1.029600000000000000e+04,-5.251000000000000000e+03,-3.274000000000000000e+03,-4.274000000000000000e+03,3.550000000000000000e+02,-3.720000000000000000e+03,3.321000000000000000e+03,-1.182000000000000000e+03,-1.648000000000000000e+03,5.953000000000000000e+03,-7.840000000000000000e+03,8.428000000000000000e+03,3.222000000000000000e+03,2.020000000000000000e+02,-1.630000000000000000e+02,1.720000000000000000e+02,1.614000000000000000e+03,1.394000000000000000e+03,-1.663000000000000000e+03,-7.559000000000000000e+03,-6.986000000000000000e+03,-7.772000000000000000e+03,-3.799000000000000000e+03,-8.882000000000000000e+03,-1.267300000000000000e+04,-1.504000000000000000e+04,-1.226300000000000000e+04,-6.682000000000000000e+03,-9.725000000000000000e+03,-1.689500000000000000e+04,-5.500000000000000000e+03,2.860000000000000000e+02,-6.950000000000000000e+03,-7.533000000000000000e+03,-2.327000000000000000e+03,-2.669000000000000000e+03,4.032000000000000000e+03,1.396000000000000000e+03,-1.102900000000000000e+04,7.176000000000000000e+03,1.595000000000000000e+03,-3.030000000000000000e+02,1.820000000000000000e+02,3.650000000000000000e+02,1.435000000000000000e+03,1.045000000000000000e+03,-2.200000000000000000e+02,-2.728000000000000000e+03,-6.563000000000000000e+03,-1.079800000000000000e+04,-8.545000000000000000e+03,-1.348500000000000000e+04,-1.035500000000000000e+04,-1.266500000000000000e+04,-5.549000000000000000e+03,-4.316000000000000000e+03,-2.575000000000000000e+03,5.375000000000000000e+03,-2.033000000000000000e+03,-7.984000000000000000e+03,-4.880000000000000000e+02,-3.864000000000000000e+03,-1.294000000000000000e+03,1.511000000000000000e+03,-2.714000000000000000e+03,-1.126000000000000000e+04,-1.044400000000000000e+04,4.897000000000000000e+03,1.006000000000000000e+03,2.230000000000000000e+02,2.720000000000000000e+02,1.088000000000000000e+03,8.370000000000000000e+02,3.220000000000000000e+02,7.620000000000000000e+02,-2.498000000000000000e+03,-5.050000000000000000e+03,-3.697000000000000000e+03,-6.020000000000000000e+03,-9.984000000000000000e+03,-1.331900000000000000e+04,4.417000000000000000e+03,-3.128000000000000000e+03,7.721000000000000000e+03,-6.953000000000000000e+03,-1.312200000000000000e+04,8.601000000000000000e+03,-3.079000000000000000e+03,1.441000000000000000e+03,2.314000000000000000e+03,7.412000000000000000e+03,-2.186000000000000000e+03,-2.464000000000000000e+03,-2.391000000000000000e+03,9.507000000000000000e+03,6.380000000000000000e+03,1.096000000000000000e+03,-3.540000000000000000e+02,9.280000000000000000e+02,9.580000000000000000e+02,5.060000000000000000e+02,4.550000000000000000e+02,8.240000000000000000e+02,-2.943000000000000000e+03,-4.671000000000000000e+03,-7.961000000000000000e+03,2.825000000000000000e+03,1.055200000000000000e+04,-7.210000000000000000e+02,-1.120500000000000000e+04,-6.842000000000000000e+03,-2.445000000000000000e+03,-8.290000000000000000e+03,-4.418000000000000000e+03,4.958000000000000000e+03,-1.653000000000000000e+04,5.038000000000000000e+03,-4.706000000000000000e+03,-8.981000000000000000e+03,-4.011000000000000000e+03,-7.519000000000000000e+03,-4.955000000000000000e+03,-8.993000000000000000e+03,-4.902000000000000000e+03,1.421000000000000000e+03,7.090000000000000000e+02,-1.400000000000000000e+02,-5.190000000000000000e+02,1.998000000000000000e+03,1.177000000000000000e+03,-1.363000000000000000e+03,-1.817000000000000000e+03,-4.240000000000000000e+02,2.339000000000000000e+03,1.298700000000000000e+04,1.385100000000000000e+04,7.015000000000000000e+03,-5.531000000000000000e+03,8.818000000000000000e+03,-5.400000000000000000e+01,1.431000000000000000e+03,-1.136000000000000000e+03,1.648000000000000000e+03,-2.083000000000000000e+03,-6.686000000000000000e+03,-4.368000000000000000e+03,-6.857000000000000000e+03,8.257000000000000000e+03,-1.725000000000000000e+03,-6.199000000000000000e+03,-6.498000000000000000e+03,-9.746000000000000000e+03,1.110900000000000000e+04,9.899000000000000000e+03,2.680000000000000000e+02,-1.209000000000000000e+03,1.194000000000000000e+03,-1.901000000000000000e+03,-2.720000000000000000e+02,-3.844000000000000000e+03,9.832000000000000000e+03,1.983000000000000000e+03,-5.606000000000000000e+03,-8.032000000000000000e+03,4.560000000000000000e+03,3.989000000000000000e+03,2.400000000000000000e+01,3.041000000000000000e+03,3.067000000000000000e+03,-4.670000000000000000e+02,6.365000000000000000e+03,3.093000000000000000e+03,6.032000000000000000e+03,3.395000000000000000e+03,4.281000000000000000e+03,5.403000000000000000e+03,7.136000000000000000e+03,5.372000000000000000e+03,2.550000000000000000e+02,5.080000000000000000e+02,8.330000000000000000e+03,5.318000000000000000e+03,7.860000000000000000e+02,4.070000000000000000e+02,6.670000000000000000e+02,7.360000000000000000e+02,1.122000000000000000e+03,-9.052000000000000000e+03,-2.690000000000000000e+02,-9.210000000000000000e+02,-3.179000000000000000e+03,-5.818000000000000000e+03,1.182000000000000000e+03,9.240000000000000000e+02,7.961000000000000000e+03,3.703000000000000000e+03,-3.199000000000000000e+03,-1.918000000000000000e+03,-3.078000000000000000e+03,-4.803000000000000000e+03,3.164000000000000000e+03,-5.430000000000000000e+03,-3.802000000000000000e+03,-1.453000000000000000e+03,6.280000000000000000e+02,1.301000000000000000e+04,9.656000000000000000e+03,6.010000000000000000e+02,1.370000000000000000e+02,9.710000000000000000e+02,8.790000000000000000e+02,6.600000000000000000e+01,-1.557000000000000000e+03,1.579000000000000000e+03,-4.421000000000000000e+03,-5.438000000000000000e+03,-3.322000000000000000e+03,-7.700000000000000000e+02,8.983000000000000000e+03,-6.744000000000000000e+03,-2.429000000000000000e+03,6.331000000000000000e+03,-6.858000000000000000e+03,9.366000000000000000e+03,3.688000000000000000e+03,5.120000000000000000e+02,1.021300000000000000e+04,-3.753000000000000000e+03,-1.110000000000000000e+02,1.608000000000000000e+03,-5.224000000000000000e+03,6.673000000000000000e+03,-3.633000000000000000e+03,8.736000000000000000e+03,1.007000000000000000e+04,1.308300000000000000e+04,2.235000000000000000e+03,5.640000000000000000e+02,4.030000000000000000e+02,3.120000000000000000e+02,-7.380000000000000000e+02,-2.470000000000000000e+02,-8.629000000000000000e+03,2.614000000000000000e+03,8.092000000000000000e+03,8.033000000000000000e+03,7.284000000000000000e+03,6.013000000000000000e+03,-1.548000000000000000e+03,3.632000000000000000e+03,3.660000000000000000e+03,4.275000000000000000e+03,9.180000000000000000e+02,2.148000000000000000e+03,1.496000000000000000e+03,-1.045000000000000000e+03,5.399000000000000000e+03,1.450000000000000000e+03,6.825000000000000000e+03,-2.020000000000000000e+02,-1.153000000000000000e+03,-1.644000000000000000e+03,2.997000000000000000e+03,1.003000000000000000e+03,3.210000000000000000e+02,1.562000000000000000e+03,5.940000000000000000e+02,-4.220000000000000000e+02,-2.500000000000000000e+01,1.111000000000000000e+03,-5.965000000000000000e+03,-5.520000000000000000e+02,-2.240000000000000000e+03,5.200000000000000000e+01,1.439000000000000000e+03,3.856000000000000000e+03,-6.120000000000000000e+02,5.490000000000000000e+02,1.046400000000000000e+04,-3.327000000000000000e+03,8.120000000000000000e+02,6.260000000000000000e+02,3.775000000000000000e+03,1.070300000000000000e+04,-7.353000000000000000e+03,2.039000000000000000e+03,3.921000000000000000e+03,9.103000000000000000e+03,2.768000000000000000e+03,3.274000000000000000e+03,-1.403000000000000000e+03,1.863000000000000000e+03,6.940000000000000000e+02,-3.000000000000000000e+01,7.450000000000000000e+02,-3.110000000000000000e+02,1.644000000000000000e+03,9.960000000000000000e+02,3.466000000000000000e+03,2.560000000000000000e+03,1.206000000000000000e+03,-7.276000000000000000e+03,3.700000000000000000e+02,-8.544000000000000000e+03,3.601000000000000000e+03,8.140000000000000000e+02,3.305000000000000000e+03,-1.924000000000000000e+03,-1.266000000000000000e+03,-1.067000000000000000e+03,-1.385900000000000000e+04,-1.356000000000000000e+03,-6.280000000000000000e+02,1.415000000000000000e+03,1.416000000000000000e+03,5.383000000000000000e+03,-6.900000000000000000e+02,9.903000000000000000e+03,8.970000000000000000e+03,8.496000000000000000e+03,1.929000000000000000e+03,-3.800000000000000000e+01,6.010000000000000000e+02,-6.900000000000000000e+02,5.080000000000000000e+02,-2.630000000000000000e+02,-1.236000000000000000e+03,3.567000000000000000e+03,2.845000000000000000e+03,6.590000000000000000e+02,1.265000000000000000e+04,8.423000000000000000e+03,-4.992000000000000000e+03,3.495000000000000000e+03,5.699000000000000000e+03,3.965000000000000000e+03,8.740000000000000000e+02,-6.363000000000000000e+03,-5.084000000000000000e+03,9.445000000000000000e+03,3.951000000000000000e+03,-4.110000000000000000e+02,-6.213000000000000000e+03,-1.609000000000000000e+03,4.793000000000000000e+03,6.307000000000000000e+03,-4.374000000000000000e+03,2.066000000000000000e+03,4.920000000000000000e+02,9.210000000000000000e+02,4.070000000000000000e+02,-1.623000000000000000e+03,-1.074000000000000000e+03,-2.850000000000000000e+02,7.320000000000000000e+02,-3.003000000000000000e+03,-2.666000000000000000e+03,-5.050000000000000000e+03,-2.808000000000000000e+03,-1.664000000000000000e+03,-8.916000000000000000e+03,-5.463000000000000000e+03,-5.692000000000000000e+03,-8.626000000000000000e+03,2.924000000000000000e+03,2.426000000000000000e+03,-7.408000000000000000e+03,-1.031000000000000000e+04,-7.686000000000000000e+03,-8.600000000000000000e+01,1.100000000000000000e+02,4.480000000000000000e+03,8.269000000000000000e+03,1.740000000000000000e+03,-1.139000000000000000e+03,-8.560000000000000000e+02,-1.300000000000000000e+01,8.940000000000000000e+02,5.990000000000000000e+02,-1.230000000000000000e+02,-6.300000000000000000e+01,-6.010000000000000000e+02,-3.468000000000000000e+03,-6.442000000000000000e+03,-9.217000000000000000e+03,-1.116200000000000000e+04,-7.060000000000000000e+03,1.522000000000000000e+04,1.500000000000000000e+03,3.208000000000000000e+03,-4.856000000000000000e+03,-2.066000000000000000e+03,1.162000000000000000e+03,-2.050000000000000000e+02,1.287000000000000000e+03,5.253000000000000000e+03,1.021200000000000000e+04,1.887000000000000000e+03,7.612000000000000000e+03,6.456000000000000000e+03,-9.040000000000000000e+02,-5.063000000000000000e+03,-1.799000000000000000e+03,-1.554000000000000000e+03,-8.400000000000000000e+01,0.000000000000000000e+00,-1.120000000000000000e+02,-7.900000000000000000e+01,1.750000000000000000e+02,-2.360000000000000000e+02,7.000000000000000000e+00,-1.436000000000000000e+03,-4.531000000000000000e+03,-8.281000000000000000e+03,-7.181000000000000000e+03,-7.483000000000000000e+03,-9.724000000000000000e+03,-7.919000000000000000e+03,-6.958000000000000000e+03,-2.873000000000000000e+03,-5.019000000000000000e+03,-3.459000000000000000e+03,-6.960000000000000000e+02,-6.140000000000000000e+02,4.370000000000000000e+02,1.055000000000000000e+03,3.829000000000000000e+03,2.865000000000000000e+03,-1.242000000000000000e+03,-2.945000000000000000e+03,-4.059000000000000000e+03,-7.980000000000000000e+02,0.000000000000000000e+00,0.000000000000000000e+00,-1.120000000000000000e+02,6.700000000000000000e+01,3.370000000000000000e+02,-2.650000000000000000e+02,-3.340000000000000000e+02,1.000000000000000000e+00,-9.660000000000000000e+02,-3.732000000000000000e+03,-4.127000000000000000e+03,-1.712000000000000000e+03,-1.731000000000000000e+03,-2.130000000000000000e+03,-1.127000000000000000e+03,-1.382000000000000000e+03,-3.457000000000000000e+03,-1.463000000000000000e+03,6.310000000000000000e+02,-1.029000000000000000e+03,-4.740000000000000000e+02,-1.352000000000000000e+03,-1.665000000000000000e+03,-2.160000000000000000e+02,-7.740000000000000000e+02,1.090000000000000000e+02,2.770000000000000000e+02,-9.800000000000000000e+01,0.000000000000000000e+00,-7.000000000000000000e+01,-4.200000000000000000e+01,-4.400000000000000000e+01,3.410000000000000000e+02,2.000000000000000000e+01,-2.890000000000000000e+02,-1.390000000000000000e+02,3.490000000000000000e+02,-3.090000000000000000e+02,-1.200000000000000000e+01,-3.230000000000000000e+02,-1.853000000000000000e+03,-2.135000000000000000e+03,-7.770000000000000000e+02,-2.469000000000000000e+03,-3.213000000000000000e+03,-1.880000000000000000e+03,-1.120000000000000000e+02,3.320000000000000000e+02,6.820000000000000000e+02,-1.800000000000000000e+02,-3.820000000000000000e+02,-1.640000000000000000e+02,-4.610000000000000000e+02,7.810000000000000000e+02,-6.070000000000000000e+02,0.000000000000000000e+00,-4.200000000000000000e+01,-7.000000000000000000e+01,0.000000000000000000e+00,-1.790000000000000000e+02
8.000000000000161426e-01,-5.750000000000006395e+01,-3.259999999999996589e+01,-4.610000000000002984e+01,6.310000000000006537e+01,-1.719999999999999574e+01,-7.889999999999999147e+01,9.179999999999991189e+01,-1.060000000000000853e+01,-6.419999999999980389e+01,1.015000000000000284e+02,-7.949999999999980105e+01,-2.499999999999979572e+00,1.436999999999999318e+02,-8.309999999999998010e+01,2.429999999999992610e+01,1.055000000000002700e+02,-3.239999999999997726e+02,6.399999999999973710e+00,-2.115000000000009948e+02,1.221000000000001080e+02,-4.680000000000028137e+01,-3.089999999999995453e+02,1.839000000000000341e+02,-1.479999999999999005e+01,-1.970000000000001705e+01,-2.000000000000000000e+01,-1.290000000000000213e+01,4.550000000000007816e+01,5.299999999999998934e+00,2.869999999999987139e+01,-1.879999999999999716e+01,1.809999999999998721e+01,1.399999999999984368e+01,-1.299999999999964517e+00,-9.219999999999997442e+01,1.923000000000005798e+02,-4.860000000000012932e+01,-2.687000000000002728e+02,-1.114999999999996732e+02,1.100000000000000426e+02,1.460000000000002984e+01,2.359999999999997655e+01,-3.182000000000002160e+02,-7.730000000000026148e+02,1.362000000000003865e+02,-9.059999999999973852e+01,-3.770000000000003837e+01,-3.548999999999988404e+02,-1.575000000000000000e+02,3.859999999999928377e+01,-3.121000000000004775e+02,-5.500000000000000888e+00,-4.200000000000001066e+00,1.299999999999999378e+00,-8.800000000000000711e+00,-6.309999999999996589e+01,-4.329999999999996163e+01,3.539999999999992752e+01,1.810000000000000853e+01,-6.599999999999995737e+01,-2.879999999999993676e+01,-1.500000000000002665e+00,6.799999999999998934e+00,5.780000000000011795e+01,1.345999999999996248e+02,-7.249999999999987210e+01,9.620000000000014495e+01,-4.070000000000021600e+01,2.929999999999970441e+02,1.372000000000002444e+02,-4.353000000000000682e+02,-7.250000000000018190e+02,-5.255999999999999091e+02,-5.058000000000001251e+02,-3.963000000000031946e+02,-3.514999999999981242e+02,-4.281999999999995339e+02,-5.959999999999980247e+01,-1.694999999999994600e+02,-2.869999999999999218e+01,-4.730000000000001847e+01,-4.960000000000001563e+01,-2.000000000000000888e+00,3.999999999999914735e-01,-8.080000000000015348e+01,-1.239999999999999503e+01,4.449999999999994316e+01,-2.769999999999993534e+01,-8.060000000000016485e+01,6.770000000000004547e+01,-2.899999999999999289e+01,9.120000000000020179e+01,2.917000000000003297e+02,-1.050999999999999943e+02,-1.863000000000006082e+02,-2.340999999999970953e+02,-1.009999999999858389e+01,-1.345999999999993690e+02,-2.749999999999997868e+01,-9.380000000000019327e+02,-1.012399999999997021e+03,-2.276999999999997328e+02,-4.993999999999984993e+02,-2.918999999999997499e+02,-8.660000000000063380e+01,-2.318000000000012051e+02,-8.739999999999915303e+01,-1.599999999999999289e+01,-5.500000000000000000e+00,-1.399999999999999467e+00,-1.559999999999999964e+01,1.137000000000003723e+02,-1.609999999999992326e+01,-6.680000000000003979e+01,1.760000000000003695e+01,1.919999999999994955e+01,1.409999999999999716e+02,1.032000000000000739e+02,8.910000000000020748e+01,-1.699999999999987921e+01,-7.000000000000093259e+00,-6.378000000000023419e+02,-5.342000000000000455e+02,-2.562000000000048203e+02,4.460000000000016485e+02,5.378999999999969077e+02,4.003999999999967940e+02,-1.583999999999995509e+02,-3.231000000000006480e+02,5.497000000000023192e+02,4.933999999999967372e+02,-6.087999999999975671e+02,-1.347999999999976808e+02,-7.150999999999964984e+02,-3.081000000000009322e+02,-1.071000000000000512e+02,-7.449999999999997158e+01,-5.499999999999999289e+01,-4.000000000000000000e+00,-6.120000000000017337e+01,6.399999999999973710e+00,-1.859999999999998366e+01,-9.530000000000005400e+01,2.467999999999998693e+02,6.468000000000014325e+02,1.105999999999993548e+02,-4.035999999999995111e+02,1.205500000000005457e+03,-1.446999999999996191e+02,3.970000000000088392e+01,1.878999999999973909e+02,3.533000000000003524e+02,6.141000000000013870e+02,3.307999999999987040e+02,7.087999999999958618e+02,4.692999999999964871e+02,4.411000000000018417e+02,3.571000000000004206e+02,-4.260999999999996248e+02,5.100000000000030127e+02,-8.021000000000076398e+02,-4.860000000000039790e+02,-4.259999999999978400e+02,-2.180000000000001137e+01,5.399999999999991473e+00,-2.320000000000002061e+01,-9.800000000000000711e+00,-4.819999999999995310e+01,-2.760000000000000853e+01,-3.099999999999996447e+01,-5.350000000000006395e+01,4.520999999999993975e+02,6.319999999999995310e+01,-8.850999999999962711e+02,-3.746999999999991360e+02,1.262999999999989768e+03,-4.563000000000003524e+02,9.654000000000029331e+02,-3.230000000000050875e+01,-1.116599999999998772e+03,-2.119999999999986073e+02,2.772000000000006139e+02,3.563999999999976467e+02,-1.725000000000010516e+02,-1.448000000000001535e+02,-6.770000000000030127e+01,-6.386000000000042292e+02,3.426999999999998181e+02,3.006000000000012733e+02,-7.399999999999998579e+01,-3.839999999999965894e+02,-4.005000000000005116e+02,-4.999999999999998579e+01,-4.000000000000000222e-01,-2.900000000000000000e+01,3.020000000000003126e+01,1.640000000000002700e+01,3.900000000000015898e+00,-1.115999999999995964e+02,2.856000000000002501e+02,1.613999999999986983e+02,-8.124999999999972715e+02,1.732999999999995282e+02,6.097999999999976808e+02,-1.310699999999997317e+03,-5.341999999999945885e+02,5.520000000000024443e+01,2.297000000000005571e+02,-2.280000000000003979e+02,-3.518999999999970782e+02,-4.047999999999983061e+02,-1.118000000000012051e+02,1.137000000000000881e+02,5.953000000000004093e+02,-9.410999999999970669e+02,-4.932000000000020918e+02,7.383999999999965667e+02,3.792999999999978513e+02,-1.037599999999996726e+03,-4.888999999999998067e+02,-3.003999999999999773e+02,-7.480000000000005400e+01,-7.000000000000000000e+00,1.198000000000000398e+02,8.799999999999977618e+00,1.537999999999996703e+02,-3.149999999999896616e+01,3.462999999999992156e+02,7.805999999999986585e+02,-1.713999999999984425e+02,-6.879999999999998295e+01,-1.450000000000000284e+02,6.786000000000020691e+02,8.439999999999986358e+01,1.624999999999960494e+02,1.869000000000001194e+02,-6.280999999999979764e+02,-2.177000000000003865e+02,1.028999999999998636e+03,-6.448999999999970214e+02,7.359999999999948272e+01,5.320999999999969532e+02,1.517999999999997840e+02,3.482999999999992156e+02,5.510999999999974079e+02,3.884000000000011710e+02,-6.368000000000048431e+02,-7.804999999999985221e+02,-6.192000000000010687e+02,-6.030000000000053006e+01,2.549999999999999289e+01,1.113000000000001819e+02,7.929999999999964189e+01,1.713999999999983288e+02,-2.377000000000011823e+02,-1.836999999999989370e+02,1.341000000000004206e+02,-1.623000000000002956e+02,-7.157000000000010687e+02,-5.180000000000126192e+01,-9.659999999999888587e+01,2.789000000000020805e+02,-6.737000000000033424e+02,7.096000000000003638e+02,8.968000000000027967e+02,7.959999999999957936e+02,-7.124999999999970441e+02,2.763000000000002956e+02,-3.377999999999989882e+02,7.253999999999959982e+02,1.112999999999991729e+02,-4.542000000000028308e+02,-1.633999999999990678e+02,1.996000000000005627e+02,-6.550000000000027001e+01,-1.764000000000000625e+02,-1.235999999999999517e+02,-6.000000000000024869e+00,4.810000000000002984e+01,9.940000000000011937e+01,6.810000000000026432e+01,5.140000000000003411e+01,-3.565000000000008527e+02,-3.984000000000028194e+02,1.756000000000001364e+02,-3.693999999999992951e+02,-3.442000000000008981e+02,5.110000000000014779e+02,4.739999999999979252e+01,-3.472000000000036835e+02,6.429999999999995453e+01,-6.088000000000014325e+02,-1.029600000000003547e+03,-5.250999999999997954e+02,-3.273999999999999773e+02,-4.273999999999983856e+02,3.550000000000050449e+01,-3.719999999999992042e+02,3.321000000000016712e+02,-1.181999999999999176e+02,-1.648000000000008924e+02,5.952999999999964302e+02,-7.840000000000030695e+02,8.428000000000029104e+02,3.222000000000002160e+02,2.020000000000000995e+01,-1.629999999999991900e+01,1.720000000000002061e+01,1.613999999999998636e+02,1.393999999999998636e+02,-1.662999999999999545e+02,-7.559000000000014552e+02,-6.985999999999991132e+02,-7.772000000000016371e+02,-3.799000000000015689e+02,-8.882000000000106184e+02,-1.267300000000007003e+03,-1.504000000000019554e+03,-1.226299999999999955e+03,-6.681999999999962938e+02,-9.725000000000087539e+02,-1.689499999999992497e+03,-5.499999999999973852e+02,2.859999999999773124e+01,-6.950000000000117097e+02,-7.532999999999939291e+02,-2.327000000000001592e+02,-2.669000000000001478e+02,4.031999999999993634e+02,1.396000000000026375e+02,-1.102899999999998954e+03,7.176000000000025238e+02,1.594999999999998579e+02,-3.030000000000001492e+01,1.820000000000000995e+01,3.650000000000003553e+01,1.435000000000001990e+02,1.045000000000000995e+02,-2.200000000000009592e+01,-2.728000000000004093e+02,-6.562999999999996135e+02,-1.079799999999998136e+03,-8.545000000000028422e+02,-1.348500000000001137e+03,-1.035499999999994543e+03,-1.266499999999981810e+03,-5.549000000000031605e+02,-4.315999999999997954e+02,-2.575000000000030127e+02,5.374999999999995453e+02,-2.032999999999994998e+02,-7.983999999999934971e+02,-4.879999999999898108e+01,-3.863999999999981014e+02,-1.294000000000064006e+02,1.510999999999994543e+02,-2.714000000000007162e+02,-1.125999999999997954e+03,-1.044399999999999181e+03,4.896999999999998749e+02,1.006000000000000085e+02,2.229999999999999005e+01,2.720000000000002416e+01,1.087999999999998835e+02,8.369999999999991758e+01,3.219999999999999574e+01,7.619999999999991758e+01,-2.498000000000009209e+02,-5.049999999999985789e+02,-3.696999999999985107e+02,-6.020000000000001137e+02,-9.983999999999967940e+02,-1.331900000000002137e+03,4.417000000000023761e+02,-3.128000000000021146e+02,7.720999999999955890e+02,-6.952999999999950660e+02,-1.312200000000008231e+03,8.600999999999954753e+02,-3.079000000000043542e+02,1.440999999999995964e+02,2.313999999999977888e+02,7.412000000000040245e+02,-2.186000000000011596e+02,-2.464000000000002615e+02,-2.390999999999994827e+02,9.506999999999990223e+02,6.379999999999993179e+02,1.095999999999999659e+02,-3.540000000000011937e+01,9.280000000000008242e+01,9.580000000000013927e+01,5.059999999999992326e+01,4.550000000000008527e+01,8.240000000000000568e+01,-2.942999999999978513e+02,-4.671000000000007617e+02,-7.961000000000003638e+02,2.824999999999986926e+02,1.055199999999992087e+03,-7.210000000000020748e+01,-1.120500000000000455e+03,-6.842000000000042519e+02,-2.445000000000022169e+02,-8.289999999999934062e+02,-4.417999999999975671e+02,4.957999999999918259e+02,-1.652999999999999318e+03,5.037999999999987040e+02,-4.706000000000020691e+02,-8.981000000000057071e+02,-4.010999999999997954e+02,-7.518999999999941792e+02,-4.954999999999964757e+02,-8.992999999999980218e+02,-4.901999999999995907e+02,1.421000000000003354e+02,7.090000000000000568e+01,-1.400000000000014033e+01,-5.190000000000000568e+01,1.998000000000005514e+02,1.176999999999990223e+02,-1.363000000000000682e+02,-1.816999999999982833e+02,-4.240000000000019753e+01,2.339000000000003183e+02,1.298700000000013006e+03,1.385100000000002638e+03,7.014999999999977263e+02,-5.530999999999995680e+02,8.817999999999906322e+02,-5.399999999997099565e+00,1.430999999999991985e+02,-1.135999999999962427e+02,1.647999999999977945e+02,-2.083000000000014040e+02,-6.685999999999962711e+02,-4.367999999999992156e+02,-6.856999999999918600e+02,8.256999999999947022e+02,-1.725000000000008242e+02,-6.199000000000006594e+02,-6.498000000000000682e+02,-9.746000000000013870e+02,1.110900000000001455e+03,9.899000000000017963e+02,2.679999999999997229e+01,-1.208999999999998636e+02,1.193999999999999346e+02,-1.901000000000007617e+02,-2.719999999999988560e+01,-3.844000000000007731e+02,9.831999999999999318e+02,1.983000000000010630e+02,-5.605999999999991132e+02,-8.031999999999950433e+02,4.559999999999992042e+02,3.988999999999987836e+02,2.399999999999101519e+00,3.040999999999973511e+02,3.066999999999987949e+02,-4.669999999999951967e+01,6.365000000000013642e+02,3.093000000000014325e+02,6.031999999999992497e+02,3.394999999999996589e+02,4.281000000000071282e+02,5.402999999999983629e+02,7.136000000000000227e+02,5.371999999999994770e+02,2.549999999999887734e+01,5.079999999999981242e+01,8.330000000000001137e+02,5.317999999999991587e+02,7.859999999999999432e+01,4.069999999999934914e+01,6.670000000000007390e+01,7.359999999999979536e+01,1.122000000000005002e+02,-9.051999999999985675e+02,-2.689999999999623981e+01,-9.209999999999936904e+01,-3.179000000000038995e+02,-5.817999999999973397e+02,1.181999999999998749e+02,9.239999999999898250e+01,7.960999999999970669e+02,3.703000000000013756e+02,-3.198999999999996362e+02,-1.917999999999989029e+02,-3.077999999999997840e+02,-4.803000000000001819e+02,3.164000000000068553e+02,-5.429999999999984084e+02,-3.802000000000051045e+02,-1.453000000000006651e+02,6.279999999999972715e+01,1.301000000000005912e+03,9.656000000000012733e+02,6.009999999999993037e+01,1.370000000000005258e+01,9.709999999999995168e+01,8.790000000000033253e+01,6.600000000000070699e+00,-1.556999999999994770e+02,1.578999999999994941e+02,-4.420999999999972374e+02,-5.438000000000001819e+02,-3.321999999999976012e+02,-7.700000000000028422e+01,8.982999999999992724e+02,-6.744000000000052069e+02,-2.429000000000006025e+02,6.331000000000001364e+02,-6.858000000000043883e+02,9.366000000000080945e+02,3.687999999999994429e+02,5.119999999999942020e+01,1.021300000000002115e+03,-3.752999999999961460e+02,-1.110000000000050058e+01,1.607999999999986471e+02,-5.224000000000013415e+02,6.672999999999964302e+02,-3.633000000000005230e+02,8.735999999999950205e+02,1.007000000000003070e+03,1.308300000000003365e+03,2.235000000000001137e+02,5.639999999999986358e+01,4.029999999999999716e+01,3.119999999999991047e+01,-7.379999999999998295e+01,-2.469999999999972218e+01,-8.628999999999923602e+02,2.613999999999998067e+02,8.092000000000019782e+02,8.032999999999865395e+02,7.284000000000021373e+02,6.013000000000006366e+02,-1.547999999999992724e+02,3.632000000000008413e+02,3.660000000000035243e+02,4.275000000000055138e+02,9.180000000000194404e+01,2.147999999999975955e+02,1.496000000000000796e+02,-1.044999999999998295e+02,5.399000000000027057e+02,1.450000000000002842e+02,6.824999999999981810e+02,-2.020000000000111129e+01,-1.153000000000000398e+02,-1.644000000000011426e+02,2.996999999999953843e+02,1.003000000000005230e+02,3.209999999999999432e+01,1.561999999999998749e+02,5.939999999999965752e+01,-4.219999999999961915e+01,-2.500000000000048850e+00,1.111000000000000654e+02,-5.964999999999992042e+02,-5.519999999999969731e+01,-2.239999999999996021e+02,5.199999999999562306e+00,1.439000000000021089e+02,3.856000000000015575e+02,-6.119999999999977547e+01,5.490000000000263469e+01,1.046400000000011460e+03,-3.326999999999995339e+02,8.119999999999959073e+01,6.260000000000020037e+01,3.775000000000006821e+02,1.070299999999998363e+03,-7.353000000000000682e+02,2.039000000000008299e+02,3.921000000000017280e+02,9.103000000000017735e+02,2.767999999999996135e+02,3.274000000000024215e+02,-1.403000000000002956e+02,1.862999999999997840e+02,6.939999999999987779e+01,-3.000000000000019984e+00,7.449999999999971578e+01,-3.110000000000001208e+01,1.644000000000002331e+02,9.960000000000009379e+01,3.465999999999985448e+02,2.559999999999998863e+02,1.205999999999989569e+02,-7.275999999999913825e+02,3.700000000000015632e+01,-8.544000000000069122e+02,3.601000000000002501e+02,8.139999999999952252e+01,3.304999999999974989e+02,-1.923999999999997215e+02,-1.266000000000005059e+02,-1.066999999999991076e+02,-1.385900000000015325e+03,-1.355999999999975216e+02,-6.280000000000136851e+01,1.415000000000007105e+02,1.415999999999992269e+02,5.383000000000009777e+02,-6.899999999999889155e+01,9.902999999999969987e+02,8.969999999999976126e+02,8.496000000000058208e+02,1.929000000000000057e+02,-3.799999999999995826e+00,6.010000000000011511e+01,-6.900000000000034106e+01,5.079999999999994742e+01,-2.630000000000013927e+01,-1.235999999999998238e+02,3.566999999999989654e+02,2.845000000000025580e+02,6.589999999999982094e+01,1.265000000000008868e+03,8.422999999999948386e+02,-4.992000000000009550e+02,3.495000000000015348e+02,5.699000000000020236e+02,3.965000000000001137e+02,8.740000000000038938e+01,-6.363000000000074579e+02,-5.084000000000013415e+02,9.444999999999952252e+02,3.950999999999998522e+02,-4.109999999999924825e+01,-6.212999999999994998e+02,-1.609000000000008583e+02,4.793000000000014893e+02,6.307000000000010687e+02,-4.374000000000019099e+02,2.065999999999992269e+02,4.919999999999991758e+01,9.209999999999980957e+01,4.069999999999998863e+01,-1.623000000000006082e+02,-1.074000000000004320e+02,-2.849999999999975486e+01,7.319999999999974705e+01,-3.003000000000026262e+02,-2.666000000000004206e+02,-5.049999999999984084e+02,-2.807999999999992724e+02,-1.663999999999993520e+02,-8.915999999999984311e+02,-5.462999999999981355e+02,-5.692000000000118689e+02,-8.625999999999977490e+02,2.923999999999987267e+02,2.425999999999990280e+02,-7.408000000000032514e+02,-1.030999999999994543e+03,-7.685999999999952479e+02,-8.599999999999738520e+00,1.099999999999999645e+01,4.480000000000026148e+02,8.268999999999957708e+02,1.739999999999998010e+02,-1.138999999999998352e+02,-8.559999999999983800e+01,-1.300000000000007816e+00,8.940000000000017621e+01,5.990000000000033253e+01,-1.230000000000000071e+01,-6.300000000000001599e+00,-6.009999999999988773e+01,-3.468000000000020577e+02,-6.441999999999999318e+02,-9.216999999999987949e+02,-1.116199999999997999e+03,-7.059999999999980673e+02,1.521999999999996589e+03,1.500000000000000853e+02,3.208000000000017735e+02,-4.856000000000016712e+02,-2.066000000000007333e+02,1.161999999999999176e+02,-2.050000000000069633e+01,1.287000000000003297e+02,5.252999999999993861e+02,1.021200000000001410e+03,1.887000000000002728e+02,7.612000000000008413e+02,6.455999999999970669e+02,-9.039999999999992042e+01,-5.062999999999998408e+02,-1.798999999999998920e+02,-1.553999999999999773e+02,-8.399999999999998579e+00,0.000000000000000000e+00,-1.120000000000000107e+01,-7.900000000000006573e+00,1.749999999999999289e+01,-2.360000000000000497e+01,7.000000000000001776e-01,-1.435999999999999375e+02,-4.531000000000001364e+02,-8.280999999999993406e+02,-7.180999999999991132e+02,-7.482999999999974534e+02,-9.724000000000004320e+02,-7.919000000000020236e+02,-6.958000000000009777e+02,-2.873000000000007503e+02,-5.018999999999992951e+02,-3.458999999999999773e+02,-6.960000000000003695e+01,-6.140000000000001279e+01,4.369999999999994600e+01,1.054999999999999432e+02,3.829000000000001478e+02,2.865000000000002274e+02,-1.242000000000000597e+02,-2.945000000000001137e+02,-4.059000000000011710e+02,-7.980000000000002558e+01,0.000000000000000000e+00,0.000000000000000000e+00,-1.120000000000000107e+01,6.699999999999985079e+00,3.369999999999994600e+01,-2.650000000000001421e+01,-3.339999999999992752e+01,9.999999999997610800e-02,-9.659999999999979536e+01,-3.732000000000004434e+02,-4.126999999999999886e+02,-1.712000000000000739e+02,-1.731000000000000227e+02,-2.130000000000001421e+02,-1.127000000000000313e+02,-1.382000000000000171e+02,-3.457000000000006139e+02,-1.463000000000005514e+02,6.309999999999998010e+01,-1.028999999999999062e+02,-4.739999999999997016e+01,-1.352000000000002444e+02,-1.665000000000001421e+02,-2.160000000000005471e+01,-7.739999999999987779e+01,1.090000000000000568e+01,2.770000000000000284e+01,-9.799999999999998934e+00,0.000000000000000000e+00,-7.000000000000000000e+00,-4.199999999999999289e+00,-4.399999999999989697e+00,3.410000000000002984e+01,2.000000000000001332e+00,-2.890000000000005187e+01,-1.390000000000002522e+01,3.490000000000005542e+01,-3.089999999999997371e+01,-1.199999999999993960e+00,-3.229999999999999716e+01,-1.852999999999998977e+02,-2.135000000000006537e+02,-7.769999999999987494e+01,-2.468999999999998067e+02,-3.213000000000000114e+02,-1.880000000000000284e+02,-1.120000000000004547e+01,3.320000000000004547e+01,6.820000000000020179e+01,-1.800000000000001421e+01,-3.819999999999999574e+01,-1.639999999999997016e+01,-4.609999999999998010e+01,7.809999999999992326e+01,-6.070000000000000995e+01,0.000000000000000000e+00,-4.199999999999999289e+00,-7.000000000000000000e+00,0.000000000000000000e+00,-1.789999999999998437e+01
1.600000000000000755e+00,-5.879999999999999005e+00,-2.940000000000001723e+00,-4.749999999999988454e+00,5.609999999999999432e+00,-1.180000000000000382e+00,-7.819999999999997620e+00,9.420000000000019469e+00,-1.520000000000001794e+00,-4.660000000000023235e+00,8.830000000000017835e+00,-6.989999999999996660e+00,-7.399999999999800071e-01,1.448000000000009813e+01,-7.420000000000024798e+00,1.980000000000003757e+00,9.090000000000024727e+00,-3.195000000000014495e+01,-2.599999999999989542e-01,-1.876000000000000512e+01,1.158999999999991992e+01,-6.519999999999970264e+00,-2.813000000000004519e+01,1.796000000000012875e+01,-1.400000000000000799e+00,-2.040000000000000480e+00,-1.900000000000000577e+00,-1.130000000000000338e+00,4.270000000000004015e+00,6.799999999999999378e-01,3.100000000000010303e+00,-1.260000000000000453e+00,2.630000000000000782e+00,1.700000000000002398e+00,-2.200000000000000289e-01,-9.459999999999979536e+00,1.920999999999988717e+01,-5.360000000000001208e+00,-2.637999999999993150e+01,-8.850000000000004974e+00,1.259999999999998543e+01,2.299999999999996714e+00,3.279999999999994920e+00,-3.105000000000006466e+01,-7.455999999999986017e+01,1.621000000000002217e+01,-1.039999999999999680e+01,-3.569999999999998508e+00,-3.456000000000007333e+01,-1.603000000000002601e+01,2.720000000000004636e+00,-2.978999999999998138e+01,-5.500000000000000444e-01,-4.100000000000001976e-01,-5.000000000000001665e-02,-9.900000000000007683e-01,-6.050000000000000711e+00,-4.289999999999992042e+00,3.540000000000000924e+00,1.689999999999992841e+00,-6.710000000000018616e+00,-2.729999999999999094e+00,4.300000000000002709e-01,9.000000000000005773e-01,5.010000000000004228e+00,1.122999999999999154e+01,-4.580000000000008065e+00,1.181999999999998785e+01,-5.340000000000062030e+00,2.979000000000012349e+01,1.360000000000011688e+01,-4.092000000000040671e+01,-7.171000000000016428e+01,-4.863000000000004519e+01,-4.680000000000008953e+01,-4.135000000000003695e+01,-4.085999999999975074e+01,-4.397999999999994714e+01,-9.139999999999988134e+00,-1.574000000000005173e+01,-2.729999999999999094e+00,-4.440000000000000391e+00,-4.569999999999999396e+00,-1.800000000000000488e-01,2.699999999999991296e-01,-7.530000000000020677e+00,-1.089999999999997859e+00,4.479999999999993321e+00,-3.029999999999997584e+00,-8.400000000000002132e+00,7.229999999999983551e+00,-3.220000000000004636e+00,8.129999999999993676e+00,2.750999999999995893e+01,-5.310000000000008491e+00,-1.230000000000007176e+01,-1.986999999999983757e+01,-9.180000000000045901e+00,-1.288000000000018197e+01,-6.609999999999984333e+00,-1.002199999999999704e+02,-1.010000000000001137e+02,-2.168000000000001037e+01,-5.005999999999987438e+01,-2.701999999999997115e+01,-2.780000000000057092e+00,-2.341999999999999460e+01,-8.240000000000204494e+00,-1.340000000000000302e+00,-5.300000000000000266e-01,-1.600000000000000311e-01,-1.680000000000000382e+00,1.114999999999997371e+01,-1.570000000000004725e+00,-6.449999999999985967e+00,2.119999999999995666e+00,2.830000000000018279e+00,1.621999999999991360e+01,1.174999999999990941e+01,1.041000000000001791e+01,-4.799999999999944311e-01,-2.220000000000023288e+00,-6.020999999999996533e+01,-5.227000000000013813e+01,-3.266999999999954696e+01,3.683000000000012619e+01,4.679000000000009152e+01,4.528999999999958703e+01,-1.985000000000004761e+01,-4.037000000000031008e+01,5.474000000000022226e+01,4.126999999999969049e+01,-5.688999999999997215e+01,-1.215000000000026148e+01,-7.139000000000015689e+01,-2.806000000000011951e+01,-9.329999999999998295e+00,-7.120000000000003659e+00,-5.000000000000000888e+00,-4.000000000000001332e-01,-6.079999999999985860e+00,9.599999999999992983e-01,-1.410000000000000142e+00,-9.249999999999975131e+00,2.555999999999997385e+01,6.756999999999987949e+01,1.373999999999999666e+01,-3.626999999999999602e+01,1.170699999999993679e+02,-2.309000000000004604e+01,-1.169999999999928875e+00,1.427000000000001734e+01,3.901999999999998181e+01,5.593000000000007077e+01,3.090000000000006608e+01,7.274000000000043542e+01,4.566000000000016712e+01,4.116999999999995197e+01,3.100999999999979906e+01,-4.041999999999998039e+01,5.173999999999992383e+01,-7.780999999999946226e+01,-4.921999999999970044e+01,-3.962000000000035271e+01,-4.589999999999997193e+00,-1.359999999999999654e+00,-2.200000000000000622e+00,-9.800000000000005373e-01,-4.570000000000001172e+00,-2.760000000000004228e+00,-2.510000000000001563e+00,-4.689999999999992397e+00,4.627999999999989456e+01,1.005000000000000782e+01,-8.731999999999996476e+01,-3.114999999999997371e+01,1.341799999999995237e+02,-3.633000000000006935e+01,9.112999999999966860e+01,-3.680000000000000160e+00,-1.075799999999999272e+02,-1.638000000000000966e+01,2.911999999999980560e+01,4.234000000000010289e+01,-1.113000000000004519e+01,-1.075999999999999091e+01,-7.809999999999776676e+00,-5.637000000000013245e+01,3.887000000000005429e+01,2.684999999999982023e+01,-9.080000000000017835e+00,-3.571000000000002927e+01,-4.176999999999999602e+01,-5.740000000000001990e+00,-4.000000000000000083e-02,-2.750000000000000000e+00,3.169999999999999485e+00,1.579999999999999849e+00,2.399999999999997136e-01,-9.589999999999994529e+00,3.157000000000007844e+01,1.963000000000008072e+01,-8.051999999999959812e+01,2.919999999999986073e+01,6.042999999999997129e+01,-1.278700000000005019e+02,-5.746000000000000085e+01,5.929999999999955307e+00,2.423000000000000043e+01,-1.269999999999998153e+01,-2.935999999999977561e+01,-3.217999999999985050e+01,-1.747999999999971266e+01,9.320000000000092655e+00,5.968000000000023419e+01,-9.062000000000014666e+01,-4.735000000000019327e+01,7.053000000000045588e+01,3.212999999999993861e+01,-1.062800000000006122e+02,-4.977999999999997272e+01,-2.864000000000000412e+01,-7.259999999999999787e+00,-6.000000000000000888e-01,1.118000000000000327e+01,4.199999999999984857e-01,1.438000000000002032e+01,-2.560000000000018261e+00,3.683000000000022567e+01,7.813999999999995794e+01,-2.373999999999996291e+01,-1.324000000000005706e+01,-1.132999999999998231e+01,7.254000000000044679e+01,1.372999999999979792e+01,1.339999999999986358e+01,7.889999999999938396e+00,-6.214000000000029189e+01,-2.357000000000005713e+01,1.043399999999998755e+02,-5.937000000000026034e+01,-6.000000000000005329e-02,6.161000000000016996e+01,1.457000000000001450e+01,2.930999999999998806e+01,4.927000000000050761e+01,3.188000000000004519e+01,-7.000000000000007105e+01,-7.127999999999978797e+01,-6.004000000000019099e+01,-6.000000000000023093e+00,2.720000000000002860e+00,1.069999999999992646e+01,7.380000000000017657e+00,1.732000000000005713e+01,-2.172000000000022624e+01,-1.714000000000011426e+01,1.002000000000002267e+01,-2.010999999999993193e+01,-6.739000000000000057e+01,-8.219999999999611617e+00,-1.342000000000014737e+01,3.443000000000005656e+01,-6.089000000000012136e+01,6.527999999999997272e+01,8.954000000000006310e+01,7.461000000000052523e+01,-7.400999999999993406e+01,2.619999999999995310e+01,-4.351000000000040302e+01,7.266000000000066450e+01,9.790000000000024016e+00,-5.001000000000015433e+01,-2.106000000000004491e+01,1.462999999999994039e+01,-3.510000000000084164e+00,-1.271000000000002039e+01,-1.148999999999994870e+01,-6.999999999999992895e-01,4.710000000000001741e+00,9.779999999999970939e+00,6.169999999999981277e+00,4.369999999999996554e+00,-3.445999999999994401e+01,-4.003999999999980020e+01,1.506999999999998785e+01,-3.694999999999999574e+01,-3.275999999999991275e+01,4.837000000000027455e+01,4.880000000000026539e+00,-3.471000000000030639e+01,-2.489999999999893632e+00,-5.926000000000018986e+01,-1.013799999999997112e+02,-4.962000000000003297e+01,-2.385000000000010090e+01,-3.933999999999947050e+01,5.330000000000090665e+00,-2.969000000000015405e+01,3.138999999999959201e+01,-1.828999999999997428e+01,-2.432000000000012108e+01,5.771999999999962228e+01,-7.360000000000009379e+01,8.320000000000005969e+01,3.141999999999994841e+01,1.870000000000000551e+00,-1.750000000000002665e+00,1.720000000000000639e+00,1.511999999999999211e+01,1.351000000000003354e+01,-1.667999999999989669e+01,-7.927999999999993008e+01,-7.021000000000006480e+01,-7.985999999999994259e+01,-4.326000000000001933e+01,-8.953999999999841464e+01,-1.255399999999992957e+02,-1.526999999999985675e+02,-1.258900000000004837e+02,-7.006000000000025807e+01,-1.034899999999999096e+02,-1.694200000000001012e+02,-6.071000000000028507e+01,-1.529999999999904992e+00,-7.013999999999978741e+01,-7.081999999999996476e+01,-2.061000000000003851e+01,-3.110999999999992482e+01,3.563999999999995794e+01,9.889999999999906422e+00,-1.081799999999996800e+02,6.681999999999997897e+01,1.553999999999999382e+01,-2.680000000000000604e+00,1.689999999999999503e+00,3.369999999999999662e+00,1.323999999999994159e+01,9.830000000000008953e+00,-2.590000000000007407e+00,-2.699999999999996092e+01,-6.505999999999998806e+01,-1.074999999999997442e+02,-8.743000000000029104e+01,-1.276099999999998289e+02,-9.611999999999999034e+01,-1.299300000000004331e+02,-5.464999999999946567e+01,-4.165000000000000568e+01,-3.082999999999979579e+01,5.610999999999990706e+01,-2.799000000000002331e+01,-7.948999999999983856e+01,-5.520000000000079510e+00,-4.631999999999997897e+01,-1.540000000000011049e+01,6.330000000000046256e+00,-2.947000000000002373e+01,-1.126199999999996493e+02,-1.041799999999997084e+02,4.296000000000001506e+01,9.700000000000004619e+00,2.339999999999998526e+00,2.680000000000001492e+00,1.021999999999997222e+01,7.579999999999992077e+00,2.809999999999992948e+00,7.389999999999994351e+00,-2.483999999999996788e+01,-4.647999999999989740e+01,-3.593999999999970640e+01,-6.298999999999929145e+01,-9.474000000000089017e+01,-1.240200000000005929e+02,3.680999999999997385e+01,-3.320000000000000995e+01,6.332000000000024897e+01,-7.450999999999935142e+01,-1.257399999999984743e+02,8.138999999999975898e+01,-3.440999999999992554e+01,1.530000000000011795e+01,2.942000000000054527e+01,8.153000000000010061e+01,-2.124000000000003396e+01,-2.111999999999998323e+01,-2.667999999999989669e+01,9.434000000000052921e+01,5.757999999999997698e+01,1.066999999999998749e+01,-3.649999999999997247e+00,9.079999999999991189e+00,9.279999999999997584e+00,4.760000000000008669e+00,4.309999999999997833e+00,8.249999999999955591e+00,-3.041999999999974946e+01,-4.706000000000008754e+01,-8.106999999999976581e+01,2.662000000000020350e+01,1.017900000000004042e+02,-1.271999999999998465e+01,-1.165300000000000296e+02,-6.834000000000010289e+01,-1.727000000000001023e+01,-8.197000000000029729e+01,-4.918999999999994799e+01,4.648999999999998067e+01,-1.662100000000000648e+02,4.876999999999993207e+01,-4.969000000000008299e+01,-8.946999999999937359e+01,-3.075999999999996248e+01,-6.597000000000076625e+01,-4.866000000000047265e+01,-8.609999999999979536e+01,-5.279999999999996874e+01,1.420999999999996533e+01,6.670000000000004370e+00,-1.029999999999997584e+00,-5.280000000000000249e+00,1.898000000000007148e+01,1.145000000000006501e+01,-1.414000000000007695e+01,-1.882999999999994856e+01,-7.080000000000036486e+00,1.895000000000005258e+01,1.296699999999997033e+02,1.348400000000001171e+02,6.841999999999973170e+01,-4.737999999999956202e+01,8.967000000000010118e+01,5.199999999999531219e+00,1.191000000000008363e+01,-1.615999999999982606e+01,7.870000000000096918e+00,-2.403000000000094261e+01,-6.834000000000055763e+01,-3.445999999999988717e+01,-7.280999999999949068e+01,7.840999999999993975e+01,-1.920000000000000995e+01,-6.321000000000019980e+01,-5.813999999999973767e+01,-1.028100000000000023e+02,1.073599999999999000e+02,9.495999999999995111e+01,2.530000000000000249e+00,-1.193999999999997463e+01,1.128999999999999027e+01,-1.744999999999996021e+01,-1.500000000000157319e-01,-4.514999999999989910e+01,8.457999999999996987e+01,1.207999999999995744e+01,-5.791000000000006764e+01,-8.587000000000048772e+01,4.656999999999999318e+01,3.169000000000018957e+01,-5.019999999999924079e+00,3.202000000000010260e+01,3.302000000000003865e+01,-5.659999999999925535e+00,6.162999999999966150e+01,3.671999999999965070e+01,6.556999999999990791e+01,3.271000000000015717e+01,4.302000000000025892e+01,5.904999999999984084e+01,7.294999999999969020e+01,5.234999999999988773e+01,2.679999999999716387e+00,-2.280000000000042881e+00,8.046000000000005059e+01,5.129000000000019099e+01,7.370000000000014317e+00,4.400000000000034994e+00,7.379999999999988347e+00,8.100000000000035172e+00,1.302999999999999581e+01,-9.566000000000065029e+01,-1.035000000000008136e+01,-1.092000000000013848e+01,-3.191999999999985960e+01,-5.612000000000054456e+01,1.382999999999996099e+01,1.063000000000031520e+01,7.834999999999962483e+01,2.893999999999972772e+01,-3.448999999999990962e+01,-2.934000000000016684e+01,-3.003000000000008640e+01,-4.093999999999994799e+01,3.349000000000005883e+01,-5.130000000000049454e+01,-3.850000000000041211e+01,-9.189999999999951541e+00,1.056999999999977113e+01,1.344699999999990041e+02,1.006900000000007225e+02,3.740000000000008651e+00,-2.999999999998755398e-02,9.449999999999977973e+00,9.109999999999981668e+00,1.579999999999992299e+00,-1.582999999999995566e+01,1.463000000000001499e+01,-4.048000000000013898e+01,-5.481999999999970186e+01,-3.342999999999992156e+01,1.539999999999983826e+00,8.696999999999985675e+01,-5.734000000000011710e+01,-1.346999999999982833e+01,7.033999999999956287e+01,-6.368000000000008498e+01,9.237999999999932754e+01,2.865999999999991843e+01,5.350000000000056488e+00,9.994000000000063721e+01,-3.781000000000015149e+01,-3.909999999999982379e+00,1.353999999999980020e+01,-5.158999999999949182e+01,5.576999999999973312e+01,-3.336999999999999744e+01,8.224000000000033594e+01,1.030600000000003718e+02,1.288900000000003558e+02,2.009000000000001762e+01,5.220000000000001528e+00,4.200000000000003730e+00,3.249999999999993339e+00,-7.489999999999991331e+00,-5.320000000000016271e+00,-8.645000000000054285e+01,3.044999999999989981e+01,8.138000000000012335e+01,7.646000000000009322e+01,6.304000000000041126e+01,5.938999999999979451e+01,-1.024999999999992895e+01,4.246999999999997755e+01,4.248000000000082110e+01,4.962000000000037403e+01,1.184999999999984688e+01,1.521000000000006480e+01,8.260000000000101039e+00,-2.345999999999992269e+01,4.536999999999985533e+01,9.259999999999942943e+00,6.207000000000057582e+01,-6.900000000000164668e+00,-1.707000000000003581e+01,-2.080999999999992056e+01,3.433000000000000540e+01,6.769999999999963158e+00,1.919999999999998153e+00,1.573999999999996646e+01,5.989999999999990443e+00,-3.860000000000024301e+00,-1.909999999999986375e+00,5.630000000000004334e+00,-6.064999999999991331e+01,-1.800000000000000044e+00,-1.599999999999994671e+01,-1.900000000000136691e+00,1.076999999999993385e+01,3.601999999999976865e+01,-5.300000000000051337e+00,1.271000000000015362e+01,1.060500000000005514e+02,-3.402999999999986613e+01,1.999999999999837463e+00,9.419999999999960849e+00,3.643000000000000682e+01,1.024899999999991849e+02,-7.163000000000013756e+01,2.070999999999994756e+01,3.877999999999985903e+01,9.183000000000008356e+01,2.786000000000005983e+01,3.254000000000004178e+01,-2.071000000000002927e+01,1.672999999999996845e+01,6.169999999999999041e+00,1.799999999999971623e-01,7.580000000000021387e+00,-2.140000000000001013e+00,1.596000000000003105e+01,8.300000000000009592e+00,3.411000000000007759e+01,3.077999999999997627e+01,1.014000000000003432e+01,-7.044000000000075090e+01,5.320000000000025153e+00,-8.802999999999994429e+01,2.266000000000013159e+01,5.730000000000002203e+00,2.897999999999982990e+01,-1.540999999999981895e+01,-8.859999999999978115e+00,-1.500000000000011013e+01,-1.382399999999989575e+02,-1.550000000000000711e+01,-1.114999999999998792e+01,1.857000000000005002e+01,8.070000000000009166e+00,5.011999999999985533e+01,-4.640000000000162217e+00,9.759000000000041553e+01,8.465999999999962711e+01,8.602000000000006708e+01,1.912000000000001876e+01,-2.099999999999999367e-01,5.649999999999972822e+00,-8.959999999999970655e+00,4.820000000000006501e+00,-2.109999999999976783e+00,-1.144999999999994245e+01,3.857999999999998408e+01,2.971999999999988873e+01,2.759999999999943388e+00,1.223600000000000563e+02,8.496999999999947306e+01,-5.125000000000012790e+01,3.640000000000000568e+01,4.857999999999993435e+01,3.558000000000020435e+01,8.289999999999990266e+00,-6.214000000000059032e+01,-5.919999999999951967e+01,9.014000000000029900e+01,3.851000000000019696e+01,-5.299999999999856826e+00,-6.020999999999993690e+01,-1.388000000000002032e+01,4.854999999999991900e+01,6.546000000000023533e+01,-4.879000000000014836e+01,2.040999999999995040e+01,4.940000000000007496e+00,8.849999999999999645e+00,4.209999999999975984e+00,-1.527000000000000313e+01,-1.128999999999999382e+01,-3.530000000000030891e+00,5.100000000000022737e+00,-3.070000000000026574e+01,-2.670999999999974150e+01,-5.314000000000028479e+01,-3.573999999999935540e+01,-1.359999999999979181e+01,-9.030000000000053717e+01,-4.879999999999995453e+01,-5.395999999999919083e+01,-9.411999999999989086e+01,2.618000000000002814e+01,2.430000000000011440e+01,-7.173000000000016030e+01,-1.069199999999998312e+02,-7.889999999999943725e+01,5.400000000000146905e-01,1.549999999999990941e+00,4.556000000000020123e+01,8.116999999999995907e+01,1.840000000000001634e+01,-1.511000000000004384e+01,-7.440000000000005720e+00,-9.999999999998860495e-03,8.719999999999993534e+00,6.639999999999999680e+00,-2.009999999999998455e+00,3.300000000000011813e-01,-6.500000000000013323e+00,-3.668999999999990536e+01,-6.770000000000000284e+01,-8.954000000000006310e+01,-1.090700000000002348e+02,-7.386000000000015575e+01,1.532200000000001694e+02,1.464999999999987601e+01,3.494000000000001904e+01,-4.523999999999998067e+01,-1.368999999999996753e+01,1.977999999999996916e+01,-6.799999999999820632e-01,1.184000000000000519e+01,5.186999999999988376e+01,1.077300000000000892e+02,2.697999999999995424e+01,7.929000000000013415e+01,6.258000000000004093e+01,-6.720000000000053930e+00,-4.611999999999989797e+01,-1.557999999999999652e+01,-1.442999999999999794e+01,-7.800000000000002487e-01,0.000000000000000000e+00,-1.039999999999999813e+00,-1.030000000000000471e+00,1.930000000000004157e+00,-2.619999999999999218e+00,-8.999999999999970524e-02,-1.357999999999997165e+01,-4.174000000000001620e+01,-8.275000000000000000e+01,-7.823000000000001819e+01,-8.213000000000019440e+01,-9.361999999999991928e+01,-7.847000000000022624e+01,-7.050999999999999091e+01,-2.740000000000006608e+01,-4.973000000000005372e+01,-3.635999999999998522e+01,-9.799999999999991829e+00,-7.380000000000012328e+00,1.969999999999999529e+00,9.530000000000031335e+00,3.643999999999996220e+01,2.382999999999996987e+01,-1.210999999999999055e+01,-2.743000000000002814e+01,-3.862999999999992440e+01,-7.410000000000002807e+00,0.000000000000000000e+00,0.000000000000000000e+00,-1.039999999999999813e+00,5.100000000000004530e-01,2.990000000000000213e+00,-2.530000000000000693e+00,-3.130000000000013216e+00,-1.400000000000013456e-01,-9.819999999999989626e+00,-4.190000000000001279e+01,-4.841000000000000369e+01,-1.860000000000003695e+01,-2.103000000000001890e+01,-2.206000000000002359e+01,-1.155000000000004690e+01,-1.187999999999999545e+01,-3.149999999999998934e+01,-1.364000000000000412e+01,5.730000000000002203e+00,-9.979999999999993321e+00,-4.910000000000009912e+00,-1.363999999999996149e+01,-1.617000000000000881e+01,-1.889999999999993019e+00,-7.660000000000008136e+00,7.700000000000013500e-01,2.910000000000000142e+00,-9.100000000000003642e-01,0.000000000000000000e+00,-6.500000000000000222e-01,-3.900000000000001243e-01,-4.199999999999993738e-01,3.430000000000004601e+00,2.699999999999999623e-01,-3.349999999999995204e+00,-1.959999999999996634e+00,3.379999999999999449e+00,-2.820000000000004725e+00,-1.199999999999999678e-01,-3.139999999999989466e+00,-1.845999999999999730e+01,-2.141000000000009607e+01,-8.420000000000005258e+00,-2.312999999999998479e+01,-2.941999999999990933e+01,-1.729999999999998650e+01,-1.200000000000001510e+00,2.640000000000000124e+00,6.710000000000008846e+00,-1.650000000000002354e+00,-3.960000000000000409e+00,-1.660000000000000808e+00,-4.460000000000000853e+00,7.920000000000010587e+00,-5.779999999999990479e+00,0.000000000000000000e+00,-3.900000000000001243e-01,-6.500000000000000222e-01,0.000000000000000000e+00,-1.800000000000001377e+00
1.071000000000007502e+00,-5.910000000000003029e-01,-3.060000000000001608e-01,-4.560000000000003495e-01,5.760000000000004006e-01,-1.480000000000000482e-01,-7.750000000000005773e-01,9.280000000000007132e-01,-1.620000000000002549e-01,-5.540000000000003810e-01,9.330000000000004956e-01,-6.880000000000001670e-01,-9.800000000000029521e-02,1.413000000000002698e+00,-7.900000000000003686e-01,2.079999999999999627e-01,9.230000000000008198e-01,-3.133999999999992792e+00,-2.199999999999974198e-02,-1.854000000000002757e+00,1.143999999999999018e+00,-6.770000000000004903e-01,-2.725999999999987544e+00,1.753999999999989790e+00,-1.340000000000000635e-01,-1.830000000000000238e-01,-1.700000000000000122e-01,-1.110000000000000570e-01,4.150000000000002021e-01,8.000000000000000167e-02,3.020000000000002127e-01,-1.319999999999998119e-01,2.570000000000001728e-01,1.830000000000001070e-01,-1.199999999999990657e-02,-9.480000000000007310e-01,2.006000000000003336e+00,-5.360000000000002540e-01,-2.738999999999992774e+00,-1.095999999999998753e+00,1.292999999999999705e+00,2.249999999999994782e-01,3.190000000000002833e-01,-3.120000000000005436e+00,-7.719999999999962448e+00,1.368999999999992667e+00,-1.003000000000000336e+00,-3.860000000000005649e-01,-3.486999999999990330e+00,-1.446000000000002395e+00,4.010000000000006892e-01,-2.987999999999979117e+00,-6.300000000000000044e-02,-4.600000000000001310e-02,-1.199999999999999678e-02,-9.500000000000002887e-02,-6.210000000000004405e-01,-4.160000000000003140e-01,3.640000000000002678e-01,1.440000000000001279e-01,-6.670000000000004814e-01,-2.680000000000002380e-01,6.000000000000002554e-02,7.000000000000006217e-02,4.530000000000002358e-01,1.137000000000007560e+00,-5.039999999999991154e-01,1.029000000000002135e+00,-3.099999999999996092e-01,3.201999999999983526e+00,1.911999999999995037e+00,-4.104000000000003645e+00,-7.365000000000014424e+00,-5.052999999999976843e+00,-4.710999999999976318e+00,-4.084999999999994635e+00,-3.784000000000020680e+00,-4.165999999999990600e+00,-8.410000000000005249e-01,-1.553999999999998272e+00,-2.500000000000001665e-01,-4.080000000000002514e-01,-4.340000000000002744e-01,-2.000000000000000736e-02,3.799999999999993661e-02,-7.740000000000005764e-01,-1.109999999999999459e-01,4.450000000000003397e-01,-3.020000000000002127e-01,-8.470000000000006413e-01,7.040000000000005143e-01,-3.060000000000001052e-01,8.730000000000006644e-01,2.644000000000003681e+00,-8.490000000000000879e-01,-1.439999999999986846e+00,-1.961999999999973099e+00,-6.069999999999956541e-01,-1.036000000000018684e+00,-5.739999999999972902e-01,-1.062200000000012068e+01,-1.043400000000008276e+01,-1.931999999999991058e+00,-4.900999999999992696e+00,-2.955999999999998185e+00,-4.200000000000010392e-01,-2.504000000000001336e+00,-9.360000000000014975e-01,-1.420000000000000429e-01,-6.499999999999998834e-02,-2.100000000000000130e-02,-1.479999999999999927e-01,1.122999999999999332e+00,-1.670000000000000651e-01,-6.400000000000003464e-01,2.220000000000001417e-01,3.010000000000001563e-01,1.608000000000002760e+00,1.172000000000002595e+00,1.063000000000005274e+00,-2.020000000000008455e-01,-3.140000000000164881e-01,-5.926999999999971180e+00,-5.237999999999994216e+00,-2.673000000000014698e+00,4.029000000000007020e+00,5.133000000000008889e+00,4.322000000000077335e+00,-2.330999999999982641e+00,-3.792000000000044668e+00,5.964000000000010182e+00,4.779000000000021231e+00,-5.892000000000012783e+00,-1.343999999999996531e+00,-7.465999999999939796e+00,-2.830999999999990191e+00,-1.059000000000000385e+00,-7.620000000000001217e-01,-4.810000000000003162e-01,-4.000000000000000083e-02,-6.080000000000003180e-01,1.100000000000002365e-01,-1.330000000000001459e-01,-9.500000000000006217e-01,2.577999999999999847e+00,6.801000000000016144e+00,1.354999999999996874e+00,-3.941000000000003833e+00,1.117800000000001504e+01,-2.622999999999998444e+00,-6.909999999999876241e-01,1.723999999999986654e+00,3.761999999999990241e+00,5.233000000000059160e+00,2.973000000000012744e+00,7.064999999999997726e+00,4.848000000000022069e+00,3.870000000000010321e+00,3.150999999999994028e+00,-3.623999999999999222e+00,4.871000000000010210e+00,-7.997999999999992227e+00,-4.983000000000026297e+00,-4.107999999999972118e+00,-5.810000000000001830e-01,-2.080000000000000182e-01,-2.200000000000000844e-01,-9.800000000000005929e-02,-4.620000000000002993e-01,-2.589999999999998970e-01,-2.670000000000001816e-01,-4.950000000000001066e-01,4.652999999999993364e+00,1.000999999999999890e+00,-8.812999999999997058e+00,-3.777000000000001467e+00,1.287999999999982847e+01,-4.124000000000001442e+00,9.005999999999998451e+00,-4.610000000000005205e-01,-1.096000000000000263e+01,-1.817000000000004833e+00,2.921999999999990827e+00,3.886000000000021437e+00,-1.672999999999995380e+00,-1.375999999999995449e+00,-8.669999999999880025e-01,-5.992999999999981675e+00,3.484999999999991882e+00,2.857999999999992546e+00,-3.230000000000000093e-01,-2.774999999999991918e+00,-3.836999999999997080e+00,-5.710000000000002851e-01,-8.000000000000000167e-03,-2.500000000000001110e-01,3.190000000000001168e-01,1.610000000000001152e-01,1.599999999999990666e-02,-9.550000000000001821e-01,3.118999999999998884e+00,1.749999999999993783e+00,-8.339999999999994529e+00,2.345000000000006413e+00,6.527999999999989811e+00,-1.274199999999996002e+01,-5.858999999999983999e+00,3.450000000000000844e-01,2.147000000000005571e+00,-9.710000000000040821e-01,-3.421999999999983721e+00,-3.638000000000027434e+00,-1.856000000000002315e+00,9.119999999999999218e-01,6.056000000000031136e+00,-9.613999999999940371e+00,-4.972999999999995424e+00,6.853999999999984105e+00,3.529000000000032777e+00,-1.015899999999998826e+01,-4.946999999999997399e+00,-2.874999999999999556e+00,-7.130000000000004112e-01,-6.499999999999998834e-02,1.099999999999998090e+00,3.199999999999998679e-02,1.483999999999997987e+00,-2.130000000000005500e-01,3.422999999999991161e+00,7.508000000000031982e+00,-2.537000000000009248e+00,-6.810000000000038245e-01,-8.839999999999977875e-01,7.892000000000038540e+00,1.064999999999967306e+00,1.727999999999991543e+00,1.275000000000000355e+00,-5.945000000000027818e+00,-2.116000000000000991e+00,1.086900000000006017e+01,-5.789999999999981384e+00,3.480000000000000870e-01,5.976999999999999424e+00,1.225999999999998868e+00,3.208000000000008178e+00,5.006999999999997009e+00,3.279999999999991367e+00,-6.744999999999980567e+00,-7.061999999999998501e+00,-5.864000000000025636e+00,-5.979999999999999760e-01,2.830000000000001958e-01,1.080999999999999295e+00,7.530000000000003357e-01,1.732999999999984775e+00,-2.174999999999987832e+00,-1.819000000000006834e+00,7.319999999999992069e-01,-1.709000000000001185e+00,-6.265999999999990244e+00,-2.930000000000088645e-01,-1.359000000000016861e+00,3.663999999999985047e+00,-5.952999999999995850e+00,6.457999999999945118e+00,9.346000000000007191e+00,7.446000000000045027e+00,-7.273000000000009457e+00,2.887000000000004007e+00,-4.603999999999970782e+00,6.826000000000029821e+00,9.300000000000009370e-01,-4.471000000000016072e+00,-1.740000000000002434e+00,1.747000000000010100e+00,-2.299999999999846612e-01,-1.252000000000000890e+00,-1.115000000000005320e+00,-6.799999999999989386e-02,4.880000000000004334e-01,9.680000000000007487e-01,6.050000000000002043e-01,4.550000000000000155e-01,-3.399999999999995470e+00,-4.214000000000039492e+00,1.299999999999999378e+00,-3.473000000000013632e+00,-2.784000000000006469e+00,4.876000000000010992e+00,-7.600000000000393940e-02,-3.252999999999970360e+00,1.450000000000042366e-01,-6.376999999999993562e+00,-1.071599999999995134e+01,-5.146000000000037211e+00,-2.389000000000005564e+00,-3.450999999999986301e+00,1.113000000000003764e+00,-3.115000000000025526e+00,3.282000000000004913e+00,-1.562000000000000055e+00,-2.071000000000009500e+00,5.742999999999951477e+00,-7.114999999999973568e+00,8.462000000000010402e+00,3.170000000000000817e+00,1.840000000000001079e-01,-1.810000000000000497e-01,1.889999999999999736e-01,1.501999999999994895e+00,1.357999999999996543e+00,-1.609000000000003761e+00,-8.197000000000004505e+00,-7.016000000000005343e+00,-7.823000000000053689e+00,-3.970000000000001084e+00,-8.976000000000020407e+00,-1.291099999999996051e+01,-1.586400000000003452e+01,-1.232699999999987917e+01,-7.163000000000009138e+00,-1.086599999999994459e+01,-1.726300000000000878e+01,-5.623000000000010878e+00,6.069999999999624585e-01,-6.689999999999987068e+00,-7.467000000000028948e+00,-2.379999999999991012e+00,-2.796999999999991715e+00,3.970000000000003748e+00,9.150000000000048095e-01,-1.100199999999997935e+01,6.922000000000003261e+00,1.591999999999997639e+00,-2.520000000000001128e-01,1.800000000000001044e-01,3.130000000000003890e-01,1.350999999999996870e+00,9.990000000000005542e-01,-2.799999999999986944e-01,-2.845000000000010409e+00,-6.430999999999985839e+00,-1.080500000000002281e+01,-8.739999999999975344e+00,-1.265899999999995984e+01,-9.514000000000020663e+00,-1.280899999999986250e+01,-5.771000000000033658e+00,-4.064999999999972857e+00,-2.790999999999987491e+00,5.485999999999983778e+00,-2.519999999999991136e+00,-7.390999999999984915e+00,-1.219999999999879237e-01,-4.711999999999965993e+00,-1.445999999999999286e+00,1.406999999999995810e+00,-2.377000000000009106e+00,-1.132299999999995421e+01,-1.060699999999996734e+01,4.562000000000004718e+00,1.004000000000000670e+00,2.560000000000001719e-01,2.670000000000002371e-01,1.016000000000000680e+00,7.700000000000005729e-01,3.050000000000001599e-01,7.370000000000014317e-01,-2.462000000000012623e+00,-4.685999999999983068e+00,-3.632999999999960483e+00,-6.235000000000029630e+00,-9.616000000000065384e+00,-1.266299999999995229e+01,4.050999999999972623e+00,-3.516000000000012449e+00,7.053999999999997605e+00,-7.422999999999984055e+00,-1.261299999999997645e+01,8.045000000000046114e+00,-3.740000000000017533e+00,1.015000000000016778e+00,3.128000000000048963e+00,7.946000000000030816e+00,-2.012999999999995016e+00,-1.669000000000000261e+00,-2.429000000000045123e+00,9.575999999999972090e+00,6.030000000000006466e+00,1.083999999999999631e+00,-3.710000000000002185e-01,9.200000000000005951e-01,9.520000000000007345e-01,4.710000000000001963e-01,4.260000000000003229e-01,8.309999999999984066e-01,-3.062000000000008271e+00,-4.661999999999988376e+00,-7.890999999999944947e+00,2.821000000000005947e+00,9.909999999999925535e+00,-1.018000000000000904e+00,-1.157999999999992191e+01,-7.105000000000004867e+00,-1.417999999999994376e+00,-8.733000000000023633e+00,-4.809000000000000163e+00,4.726999999999987878e+00,-1.611900000000002464e+01,4.887000000000004007e+00,-4.344000000000004746e+00,-9.286000000000040444e+00,-3.534000000000005581e+00,-6.868000000000026084e+00,-4.919000000000024464e+00,-8.572999999999991516e+00,-5.015000000000006786e+00,1.451999999999997737e+00,6.940000000000002833e-01,-9.400000000000000022e-02,-5.240000000000003544e-01,1.893999999999990136e+00,1.158999999999994035e+00,-1.397000000000008235e+00,-1.886999999999999345e+00,-7.380000000000016547e-01,2.394000000000005457e+00,1.275899999999988133e+01,1.346399999999997199e+01,7.380000000000020322e+00,-5.029000000000042547e+00,8.912000000000009692e+00,3.140000000000034985e-01,9.869999999999991003e-01,-1.323999999999988963e+00,1.956999999999974316e+00,-1.985000000000005205e+00,-6.496999999999951925e+00,-3.639000000000007340e+00,-7.457000000000029161e+00,7.741999999999999105e+00,-2.222000000000011077e+00,-6.185000000000042242e+00,-6.031999999999992923e+00,-9.894999999999994245e+00,1.092499999999998650e+01,9.703000000000001180e+00,2.590000000000001745e-01,-1.238999999999999213e+00,1.146000000000001018e+00,-1.751000000000004109e+00,9.999999999998301914e-03,-4.423000000000008036e+00,8.808000000000008711e+00,1.776999999999977931e+00,-5.951000000000001400e+00,-8.614000000000025636e+00,5.217999999999941352e+00,3.105000000000030180e+00,2.230000000000018634e-01,3.705999999999983530e+00,3.731999999999997986e+00,-5.469999999999952678e-01,6.318000000000039584e+00,3.897999999999985921e+00,6.521000000000018559e+00,3.074999999999989964e+00,3.919000000000010697e+00,5.012999999999961709e+00,7.039000000000049440e+00,5.439000000000010715e+00,1.389999999999919356e-01,2.769999999999980256e-01,8.147000000000021558e+00,5.233999999999990216e+00,7.660000000000005693e-01,4.820000000000003171e-01,7.500000000000003331e-01,8.590000000000004299e-01,1.303999999999999382e+00,-9.587000000000006850e+00,-9.779999999999963167e-01,-1.033000000000015239e+00,-3.522000000000029551e+00,-5.458999999999983643e+00,1.115000000000000435e+00,1.318000000000006944e+00,7.768999999999939732e+00,3.382000000000008999e+00,-3.012999999999995904e+00,-2.421999999999994380e+00,-2.446999999999996511e+00,-3.741000000000024084e+00,3.524000000000027555e+00,-4.970000000000019291e+00,-4.583000000000048146e+00,-1.497999999999998666e+00,9.390000000000006120e-01,1.354199999999999804e+01,1.044999999999996732e+01,8.680000000000023253e-01,-2.899999999999892247e-02,9.620000000000007434e-01,9.100000000000006972e-01,1.459999999999997966e-01,-1.620999999999996666e+00,1.476999999999997870e+00,-4.160999999999964949e+00,-5.586999999999985533e+00,-3.395000000000017781e+00,-5.099999999999471623e-02,8.452999999999990521e+00,-5.630999999999914962e+00,-1.624999999999999778e+00,6.912000000000029232e+00,-7.044999999999985718e+00,8.998000000000002885e+00,2.926999999999992053e+00,5.569999999999953877e-01,1.016099999999997827e+01,-3.246000000000004881e+00,7.999999999997283590e-03,1.280000000000003135e+00,-5.490999999999989001e+00,5.600999999999995538e+00,-3.223000000000023402e+00,7.857999999999988994e+00,1.096500000000004071e+01,1.336399999999999189e+01,2.017000000000001236e+00,5.430000000000003713e-01,4.220000000000002638e-01,3.500000000000001443e-01,-6.750000000000007105e-01,-2.469999999999998863e-01,-8.608999999999927155e+00,2.817000000000013937e+00,7.955999999999971983e+00,7.700000000000081002e+00,6.416999999999977611e+00,6.046000000000029573e+00,-9.790000000000065317e-01,3.366000000000019643e+00,3.829999999999995630e+00,4.783000000000066088e+00,9.329999999999997184e-01,1.521000000000031882e+00,5.560000000000053788e-01,-2.256000000000013106e+00,4.410999999999997812e+00,8.519999999999930962e-01,6.692999999999975635e+00,-4.479999999999921823e-01,-1.752999999999999448e+00,-1.697000000000009168e+00,4.063999999999956536e+00,9.139999999999960378e-01,2.089999999999999636e-01,1.573000000000001508e+00,5.890000000000004121e-01,-3.720000000000002194e-01,-1.579999999999997518e-01,7.589999999999985647e-01,-5.957999999999976204e+00,-1.580000000000051641e-01,-1.050000000000004041e+00,-9.999999999987047028e-03,7.579999999999794680e-01,3.800000000000011813e+00,-8.749999999999944489e-01,3.550000000000376188e-01,1.035300000000007969e+01,-3.597999999999992760e+00,4.200000000000051470e-01,9.780000000000049765e-01,3.445000000000013163e+00,9.849000000000009081e+00,-7.887000000000045752e+00,2.444999999999999840e+00,4.319000000000010608e+00,9.487000000000010758e+00,2.612999999999992440e+00,3.208000000000014840e+00,-1.970000000000003526e+00,1.693000000000002503e+00,6.240000000000004432e-01,6.000000000000043493e-03,7.510000000000005560e-01,-2.070000000000002949e-01,1.619000000000001105e+00,8.009999999999988241e-01,3.394000000000010342e+00,3.093000000000011518e+00,1.660999999999990040e+00,-6.968999999999984318e+00,5.690000000000021707e-01,-8.888999999999997570e+00,2.515000000000007230e+00,9.640000000000024105e-01,3.523999999999966271e+00,-1.241000000000014758e+00,-8.740000000000024416e-01,-1.772999999999995469e+00,-1.377500000000000568e+01,-1.891999999999988136e+00,-4.770000000000020890e-01,2.317999999999991179e+00,1.014000000000001567e+00,5.203999999999993520e+00,-4.500000000000056177e-01,9.680999999999960082e+00,8.543999999999959627e+00,8.602000000000007418e+00,1.927999999999988834e+00,-7.999999999999972411e-03,5.710000000000003961e-01,-8.590000000000006519e-01,4.989999999999997771e-01,-1.799999999999998823e-01,-1.065000000000006164e+00,4.059999999999991616e+00,3.393000000000015781e+00,2.060000000000050402e-01,1.211200000000002497e+01,8.146000000000016783e+00,-4.921000000000050001e+00,3.623000000000001997e+00,4.813000000000044132e+00,4.105999999999992767e+00,1.117000000000005544e+00,-6.463000000000010736e+00,-5.079999999999959215e+00,9.345000000000032614e+00,4.173999999999990607e+00,-4.200000000000000955e-01,-6.727999999999989988e+00,-1.189000000000002721e+00,4.920000000000007923e+00,6.426000000000002821e+00,-4.956000000000018169e+00,2.037999999999999812e+00,5.180000000000002380e-01,8.880000000000006777e-01,4.230000000000002647e-01,-1.507000000000000339e+00,-1.185000000000000275e+00,-3.530000000000000915e-01,5.470000000000009299e-01,-2.985999999999998433e+00,-2.143000000000001126e+00,-4.968999999999961226e+00,-3.167999999999978833e+00,-1.353000000000003533e+00,-9.285999999999932086e+00,-4.867000000000003546e+00,-5.756999999999883322e+00,-9.734000000000063935e+00,2.249999999999960476e+00,2.603000000000000647e+00,-7.034000000000018460e+00,-1.040699999999999115e+01,-7.275999999999945622e+00,3.180000000000046123e-01,1.430000000000011817e-01,4.484000000000018638e+00,7.947000000000005393e+00,1.738999999999995660e+00,-1.594999999999999529e+00,-7.519999999999993356e-01,1.200000000000006964e-02,8.700000000000006617e-01,6.770000000000004903e-01,-2.010000000000000675e-01,1.700000000000001510e-02,-6.430000000000004601e-01,-3.671000000000013141e+00,-6.751000000000008328e+00,-8.903000000000004022e+00,-1.066200000000000081e+01,-7.322000000000003617e+00,1.483399999999999430e+01,1.403000000000002689e+00,3.837000000000009958e+00,-4.226000000000007972e+00,-1.783999999999998920e+00,1.139999999999999236e+00,-6.229999999999920046e-01,1.004000000000004444e+00,5.213999999999999524e+00,1.065600000000002368e+01,2.422999999999974730e+00,7.591999999999993420e+00,6.047999999999966292e+00,-8.469999999999993090e-01,-4.885999999999986798e+00,-1.594000000000000528e+00,-1.443000000000000060e+00,-7.799999999999999989e-02,0.000000000000000000e+00,-1.040000000000000369e-01,-1.149999999999999634e-01,1.879999999999999449e-01,-2.640000000000001790e-01,-1.000000000000004705e-02,-1.382000000000000117e+00,-4.167000000000001592e+00,-7.985999999999990884e+00,-7.513000000000019440e+00,-8.083000000000014396e+00,-9.081999999999990081e+00,-7.639999999999982805e+00,-7.010000000000010445e+00,-2.643999999999998796e+00,-4.868000000000002103e+00,-3.639000000000004231e+00,-9.420000000000003926e-01,-7.820000000000002505e-01,1.970000000000003693e-01,9.269999999999981588e-01,3.445999999999999730e+00,2.341000000000002412e+00,-1.248999999999998556e+00,-2.766999999999999904e+00,-3.871000000000013319e+00,-7.410000000000002141e-01,0.000000000000000000e+00,0.000000000000000000e+00,-1.040000000000000369e-01,4.500000000000005385e-02,3.190000000000002278e-01,-2.550000000000001155e-01,-3.180000000000001159e-01,-1.999999999999774528e-03,-9.660000000000000808e-01,-3.862000000000000099e+00,-4.387000000000003119e+00,-1.903999999999996362e+00,-2.124999999999998224e+00,-2.234999999999995879e+00,-1.137999999999998790e+00,-1.073999999999999178e+00,-2.890999999999994685e+00,-1.263999999999998902e+00,6.060000000000003162e-01,-1.003000000000000114e+00,-4.809999999999997611e-01,-1.377999999999998559e+00,-1.647000000000001796e+00,-2.069999999999995177e-01,-7.760000000000003562e-01,7.700000000000011002e-02,2.630000000000001226e-01,-9.100000000000002531e-02,0.000000000000000000e+00,-6.499999999999998834e-02,-3.899999999999999994e-02,-4.799999999999991773e-02,3.530000000000002025e-01,2.999999999999998154e-02,-3.100000000000001643e-01,-1.649999999999998135e-01,3.170000000000001705e-01,-3.070000000000001616e-01,-1.099999999999995426e-02,-2.900000000000000910e-01,-1.855999999999998984e+00,-2.085000000000003517e+00,-7.850000000000004752e-01,-2.249999999999996003e+00,-2.724999999999993427e+00,-1.578999999999998405e+00,-1.289999999999999758e-01,2.720000000000001306e-01,6.830000000000004956e-01,-1.820000000000000506e-01,-4.070000000000002505e-01,-1.740000000000000435e-01,-4.700000000000002509e-01,7.810000000000005826e-01,-5.890000000000004121e-01,0.000000000000000000e+00,-3.899999999999999994e-02,-6.499999999999998834e-02,0.000000000000000000e+00,-1.790000000000001312e-01
