3.700000000000000000e+01,-1.400000000000000000e+01,7.600000000000000000e+01,-1.600000000000000000e+01,-8.100000000000000000e+01,1.090000000000000000e+02,2.950000000000000000e+02,-7.600000000000000000e+01,1.980000000000000000e+02,-1.074000000000000000e+03,1.550000000000000000e+02,3.200000000000000000e+01,-3.040000000000000000e+02,-5.880000000000000000e+02,2.200000000000000000e+01,8.200000000000000000e+01,1.300000000000000000e+02,-2.010000000000000000e+02,3.860000000000000000e+02,-8.200000000000000000e+01,-3.720000000000000000e+02,1.750000000000000000e+02,-5.230000000000000000e+02,4.800000000000000000e+01,-7.000000000000000000e+00,-1.000000000000000000e+00,0.000000000000000000e+00,-2.900000000000000000e+01,-3.300000000000000000e+01,2.200000000000000000e+01,-1.100000000000000000e+01,-1.500000000000000000e+01,1.520000000000000000e+02,-1.690000000000000000e+02,-1.700000000000000000e+02,9.800000000000000000e+01,-5.850000000000000000e+02,-1.020000000000000000e+02,1.830000000000000000e+02,-4.140000000000000000e+02,-1.220000000000000000e+02,6.020000000000000000e+02,-2.600000000000000000e+01,-1.200000000000000000e+02,1.580000000000000000e+02,2.780000000000000000e+02,2.260000000000000000e+02,7.300000000000000000e+01,-3.170000000000000000e+02,-2.800000000000000000e+02,2.910000000000000000e+02,-6.000000000000000000e+01,-4.200000000000000000e+01,1.100000000000000000e+01,2.300000000000000000e+01,-7.000000000000000000e+00,-3.200000000000000000e+01,1.450000000000000000e+02,-1.080000000000000000e+02,-5.100000000000000000e+01,-1.500000000000000000e+01,-5.700000000000000000e+01,3.320000000000000000e+02,-8.000000000000000000e+00,-1.165000000000000000e+03,1.250000000000000000e+02,2.470000000000000000e+02,-6.550000000000000000e+02,-1.433000000000000000e+03,-7.780000000000000000e+02,-9.110000000000000000e+02,-8.520000000000000000e+02,-3.950000000000000000e+02,1.770000000000000000e+02,-5.960000000000000000e+02,2.900000000000000000e+01,2.560000000000000000e+02,2.500000000000000000e+01,6.800000000000000000e+01,9.200000000000000000e+01,-6.000000000000000000e+00,2.000000000000000000e+00,1.100000000000000000e+01,2.000000000000000000e+00,-4.000000000000000000e+00,-2.900000000000000000e+01,-1.140000000000000000e+02,2.000000000000000000e+00,-4.000000000000000000e+00,-1.800000000000000000e+01,1.250000000000000000e+02,-2.060000000000000000e+02,1.430000000000000000e+02,-9.170000000000000000e+02,-8.980000000000000000e+02,-9.070000000000000000e+02,-1.047000000000000000e+03,-1.326000000000000000e+03,-2.540000000000000000e+03,-1.269000000000000000e+03,5.950000000000000000e+02,-3.473000000000000000e+03,-2.244000000000000000e+03,-1.590000000000000000e+02,3.620000000000000000e+02,-4.280000000000000000e+02,-1.490000000000000000e+02,-1.640000000000000000e+02,-3.600000000000000000e+01,-1.600000000000000000e+01,-8.000000000000000000e+00,2.800000000000000000e+01,-2.600000000000000000e+01,-4.000000000000000000e+00,2.610000000000000000e+02,-1.110000000000000000e+02,3.500000000000000000e+01,1.050000000000000000e+02,-7.500000000000000000e+01,1.618000000000000000e+03,4.342000000000000000e+03,2.435000000000000000e+03,2.010000000000000000e+02,-1.149000000000000000e+03,-2.300000000000000000e+02,-2.335000000000000000e+03,-5.747000000000000000e+03,2.831000000000000000e+03,-2.470000000000000000e+02,-3.907000000000000000e+03,-6.980000000000000000e+02,8.930000000000000000e+02,-9.560000000000000000e+02,-7.600000000000000000e+01,1.130000000000000000e+03,-6.260000000000000000e+02,6.300000000000000000e+01,-5.000000000000000000e+01,-1.000000000000000000e+00,-1.000000000000000000e+00,-4.000000000000000000e+01,2.200000000000000000e+02,-1.100000000000000000e+01,-1.320000000000000000e+02,-9.000000000000000000e+01,-1.000000000000000000e+01,1.824000000000000000e+03,3.948000000000000000e+03,-1.200000000000000000e+03,2.184000000000000000e+03,-4.630000000000000000e+03,-8.113000000000000000e+03,1.644000000000000000e+03,3.800000000000000000e+02,-3.393000000000000000e+03,1.033000000000000000e+03,2.220000000000000000e+02,-1.970000000000000000e+03,5.270000000000000000e+02,2.841000000000000000e+03,2.300000000000000000e+01,-2.018000000000000000e+03,7.410000000000000000e+02,2.182000000000000000e+03,2.610000000000000000e+02,3.400000000000000000e+01,0.000000000000000000e+00,-3.300000000000000000e+01,-5.600000000000000000e+01,2.370000000000000000e+02,-2.300000000000000000e+01,1.780000000000000000e+02,-4.000000000000000000e+01,-1.410000000000000000e+02,1.519000000000000000e+03,1.709000000000000000e+03,-4.844000000000000000e+03,-1.487000000000000000e+03,-2.705000000000000000e+03,-2.503000000000000000e+03,-2.282000000000000000e+03,5.730000000000000000e+02,-4.444000000000000000e+03,-2.373000000000000000e+03,-7.000000000000000000e+02,-3.396000000000000000e+03,6.600000000000000000e+01,1.936000000000000000e+03,1.390000000000000000e+02,3.070000000000000000e+02,-1.769000000000000000e+03,3.710000000000000000e+02,-7.990000000000000000e+02,-7.090000000000000000e+02,-9.600000000000000000e+01,-5.000000000000000000e+00,1.270000000000000000e+02,-1.160000000000000000e+02,3.700000000000000000e+01,-1.200000000000000000e+01,-4.700000000000000000e+01,-4.680000000000000000e+02,-2.209000000000000000e+03,-6.230000000000000000e+02,-2.304000000000000000e+03,3.720000000000000000e+02,1.870000000000000000e+02,-1.609000000000000000e+03,-3.739000000000000000e+03,-2.920000000000000000e+02,-2.800000000000000000e+02,3.160000000000000000e+02,2.810000000000000000e+02,-5.302000000000000000e+03,1.731000000000000000e+03,1.940000000000000000e+03,-1.552000000000000000e+03,4.740000000000000000e+03,1.177000000000000000e+03,3.040000000000000000e+02,-3.860000000000000000e+02,-4.450000000000000000e+02,-3.700000000000000000e+01,-2.000000000000000000e+00,4.000000000000000000e+01,-7.000000000000000000e+01,-2.600000000000000000e+01,6.000000000000000000e+01,-1.080000000000000000e+02,-2.131000000000000000e+03,-3.135000000000000000e+03,-4.470000000000000000e+03,-1.518000000000000000e+03,-7.270000000000000000e+02,-1.893000000000000000e+03,-3.184000000000000000e+03,-2.726000000000000000e+03,3.014000000000000000e+03,2.311000000000000000e+03,-3.497000000000000000e+03,8.500000000000000000e+01,-1.961000000000000000e+03,2.679000000000000000e+03,-2.993000000000000000e+03,-3.979000000000000000e+03,7.360000000000000000e+02,-2.450000000000000000e+02,-9.640000000000000000e+02,-4.300000000000000000e+02,-4.080000000000000000e+02,2.100000000000000000e+01,1.100000000000000000e+01,9.800000000000000000e+01,-1.650000000000000000e+02,1.620000000000000000e+02,-5.900000000000000000e+01,-2.170000000000000000e+02,-5.930000000000000000e+02,-2.317000000000000000e+03,-3.766000000000000000e+03,-4.167000000000000000e+03,1.125000000000000000e+03,1.362000000000000000e+03,-1.839000000000000000e+03,-3.680000000000000000e+02,5.073000000000000000e+03,-1.443000000000000000e+03,-2.088000000000000000e+03,3.980000000000000000e+02,-2.430000000000000000e+03,-9.150000000000000000e+02,-3.896000000000000000e+03,-1.579000000000000000e+03,-1.673000000000000000e+03,-1.179000000000000000e+03,-1.039000000000000000e+03,-2.540000000000000000e+02,-2.360000000000000000e+02,-1.600000000000000000e+01,1.800000000000000000e+02,-9.300000000000000000e+01,1.310000000000000000e+02,1.120000000000000000e+02,1.550000000000000000e+02,-1.520000000000000000e+02,-6.400000000000000000e+02,-1.097000000000000000e+03,-2.386000000000000000e+03,-1.665000000000000000e+03,2.690000000000000000e+02,-7.770000000000000000e+02,-3.379000000000000000e+03,2.136000000000000000e+03,1.276000000000000000e+03,1.132000000000000000e+03,3.193000000000000000e+03,2.748000000000000000e+03,1.862000000000000000e+03,6.660000000000000000e+02,-2.052000000000000000e+03,-2.749000000000000000e+03,-8.110000000000000000e+02,-1.063000000000000000e+03,-1.003000000000000000e+03,-3.000000000000000000e+01,1.878000000000000000e+03,-1.400000000000000000e+01,-8.000000000000000000e+00,2.370000000000000000e+02,-1.120000000000000000e+02,4.000000000000000000e+01,-1.200000000000000000e+01,2.220000000000000000e+02,-5.970000000000000000e+02,-6.960000000000000000e+02,1.112000000000000000e+03,-6.500000000000000000e+02,-1.782000000000000000e+03,1.460000000000000000e+03,2.209000000000000000e+03,6.770000000000000000e+02,8.100000000000000000e+02,3.005000000000000000e+03,2.092000000000000000e+03,1.882000000000000000e+03,-3.050000000000000000e+02,3.458000000000000000e+03,-2.333000000000000000e+03,-3.210000000000000000e+03,-9.310000000000000000e+02,1.180000000000000000e+02,-6.090000000000000000e+02,-8.500000000000000000e+01,2.425000000000000000e+03,-2.800000000000000000e+01,-2.200000000000000000e+01,9.600000000000000000e+01,-1.350000000000000000e+02,-1.530000000000000000e+02,-5.100000000000000000e+01,-1.300000000000000000e+01,-1.900000000000000000e+01,3.674000000000000000e+03,6.954000000000000000e+03,2.690000000000000000e+03,-2.109000000000000000e+03,-1.810000000000000000e+03,-6.530000000000000000e+02,-4.668000000000000000e+03,2.873000000000000000e+03,3.108000000000000000e+03,4.657000000000000000e+03,1.333000000000000000e+03,2.714000000000000000e+03,1.702000000000000000e+03,-4.831000000000000000e+03,-9.550000000000000000e+02,-6.670000000000000000e+02,-8.220000000000000000e+02,-2.270000000000000000e+02,-2.360000000000000000e+02,1.150000000000000000e+02,5.700000000000000000e+01,1.540000000000000000e+02,-1.180000000000000000e+02,4.800000000000000000e+01,-9.400000000000000000e+01,2.400000000000000000e+01,1.020000000000000000e+02,1.038000000000000000e+03,4.438000000000000000e+03,1.794000000000000000e+03,-2.002000000000000000e+03,-3.303000000000000000e+03,-6.095000000000000000e+03,-4.753000000000000000e+03,-4.269000000000000000e+03,3.501000000000000000e+03,3.498000000000000000e+03,9.860000000000000000e+02,1.174000000000000000e+03,6.500000000000000000e+02,1.080000000000000000e+02,-3.434000000000000000e+03,-1.618000000000000000e+03,-7.350000000000000000e+02,-1.441000000000000000e+03,-5.720000000000000000e+02,-2.460000000000000000e+02,6.000000000000000000e+00,1.180000000000000000e+02,-2.400000000000000000e+01,-6.400000000000000000e+01,6.100000000000000000e+01,3.530000000000000000e+02,-8.800000000000000000e+01,-1.050000000000000000e+02,1.968000000000000000e+03,1.982000000000000000e+03,-1.859000000000000000e+03,-3.289000000000000000e+03,-3.257000000000000000e+03,-2.248000000000000000e+03,-2.082000000000000000e+03,-3.714000000000000000e+03,3.483000000000000000e+03,-2.610000000000000000e+03,-1.230000000000000000e+02,-7.030000000000000000e+02,-4.900000000000000000e+02,1.029000000000000000e+03,-2.234000000000000000e+03,-1.342000000000000000e+03,-1.586000000000000000e+03,-8.920000000000000000e+02,-7.430000000000000000e+02,-5.900000000000000000e+01,6.560000000000000000e+02,2.160000000000000000e+02,9.700000000000000000e+01,-1.170000000000000000e+02,1.680000000000000000e+02,-8.300000000000000000e+01,-6.000000000000000000e+01,1.700000000000000000e+01,-2.210000000000000000e+02,-6.960000000000000000e+02,-2.369000000000000000e+03,-3.602000000000000000e+03,-2.871000000000000000e+03,-1.294000000000000000e+03,4.300000000000000000e+01,2.390000000000000000e+02,2.416000000000000000e+03,4.652000000000000000e+03,-1.180000000000000000e+03,-4.420000000000000000e+02,3.746000000000000000e+03,-4.037000000000000000e+03,-4.460000000000000000e+03,-2.937000000000000000e+03,-8.650000000000000000e+02,-3.810000000000000000e+02,-9.180000000000000000e+02,-1.810000000000000000e+02,-1.110000000000000000e+02,-1.000000000000000000e+00,3.200000000000000000e+02,-1.630000000000000000e+02,-2.300000000000000000e+01,6.500000000000000000e+01,9.000000000000000000e+00,-1.140000000000000000e+02,-1.540000000000000000e+02,2.820000000000000000e+02,-3.650000000000000000e+02,-2.623000000000000000e+03,-2.469000000000000000e+03,-2.149000000000000000e+03,1.021000000000000000e+03,2.207000000000000000e+03,-2.790000000000000000e+02,2.765000000000000000e+03,-2.797000000000000000e+03,8.100000000000000000e+02,-1.210000000000000000e+03,-3.083000000000000000e+03,-2.228000000000000000e+03,-3.082000000000000000e+03,-1.101000000000000000e+03,-1.205000000000000000e+03,-1.403000000000000000e+03,-7.660000000000000000e+02,-2.520000000000000000e+02,8.000000000000000000e+00,-3.800000000000000000e+01,1.380000000000000000e+02,1.200000000000000000e+02,-2.050000000000000000e+02,-9.900000000000000000e+01,7.200000000000000000e+01,-1.152000000000000000e+03,-1.260000000000000000e+03,-4.880000000000000000e+02,-5.480000000000000000e+02,-2.276000000000000000e+03,-1.463000000000000000e+03,-4.343000000000000000e+03,1.040000000000000000e+03,2.220000000000000000e+02,-2.960000000000000000e+02,1.136000000000000000e+03,-1.783000000000000000e+03,-2.052000000000000000e+03,-1.632000000000000000e+03,1.870000000000000000e+03,-6.470000000000000000e+02,-3.138000000000000000e+03,-2.477000000000000000e+03,-1.671000000000000000e+03,-9.040000000000000000e+02,-5.270000000000000000e+02,-4.770000000000000000e+02,-3.940000000000000000e+02,-2.800000000000000000e+01,8.600000000000000000e+01,1.920000000000000000e+02,-2.360000000000000000e+02,-3.610000000000000000e+02,-1.543000000000000000e+03,-2.265000000000000000e+03,-1.005000000000000000e+03,-1.819000000000000000e+03,-4.043000000000000000e+03,-2.361000000000000000e+03,7.020000000000000000e+02,-8.870000000000000000e+02,4.146000000000000000e+03,3.750000000000000000e+03,-2.063000000000000000e+03,-2.760000000000000000e+03,-7.140000000000000000e+02,9.350000000000000000e+02,3.250000000000000000e+03,8.920000000000000000e+02,-3.965000000000000000e+03,-4.670000000000000000e+03,-2.352000000000000000e+03,-2.384000000000000000e+03,-5.080000000000000000e+02,1.730000000000000000e+02,1.562000000000000000e+03,-1.670000000000000000e+02,-4.300000000000000000e+01,-6.100000000000000000e+01,-3.580000000000000000e+02,-1.004000000000000000e+03,-3.234000000000000000e+03,-1.501000000000000000e+03,-1.656000000000000000e+03,-4.000000000000000000e+03,-4.117000000000000000e+03,2.479000000000000000e+03,1.264000000000000000e+03,-3.240000000000000000e+03,3.078000000000000000e+03,4.523000000000000000e+03,9.480000000000000000e+02,-6.190000000000000000e+02,1.003000000000000000e+03,1.450000000000000000e+03,4.453000000000000000e+03,1.338000000000000000e+03,-4.349000000000000000e+03,-3.356000000000000000e+03,-2.326000000000000000e+03,-3.780000000000000000e+02,-2.090000000000000000e+02,-3.100000000000000000e+01,7.010000000000000000e+02,-6.000000000000000000e+00,1.600000000000000000e+01,-1.200000000000000000e+02,-4.830000000000000000e+02,-1.499000000000000000e+03,-3.070000000000000000e+03,-9.810000000000000000e+02,-1.360000000000000000e+02,1.380000000000000000e+02,-2.654000000000000000e+03,9.360000000000000000e+02,-2.391000000000000000e+03,1.174000000000000000e+03,-1.099000000000000000e+03,-4.420000000000000000e+02,-1.682000000000000000e+03,-2.051000000000000000e+03,-7.300000000000000000e+01,3.306000000000000000e+03,-2.292000000000000000e+03,-1.737000000000000000e+03,4.140000000000000000e+02,-9.340000000000000000e+02,-7.830000000000000000e+02,-6.670000000000000000e+02,-4.350000000000000000e+02,-1.700000000000000000e+01,-6.300000000000000000e+01,1.010000000000000000e+02,8.900000000000000000e+01,-3.900000000000000000e+02,9.400000000000000000e+01,-1.322000000000000000e+03,-2.537000000000000000e+03,1.463000000000000000e+03,3.219000000000000000e+03,-1.588000000000000000e+03,7.420000000000000000e+02,3.960000000000000000e+02,-8.990000000000000000e+02,-2.446000000000000000e+03,-2.750000000000000000e+03,-9.110000000000000000e+02,6.210000000000000000e+02,-2.142000000000000000e+03,-2.990000000000000000e+02,-1.560000000000000000e+03,-2.934000000000000000e+03,7.850000000000000000e+02,1.429000000000000000e+03,-7.790000000000000000e+02,-1.227000000000000000e+03,-6.530000000000000000e+02,-2.550000000000000000e+02,2.240000000000000000e+02,-4.900000000000000000e+01,-2.000000000000000000e+00,8.300000000000000000e+01,-1.950000000000000000e+02,-2.740000000000000000e+02,-7.550000000000000000e+02,-1.050000000000000000e+03,1.143000000000000000e+03,2.720000000000000000e+03,-5.380000000000000000e+02,6.930000000000000000e+02,-3.861000000000000000e+03,-1.400000000000000000e+01,-2.030000000000000000e+02,-6.090000000000000000e+02,2.665000000000000000e+03,-1.820000000000000000e+02,7.830000000000000000e+02,2.272000000000000000e+03,-1.970000000000000000e+02,-1.300000000000000000e+02,3.435000000000000000e+03,2.822000000000000000e+03,-2.170000000000000000e+02,8.040000000000000000e+02,-8.100000000000000000e+01,-1.040000000000000000e+02,-1.090000000000000000e+02,-3.200000000000000000e+01,-8.400000000000000000e+01,1.680000000000000000e+02,-1.990000000000000000e+02,3.170000000000000000e+02,-1.580000000000000000e+02,6.400000000000000000e+01,1.480000000000000000e+02,-9.820000000000000000e+02,-1.966000000000000000e+03,1.459000000000000000e+03,-1.859000000000000000e+03,-1.021000000000000000e+03,2.590000000000000000e+02,9.470000000000000000e+02,-2.693000000000000000e+03,6.920000000000000000e+02,3.080000000000000000e+03,2.595000000000000000e+03,1.133000000000000000e+03,1.500000000000000000e+03,2.657000000000000000e+03,1.717000000000000000e+03,-1.030000000000000000e+02,-3.110000000000000000e+02,-1.070000000000000000e+02,-2.200000000000000000e+01,-1.070000000000000000e+02,2.600000000000000000e+01,1.400000000000000000e+01,-5.500000000000000000e+01,1.130000000000000000e+02,5.400000000000000000e+01,-5.900000000000000000e+01,4.430000000000000000e+02,1.617000000000000000e+03,-2.008000000000000000e+03,-2.639000000000000000e+03,1.870000000000000000e+02,-1.392000000000000000e+03,-4.784000000000000000e+03,-3.596000000000000000e+03,-8.010000000000000000e+02,-1.727000000000000000e+03,-3.397000000000000000e+03,-3.700000000000000000e+03,-1.040000000000000000e+02,-1.085000000000000000e+03,-2.747000000000000000e+03,-2.692000000000000000e+03,-1.897000000000000000e+03,-9.000000000000000000e+00,3.200000000000000000e+01,0.000000000000000000e+00,0.000000000000000000e+00,0.000000000000000000e+00,0.000000000000000000e+00,5.100000000000000000e+01,-5.600000000000000000e+01,-1.800000000000000000e+01,-2.400000000000000000e+01,8.900000000000000000e+01,-1.600000000000000000e+01,-5.310000000000000000e+02,-1.571000000000000000e+03,-3.890000000000000000e+02,-1.575000000000000000e+03,-1.808000000000000000e+03,-4.626000000000000000e+03,-4.510000000000000000e+03,-3.126000000000000000e+03,-3.492000000000000000e+03,-1.809000000000000000e+03,-2.305000000000000000e+03,-5.920000000000000000e+02,-7.700000000000000000e+01,2.450000000000000000e+02,-1.750000000000000000e+02,-2.520000000000000000e+02,1.700000000000000000e+01,-1.450000000000000000e+02,0.000000000000000000e+00,0.000000000000000000e+00,0.000000000000000000e+00,0.000000000000000000e+00,-1.900000000000000000e+01,-3.600000000000000000e+01,9.000000000000000000e+00,-1.000000000000000000e+01,-1.100000000000000000e+01,-5.800000000000000000e+01,-2.440000000000000000e+02,2.000000000000000000e+00,-1.001000000000000000e+03,-8.450000000000000000e+02,-7.040000000000000000e+02,-2.702000000000000000e+03,-3.292000000000000000e+03,-5.260000000000000000e+02,-4.520000000000000000e+02,-2.420000000000000000e+02,-1.090000000000000000e+03,-6.120000000000000000e+02,-2.380000000000000000e+02,-1.440000000000000000e+02,-3.300000000000000000e+01,6.200000000000000000e+01,-7.600000000000000000e+01,-1.140000000000000000e+02,0.000000000000000000e+00,0.000000000000000000e+00,0.000000000000000000e+00,0.000000000000000000e+00,8.000000000000000000e+00,-4.000000000000000000e+00,-5.300000000000000000e+01,9.000000000000000000e+00,-5.800000000000000000e+01,8.000000000000000000e+00,1.210000000000000000e+02,-6.800000000000000000e+01,-2.610000000000000000e+02,1.730000000000000000e+02,3.800000000000000000e+01,-6.200000000000000000e+01,-3.110000000000000000e+02,1.820000000000000000e+02,4.400000000000000000e+01,-1.630000000000000000e+02,-1.090000000000000000e+02,2.670000000000000000e+02,-2.700000000000000000e+01,-3.700000000000000000e+01,-1.070000000000000000e+02,2.000000000000000000e+01,-6.600000000000000000e+01,-4.500000000000000000e+01,0.000000000000000000e+00,0.000000000000000000e+00,0.000000000000000000e+00,0.000000000000000000e+00,-3.600000000000000000e+01
4.599999999999997868e+00,-1.400000000000000133e+00,7.599999999999999645e+00,-1.600000000000000977e+00,-8.099999999999997868e+00,1.089999999999999680e+01,2.950000000000001066e+01,-7.599999999999998757e+00,1.980000000000001492e+01,-1.073999999999999346e+02,1.550000000000000000e+01,3.200000000000016609e+00,-3.040000000000000924e+01,-5.880000000000004690e+01,2.200000000000006395e+00,8.199999999999995737e+00,1.300000000000001243e+01,-2.009999999999997300e+01,3.860000000000005116e+01,-8.200000000000057909e+00,-3.720000000000003126e+01,1.749999999999996092e+01,-5.229999999999997584e+01,4.799999999999998934e+00,-7.000000000000000666e-01,-1.000000000000000056e-01,0.000000000000000000e+00,-2.900000000000000355e+00,-3.300000000000000711e+00,2.199999999999999734e+00,-1.100000000000000089e+00,-1.500000000000000000e+00,1.519999999999999929e+01,-1.689999999999999858e+01,-1.699999999999999289e+01,9.799999999999997158e+00,-5.850000000000002842e+01,-1.020000000000000639e+01,1.830000000000000426e+01,-4.139999999999998437e+01,-1.220000000000000107e+01,6.020000000000003126e+01,-2.599999999999998312e+00,-1.199999999999999467e+01,1.580000000000001847e+01,2.779999999999999361e+01,2.260000000000007958e+01,7.299999999999968736e+00,-3.170000000000008811e+01,-2.800000000000001066e+01,2.910000000000001208e+01,-6.000000000000000000e+00,-4.200000000000000178e+00,1.100000000000000089e+00,2.300000000000000266e+00,-6.999999999999999556e-01,-3.200000000000000622e+00,1.449999999999999822e+01,-1.080000000000000071e+01,-5.099999999999998757e+00,-1.500000000000000000e+00,-5.700000000000000178e+00,3.320000000000000995e+01,-8.000000000000000444e-01,-1.164999999999998863e+02,1.250000000000000000e+01,2.470000000000002416e+01,-6.549999999999992895e+01,-1.432999999999998977e+02,-7.780000000000039506e+01,-9.110000000000019327e+01,-8.519999999999990337e+01,-3.949999999999998579e+01,1.769999999999999574e+01,-5.960000000000000853e+01,2.899999999999998579e+00,2.559999999999998721e+01,2.499999999999996003e+00,6.799999999999997158e+00,9.200000000000006395e+00,-5.999999999999999778e-01,1.999999999999998723e-01,1.100000000000000089e+00,1.999999999999999556e-01,-4.000000000000000222e-01,-2.900000000000000355e+00,-1.139999999999999680e+01,1.999999999999999833e-01,-4.000000000000000222e-01,-1.799999999999999378e+00,1.249999999999999822e+01,-2.060000000000000497e+01,1.430000000000001315e+01,-9.169999999999997442e+01,-8.980000000000021032e+01,-9.069999999999961915e+01,-1.046999999999998323e+02,-1.326000000000004491e+02,-2.540000000000000853e+02,-1.269000000000000199e+02,5.950000000000034817e+01,-3.473000000000003524e+02,-2.244000000000000909e+02,-1.590000000000005720e+01,3.619999999999998863e+01,-4.279999999999999716e+01,-1.489999999999998437e+01,-1.640000000000002345e+01,-3.600000000000000089e+00,-1.600000000000000089e+00,-8.000000000000000444e-01,2.799999999999999822e+00,-2.599999999999998312e+00,-4.000000000000000222e-01,2.609999999999999076e+01,-1.110000000000000320e+01,3.499999999999999112e+00,1.050000000000000178e+01,-7.500000000000000000e+00,1.618000000000000682e+02,4.341999999999992497e+02,2.435000000000001705e+02,2.009999999999998721e+01,-1.148999999999997783e+02,-2.299999999999997513e+01,-2.335000000000001705e+02,-5.747000000000005002e+02,2.830999999999999659e+02,-2.469999999999983942e+01,-3.907000000000001592e+02,-6.980000000000008242e+01,8.929999999999969873e+01,-9.560000000000003695e+01,-7.600000000000039613e+00,1.130000000000000995e+02,-6.260000000000003695e+01,6.300000000000000711e+00,-5.000000000000000000e+00,-1.000000000000000056e-01,-1.000000000000000056e-01,-4.000000000000000888e+00,2.200000000000000355e+01,-1.100000000000000089e+00,-1.320000000000001172e+01,-9.000000000000000000e+00,-1.000000000000000000e+00,1.824000000000000625e+02,3.947999999999999545e+02,-1.200000000000000853e+02,2.183999999999996646e+02,-4.630000000000000000e+02,-8.113000000000015461e+02,1.644000000000000625e+02,3.799999999999982236e+01,-3.392999999999995566e+02,1.033000000000003524e+02,2.220000000000000284e+01,-1.970000000000001137e+02,5.270000000000001705e+01,2.840999999999987153e+02,2.300000000000427924e+00,-2.017999999999999545e+02,7.410000000000000853e+01,2.181999999999998181e+02,2.610000000000000142e+01,3.399999999999999467e+00,0.000000000000000000e+00,-3.300000000000000266e+00,-5.599999999999998757e+00,2.370000000000000284e+01,-2.299999999999999822e+00,1.780000000000000071e+01,-4.000000000000000000e+00,-1.410000000000000142e+01,1.519000000000000057e+02,1.708999999999999773e+02,-4.844000000000002046e+02,-1.486999999999996760e+02,-2.705000000000002842e+02,-2.502999999999996419e+02,-2.282000000000000455e+02,5.729999999999996874e+01,-4.444000000000001478e+02,-2.373000000000000114e+02,-7.000000000000004263e+01,-3.395999999999999659e+02,6.599999999999944578e+00,1.936000000000001364e+02,1.390000000000028813e+01,3.069999999999997442e+01,-1.769000000000002331e+02,3.709999999999994458e+01,-7.990000000000000568e+01,-7.090000000000001990e+01,-9.600000000000001421e+00,-5.000000000000000000e-01,1.269999999999999574e+01,-1.159999999999999964e+01,3.700000000000000178e+00,-1.199999999999999734e+00,-4.699999999999998401e+00,-4.679999999999999716e+01,-2.209000000000000341e+02,-6.229999999999994031e+01,-2.304000000000000057e+02,3.720000000000017337e+01,1.869999999999971863e+01,-1.609000000000002899e+02,-3.738999999999998636e+02,-2.919999999999994600e+01,-2.799999999999982947e+01,3.160000000000004405e+01,2.809999999999983089e+01,-5.302000000000018645e+02,1.730999999999997954e+02,1.939999999999998863e+02,-1.551999999999999602e+02,4.740000000000007390e+02,1.177000000000000739e+02,3.040000000000000924e+01,-3.860000000000000142e+01,-4.450000000000000711e+01,-3.700000000000000178e+00,-2.000000000000001221e-01,3.999999999999996891e+00,-7.000000000000003553e+00,-2.599999999999999645e+00,5.999999999999998224e+00,-1.079999999999999716e+01,-2.131000000000000227e+02,-3.134999999999998863e+02,-4.469999999999998295e+02,-1.518000000000000682e+02,-7.270000000000008811e+01,-1.892999999999998977e+02,-3.183999999999996362e+02,-2.725999999999993975e+02,3.013999999999999773e+02,2.311000000000003070e+02,-3.497000000000001023e+02,8.500000000000142109e+00,-1.961000000000012164e+02,2.679000000000000909e+02,-2.993000000000002387e+02,-3.978999999999999773e+02,7.359999999999995168e+01,-2.449999999999996092e+01,-9.639999999999999147e+01,-4.300000000000000000e+01,-4.080000000000000426e+01,2.099999999999999645e+00,1.099999999999999867e+00,9.799999999999995381e+00,-1.649999999999999645e+01,1.619999999999999929e+01,-5.899999999999998579e+00,-2.169999999999999574e+01,-5.929999999999995453e+01,-2.316999999999998465e+02,-3.766000000000005912e+02,-4.166999999999987949e+02,1.125000000000000568e+02,1.361999999999999886e+02,-1.839000000000005457e+02,-3.680000000000009663e+01,5.072999999999998408e+02,-1.443000000000004377e+02,-2.087999999999999261e+02,3.980000000000014637e+01,-2.429999999999995168e+02,-9.150000000000001421e+01,-3.895999999999997954e+02,-1.579000000000000909e+02,-1.673000000000000114e+02,-1.178999999999999631e+02,-1.039000000000000483e+02,-2.540000000000000213e+01,-2.360000000000000142e+01,-1.600000000000000089e+00,1.799999999999999645e+01,-9.300000000000000711e+00,1.310000000000000142e+01,1.120000000000000462e+01,1.550000000000001243e+01,-1.520000000000000107e+01,-6.400000000000002842e+01,-1.097000000000000739e+02,-2.385999999999997669e+02,-1.664999999999995737e+02,2.689999999999998792e+01,-7.770000000000001705e+01,-3.378999999999999204e+02,2.136000000000002785e+02,1.275999999999998522e+02,1.132000000000002444e+02,3.193000000000000682e+02,2.748000000000001819e+02,1.862000000000000739e+02,6.659999999999996589e+01,-2.052000000000005286e+02,-2.748999999999999204e+02,-8.110000000000006537e+01,-1.063000000000000540e+02,-1.002999999999999829e+02,-3.000000000000000444e+00,1.877999999999998693e+02,-1.400000000000000133e+00,-8.000000000000000444e-01,2.369999999999999574e+01,-1.119999999999999751e+01,3.999999999999998668e+00,-1.200000000000000400e+00,2.220000000000002061e+01,-5.970000000000003126e+01,-6.959999999999996589e+01,1.112000000000000313e+02,-6.500000000000002842e+01,-1.781999999999999602e+02,1.460000000000003411e+02,2.209000000000003183e+02,6.770000000000010232e+01,8.100000000000083844e+01,3.005000000000001705e+02,2.091999999999994486e+02,1.882000000000002728e+02,-3.050000000000020606e+01,3.458000000000002956e+02,-2.333000000000009777e+02,-3.210000000000003979e+02,-9.309999999999995168e+01,1.179999999999999538e+01,-6.089999999999992752e+01,-8.500000000000001776e+00,2.424999999999998863e+02,-2.800000000000000266e+00,-2.200000000000000178e+00,9.599999999999999645e+00,-1.349999999999999289e+01,-1.530000000000000249e+01,-5.099999999999995204e+00,-1.300000000000000266e+00,-1.900000000000004796e+00,3.674000000000001478e+02,6.954000000000003183e+02,2.689999999999994884e+02,-2.108999999999996930e+02,-1.810000000000001705e+02,-6.529999999999998295e+01,-4.667999999999992724e+02,2.873000000000001251e+02,3.108000000000003524e+02,4.657000000000010687e+02,1.333000000000004377e+02,2.713999999999999773e+02,1.702000000000001023e+02,-4.830999999999999659e+02,-9.550000000000004263e+01,-6.669999999999998863e+01,-8.220000000000004547e+01,-2.269999999999999218e+01,-2.360000000000000142e+01,1.149999999999999645e+01,5.700000000000001066e+00,1.540000000000000036e+01,-1.180000000000000426e+01,4.799999999999999822e+00,-9.399999999999998579e+00,2.399999999999998579e+00,1.020000000000001172e+01,1.038000000000000256e+02,4.438000000000000114e+02,1.793999999999999488e+02,-2.001999999999999602e+02,-3.303000000000000682e+02,-6.095000000000002274e+02,-4.753000000000010914e+02,-4.268999999999994088e+02,3.501000000000000796e+02,3.497999999999991019e+02,9.860000000000025011e+01,1.174000000000000057e+02,6.499999999999997158e+01,1.080000000000007887e+01,-3.434000000000004889e+02,-1.618000000000000114e+02,-7.350000000000004263e+01,-1.441000000000000796e+02,-5.720000000000003126e+01,-2.459999999999999787e+01,5.999999999999992006e-01,1.180000000000000249e+01,-2.400000000000000355e+00,-6.399999999999992362e+00,6.100000000000001421e+00,3.529999999999997584e+01,-8.800000000000000711e+00,-1.050000000000000000e+01,1.968000000000000398e+02,1.981999999999999602e+02,-1.859000000000000057e+02,-3.289000000000006025e+02,-3.257000000000006708e+02,-2.247999999999999545e+02,-2.082000000000003013e+02,-3.713999999999990678e+02,3.483000000000000114e+02,-2.610000000000000568e+02,-1.230000000000005400e+01,-7.030000000000001137e+01,-4.900000000000021316e+01,1.029000000000000483e+02,-2.233999999999998920e+02,-1.341999999999996191e+02,-1.585999999999997954e+02,-8.919999999999981810e+01,-7.429999999999994031e+01,-5.900000000000000355e+00,6.559999999999999432e+01,2.159999999999999432e+01,9.699999999999999289e+00,-1.169999999999999751e+01,1.680000000000000782e+01,-8.299999999999998934e+00,-6.000000000000000000e+00,1.700000000000001510e+00,-2.209999999999999076e+01,-6.959999999999999432e+01,-2.368999999999999773e+02,-3.601999999999990223e+02,-2.871000000000003070e+02,-1.294000000000003467e+02,4.300000000000022027e+00,2.390000000000033253e+01,2.416000000000009322e+02,4.651999999999998181e+02,-1.180000000000000568e+02,-4.420000000000020179e+01,3.746000000000001364e+02,-4.037000000000003865e+02,-4.459999999999994884e+02,-2.937000000000002728e+02,-8.650000000000011369e+01,-3.810000000000000853e+01,-9.179999999999988347e+01,-1.810000000000001563e+01,-1.110000000000000853e+01,-1.000000000000005329e-01,3.200000000000001421e+01,-1.629999999999999361e+01,-2.299999999999994493e+00,6.500000000000003553e+00,9.000000000000001332e-01,-1.139999999999999858e+01,-1.540000000000000391e+01,2.820000000000001705e+01,-3.650000000000005684e+01,-2.623000000000001819e+02,-2.469000000000006310e+02,-2.149000000000001762e+02,1.021000000000000227e+02,2.207000000000001876e+02,-2.790000000000032188e+01,2.765000000000004547e+02,-2.796999999999998749e+02,8.100000000000031264e+01,-1.210000000000004405e+02,-3.083000000000003524e+02,-2.227999999999999545e+02,-3.082000000000003865e+02,-1.101000000000000227e+02,-1.204999999999996589e+02,-1.402999999999996987e+02,-7.659999999999999432e+01,-2.519999999999999218e+01,8.000000000000024869e-01,-3.800000000000000266e+00,1.380000000000000959e+01,1.200000000000000000e+01,-2.050000000000000355e+01,-9.900000000000003908e+00,7.199999999999990408e+00,-1.152000000000000028e+02,-1.259999999999999574e+02,-4.879999999999999716e+01,-5.479999999999990479e+01,-2.275999999999996248e+02,-1.462999999999999545e+02,-4.342999999999997840e+02,1.040000000000000568e+02,2.219999999999972573e+01,-2.960000000000019327e+01,1.135999999999998806e+02,-1.783000000000001819e+02,-2.051999999999990223e+02,-1.632000000000000455e+02,1.870000000000001137e+02,-6.469999999999967599e+01,-3.138000000000000682e+02,-2.476999999999999886e+02,-1.670999999999997954e+02,-9.039999999999996305e+01,-5.269999999999995310e+01,-4.770000000000000284e+01,-3.940000000000000568e+01,-2.800000000000002043e+00,8.599999999999999645e+00,1.920000000000001350e+01,-2.359999999999999076e+01,-3.609999999999998721e+01,-1.543000000000000966e+02,-2.264999999999997442e+02,-1.005000000000001563e+02,-1.818999999999996930e+02,-4.042999999999998977e+02,-2.361000000000001933e+02,7.019999999999994600e+01,-8.869999999999963336e+01,4.145999999999998522e+02,3.750000000000005684e+02,-2.063000000000001535e+02,-2.759999999999998295e+02,-7.139999999999987779e+01,9.350000000000009948e+01,3.250000000000002842e+02,8.919999999999996021e+01,-3.965000000000003411e+02,-4.669999999999998295e+02,-2.351999999999999034e+02,-2.383999999999999488e+02,-5.080000000000000426e+01,1.729999999999999716e+01,1.561999999999999602e+02,-1.670000000000001705e+01,-4.300000000000001599e+00,-6.100000000000011191e+00,-3.579999999999996874e+01,-1.003999999999999631e+02,-3.234000000000000909e+02,-1.501000000000001648e+02,-1.655999999999997385e+02,-3.999999999999996589e+02,-4.116999999999989086e+02,2.478999999999991530e+02,1.264000000000000199e+02,-3.240000000000001705e+02,3.078000000000003524e+02,4.522999999999996135e+02,9.479999999999976978e+01,-6.190000000000001279e+01,1.002999999999998835e+02,1.449999999999997726e+02,4.453000000000002956e+02,1.338000000000002103e+02,-4.349000000000004320e+02,-3.355999999999999659e+02,-2.325999999999996817e+02,-3.779999999999998295e+01,-2.090000000000000213e+01,-3.099999999999997868e+00,7.009999999999999432e+01,-6.000000000000018652e-01,1.600000000000001865e+00,-1.200000000000000355e+01,-4.829999999999999005e+01,-1.499000000000001478e+02,-3.069999999999996589e+02,-9.810000000000016485e+01,-1.359999999999988773e+01,1.379999999999995630e+01,-2.653999999999997499e+02,9.360000000000012221e+01,-2.390999999999993406e+02,1.173999999999998067e+02,-1.098999999999997499e+02,-4.419999999999987494e+01,-1.682000000000003581e+02,-2.051000000000001648e+02,-7.300000000000039790e+00,3.305999999999998522e+02,-2.291999999999997328e+02,-1.736999999999990791e+02,4.140000000000000568e+01,-9.340000000000000568e+01,-7.829999999999989768e+01,-6.670000000000005969e+01,-4.349999999999999289e+01,-1.700000000000000178e+00,-6.300000000000000711e+00,1.010000000000000142e+01,8.900000000000007461e+00,-3.900000000000002132e+01,9.399999999999995026e+00,-1.322000000000000455e+02,-2.536999999999997613e+02,1.463000000000000682e+02,3.218999999999999773e+02,-1.588000000000005230e+02,7.420000000000023022e+01,3.960000000000007248e+01,-8.989999999999987779e+01,-2.445999999999998238e+02,-2.749999999999998295e+02,-9.109999999999988063e+01,6.209999999999995168e+01,-2.141999999999997328e+02,-2.990000000000003055e+01,-1.560000000000006253e+02,-2.934000000000005457e+02,7.849999999999995737e+01,1.429000000000000057e+02,-7.790000000000016200e+01,-1.226999999999996334e+02,-6.530000000000001137e+01,-2.550000000000000000e+01,2.239999999999999858e+01,-4.900000000000000355e+00,-2.000000000000001221e-01,8.300000000000000711e+00,-1.950000000000001066e+01,-2.739999999999997726e+01,-7.549999999999998579e+01,-1.049999999999999432e+02,1.143000000000000256e+02,2.719999999999997726e+02,-5.380000000000005400e+01,6.930000000000001137e+01,-3.860999999999993406e+02,-1.400000000000101608e+00,-2.030000000000004690e+01,-6.090000000000011937e+01,2.665000000000001137e+02,-1.820000000000000995e+01,7.829999999999999716e+01,2.271999999999997044e+02,-1.969999999999996732e+01,-1.300000000000010481e+01,3.434999999999999432e+02,2.821999999999998749e+02,-2.170000000000000995e+01,8.040000000000010516e+01,-8.099999999999999645e+00,-1.040000000000001101e+01,-1.089999999999999680e+01,-3.200000000000001066e+00,-8.400000000000002132e+00,1.680000000000000782e+01,-1.990000000000000924e+01,3.170000000000000284e+01,-1.580000000000000782e+01,6.399999999999999467e+00,1.479999999999997407e+01,-9.819999999999974705e+01,-1.966000000000008754e+02,1.458999999999999773e+02,-1.859000000000000341e+02,-1.020999999999998664e+02,2.589999999999997726e+01,9.469999999999998863e+01,-2.692999999999996703e+02,6.919999999999994600e+01,3.080000000000002274e+02,2.595000000000004547e+02,1.132999999999999829e+02,1.499999999999999147e+02,2.656999999999996476e+02,1.717000000000000739e+02,-1.029999999999999005e+01,-3.110000000000002274e+01,-1.070000000000000107e+01,-2.200000000000000178e+00,-1.070000000000000107e+01,2.599999999999999645e+00,1.400000000000000799e+00,-5.500000000000000888e+00,1.130000000000000071e+01,5.400000000000001243e+00,-5.900000000000000355e+00,4.429999999999999716e+01,1.616999999999999886e+02,-2.008000000000000682e+02,-2.639000000000000341e+02,1.869999999999981810e+01,-1.391999999999999318e+02,-4.783999999999998636e+02,-3.596000000000000796e+02,-8.009999999999998010e+01,-1.727000000000003013e+02,-3.396999999999997613e+02,-3.700000000000001137e+02,-1.039999999999999858e+01,-1.084999999999998721e+02,-2.747000000000001023e+02,-2.692000000000001023e+02,-1.897000000000000455e+02,-8.999999999999979128e-01,3.199999999999998845e+00,0.000000000000000000e+00,0.000000000000000000e+00,0.000000000000000000e+00,0.000000000000000000e+00,5.100000000000000533e+00,-5.600000000000000533e+00,-1.800000000000000044e+00,-2.400000000000000355e+00,8.900000000000000355e+00,-1.600000000000000089e+00,-5.309999999999998721e+01,-1.570999999999999943e+02,-3.889999999999999858e+01,-1.574999999999999147e+02,-1.808000000000001251e+02,-4.625999999999997954e+02,-4.510000000000000000e+02,-3.126000000000000227e+02,-3.491999999999998749e+02,-1.808999999999998920e+02,-2.305000000000000000e+02,-5.919999999999998863e+01,-7.699999999999999289e+00,2.450000000000001066e+01,-1.750000000000000355e+01,-2.520000000000001705e+01,1.700000000000000178e+00,-1.449999999999999822e+01,0.000000000000000000e+00,0.000000000000000000e+00,0.000000000000000000e+00,0.000000000000000000e+00,-1.899999999999999689e+00,-3.600000000000000089e+00,8.999999999999994671e-01,-1.000000000000000000e+00,-1.100000000000000089e+00,-5.799999999999998934e+00,-2.440000000000000213e+01,2.000000000000000666e-01,-1.001000000000000227e+02,-8.450000000000022737e+01,-7.039999999999999147e+01,-2.701999999999999886e+02,-3.291999999999997044e+02,-5.259999999999999432e+01,-4.520000000000003126e+01,-2.420000000000001705e+01,-1.090000000000000000e+02,-6.120000000000002416e+01,-2.380000000000001137e+01,-1.439999999999998792e+01,-3.299999999999999822e+00,6.200000000000000178e+00,-7.600000000000001421e+00,-1.140000000000000213e+01,0.000000000000000000e+00,0.000000000000000000e+00,0.000000000000000000e+00,0.000000000000000000e+00,8.000000000000002665e-01,-4.000000000000000222e-01,-5.300000000000001599e+00,9.000000000000009104e-01,-5.800000000000000711e+00,7.999999999999999334e-01,1.209999999999999964e+01,-6.799999999999999822e+00,-2.609999999999999787e+01,1.729999999999998650e+01,3.800000000000014921e+00,-6.200000000000002842e+00,-3.109999999999998721e+01,1.819999999999999929e+01,4.400000000000001243e+00,-1.630000000000000782e+01,-1.090000000000000391e+01,2.670000000000000995e+01,-2.700000000000001066e+00,-3.700000000000001066e+00,-1.070000000000000107e+01,2.000000000000000444e+00,-6.600000000000004086e+00,-4.500000000000000000e+00,0.000000000000000000e+00,0.000000000000000000e+00,0.000000000000000000e+00,0.000000000000000000e+00,-3.600000000000001865e+00
1.360000000000000320e+00,-1.400000000000000133e-01,7.600000000000002309e-01,-1.600000000000000588e-01,-8.100000000000002753e-01,1.090000000000000524e+00,2.950000000000000178e+00,-7.600000000000001199e-01,1.979999999999999760e+00,-1.073999999999999488e+01,1.550000000000000266e+00,3.199999999999997846e-01,-3.039999999999999147e+00,-5.879999999999999893e+00,2.200000000000002787e-01,8.200000000000007283e-01,1.300000000000001155e+00,-2.010000000000002007e+00,3.860000000000001652e+00,-8.199999999999993960e-01,-3.719999999999993090e+00,1.749999999999998224e+00,-5.229999999999997762e+00,4.799999999999999822e-01,-7.000000000000000666e-02,-1.000000000000000021e-02,0.000000000000000000e+00,-2.900000000000000355e-01,-3.300000000000001266e-01,2.199999999999999734e-01,-1.100000000000000006e-01,-1.500000000000000222e-01,1.520000000000000018e+00,-1.690000000000000835e+00,-1.700000000000000622e+00,9.799999999999998712e-01,-5.850000000000001421e+00,-1.020000000000000018e+00,1.830000000000001403e+00,-4.140000000000002345e+00,-1.220000000000000862e+00,6.020000000000002238e+00,-2.600000000000000644e-01,-1.200000000000002398e+00,1.579999999999999183e+00,2.780000000000001137e+00,2.260000000000002007e+00,7.299999999999987610e-01,-3.169999999999995932e+00,-2.800000000000000266e+00,2.910000000000001474e+00,-6.000000000000000888e-01,-4.199999999999999289e-01,1.099999999999999867e-01,2.300000000000000100e-01,-7.000000000000000666e-02,-3.200000000000000622e-01,1.450000000000000400e+00,-1.079999999999999849e+00,-5.099999999999997868e-01,-1.500000000000000222e-01,-5.700000000000000622e-01,3.320000000000000284e+00,-8.000000000000000167e-02,-1.164999999999999325e+01,1.249999999999999556e+00,2.469999999999999307e+00,-6.550000000000014033e+00,-1.433000000000000185e+01,-7.779999999999977156e+00,-9.110000000000017195e+00,-8.519999999999997797e+00,-3.949999999999998401e+00,1.770000000000000240e+00,-5.959999999999995524e+00,2.899999999999997025e-01,2.559999999999999165e+00,2.499999999999983624e-01,6.799999999999998268e-01,9.199999999999994849e-01,-6.000000000000000472e-02,1.999999999999999695e-02,1.099999999999999867e-01,2.000000000000000736e-02,-4.000000000000000083e-02,-2.900000000000000355e-01,-1.140000000000000568e+00,2.000000000000000389e-02,-4.000000000000000083e-02,-1.799999999999999378e-01,1.250000000000000000e+00,-2.060000000000000497e+00,1.430000000000000160e+00,-9.169999999999980389e+00,-8.979999999999970228e+00,-9.069999999999996732e+00,-1.047000000000001663e+01,-1.325999999999996959e+01,-2.540000000000002345e+01,-1.268999999999999950e+01,5.949999999999973532e+00,-3.473000000000003240e+01,-2.243999999999999417e+01,-1.589999999999995417e+00,3.619999999999999662e+00,-4.280000000000001137e+00,-1.489999999999999547e+00,-1.640000000000002789e+00,-3.599999999999999867e-01,-1.600000000000000033e-01,-8.000000000000000167e-02,2.800000000000000266e-01,-2.600000000000001199e-01,-4.000000000000000083e-02,2.610000000000001208e+00,-1.110000000000000098e+00,3.500000000000000333e-01,1.049999999999999600e+00,-7.500000000000000000e-01,1.618000000000000327e+01,4.342000000000009408e+01,2.435000000000001918e+01,2.010000000000000231e+00,-1.149000000000003929e+01,-2.299999999999985167e+00,-2.335000000000000497e+01,-5.747000000000001307e+01,2.831000000000002714e+01,-2.469999999999989537e+00,-3.906999999999995055e+01,-6.979999999999963123e+00,8.930000000000012150e+00,-9.559999999999989839e+00,-7.599999999999986766e-01,1.129999999999997762e+01,-6.260000000000001563e+00,6.299999999999997824e-01,-5.000000000000000000e-01,-1.000000000000000021e-02,-1.000000000000000021e-02,-4.000000000000000222e-01,2.200000000000000622e+00,-1.100000000000000006e-01,-1.320000000000000284e+00,-9.000000000000003553e-01,-9.999999999999999167e-02,1.823999999999999133e+01,3.947999999999999687e+01,-1.199999999999998401e+01,2.183999999999997854e+01,-4.629999999999991900e+01,-8.113000000000015177e+01,1.643999999999997996e+01,3.799999999999988276e+00,-3.393000000000001393e+01,1.033000000000002139e+01,2.219999999999997087e+00,-1.969999999999997087e+01,5.270000000000008455e+00,2.840999999999990422e+01,2.299999999999712275e-01,-2.017999999999998906e+01,7.410000000000000142e+00,2.182000000000000028e+01,2.609999999999999876e+00,3.399999999999999689e-01,0.000000000000000000e+00,-3.300000000000000155e-01,-5.600000000000002753e-01,2.369999999999999662e+00,-2.299999999999999822e-01,1.780000000000000693e+00,-4.000000000000000222e-01,-1.409999999999999698e+00,1.519000000000000483e+01,1.709000000000001052e+01,-4.844000000000001904e+01,-1.486999999999999034e+01,-2.705000000000006821e+01,-2.503000000000001890e+01,-2.282000000000004292e+01,5.730000000000018190e+00,-4.444000000000003325e+01,-2.373000000000001464e+01,-6.999999999999989342e+00,-3.396000000000001506e+01,6.600000000000227907e-01,1.936000000000000654e+01,1.390000000000008340e+00,3.069999999999998952e+00,-1.768999999999999062e+01,3.709999999999997744e+00,-7.990000000000001990e+00,-7.089999999999998970e+00,-9.599999999999999645e-01,-5.000000000000000278e-02,1.270000000000000684e+00,-1.160000000000000586e+00,3.699999999999999956e-01,-1.200000000000000094e-01,-4.699999999999998068e-01,-4.679999999999999716e+00,-2.209000000000001407e+01,-6.230000000000001315e+00,-2.304000000000002046e+01,3.720000000000001528e+00,1.870000000000027418e+00,-1.608999999999997144e+01,-3.739000000000002188e+01,-2.920000000000007034e+00,-2.799999999999988276e+00,3.160000000000008136e+00,2.810000000000000497e+00,-5.301999999999987523e+01,1.731000000000001648e+01,1.940000000000000568e+01,-1.551999999999998359e+01,4.739999999999992752e+01,1.176999999999998181e+01,3.039999999999994706e+00,-3.859999999999999876e+00,-4.449999999999999289e+00,-3.699999999999999956e-01,-1.999999999999993103e-02,3.999999999999996336e-01,-7.000000000000001776e-01,-2.599999999999999534e-01,6.000000000000000888e-01,-1.079999999999999627e+00,-2.130999999999999517e+01,-3.134999999999998010e+01,-4.469999999999997442e+01,-1.517999999999996419e+01,-7.269999999999997797e+00,-1.893000000000001037e+01,-3.183999999999997854e+01,-2.726000000000001933e+01,3.014000000000000412e+01,2.311000000000009180e+01,-3.496999999999997755e+01,8.500000000000058620e-01,-1.960999999999999588e+01,2.678999999999999915e+01,-2.992999999999999616e+01,-3.978999999999999915e+01,7.360000000000013642e+00,-2.449999999999993072e+00,-9.639999999999998792e+00,-4.299999999999999822e+00,-4.080000000000000071e+00,2.099999999999999367e-01,1.100000000000000144e-01,9.800000000000004263e-01,-1.649999999999999911e+00,1.619999999999999218e+00,-5.900000000000000799e-01,-2.170000000000000817e+00,-5.929999999999999716e+00,-2.316999999999997684e+01,-3.766000000000000369e+01,-4.167000000000005855e+01,1.124999999999999822e+01,1.361999999999999744e+01,-1.838999999999998636e+01,-3.680000000000005045e+00,5.072999999999995424e+01,-1.442999999999999616e+01,-2.088000000000003098e+01,3.979999999999990656e+00,-2.429999999999999361e+01,-9.150000000000002132e+00,-3.895999999999999375e+01,-1.578999999999999915e+01,-1.672999999999998622e+01,-1.179000000000000625e+01,-1.038999999999999702e+01,-2.540000000000000036e+00,-2.359999999999999876e+00,-1.600000000000000033e-01,1.800000000000000711e+00,-9.299999999999998268e-01,1.310000000000000053e+00,1.119999999999999218e+00,1.550000000000000488e+00,-1.520000000000000240e+00,-6.399999999999998579e+00,-1.096999999999999176e+01,-2.386000000000000298e+01,-1.665000000000001634e+01,2.690000000000005276e+00,-7.770000000000007567e+00,-3.378999999999998494e+01,2.135999999999999588e+01,1.276000000000012946e+01,1.131999999999999851e+01,3.192999999999999616e+01,2.748000000000000043e+01,1.862000000000000099e+01,6.660000000000003695e+00,-2.051999999999996049e+01,-2.748999999999992738e+01,-8.109999999999990550e+00,-1.063000000000000078e+01,-1.003000000000000291e+01,-2.999999999999999889e-01,1.878000000000000114e+01,-1.400000000000000133e-01,-8.000000000000000167e-02,2.369999999999999218e+00,-1.120000000000000329e+00,3.999999999999998002e-01,-1.199999999999999817e-01,2.219999999999997975e+00,-5.970000000000001528e+00,-6.959999999999996412e+00,1.112000000000000099e+01,-6.500000000000000000e+00,-1.781999999999999673e+01,1.459999999999993392e+01,2.209000000000000696e+01,6.769999999999978257e+00,8.099999999999955236e+00,3.005000000000002913e+01,2.092000000000002302e+01,1.881999999999998607e+01,-3.049999999999960298e+00,3.457999999999999119e+01,-2.333000000000000185e+01,-3.210000000000005116e+01,-9.309999999999991616e+00,1.180000000000001936e+00,-6.089999999999998970e+00,-8.499999999999999778e-01,2.425000000000001421e+01,-2.800000000000000266e-01,-2.199999999999999734e-01,9.600000000000004086e-01,-1.350000000000000311e+00,-1.530000000000000249e+00,-5.099999999999996758e-01,-1.300000000000000877e-01,-1.900000000000000855e-01,3.674000000000000199e+01,6.953999999999997783e+01,2.690000000000004121e+01,-2.109000000000001762e+01,-1.809999999999999787e+01,-6.529999999999998472e+00,-4.667999999999985050e+01,2.872999999999996490e+01,3.108000000000001251e+01,4.656999999999998607e+01,1.333000000000000185e+01,2.714000000000000767e+01,1.701999999999996405e+01,-4.831000000000006622e+01,-9.549999999999988276e+00,-6.669999999999994600e+00,-8.220000000000000639e+00,-2.269999999999999574e+00,-2.359999999999999876e+00,1.150000000000000355e+00,5.699999999999999512e-01,1.540000000000000258e+00,-1.180000000000000382e+00,4.800000000000000377e-01,-9.400000000000003908e-01,2.399999999999999911e-01,1.019999999999999574e+00,1.038000000000000078e+01,4.438000000000000966e+01,1.794000000000000128e+01,-2.001999999999999602e+01,-3.303000000000007219e+01,-6.094999999999996732e+01,-4.752999999999982350e+01,-4.269000000000000483e+01,3.501000000000009038e+01,3.497999999999993292e+01,9.860000000000058051e+00,1.173999999999999133e+01,6.500000000000007105e+00,1.079999999999986304e+00,-3.434000000000003183e+01,-1.617999999999997485e+01,-7.349999999999996092e+00,-1.440999999999997350e+01,-5.720000000000002416e+00,-2.460000000000000409e+00,5.999999999999970635e-02,1.179999999999999938e+00,-2.399999999999999911e-01,-6.400000000000003464e-01,6.100000000000002087e-01,3.530000000000000249e+00,-8.800000000000003375e-01,-1.049999999999999822e+00,1.967999999999999972e+01,1.981999999999999673e+01,-1.858999999999999631e+01,-3.289000000000001478e+01,-3.257000000000003581e+01,-2.248000000000004306e+01,-2.082000000000002871e+01,-3.713999999999987978e+01,3.483000000000009777e+01,-2.610000000000001208e+01,-1.230000000000002203e+00,-7.029999999999962057e+00,-4.899999999999996803e+00,1.029000000000001869e+01,-2.233999999999997144e+01,-1.342000000000002657e+01,-1.586000000000000831e+01,-8.920000000000014140e+00,-7.430000000000007709e+00,-5.900000000000000799e-01,6.560000000000000497e+00,2.159999999999999698e+00,9.700000000000004174e-01,-1.170000000000000595e+00,1.679999999999999716e+00,-8.299999999999998490e-01,-5.999999999999998668e-01,1.700000000000000400e-01,-2.210000000000000853e+00,-6.960000000000002629e+00,-2.368999999999998707e+01,-3.602000000000001734e+01,-2.870999999999995467e+01,-1.293999999999999240e+01,4.299999999999846167e-01,2.390000000000024549e+00,2.415999999999997527e+01,4.651999999999999602e+01,-1.180000000000001670e+01,-4.420000000000010587e+00,3.746000000000000085e+01,-4.036999999999991928e+01,-4.460000000000012221e+01,-2.936999999999991928e+01,-8.650000000000058975e+00,-3.810000000000000941e+00,-9.179999999999997939e+00,-1.810000000000001386e+00,-1.109999999999998987e+00,-1.000000000000053624e-02,3.199999999999999734e+00,-1.630000000000001004e+00,-2.300000000000004263e-01,6.499999999999995781e-01,9.000000000000024647e-02,-1.139999999999999680e+00,-1.540000000000000258e+00,2.819999999999998952e+00,-3.649999999999998135e+00,-2.623000000000003951e+01,-2.468999999999997286e+01,-2.149000000000004462e+01,1.021000000000000441e+01,2.206999999999996120e+01,-2.790000000000011582e+00,2.765000000000008384e+01,-2.796999999999993847e+01,8.099999999999997868e+00,-1.209999999999990195e+01,-3.082999999999998764e+01,-2.228000000000007574e+01,-3.082000000000003226e+01,-1.101000000000005130e+01,-1.205000000000000249e+01,-1.402999999999997627e+01,-7.660000000000000142e+00,-2.520000000000000462e+00,7.999999999999980738e-02,-3.800000000000000044e-01,1.380000000000000782e+00,1.200000000000000178e+00,-2.050000000000001155e+00,-9.899999999999993250e-01,7.200000000000006395e-01,-1.152000000000000313e+01,-1.259999999999999787e+01,-4.879999999999999005e+00,-5.480000000000018190e+00,-2.275999999999999801e+01,-1.462999999999999545e+01,-4.342999999999997129e+01,1.040000000000000746e+01,2.220000000000036167e+00,-2.959999999999996412e+00,1.136000000000000831e+01,-1.782999999999998764e+01,-2.051999999999997115e+01,-1.632000000000000384e+01,1.869999999999999574e+01,-6.470000000000013962e+00,-3.138000000000000256e+01,-2.476999999999997115e+01,-1.670999999999999375e+01,-9.039999999999999147e+00,-5.270000000000004903e+00,-4.770000000000000462e+00,-3.939999999999999059e+00,-2.799999999999999711e-01,8.600000000000002087e-01,1.919999999999999485e+00,-2.360000000000000320e+00,-3.609999999999999432e+00,-1.542999999999999972e+01,-2.265000000000003055e+01,-1.005000000000002736e+01,-1.819000000000000128e+01,-4.043000000000002103e+01,-2.360999999999999233e+01,7.020000000000013785e+00,-8.869999999999954809e+00,4.146000000000007901e+01,3.749999999999999289e+01,-2.063000000000002032e+01,-2.759999999999997300e+01,-7.140000000000005009e+00,9.350000000000003197e+00,3.249999999999995026e+01,8.920000000000007034e+00,-3.965000000000003411e+01,-4.670000000000003126e+01,-2.351999999999993918e+01,-2.384000000000000341e+01,-5.080000000000000071e+00,1.729999999999999760e+00,1.562000000000000455e+01,-1.670000000000000595e+00,-4.299999999999997158e-01,-6.099999999999999867e-01,-3.579999999999996074e+00,-1.003999999999999382e+01,-3.234000000000000341e+01,-1.500999999999996781e+01,-1.656000000000001293e+01,-4.000000000000002132e+01,-4.116999999999997328e+01,2.478999999999999915e+01,1.263999999999998991e+01,-3.239999999999999858e+01,3.077999999999999403e+01,4.522999999999994714e+01,9.480000000000009308e+00,-6.190000000000008384e+00,1.003000000000000647e+01,1.450000000000004974e+01,4.452999999999988034e+01,1.337999999999996703e+01,-4.348999999999999488e+01,-3.355999999999996675e+01,-2.325999999999999091e+01,-3.780000000000001137e+00,-2.090000000000000302e+00,-3.099999999999996092e-01,7.009999999999999787e+00,-6.000000000000027534e-02,1.600000000000001976e-01,-1.199999999999999734e+00,-4.830000000000003624e+00,-1.499000000000000021e+01,-3.069999999999998508e+01,-9.809999999999975628e+00,-1.359999999999997433e+00,1.380000000000007665e+00,-2.653999999999994230e+01,9.360000000000015419e+00,-2.390999999999998948e+01,1.174000000000000554e+01,-1.099000000000003219e+01,-4.420000000000005258e+00,-1.682000000000009265e+01,-2.050999999999999801e+01,-7.299999999999915445e-01,3.306000000000002359e+01,-2.292000000000003368e+01,-1.737000000000000455e+01,4.140000000000002345e+00,-9.339999999999994529e+00,-7.829999999999986748e+00,-6.669999999999998153e+00,-4.349999999999999645e+00,-1.700000000000000122e-01,-6.300000000000000044e-01,1.009999999999999787e+00,8.900000000000004574e-01,-3.899999999999995026e+00,9.400000000000007239e-01,-1.321999999999999709e+01,-2.537000000000001165e+01,1.462999999999999723e+01,3.218999999999999062e+01,-1.588000000000000078e+01,7.420000000000015916e+00,3.960000000000003073e+00,-8.989999999999982450e+00,-2.445999999999999730e+01,-2.750000000000002487e+01,-9.109999999999962128e+00,6.209999999999983977e+00,-2.141999999999999815e+01,-2.990000000000001101e+00,-1.559999999999998543e+01,-2.933999999999995367e+01,7.850000000000011191e+00,1.429000000000001336e+01,-7.789999999999992042e+00,-1.227000000000003155e+01,-6.529999999999999361e+00,-2.550000000000000266e+00,2.240000000000001101e+00,-4.900000000000000466e-01,-2.000000000000009756e-02,8.299999999999999600e-01,-1.950000000000000622e+00,-2.740000000000001545e+00,-7.549999999999996270e+00,-1.050000000000000000e+01,1.142999999999999972e+01,2.719999999999999929e+01,-5.380000000000006111e+00,6.930000000000003268e+00,-3.861000000000006338e+01,-1.400000000000027889e-01,-2.029999999999989591e+00,-6.089999999999992752e+00,2.665000000000000568e+01,-1.819999999999996287e+00,7.830000000000007176e+00,2.271999999999998465e+01,-1.970000000000015516e+00,-1.299999999999984945e+00,3.434999999999999432e+01,2.822000000000000242e+01,-2.169999999999998597e+00,8.039999999999990266e+00,-8.100000000000000533e-01,-1.039999999999999813e+00,-1.089999999999999636e+00,-3.200000000000000622e-01,-8.400000000000001910e-01,1.680000000000001936e+00,-1.989999999999999769e+00,3.169999999999999041e+00,-1.580000000000000071e+00,6.399999999999989031e-01,1.480000000000004867e+00,-9.820000000000002061e+00,-1.965999999999996461e+01,1.458999999999998032e+01,-1.859000000000000696e+01,-1.020999999999999730e+01,2.590000000000012292e+00,9.470000000000011298e+00,-2.693000000000007788e+01,6.919999999999996376e+00,3.079999999999999716e+01,2.595000000000001705e+01,1.133000000000000718e+01,1.500000000000000711e+01,2.656999999999996120e+01,1.717000000000001947e+01,-1.030000000000000249e+00,-3.109999999999997655e+00,-1.070000000000000062e+00,-2.200000000000000011e-01,-1.069999999999999840e+00,2.600000000000000644e-01,1.399999999999999578e-01,-5.500000000000000444e-01,1.129999999999999893e+00,5.400000000000000355e-01,-5.900000000000000799e-01,4.429999999999999716e+00,1.617000000000000526e+01,-2.007999999999999474e+01,-2.638999999999998991e+01,1.869999999999992779e+00,-1.391999999999999638e+01,-4.783999999999998920e+01,-3.595999999999995822e+01,-8.009999999999990905e+00,-1.727000000000001378e+01,-3.396999999999998465e+01,-3.700000000000000711e+01,-1.039999999999996483e+00,-1.085000000000000497e+01,-2.746999999999998820e+01,-2.692000000000000881e+01,-1.897000000000000597e+01,-9.000000000000055178e-02,3.199999999999998401e-01,0.000000000000000000e+00,0.000000000000000000e+00,0.000000000000000000e+00,0.000000000000000000e+00,5.100000000000000089e-01,-5.600000000000000533e-01,-1.799999999999999656e-01,-2.400000000000000466e-01,8.900000000000000133e-01,-1.600000000000000033e-01,-5.310000000000000497e+00,-1.571000000000000263e+01,-3.889999999999997460e+00,-1.574999999999999822e+01,-1.807999999999998764e+01,-4.626000000000004775e+01,-4.509999999999999432e+01,-3.126000000000000512e+01,-3.492000000000002302e+01,-1.809000000000002117e+01,-2.304999999999998650e+01,-5.919999999999999929e+00,-7.700000000000002398e-01,2.449999999999999289e+00,-1.750000000000000222e+00,-2.520000000000000906e+00,1.699999999999998734e-01,-1.450000000000000400e+00,0.000000000000000000e+00,0.000000000000000000e+00,0.000000000000000000e+00,0.000000000000000000e+00,-1.900000000000000022e-01,-3.599999999999999867e-01,9.000000000000003830e-02,-1.000000000000000194e-01,-1.099999999999999450e-01,-5.799999999999999600e-01,-2.439999999999999947e+00,1.999999999999999001e-02,-1.001000000000000334e+01,-8.450000000000004619e+00,-7.040000000000000036e+00,-2.701999999999998536e+01,-3.291999999999996618e+01,-5.260000000000006892e+00,-4.519999999999998685e+00,-2.419999999999998153e+00,-1.090000000000000213e+01,-6.119999999999998330e+00,-2.380000000000000782e+00,-1.439999999999999281e+00,-3.299999999999999600e-01,6.199999999999997735e-01,-7.599999999999998979e-01,-1.140000000000000124e+00,0.000000000000000000e+00,0.000000000000000000e+00,0.000000000000000000e+00,0.000000000000000000e+00,8.000000000000000167e-02,-4.000000000000000083e-02,-5.300000000000001377e-01,8.999999999999994116e-02,-5.800000000000000711e-01,7.999999999999996003e-02,1.209999999999999520e+00,-6.800000000000000488e-01,-2.609999999999999876e+00,1.730000000000000426e+00,3.799999999999996159e-01,-6.200000000000004396e-01,-3.109999999999998987e+00,1.820000000000000284e+00,4.399999999999997247e-01,-1.629999999999999671e+00,-1.089999999999999636e+00,2.669999999999999929e+00,-2.699999999999999067e-01,-3.700000000000001066e-01,-1.070000000000000284e+00,1.999999999999999278e-01,-6.599999999999996980e-01,-4.500000000000000111e-01,0.000000000000000000e+00,0.000000000000000000e+00,0.000000000000000000e+00,0.000000000000000000e+00,-3.600000000000001532e-01
1.035999999999997812e+00,-1.400000000000000203e-02,7.599999999999999811e-02,-1.600000000000001074e-02,-8.100000000000001643e-02,1.090000000000000274e-01,2.950000000000001510e-01,-7.599999999999999811e-02,1.980000000000000648e-01,-1.073999999999999622e+00,1.550000000000000266e-01,3.199999999999995209e-02,-3.040000000000001590e-01,-5.880000000000004112e-01,2.200000000000004730e-02,8.200000000000005895e-02,1.300000000000001432e-01,-2.010000000000001785e-01,3.860000000000002318e-01,-8.199999999999997569e-02,-3.720000000000002194e-01,1.750000000000000444e-01,-5.230000000000001315e-01,4.800000000000010508e-02,-7.000000000000000146e-03,-1.000000000000000021e-03,0.000000000000000000e+00,-2.900000000000000147e-02,-3.300000000000000155e-02,2.200000000000000566e-02,-1.099999999999999936e-02,-1.499999999999999944e-02,1.519999999999999962e-01,-1.690000000000000946e-01,-1.700000000000000677e-01,9.799999999999998990e-02,-5.850000000000002975e-01,-1.020000000000000351e-01,1.830000000000000515e-01,-4.140000000000002012e-01,-1.219999999999999557e-01,6.020000000000004237e-01,-2.599999999999999534e-02,-1.200000000000002037e-01,1.579999999999999183e-01,2.780000000000000804e-01,2.260000000000000897e-01,7.300000000000003708e-02,-3.170000000000001705e-01,-2.799999999999999711e-01,2.910000000000001474e-01,-6.000000000000006717e-02,-4.199999999999998179e-02,1.099999999999999936e-02,2.299999999999999614e-02,-7.000000000000000146e-03,-3.200000000000000067e-02,1.449999999999999623e-01,-1.080000000000000404e-01,-5.099999999999996203e-02,-1.499999999999999944e-02,-5.699999999999999512e-02,3.320000000000001839e-01,-8.000000000000000167e-03,-1.165000000000000036e+00,1.250000000000000833e-01,2.469999999999999973e-01,-6.550000000000003597e-01,-1.432999999999997387e+00,-7.780000000000004690e-01,-9.109999999999995879e-01,-8.520000000000005347e-01,-3.950000000000001843e-01,1.769999999999999907e-01,-5.960000000000003073e-01,2.899999999999999106e-02,2.559999999999999498e-01,2.499999999999995282e-02,6.799999999999999101e-02,9.199999999999999845e-02,-6.000000000000000125e-03,2.000000000000000042e-03,1.099999999999999936e-02,2.000000000000000042e-03,-4.000000000000000083e-03,-2.900000000000000494e-02,-1.140000000000000457e-01,2.000000000000000042e-03,-4.000000000000000083e-03,-1.799999999999999517e-02,1.250000000000000000e-01,-2.060000000000000719e-01,1.430000000000001270e-01,-9.170000000000003704e-01,-8.980000000000004645e-01,-9.069999999999972529e-01,-1.046999999999997266e+00,-1.325999999999990964e+00,-2.540000000000000036e+00,-1.269000000000000794e+00,5.949999999999983080e-01,-3.472999999999992760e+00,-2.243999999999999773e+00,-1.589999999999996416e-01,3.620000000000004325e-01,-4.279999999999999916e-01,-1.489999999999999658e-01,-1.640000000000000346e-01,-3.600000000000000422e-02,-1.600000000000000033e-02,-8.000000000000000167e-03,2.800000000000000058e-02,-2.600000000000000228e-02,-4.000000000000000083e-03,2.610000000000000653e-01,-1.110000000000000431e-01,3.500000000000000333e-02,1.050000000000000377e-01,-7.500000000000001110e-02,1.617999999999999661e+00,4.341999999999999638e+00,2.435000000000000941e+00,2.009999999999997899e-01,-1.148999999999998911e+00,-2.299999999999995104e-01,-2.335000000000002185e+00,-5.746999999999993669e+00,2.830999999999999961e+00,-2.470000000000003304e-01,-3.906999999999998252e+00,-6.979999999999990656e-01,8.929999999999989058e-01,-9.559999999999998499e-01,-7.600000000000006750e-02,1.130000000000000782e+00,-6.260000000000004450e-01,6.300000000000000044e-02,-5.000000000000000278e-02,-1.000000000000000021e-03,-1.000000000000000021e-03,-4.000000000000000777e-02,2.200000000000000566e-01,-1.099999999999999936e-02,-1.320000000000000617e-01,-9.000000000000002442e-02,-1.000000000000000194e-02,1.824000000000000510e+00,3.948000000000002174e+00,-1.199999999999999734e+00,2.184000000000001052e+00,-4.630000000000004334e+00,-8.112999999999981782e+00,1.643999999999998796e+00,3.799999999999985612e-01,-3.392999999999994021e+00,1.032999999999999474e+00,2.219999999999995588e-01,-1.969999999999998641e+00,5.269999999999988027e-01,2.840999999999992198e+00,2.299999999999945144e-02,-2.018000000000002458e+00,7.409999999999997700e-01,2.181999999999998163e+00,2.610000000000000098e-01,3.400000000000000244e-02,0.000000000000000000e+00,-3.300000000000000155e-02,-5.600000000000002198e-02,2.370000000000000995e-01,-2.300000000000000655e-02,1.780000000000000193e-01,-4.000000000000000777e-02,-1.410000000000000142e-01,1.518999999999999906e+00,1.709000000000000075e+00,-4.844000000000002082e+00,-1.486999999999999877e+00,-2.704999999999999627e+00,-2.502999999999998337e+00,-2.282000000000000917e+00,5.729999999999985105e-01,-4.443999999999995509e+00,-2.373000000000000664e+00,-6.999999999999999556e-01,-3.396000000000001684e+00,6.600000000000033618e-02,1.936000000000002830e+00,1.390000000000005398e-01,3.069999999999997731e-01,-1.768999999999998129e+00,3.709999999999998854e-01,-7.989999999999998215e-01,-7.089999999999999636e-01,-9.600000000000000200e-02,-5.000000000000000104e-03,1.270000000000000573e-01,-1.160000000000000475e-01,3.699999999999999123e-02,-1.199999999999999331e-02,-4.700000000000000705e-02,-4.679999999999999716e-01,-2.209000000000001407e+00,-6.229999999999988880e-01,-2.304000000000002046e+00,3.720000000000002194e-01,1.870000000000001661e-01,-1.608999999999996433e+00,-3.738999999999994106e+00,-2.920000000000014806e-01,-2.799999999999991385e-01,3.159999999999986708e-01,2.809999999999996945e-01,-5.302000000000004043e+00,1.731000000000000316e+00,1.940000000000003499e+00,-1.551999999999998492e+00,4.740000000000002878e+00,1.177000000000000268e+00,3.040000000000000480e-01,-3.859999999999999543e-01,-4.450000000000000622e-01,-3.700000000000000511e-02,-2.000000000000003511e-03,4.000000000000000777e-02,-7.000000000000002054e-02,-2.599999999999999187e-02,6.000000000000003941e-02,-1.079999999999999571e-01,-2.131000000000000671e+00,-3.134999999999999343e+00,-4.470000000000000639e+00,-1.518000000000005567e+00,-7.269999999999996465e-01,-1.893000000000003125e+00,-3.183999999999996611e+00,-2.725999999999999091e+00,3.014000000000003787e+00,2.310999999999993282e+00,-3.497000000000006548e+00,8.499999999999982569e-02,-1.961000000000000520e+00,2.679000000000001158e+00,-2.993000000000002103e+00,-3.978999999999998316e+00,7.360000000000002096e-01,-2.450000000000007450e-01,-9.640000000000001901e-01,-4.299999999999999933e-01,-4.079999999999999738e-01,2.100000000000000477e-02,1.100000000000000110e-02,9.800000000000005929e-02,-1.650000000000000355e-01,1.619999999999999496e-01,-5.899999999999999689e-02,-2.170000000000001095e-01,-5.929999999999996385e-01,-2.317000000000000615e+00,-3.765999999999997794e+00,-4.166999999999989157e+00,1.124999999999996891e+00,1.362000000000004540e+00,-1.838999999999996637e+00,-3.680000000000005489e-01,5.072999999999999510e+00,-1.443000000000002059e+00,-2.088000000000004519e+00,3.979999999999987992e-01,-2.429999999999997939e+00,-9.150000000000008127e-01,-3.895999999999996355e+00,-1.578999999999999071e+00,-1.673000000000002041e+00,-1.179000000000000270e+00,-1.038999999999999924e+00,-2.540000000000000036e-01,-2.360000000000000153e-01,-1.600000000000000033e-02,1.800000000000000211e-01,-9.299999999999998546e-02,1.310000000000001164e-01,1.119999999999999607e-01,1.550000000000000822e-01,-1.519999999999999962e-01,-6.400000000000000133e-01,-1.097000000000000197e+00,-2.386000000000002785e+00,-1.665000000000001146e+00,2.689999999999993507e-01,-7.770000000000001350e-01,-3.379000000000004444e+00,2.136000000000001897e+00,1.276000000000000467e+00,1.132000000000003892e+00,3.193000000000000949e+00,2.747999999999994447e+00,1.861999999999999655e+00,6.660000000000001474e-01,-2.051999999999999602e+00,-2.748999999999999666e+00,-8.110000000000001652e-01,-1.063000000000000389e+00,-1.003000000000000114e+00,-2.999999999999999889e-02,1.877999999999999226e+00,-1.400000000000000029e-02,-8.000000000000000167e-03,2.370000000000001550e-01,-1.120000000000000440e-01,4.000000000000003553e-02,-1.199999999999999852e-02,2.220000000000000862e-01,-5.970000000000001972e-01,-6.959999999999998410e-01,1.112000000000000766e+00,-6.500000000000006883e-01,-1.782000000000000917e+00,1.459999999999997522e+00,2.209000000000000075e+00,6.769999999999987139e-01,8.100000000000048272e-01,3.005000000000005667e+00,2.091999999999988535e+00,1.881999999999999895e+00,-3.049999999999987166e-01,3.457999999999998408e+00,-2.332999999999995744e+00,-3.209999999999995968e+00,-9.310000000000004938e-01,1.179999999999999799e-01,-6.089999999999999858e-01,-8.499999999999999223e-02,2.424999999999998490e+00,-2.800000000000000058e-02,-2.200000000000000219e-02,9.600000000000002975e-02,-1.350000000000000089e-01,-1.530000000000000526e-01,-5.099999999999994815e-02,-1.300000000000000981e-02,-1.899999999999996136e-02,3.673999999999999488e+00,6.954000000000000625e+00,2.690000000000003055e+00,-2.109000000000001318e+00,-1.810000000000001164e+00,-6.530000000000004690e-01,-4.668000000000001926e+00,2.872999999999993115e+00,3.107999999999994767e+00,4.656999999999984041e+00,1.333000000000001517e+00,2.714000000000000856e+00,1.702000000000000624e+00,-4.831000000000003070e+00,-9.550000000000001821e-01,-6.670000000000001483e-01,-8.220000000000003970e-01,-2.270000000000000351e-01,-2.360000000000000153e-01,1.150000000000000050e-01,5.700000000000002287e-02,1.539999999999999980e-01,-1.180000000000000493e-01,4.799999999999998018e-02,-9.400000000000002798e-02,2.400000000000002479e-02,1.020000000000000073e-01,1.037999999999999812e+00,4.438000000000000611e+00,1.793999999999999151e+00,-2.002000000000002000e+00,-3.302999999999996383e+00,-6.094999999999992646e+00,-4.753000000000004555e+00,-4.269000000000001016e+00,3.501000000000002554e+00,3.498000000000006882e+00,9.859999999999972120e-01,1.173999999999999044e+00,6.500000000000005773e-01,1.080000000000033156e-01,-3.433999999999997055e+00,-1.617999999999999883e+00,-7.349999999999995426e-01,-1.440999999999997394e+00,-5.720000000000001750e-01,-2.459999999999999964e-01,6.000000000000029615e-03,1.180000000000000493e-01,-2.399999999999999703e-02,-6.399999999999998745e-02,6.099999999999999173e-02,3.530000000000000360e-01,-8.800000000000002265e-02,-1.049999999999999961e-01,1.968000000000001082e+00,1.982000000000001094e+00,-1.859000000000000652e+00,-3.289000000000003254e+00,-3.257000000000002338e+00,-2.247999999999997112e+00,-2.081999999999999407e+00,-3.714000000000000412e+00,3.482999999999996987e+00,-2.609999999999997655e+00,-1.229999999999985827e-01,-7.029999999999991811e-01,-4.899999999999999911e-01,1.028999999999999249e+00,-2.234000000000000430e+00,-1.341999999999996529e+00,-1.585999999999996968e+00,-8.919999999999997931e-01,-7.430000000000003268e-01,-5.899999999999999689e-02,6.560000000000003606e-01,2.160000000000000808e-01,9.700000000000003064e-02,-1.170000000000000623e-01,1.679999999999999827e-01,-8.300000000000000433e-02,-5.999999999999998390e-02,1.699999999999998734e-02,-2.210000000000000298e-01,-6.960000000000000631e-01,-2.368999999999999773e+00,-3.601999999999998980e+00,-2.871000000000000885e+00,-1.293999999999996264e+00,4.300000000000227252e-02,2.389999999999966318e-01,2.415999999999991044e+00,4.652000000000002800e+00,-1.179999999999999272e+00,-4.420000000000013918e-01,3.746000000000000885e+00,-4.036999999999995481e+00,-4.459999999999994635e+00,-2.936999999999993616e+00,-8.649999999999954392e-01,-3.809999999999997833e-01,-9.180000000000003713e-01,-1.809999999999999387e-01,-1.109999999999999043e-01,-9.999999999999523159e-04,3.200000000000001732e-01,-1.630000000000000893e-01,-2.300000000000003084e-02,6.499999999999994671e-02,9.000000000000004524e-03,-1.139999999999999902e-01,-1.540000000000000258e-01,2.820000000000001950e-01,-3.649999999999999911e-01,-2.623000000000000220e+00,-2.468999999999996309e+00,-2.148999999999997357e+00,1.020999999999999464e+00,2.207000000000001183e+00,-2.790000000000008029e-01,2.764999999999993463e+00,-2.796999999999999265e+00,8.099999999999994982e-01,-1.209999999999998854e+00,-3.083000000000001961e+00,-2.227999999999997982e+00,-3.081999999999991857e+00,-1.100999999999996870e+00,-1.204999999999996962e+00,-1.403000000000001579e+00,-7.660000000000001252e-01,-2.520000000000000573e-01,8.000000000000055678e-03,-3.799999999999999906e-02,1.380000000000000393e-01,1.200000000000000511e-01,-2.050000000000001266e-01,-9.899999999999994915e-02,7.200000000000009170e-02,-1.152000000000000135e+00,-1.259999999999999565e+00,-4.879999999999997673e-01,-5.479999999999997096e-01,-2.276000000000001133e+00,-1.463000000000002299e+00,-4.343000000000005301e+00,1.039999999999999147e+00,2.219999999999995310e-01,-2.960000000000006515e-01,1.135999999999999899e+00,-1.783000000000001473e+00,-2.052000000000001378e+00,-1.632000000000001450e+00,1.869999999999999440e+00,-6.469999999999963558e-01,-3.138000000000000789e+00,-2.477000000000001201e+00,-1.671000000000002705e+00,-9.040000000000003588e-01,-5.270000000000000240e-01,-4.770000000000000906e-01,-3.940000000000000724e-01,-2.800000000000000752e-02,8.599999999999997924e-02,1.920000000000000595e-01,-2.360000000000000431e-01,-3.610000000000000431e-01,-1.543000000000000815e+00,-2.264999999999998792e+00,-1.005000000000000560e+00,-1.819000000000003725e+00,-4.043000000000001926e+00,-2.361000000000000654e+00,7.020000000000002904e-01,-8.870000000000007878e-01,4.146000000000005237e+00,3.749999999999998668e+00,-2.063000000000005052e+00,-2.759999999999994902e+00,-7.139999999999994129e-01,9.350000000000003864e-01,3.250000000000000000e+00,8.920000000000000151e-01,-3.965000000000007851e+00,-4.669999999999998153e+00,-2.352000000000004754e+00,-2.383999999999999897e+00,-5.080000000000001181e-01,1.730000000000000426e-01,1.562000000000000277e+00,-1.670000000000000928e-01,-4.299999999999998268e-02,-6.100000000000001948e-02,-3.579999999999999294e-01,-1.003999999999999559e+00,-3.234000000000002650e+00,-1.500999999999998114e+00,-1.655999999999997474e+00,-3.999999999999999112e+00,-4.117000000000003546e+00,2.478999999999997428e+00,1.263999999999999790e+00,-3.239999999999996660e+00,3.077999999999994962e+00,4.522999999999994358e+00,9.479999999999998428e-01,-6.189999999999998836e-01,1.003000000000000336e+00,1.450000000000001732e+00,4.452999999999992298e+00,1.338000000000000744e+00,-4.349000000000000199e+00,-3.355999999999992767e+00,-2.325999999999996071e+00,-3.779999999999998916e-01,-2.089999999999999913e-01,-3.099999999999998937e-02,7.010000000000001785e-01,-6.000000000000035687e-03,1.600000000000000727e-02,-1.199999999999999956e-01,-4.830000000000000959e-01,-1.499000000000000776e+00,-3.069999999999999840e+00,-9.810000000000007603e-01,-1.359999999999996212e-01,1.380000000000002058e-01,-2.653999999999998138e+00,9.359999999999991660e-01,-2.390999999999992021e+00,1.174000000000001265e+00,-1.098999999999999977e+00,-4.420000000000002816e-01,-1.681999999999991502e+00,-2.051000000000002821e+00,-7.300000000000061995e-02,3.305999999999999606e+00,-2.291999999999996707e+00,-1.737000000000003874e+00,4.139999999999998126e-01,-9.340000000000000524e-01,-7.829999999999998073e-01,-6.670000000000000373e-01,-4.350000000000000533e-01,-1.700000000000000122e-02,-6.300000000000000044e-02,1.010000000000000342e-01,8.899999999999995415e-02,-3.900000000000001799e-01,9.400000000000001410e-02,-1.321999999999999842e+00,-2.537000000000002142e+00,1.463000000000000078e+00,3.219000000000002526e+00,-1.587999999999992751e+00,7.420000000000012141e-01,3.959999999999989084e-01,-8.990000000000020197e-01,-2.445999999999995289e+00,-2.749999999999998224e+00,-9.110000000000008091e-01,6.209999999999999964e-01,-2.142000000000004789e+00,-2.989999999999997105e-01,-1.560000000000006271e+00,-2.933999999999989505e+00,7.849999999999995870e-01,1.429000000000000714e+00,-7.790000000000002478e-01,-1.226999999999995428e+00,-6.530000000000000249e-01,-2.550000000000000044e-01,2.240000000000000879e-01,-4.899999999999999495e-02,-2.000000000000000909e-03,8.299999999999996270e-02,-1.950000000000000899e-01,-2.740000000000000213e-01,-7.550000000000003375e-01,-1.050000000000000266e+00,1.142999999999999794e+00,2.719999999999999751e+00,-5.380000000000002558e-01,6.929999999999987281e-01,-3.860999999999997101e+00,-1.400000000000017897e-02,-2.029999999999991256e-01,-6.090000000000007629e-01,2.665000000000000924e+00,-1.820000000000000506e-01,7.829999999999994742e-01,2.272000000000001574e+00,-1.970000000000003137e-01,-1.300000000000004208e-01,3.434999999999999609e+00,2.821999999999995179e+00,-2.170000000000002760e-01,8.040000000000004921e-01,-8.100000000000000255e-02,-1.039999999999999952e-01,-1.089999999999999719e-01,-3.200000000000000067e-02,-8.399999999999999134e-02,1.680000000000000937e-01,-1.989999999999999825e-01,3.170000000000000040e-01,-1.580000000000000016e-01,6.400000000000000133e-02,1.480000000000002147e-01,-9.820000000000004281e-01,-1.966000000000009074e+00,1.458999999999998964e+00,-1.859000000000000430e+00,-1.020999999999999908e+00,2.589999999999998970e-01,9.469999999999990647e-01,-2.692999999999994287e+00,6.920000000000002816e-01,3.079999999999997851e+00,2.595000000000002416e+00,1.133000000000000007e+00,1.500000000000000666e+00,2.657000000000001805e+00,1.717000000000001636e+00,-1.029999999999998694e-01,-3.110000000000001652e-01,-1.069999999999999979e-01,-2.199999999999999872e-02,-1.070000000000000395e-01,2.599999999999999187e-02,1.400000000000000029e-02,-5.500000000000000722e-02,1.129999999999999893e-01,5.399999999999999939e-02,-5.899999999999999689e-02,4.429999999999999494e-01,1.616999999999999993e+00,-2.008000000000000451e+00,-2.638999999999999346e+00,1.870000000000001661e-01,-1.391999999999999904e+00,-4.783999999999997144e+00,-3.596000000000004526e+00,-8.010000000000002673e-01,-1.726999999999997648e+00,-3.397000000000001574e+00,-3.699999999999998845e+00,-1.039999999999998009e-01,-1.085000000000000631e+00,-2.746999999999996778e+00,-2.692000000000001059e+00,-1.896999999999999797e+00,-9.000000000000027076e-03,3.200000000000001454e-02,0.000000000000000000e+00,0.000000000000000000e+00,0.000000000000000000e+00,0.000000000000000000e+00,5.100000000000000366e-02,-5.600000000000000117e-02,-1.800000000000000211e-02,-2.400000000000000397e-02,8.900000000000000966e-02,-1.600000000000000033e-02,-5.309999999999998055e-01,-1.571000000000000174e+00,-3.890000000000000679e-01,-1.574999999999998623e+00,-1.808000000000000940e+00,-4.625999999999999446e+00,-4.509999999999998010e+00,-3.125999999999999446e+00,-3.491999999999995996e+00,-1.808999999999997055e+00,-2.305000000000001048e+00,-5.920000000000000817e-01,-7.700000000000001288e-02,2.450000000000001066e-01,-1.750000000000000444e-01,-2.520000000000001128e-01,1.699999999999999775e-02,-1.449999999999999900e-01,0.000000000000000000e+00,0.000000000000000000e+00,0.000000000000000000e+00,0.000000000000000000e+00,-1.900000000000000647e-02,-3.600000000000000422e-02,9.000000000000001055e-03,-1.000000000000000194e-02,-1.099999999999999936e-02,-5.800000000000000988e-02,-2.439999999999999947e-01,2.000000000000000042e-03,-1.000999999999999890e+00,-8.450000000000000844e-01,-7.040000000000002922e-01,-2.701999999999999513e+00,-3.291999999999999371e+00,-5.260000000000001341e-01,-4.520000000000002349e-01,-2.419999999999999929e-01,-1.090000000000000080e+00,-6.119999999999999885e-01,-2.379999999999999893e-01,-1.439999999999999614e-01,-3.300000000000000155e-02,6.199999999999999956e-02,-7.599999999999998423e-02,-1.140000000000000457e-01,0.000000000000000000e+00,0.000000000000000000e+00,0.000000000000000000e+00,0.000000000000000000e+00,8.000000000000000167e-03,-4.000000000000000083e-03,-5.300000000000000544e-02,9.000000000000001055e-03,-5.799999999999999600e-02,8.000000000000003636e-03,1.209999999999999964e-01,-6.800000000000000488e-02,-2.610000000000001208e-01,1.730000000000000981e-01,3.799999999999995048e-02,-6.199999999999999956e-02,-3.110000000000001097e-01,1.820000000000000229e-01,4.399999999999999051e-02,-1.629999999999999505e-01,-1.089999999999999442e-01,2.669999999999999596e-01,-2.699999999999994765e-02,-3.699999999999999817e-02,-1.070000000000000118e-01,2.000000000000000389e-02,-6.599999999999993372e-02,-4.499999999999999833e-02,0.000000000000000000e+00,0.000000000000000000e+00,0.000000000000000000e+00,0.000000000000000000e+00,-3.600000000000002504e-02
