-8.500000000000000000e+01,3.360000000000000000e+02,3.660000000000000000e+02,-2.520000000000000000e+02,-7.400000000000000000e+01,-6.400000000000000000e+01,-2.810000000000000000e+02,6.100000000000000000e+01,-1.780000000000000000e+02,-5.730000000000000000e+02,1.711000000000000000e+03,1.114000000000000000e+03,7.780000000000000000e+02,-2.140000000000000000e+02,6.950000000000000000e+02,1.024000000000000000e+03,7.440000000000000000e+02,-1.615000000000000000e+03,3.060000000000000000e+02,1.830000000000000000e+02,-1.020000000000000000e+03,1.896000000000000000e+03,3.470000000000000000e+02,-7.620000000000000000e+02,-2.730000000000000000e+02,4.700000000000000000e+01,3.180000000000000000e+02,7.200000000000000000e+01,-5.400000000000000000e+01,-1.490000000000000000e+02,-2.150000000000000000e+02,-2.230000000000000000e+02,2.050000000000000000e+02,5.900000000000000000e+01,4.200000000000000000e+01,-1.820000000000000000e+02,3.620000000000000000e+02,8.660000000000000000e+02,8.330000000000000000e+02,1.430000000000000000e+02,6.000000000000000000e+00,-2.173000000000000000e+03,-8.800000000000000000e+01,-6.750000000000000000e+02,-1.750000000000000000e+03,-2.901000000000000000e+03,-2.352000000000000000e+03,2.304000000000000000e+03,7.670000000000000000e+02,-1.576000000000000000e+03,-8.400000000000000000e+01,1.867000000000000000e+03,2.420000000000000000e+02,-2.300000000000000000e+01,-1.990000000000000000e+02,3.940000000000000000e+02,1.490000000000000000e+02,8.400000000000000000e+01,-8.500000000000000000e+01,-5.100000000000000000e+01,2.590000000000000000e+02,-1.090000000000000000e+02,-3.050000000000000000e+02,-1.150000000000000000e+02,-8.640000000000000000e+02,-9.490000000000000000e+02,-2.501000000000000000e+03,-2.713000000000000000e+03,-1.495000000000000000e+03,-3.794000000000000000e+03,-3.681000000000000000e+03,-2.613000000000000000e+03,-1.539000000000000000e+03,-6.114000000000000000e+03,-2.945000000000000000e+03,-2.320000000000000000e+02,2.550000000000000000e+02,-6.490000000000000000e+02,-5.330000000000000000e+02,9.100000000000000000e+01,2.420000000000000000e+02,1.500000000000000000e+02,-2.810000000000000000e+02,8.310000000000000000e+02,1.060000000000000000e+02,4.400000000000000000e+01,3.000000000000000000e+00,4.100000000000000000e+01,-1.400000000000000000e+01,-2.710000000000000000e+02,-5.140000000000000000e+02,-5.800000000000000000e+01,3.520000000000000000e+02,-2.569000000000000000e+03,-8.469000000000000000e+03,-6.015000000000000000e+03,-1.467000000000000000e+03,-6.088000000000000000e+03,-9.951000000000000000e+03,-3.093000000000000000e+03,-4.572000000000000000e+03,-8.328000000000000000e+03,6.550000000000000000e+02,-4.088000000000000000e+03,-7.036000000000000000e+03,-3.596000000000000000e+03,-7.080000000000000000e+02,1.084000000000000000e+03,-4.380000000000000000e+02,-1.780000000000000000e+02,-2.110000000000000000e+02,-1.330000000000000000e+02,-3.580000000000000000e+02,1.300000000000000000e+01,6.900000000000000000e+01,-1.500000000000000000e+01,-1.130000000000000000e+02,3.000000000000000000e+00,9.000000000000000000e+00,-4.400000000000000000e+02,-2.354000000000000000e+03,-1.888000000000000000e+03,-5.195000000000000000e+03,-1.320000000000000000e+02,-4.489000000000000000e+03,-5.802000000000000000e+03,-4.234000000000000000e+03,-2.716000000000000000e+03,-7.172000000000000000e+03,-4.496000000000000000e+03,-2.137000000000000000e+03,-5.354000000000000000e+03,3.121000000000000000e+03,4.462000000000000000e+03,8.649000000000000000e+03,-8.850000000000000000e+02,-4.550000000000000000e+02,-1.220000000000000000e+02,2.000000000000000000e+02,1.630000000000000000e+02,4.000000000000000000e+00,-7.000000000000000000e+00,-5.730000000000000000e+02,-2.090000000000000000e+02,2.360000000000000000e+02,-1.460000000000000000e+02,-1.632000000000000000e+03,-2.744000000000000000e+03,2.417000000000000000e+03,-8.760000000000000000e+02,1.957000000000000000e+03,3.860000000000000000e+03,-1.912000000000000000e+03,-7.342000000000000000e+03,7.975000000000000000e+03,6.937000000000000000e+03,-3.122000000000000000e+03,1.058900000000000000e+04,-6.046000000000000000e+03,-5.280000000000000000e+02,1.992000000000000000e+03,-1.116000000000000000e+03,5.247000000000000000e+03,9.770000000000000000e+02,2.284000000000000000e+03,2.647000000000000000e+03,-2.530000000000000000e+02,3.400000000000000000e+01,5.900000000000000000e+01,2.800000000000000000e+02,4.800000000000000000e+01,1.045000000000000000e+03,2.295000000000000000e+03,1.155000000000000000e+03,-1.504000000000000000e+03,-1.800000000000000000e+01,6.496000000000000000e+03,2.444000000000000000e+03,-3.109000000000000000e+03,-1.508000000000000000e+03,-1.208500000000000000e+04,-2.753000000000000000e+03,-1.310000000000000000e+03,-1.930000000000000000e+03,-5.303000000000000000e+03,-2.107000000000000000e+03,-6.980000000000000000e+03,3.290000000000000000e+02,2.676000000000000000e+03,2.354000000000000000e+03,4.300000000000000000e+03,6.555000000000000000e+03,-7.438000000000000000e+03,-6.002000000000000000e+03,-1.811000000000000000e+03,-5.010000000000000000e+02,-2.840000000000000000e+02,1.770000000000000000e+02,-1.440000000000000000e+02,3.540000000000000000e+02,1.314000000000000000e+03,3.260000000000000000e+02,-4.676000000000000000e+03,-1.486000000000000000e+03,1.156000000000000000e+03,-5.320000000000000000e+02,-5.759000000000000000e+03,-1.718000000000000000e+03,-4.500000000000000000e+03,-8.158000000000000000e+03,-4.335000000000000000e+03,-9.512000000000000000e+03,-2.213000000000000000e+03,-6.947000000000000000e+03,3.707000000000000000e+03,-2.721000000000000000e+03,3.961000000000000000e+03,5.751000000000000000e+03,4.934000000000000000e+03,1.397000000000000000e+03,-4.211000000000000000e+03,-6.170000000000000000e+03,-2.295000000000000000e+03,-5.100000000000000000e+02,-4.270000000000000000e+02,-2.890000000000000000e+02,-3.100000000000000000e+02,-1.359000000000000000e+03,-2.660000000000000000e+02,-4.073000000000000000e+03,-2.746000000000000000e+03,-9.060000000000000000e+02,-7.642000000000000000e+03,-1.995000000000000000e+03,-9.010000000000000000e+02,2.025000000000000000e+03,-4.051000000000000000e+03,-5.118000000000000000e+03,-7.316000000000000000e+03,2.169000000000000000e+03,-4.740000000000000000e+02,1.220000000000000000e+02,-5.039000000000000000e+03,-2.983000000000000000e+03,-1.662000000000000000e+03,-4.807000000000000000e+03,-5.725000000000000000e+03,-1.884000000000000000e+03,-6.568000000000000000e+03,-1.150000000000000000e+03,-1.243000000000000000e+03,-7.670000000000000000e+02,-1.235000000000000000e+03,-9.720000000000000000e+02,-3.202000000000000000e+03,-2.044000000000000000e+03,2.914000000000000000e+03,3.400000000000000000e+02,3.390000000000000000e+02,2.710000000000000000e+02,-1.020200000000000000e+04,3.163000000000000000e+03,-5.939000000000000000e+03,7.050000000000000000e+02,-4.429000000000000000e+03,3.438000000000000000e+03,-1.161600000000000000e+04,-1.103000000000000000e+03,-1.040000000000000000e+03,-1.370000000000000000e+02,-2.867000000000000000e+03,4.514000000000000000e+03,-1.733000000000000000e+03,-4.637000000000000000e+03,2.077000000000000000e+03,-7.977000000000000000e+03,1.474000000000000000e+03,2.840000000000000000e+03,-7.710000000000000000e+02,-5.180000000000000000e+02,-6.670000000000000000e+02,4.270000000000000000e+02,-4.561000000000000000e+03,-5.948000000000000000e+03,-4.255000000000000000e+03,-1.282000000000000000e+03,-2.889000000000000000e+03,-1.490000000000000000e+02,1.233000000000000000e+03,-4.927000000000000000e+03,-2.441000000000000000e+03,-5.835000000000000000e+03,2.228000000000000000e+03,-8.806000000000000000e+03,-2.929000000000000000e+03,8.220000000000000000e+02,-3.443000000000000000e+03,2.610000000000000000e+03,-4.112000000000000000e+03,-2.134000000000000000e+03,3.531000000000000000e+03,-1.757000000000000000e+03,3.990000000000000000e+03,-4.026000000000000000e+03,4.135000000000000000e+03,6.860000000000000000e+02,1.880000000000000000e+02,-2.270000000000000000e+02,-2.040000000000000000e+02,-6.430000000000000000e+02,-4.167000000000000000e+03,-4.480000000000000000e+03,-5.533000000000000000e+03,3.611000000000000000e+03,-3.389000000000000000e+03,3.558000000000000000e+03,3.460000000000000000e+02,-8.870000000000000000e+02,-1.376000000000000000e+03,-1.620000000000000000e+02,-5.622000000000000000e+03,-3.130000000000000000e+03,-8.931000000000000000e+03,4.010000000000000000e+03,-1.107000000000000000e+03,-1.065000000000000000e+03,-6.911000000000000000e+03,3.363000000000000000e+03,-2.855000000000000000e+03,-3.875000000000000000e+03,2.621000000000000000e+03,-6.220000000000000000e+03,1.538000000000000000e+03,-1.253000000000000000e+03,-5.720000000000000000e+02,-4.260000000000000000e+02,-4.150000000000000000e+02,-3.090000000000000000e+02,-1.698000000000000000e+03,-4.850000000000000000e+02,1.863000000000000000e+03,7.524000000000000000e+03,-2.217000000000000000e+03,5.189000000000000000e+03,2.341000000000000000e+03,8.779000000000000000e+03,6.763000000000000000e+03,4.260000000000000000e+03,2.130000000000000000e+02,4.701000000000000000e+03,1.179000000000000000e+03,2.216000000000000000e+03,6.932000000000000000e+03,-5.313000000000000000e+03,-1.078000000000000000e+03,-6.125000000000000000e+03,-2.796000000000000000e+03,4.648000000000000000e+03,-5.171000000000000000e+03,-4.190000000000000000e+03,1.745000000000000000e+03,-1.000000000000000000e+00,-5.860000000000000000e+02,-2.500000000000000000e+01,-9.650000000000000000e+02,-7.760000000000000000e+02,-2.564000000000000000e+03,-1.898000000000000000e+03,5.075000000000000000e+03,2.504000000000000000e+03,-1.448000000000000000e+03,4.558000000000000000e+03,1.567000000000000000e+03,4.100000000000000000e+03,5.568000000000000000e+03,6.625000000000000000e+03,1.067400000000000000e+04,-9.441000000000000000e+03,-4.997000000000000000e+03,-1.690000000000000000e+02,-1.366000000000000000e+03,5.133000000000000000e+03,5.830000000000000000e+03,7.380000000000000000e+02,2.554000000000000000e+03,4.380000000000000000e+03,-6.315000000000000000e+03,-3.587000000000000000e+03,1.456000000000000000e+03,1.250000000000000000e+02,-6.500000000000000000e+02,-2.710000000000000000e+02,-6.750000000000000000e+02,-2.890000000000000000e+02,-1.068000000000000000e+03,-3.843000000000000000e+03,2.397000000000000000e+03,3.924000000000000000e+03,1.152300000000000000e+04,8.556000000000000000e+03,-4.029000000000000000e+03,6.737000000000000000e+03,-1.242000000000000000e+03,1.210000000000000000e+02,3.225000000000000000e+03,-2.620000000000000000e+02,-5.893000000000000000e+03,-4.927000000000000000e+03,1.246000000000000000e+03,5.498000000000000000e+03,-3.495000000000000000e+03,3.687000000000000000e+03,2.159000000000000000e+03,3.765000000000000000e+03,4.393000000000000000e+03,-6.246000000000000000e+03,-3.834000000000000000e+03,-1.518000000000000000e+03,-4.210000000000000000e+02,-3.460000000000000000e+02,5.800000000000000000e+01,-8.490000000000000000e+02,-2.490000000000000000e+02,-2.600000000000000000e+02,3.129000000000000000e+03,-4.028000000000000000e+03,-2.094000000000000000e+03,3.246000000000000000e+03,9.059000000000000000e+03,-9.120000000000000000e+02,-5.817000000000000000e+03,5.007000000000000000e+03,2.626000000000000000e+03,9.458000000000000000e+03,6.072000000000000000e+03,3.979000000000000000e+03,2.090000000000000000e+02,1.074000000000000000e+03,1.364000000000000000e+03,2.155000000000000000e+03,1.448000000000000000e+03,-3.369000000000000000e+03,3.640000000000000000e+02,-4.874000000000000000e+03,-8.111000000000000000e+03,-3.855000000000000000e+03,-1.743000000000000000e+03,-4.100000000000000000e+02,-1.028000000000000000e+03,-1.595000000000000000e+03,-1.880000000000000000e+02,-1.436000000000000000e+03,-8.606000000000000000e+03,-2.179000000000000000e+03,-6.538000000000000000e+03,1.480000000000000000e+02,8.030000000000000000e+03,-2.910000000000000000e+02,3.036000000000000000e+03,3.619000000000000000e+03,-4.707000000000000000e+03,8.890000000000000000e+02,-3.618000000000000000e+03,5.588000000000000000e+03,-6.010000000000000000e+03,3.968000000000000000e+03,8.560000000000000000e+03,1.888000000000000000e+03,1.958000000000000000e+03,9.880000000000000000e+02,7.575000000000000000e+03,6.886000000000000000e+03,2.214000000000000000e+03,-3.700000000000000000e+03,-1.747000000000000000e+03,7.730000000000000000e+02,-4.300000000000000000e+02,-8.340000000000000000e+02,-5.940000000000000000e+02,-1.614000000000000000e+03,-9.670000000000000000e+03,4.589000000000000000e+03,1.239000000000000000e+03,1.747000000000000000e+03,1.670000000000000000e+03,-3.339000000000000000e+03,1.276000000000000000e+03,-2.413000000000000000e+03,3.611000000000000000e+03,5.619000000000000000e+03,6.484000000000000000e+03,3.460000000000000000e+02,8.392000000000000000e+03,5.231000000000000000e+03,-4.769000000000000000e+03,-5.500000000000000000e+01,-9.825000000000000000e+03,-6.658000000000000000e+03,-1.373000000000000000e+03,8.877000000000000000e+03,3.671000000000000000e+03,-9.230000000000000000e+02,-1.162000000000000000e+03,-7.800000000000000000e+02,-9.880000000000000000e+02,-3.420000000000000000e+02,-1.389000000000000000e+03,-1.110000000000000000e+03,-1.271600000000000000e+04,-1.398000000000000000e+03,-2.096000000000000000e+03,-2.875000000000000000e+03,8.290000000000000000e+02,1.103000000000000000e+03,-3.742000000000000000e+03,-5.782000000000000000e+03,1.957000000000000000e+03,6.581000000000000000e+03,3.312000000000000000e+03,6.282000000000000000e+03,5.280000000000000000e+02,-5.038000000000000000e+03,-5.857000000000000000e+03,8.369000000000000000e+03,-2.806000000000000000e+03,-1.750000000000000000e+03,-4.462000000000000000e+03,1.690000000000000000e+03,-9.410000000000000000e+02,-3.160000000000000000e+02,1.390000000000000000e+02,6.300000000000000000e+01,1.840000000000000000e+02,-1.058000000000000000e+03,-2.910000000000000000e+03,-1.138000000000000000e+03,-5.454000000000000000e+03,3.199000000000000000e+03,7.183000000000000000e+03,1.870000000000000000e+02,-1.077800000000000000e+04,-3.492000000000000000e+03,-1.114000000000000000e+03,3.294000000000000000e+03,-3.452000000000000000e+03,5.320000000000000000e+03,2.960000000000000000e+02,1.038900000000000000e+04,-5.056000000000000000e+03,-3.560000000000000000e+02,-3.160000000000000000e+03,-4.566000000000000000e+03,-3.705000000000000000e+03,-3.896000000000000000e+03,-9.147000000000000000e+03,-4.651000000000000000e+03,-9.170000000000000000e+02,-1.900000000000000000e+02,-3.170000000000000000e+02,-9.200000000000000000e+01,-1.233000000000000000e+03,-5.000000000000000000e+02,-8.790000000000000000e+02,-3.840000000000000000e+02,-1.360000000000000000e+02,-2.713000000000000000e+03,7.930000000000000000e+02,-1.440000000000000000e+03,-4.677000000000000000e+03,-2.943000000000000000e+03,-1.052700000000000000e+04,5.950000000000000000e+02,-1.232200000000000000e+04,-8.822000000000000000e+03,-2.390000000000000000e+03,-2.929000000000000000e+03,-2.836000000000000000e+03,-1.943000000000000000e+03,-1.989000000000000000e+03,-1.675000000000000000e+03,-3.240000000000000000e+02,2.143000000000000000e+03,-2.334000000000000000e+03,-2.608000000000000000e+03,-8.630000000000000000e+02,7.550000000000000000e+02,-8.000000000000000000e+00,-1.030000000000000000e+02,-7.600000000000000000e+01,-3.510000000000000000e+02,1.800000000000000000e+01,-1.206000000000000000e+03,-1.830000000000000000e+02,-1.952000000000000000e+03,-4.547000000000000000e+03,-3.194000000000000000e+03,-2.062000000000000000e+03,-8.124000000000000000e+03,-1.340000000000000000e+02,-1.374000000000000000e+03,3.320000000000000000e+03,-3.329000000000000000e+03,5.054000000000000000e+03,-3.966000000000000000e+03,3.190000000000000000e+02,3.564000000000000000e+03,5.414000000000000000e+03,-4.740000000000000000e+02,1.000000000000000000e+02,7.165000000000000000e+03,4.278000000000000000e+03,-4.316000000000000000e+03,-1.032000000000000000e+03,-1.140000000000000000e+02,2.000000000000000000e+01,2.760000000000000000e+02,5.090000000000000000e+02,-3.260000000000000000e+02,-9.580000000000000000e+02,-9.690000000000000000e+02,-8.220000000000000000e+02,-1.634000000000000000e+03,-4.710000000000000000e+03,9.120000000000000000e+02,2.606000000000000000e+03,-5.442000000000000000e+03,-7.711000000000000000e+03,-1.950000000000000000e+03,-1.109200000000000000e+04,-1.205000000000000000e+03,-3.859000000000000000e+03,3.371000000000000000e+03,4.533000000000000000e+03,4.395000000000000000e+03,7.735000000000000000e+03,-3.460000000000000000e+02,-5.050000000000000000e+02,1.730000000000000000e+03,7.200000000000000000e+02,-1.366000000000000000e+03,7.390000000000000000e+02,8.500000000000000000e+01,5.900000000000000000e+01,1.980000000000000000e+02,-2.380000000000000000e+02,3.310000000000000000e+02,-4.020000000000000000e+02,3.040000000000000000e+02,-2.700000000000000000e+02,-5.760000000000000000e+02,-1.392000000000000000e+03,4.876000000000000000e+03,7.300000000000000000e+02,-1.810000000000000000e+02,-2.460000000000000000e+03,-2.821000000000000000e+03,1.344000000000000000e+03,-4.020000000000000000e+02,-6.490000000000000000e+03,2.950000000000000000e+02,3.914000000000000000e+03,3.535000000000000000e+03,8.930000000000000000e+02,-2.802000000000000000e+03,-1.805000000000000000e+03,3.190000000000000000e+03,-2.281000000000000000e+03,-1.440000000000000000e+02,-1.070000000000000000e+02,-6.200000000000000000e+01,-3.700000000000000000e+01,4.300000000000000000e+01,-2.810000000000000000e+02,1.025000000000000000e+03,-7.000000000000000000e+01,9.000000000000000000e+00,-3.600000000000000000e+02,3.360000000000000000e+02,5.975000000000000000e+03,5.335000000000000000e+03,-1.155400000000000000e+04,2.972000000000000000e+03,1.720000000000000000e+03,1.570000000000000000e+02,-2.030000000000000000e+03,3.710000000000000000e+02,3.531000000000000000e+03,-7.003000000000000000e+03,-3.330000000000000000e+02,-5.080000000000000000e+03,-4.735000000000000000e+03,-2.664000000000000000e+03,-2.443000000000000000e+03,-1.622000000000000000e+03,-8.410000000000000000e+02,1.170000000000000000e+02,1.000000000000000000e+00,9.000000000000000000e+00,4.000000000000000000e+00,-4.000000000000000000e+00,-5.100000000000000000e+01,4.050000000000000000e+02,-1.840000000000000000e+02,1.060000000000000000e+02,2.520000000000000000e+02,-9.000000000000000000e+00,-6.670000000000000000e+02,-6.895000000000000000e+03,-8.723000000000000000e+03,-3.600000000000000000e+02,-4.769000000000000000e+03,-4.083000000000000000e+03,-6.770000000000000000e+02,-6.745000000000000000e+03,-5.691000000000000000e+03,-3.837000000000000000e+03,-1.079900000000000000e+04,-1.215600000000000000e+04,-8.532000000000000000e+03,-5.094000000000000000e+03,-1.203000000000000000e+03,-1.549000000000000000e+03,-5.950000000000000000e+02,-1.820000000000000000e+02,-3.200000000000000000e+01,-1.300000000000000000e+01,2.000000000000000000e+00,0.000000000000000000e+00,1.270000000000000000e+02,-1.700000000000000000e+01,-5.600000000000000000e+01,-5.000000000000000000e+01,-2.720000000000000000e+02,-8.900000000000000000e+01,-1.390000000000000000e+02,-2.680000000000000000e+03,6.300000000000000000e+01,8.500000000000000000e+02,-1.157000000000000000e+03,-5.900000000000000000e+02,7.200000000000000000e+02,-3.756000000000000000e+03,-5.636000000000000000e+03,-2.693000000000000000e+03,-5.203000000000000000e+03,-7.653000000000000000e+03,-6.591000000000000000e+03,-1.995000000000000000e+03,-1.030000000000000000e+02,-1.009000000000000000e+03,5.030000000000000000e+02,1.500000000000000000e+02,-1.600000000000000000e+01,-4.000000000000000000e+00,0.000000000000000000e+00,0.000000000000000000e+00,-2.650000000000000000e+02,-3.730000000000000000e+02,2.770000000000000000e+02,3.140000000000000000e+02,-3.700000000000000000e+01,-6.410000000000000000e+02,-4.930000000000000000e+02,-2.824000000000000000e+03,-1.942000000000000000e+03,-1.100000000000000000e+01,6.410000000000000000e+02,1.213000000000000000e+03,8.090000000000000000e+02,1.758000000000000000e+03,8.390000000000000000e+02,-1.882000000000000000e+03,-3.390000000000000000e+02,-6.300000000000000000e+01,-2.500000000000000000e+03,-1.887000000000000000e+03,-9.020000000000000000e+02,-1.850000000000000000e+02,-4.870000000000000000e+02,-2.960000000000000000e+02,0.000000000000000000e+00,0.000000000000000000e+00,0.000000000000000000e+00,-5.000000000000000000e+00,-1.170000000000000000e+02
-7.599999999999985434e+00,3.360000000000000142e+01,3.659999999999998721e+01,-2.519999999999997442e+01,-7.399999999999995914e+00,-6.400000000000003020e+00,-2.809999999999992326e+01,6.100000000000008527e+00,-1.780000000000000782e+01,-5.730000000000005400e+01,1.711000000000001648e+02,1.114000000000000057e+02,7.780000000000005400e+01,-2.139999999999999503e+01,6.950000000000015632e+01,1.024000000000000767e+02,7.440000000000014779e+01,-1.614999999999998010e+02,3.059999999999996234e+01,1.829999999999992255e+01,-1.020000000000001563e+02,1.896000000000004491e+02,3.470000000000002416e+01,-7.620000000000004547e+01,-2.730000000000000426e+01,4.700000000000001954e+00,3.180000000000001847e+01,7.200000000000001954e+00,-5.400000000000001243e+00,-1.489999999999998082e+01,-2.149999999999999289e+01,-2.230000000000002913e+01,2.050000000000000355e+01,5.899999999999997691e+00,4.200000000000000178e+00,-1.819999999999999929e+01,3.620000000000004547e+01,8.660000000000016485e+01,8.330000000000015348e+01,1.430000000000011973e+01,6.000000000000791367e-01,-2.173000000000000398e+02,-8.800000000000018474e+00,-6.749999999999977263e+01,-1.750000000000010232e+02,-2.900999999999994543e+02,-2.352000000000000739e+02,2.304000000000009720e+02,7.669999999999974705e+01,-1.576000000000001933e+02,-8.399999999999998579e+00,1.866999999999995907e+02,2.419999999999998153e+01,-2.299999999999995381e+00,-1.990000000000000568e+01,3.940000000000001279e+01,1.490000000000000213e+01,8.400000000000002132e+00,-8.500000000000003553e+00,-5.099999999999988098e+00,2.590000000000005187e+01,-1.089999999999997726e+01,-3.049999999999999289e+01,-1.149999999999998757e+01,-8.640000000000004832e+01,-9.490000000000020464e+01,-2.500999999999999375e+02,-2.712999999999999545e+02,-1.494999999999992042e+02,-3.793999999999994088e+02,-3.680999999999985448e+02,-2.613000000000014893e+02,-1.538999999999998067e+02,-6.113999999999990678e+02,-2.945000000000002274e+02,-2.319999999999997797e+01,2.550000000000003908e+01,-6.489999999999976410e+01,-5.329999999999974136e+01,9.099999999999957012e+00,2.420000000000000284e+01,1.500000000000002132e+01,-2.809999999999988063e+01,8.310000000000000853e+01,1.059999999999997655e+01,4.399999999999992362e+00,2.999999999999993783e-01,4.100000000000000533e+00,-1.400000000000002132e+00,-2.710000000000001563e+01,-5.140000000000005542e+01,-5.799999999999999822e+00,3.520000000000018758e+01,-2.569000000000006594e+02,-8.469000000000014552e+02,-6.014999999999992042e+02,-1.466999999999995623e+02,-6.088000000000000682e+02,-9.950999999999955890e+02,-3.093000000000012051e+02,-4.572000000000055593e+02,-8.327999999999996135e+02,6.549999999999992895e+01,-4.087999999999982492e+02,-7.035999999999993406e+02,-3.596000000000005343e+02,-7.079999999999979821e+01,1.084000000000001478e+02,-4.379999999999999716e+01,-1.779999999999999361e+01,-2.110000000000000853e+01,-1.330000000000000249e+01,-3.580000000000003268e+01,1.299999999999998490e+00,6.899999999999995914e+00,-1.500000000000013989e+00,-1.130000000000000782e+01,3.000000000000030420e-01,9.000000000000014655e-01,-4.400000000000008527e+01,-2.354000000000001762e+02,-1.887999999999997272e+02,-5.195000000000018190e+02,-1.319999999999925500e+01,-4.488999999999993520e+02,-5.801999999999983402e+02,-4.234000000000012278e+02,-2.715999999999983174e+02,-7.171999999999968622e+02,-4.495999999999958732e+02,-2.137000000000005002e+02,-5.353999999999997499e+02,3.120999999999983743e+02,4.462000000000006139e+02,8.648999999999945203e+02,-8.849999999999982947e+01,-4.549999999999988631e+01,-1.219999999999998153e+01,1.999999999999998224e+01,1.630000000000001492e+01,3.999999999999967470e-01,-6.999999999999929612e-01,-5.730000000000007532e+01,-2.089999999999999858e+01,2.359999999999993747e+01,-1.459999999999998188e+01,-1.632000000000001023e+02,-2.744000000000001478e+02,2.416999999999963791e+02,-8.760000000000005116e+01,1.956999999999999886e+02,3.859999999999994884e+02,-1.911999999999997328e+02,-7.341999999999998181e+02,7.974999999999997726e+02,6.936999999999992497e+02,-3.122000000000009550e+02,1.058899999999997817e+03,-6.046000000000010459e+02,-5.279999999999984084e+01,1.991999999999998181e+02,-1.116000000000001222e+02,5.246999999999991360e+02,9.769999999999923546e+01,2.284000000000001194e+02,2.646999999999998181e+02,-2.529999999999997939e+01,3.400000000000007461e+00,5.899999999999996803e+00,2.799999999999997513e+01,4.800000000000011369e+00,1.044999999999995595e+02,2.295000000000007674e+02,1.155000000000002274e+02,-1.504000000000002899e+02,-1.799999999999995826e+00,6.496000000000003638e+02,2.443999999999990109e+02,-3.108999999999995225e+02,-1.507999999999977376e+02,-1.208500000000000682e+03,-2.752999999999998408e+02,-1.310000000000006253e+02,-1.929999999999992326e+02,-5.302999999999992724e+02,-2.107000000000003865e+02,-6.980000000000002274e+02,3.289999999999797353e+01,2.675999999999998522e+02,2.353999999999998920e+02,4.299999999999994316e+02,6.554999999999977263e+02,-7.437999999999993861e+02,-6.001999999999991360e+02,-1.811000000000000227e+02,-5.009999999999982379e+01,-2.840000000000002345e+01,1.770000000000000639e+01,-1.440000000000000746e+01,3.540000000000005542e+01,1.314000000000002615e+02,3.260000000000006537e+01,-4.675999999999996817e+02,-1.485999999999999659e+02,1.155999999999998096e+02,-5.319999999999981100e+01,-5.758999999999997499e+02,-1.718000000000000398e+02,-4.499999999999944293e+02,-8.157999999999975671e+02,-4.335000000000025011e+02,-9.511999999999954980e+02,-2.212999999999991303e+02,-6.946999999999961801e+02,3.706999999999969759e+02,-2.721000000000004206e+02,3.960999999999993406e+02,5.750999999999992269e+02,4.933999999999995225e+02,1.397000000000002728e+02,-4.210999999999974648e+02,-6.169999999999976126e+02,-2.295000000000000853e+02,-5.099999999999999289e+01,-4.270000000000002416e+01,-2.889999999999994884e+01,-3.100000000000033396e+01,-1.359000000000001194e+02,-2.659999999999985576e+01,-4.073000000000002387e+02,-2.746000000000007049e+02,-9.060000000000005116e+01,-7.642000000000000455e+02,-1.994999999999996305e+02,-9.009999999999999432e+01,2.025000000000001137e+02,-4.051000000000014438e+02,-5.118000000000006366e+02,-7.315999999999967258e+02,2.168999999999996362e+02,-4.740000000000012648e+01,1.220000000000060858e+01,-5.038999999999970214e+02,-2.982999999999995566e+02,-1.662000000000024329e+02,-4.807000000000032287e+02,-5.724999999999986358e+02,-1.883999999999997499e+02,-6.568000000000027967e+02,-1.149999999999995453e+02,-1.243000000000000824e+02,-7.669999999999983231e+01,-1.235000000000004121e+02,-9.720000000000064233e+01,-3.202000000000002160e+02,-2.043999999999997215e+02,2.914000000000003183e+02,3.399999999999987210e+01,3.390000000000055991e+01,2.709999999999988773e+01,-1.020199999999994361e+03,3.162999999999977376e+02,-5.938999999999998636e+02,7.049999999999876366e+01,-4.429000000000013415e+02,3.438000000000014893e+02,-1.161600000000007412e+03,-1.102999999999991871e+02,-1.039999999999991758e+02,-1.370000000000042029e+01,-2.867000000000013529e+02,4.514000000000017963e+02,-1.732999999999991587e+02,-4.637000000000014097e+02,2.077000000000008413e+02,-7.976999999999984539e+02,1.473999999999997499e+02,2.840000000000003411e+02,-7.710000000000010800e+01,-5.180000000000016769e+01,-6.670000000000032969e+01,4.269999999999996732e+01,-4.561000000000010459e+02,-5.948000000000000682e+02,-4.255000000000022737e+02,-1.282000000000003581e+02,-2.888999999999999204e+02,-1.490000000000036806e+01,1.232999999999996703e+02,-4.926999999999991928e+02,-2.441000000000008470e+02,-5.834999999999962483e+02,2.227999999999990735e+02,-8.805999999999962711e+02,-2.928999999999985562e+02,8.219999999999832596e+01,-3.443000000000003524e+02,2.610000000000002842e+02,-4.111999999999998181e+02,-2.133999999999999488e+02,3.531000000000015007e+02,-1.756999999999995055e+02,3.989999999999988631e+02,-4.025999999999997385e+02,4.135000000000002842e+02,6.859999999999998010e+01,1.880000000000000782e+01,-2.270000000000000995e+01,-2.040000000000002700e+01,-6.429999999999986926e+01,-4.166999999999999318e+02,-4.480000000000009663e+02,-5.532999999999999545e+02,3.611000000000000227e+02,-3.389000000000001478e+02,3.558000000000008072e+02,3.459999999999988063e+01,-8.869999999999932072e+01,-1.376000000000005059e+02,-1.620000000000137064e+01,-5.621999999999975444e+02,-3.129999999999992610e+02,-8.931000000000020691e+02,4.010000000000007390e+02,-1.106999999999999886e+02,-1.064999999999993889e+02,-6.911000000000001364e+02,3.362999999999991019e+02,-2.855000000000008527e+02,-3.874999999999994884e+02,2.620999999999997954e+02,-6.220000000000006821e+02,1.538000000000000966e+02,-1.253000000000000398e+02,-5.719999999999990337e+01,-4.259999999999994458e+01,-4.149999999999995026e+01,-3.090000000000000213e+01,-1.697999999999993292e+02,-4.849999999999994316e+01,1.862999999999995850e+02,7.523999999999995225e+02,-2.216999999999998465e+02,5.188999999999996362e+02,2.341000000000057923e+02,8.778999999999994088e+02,6.763000000000058662e+02,4.259999999999967031e+02,2.130000000000019611e+01,4.701000000000000227e+02,1.178999999999999346e+02,2.215999999999975216e+02,6.932000000000041382e+02,-5.312999999999987040e+02,-1.078000000000055678e+02,-6.125000000000019327e+02,-2.796000000000003070e+02,4.648000000000011482e+02,-5.171000000000027512e+02,-4.190000000000031264e+02,1.745000000000000000e+02,-9.999999999998987477e-02,-5.860000000000013642e+01,-2.499999999999999112e+00,-9.649999999999981526e+01,-7.759999999999993747e+01,-2.563999999999993520e+02,-1.897999999999996419e+02,5.075000000000000000e+02,2.504000000000000341e+02,-1.448000000000006082e+02,4.557999999999997272e+02,1.567000000000004718e+02,4.099999999999996021e+02,5.567999999999985903e+02,6.625000000000001137e+02,1.067400000000000091e+03,-9.440999999999903594e+02,-4.996999999999991360e+02,-1.690000000000082281e+01,-1.365999999999997101e+02,5.132999999999988177e+02,5.830000000000015916e+02,7.380000000000094929e+01,2.554000000000012562e+02,4.380000000000000000e+02,-6.314999999999989768e+02,-3.586999999999997613e+02,1.456000000000000227e+02,1.250000000000012790e+01,-6.499999999999995737e+01,-2.710000000000001918e+01,-6.750000000000011369e+01,-2.890000000000000924e+01,-1.068000000000000398e+02,-3.843000000000006935e+02,2.396999999999993918e+02,3.923999999999996930e+02,1.152299999999995407e+03,8.555999999999991132e+02,-4.028999999999999773e+02,6.737000000000023192e+02,-1.242000000000002728e+02,1.209999999999998010e+01,3.225000000000015916e+02,-2.619999999999993889e+01,-5.893000000000051841e+02,-4.927000000000017508e+02,1.246000000000000227e+02,5.498000000000005230e+02,-3.494999999999984652e+02,3.687000000000000455e+02,2.158999999999998636e+02,3.765000000000022169e+02,4.393000000000032514e+02,-6.246000000000004775e+02,-3.834000000000008299e+02,-1.517999999999996987e+02,-4.210000000000001563e+01,-3.459999999999998010e+01,5.799999999999984723e+00,-8.489999999999983515e+01,-2.489999999999997016e+01,-2.599999999999988631e+01,3.128999999999993520e+02,-4.028000000000014325e+02,-2.093999999999997215e+02,3.245999999999976922e+02,9.058999999999962256e+02,-9.119999999999942020e+01,-5.817000000000030013e+02,5.007000000000022055e+02,2.625999999999974079e+02,9.457999999999969987e+02,6.071999999999911779e+02,3.978999999999998636e+02,2.090000000000173230e+01,1.074000000000025921e+02,1.364000000000000625e+02,2.155000000000005400e+02,1.448000000000002387e+02,-3.368999999999991815e+02,3.640000000000127045e+01,-4.874000000000008868e+02,-8.110999999999997954e+02,-3.854999999999999432e+02,-1.742999999999999829e+02,-4.099999999999998579e+01,-1.027999999999998693e+02,-1.595000000000005116e+02,-1.880000000000000426e+01,-1.435999999999999943e+02,-8.606000000000028649e+02,-2.178999999999992667e+02,-6.537999999999992724e+02,1.480000000000256222e+01,8.030000000000088676e+02,-2.910000000000011511e+01,3.035999999999986017e+02,3.619000000000016257e+02,-4.706999999999991928e+02,8.889999999999945146e+01,-3.617999999999987608e+02,5.587999999999954071e+02,-6.010000000000003411e+02,3.968000000000008640e+02,8.560000000000030695e+02,1.888000000000003809e+02,1.958000000000006935e+02,9.880000000000005400e+01,7.575000000000037517e+02,6.885999999999999091e+02,2.213999999999998067e+02,-3.700000000000000000e+02,-1.746999999999999602e+02,7.730000000000005400e+01,-4.300000000000013500e+01,-8.340000000000011937e+01,-5.939999999999987779e+01,-1.614000000000010004e+02,-9.670000000000039790e+02,4.589000000000003752e+02,1.239000000000001904e+02,1.747000000000000455e+02,1.669999999999987779e+02,-3.338999999999998067e+02,1.275999999999988148e+02,-2.413000000000000682e+02,3.611000000000027512e+02,5.618999999999963393e+02,6.484000000000040700e+02,3.459999999999985221e+01,8.392000000000045929e+02,5.230999999999976353e+02,-4.768999999999998636e+02,-5.499999999999886313e+00,-9.824999999999980673e+02,-6.658000000000032514e+02,-1.372999999999998408e+02,8.877000000000017508e+02,3.670999999999997385e+02,-9.230000000000013927e+01,-1.162000000000000171e+02,-7.799999999999982947e+01,-9.880000000000008242e+01,-3.419999999999996021e+01,-1.388999999999997499e+02,-1.110000000000004121e+02,-1.271600000000000364e+03,-1.397999999999998977e+02,-2.096000000000002501e+02,-2.874999999999997158e+02,8.290000000000080149e+01,1.103000000000009493e+02,-3.741999999999967486e+02,-5.782000000000000455e+02,1.957000000000017224e+02,6.581000000000022965e+02,3.311999999999999886e+02,6.281999999999990223e+02,5.280000000000010374e+01,-5.037999999999988745e+02,-5.857000000000022055e+02,8.368999999999965667e+02,-2.805999999999989996e+02,-1.749999999999987779e+02,-4.461999999999990791e+02,1.689999999999996589e+02,-9.410000000000005116e+01,-3.159999999999999076e+01,1.390000000000000036e+01,6.299999999999998934e+00,1.840000000000000568e+01,-1.058000000000000114e+02,-2.910000000000000000e+02,-1.138000000000000824e+02,-5.454000000000015689e+02,3.198999999999994657e+02,7.183000000000001819e+02,1.869999999999954454e+01,-1.077799999999996771e+03,-3.491999999999998181e+02,-1.113999999999963251e+02,3.293999999999991815e+02,-3.452000000000012392e+02,5.319999999999998863e+02,2.960000000000017195e+01,1.038900000000004866e+03,-5.056000000000026944e+02,-3.560000000000072617e+01,-3.159999999999992610e+02,-4.566000000000044565e+02,-3.704999999999981242e+02,-3.895999999999995111e+02,-9.147000000000023192e+02,-4.651000000000004206e+02,-9.169999999999998863e+01,-1.899999999999999289e+01,-3.170000000000002416e+01,-9.200000000000001066e+00,-1.233000000000002387e+02,-4.999999999999992895e+01,-8.790000000000013358e+01,-3.840000000000030411e+01,-1.359999999999997833e+01,-2.712999999999993292e+02,7.929999999999982663e+01,-1.439999999999998295e+02,-4.676999999999982833e+02,-2.943000000000050136e+02,-1.052699999999995498e+03,5.949999999999896971e+01,-1.232200000000011642e+03,-8.821999999999942474e+02,-2.389999999999998863e+02,-2.928999999999994088e+02,-2.835999999999997954e+02,-1.943000000000008072e+02,-1.988999999999996930e+02,-1.674999999999999716e+02,-3.239999999999962199e+01,2.143000000000000114e+02,-2.333999999999993236e+02,-2.607999999999989882e+02,-8.629999999999992610e+01,7.550000000000000000e+01,-8.000000000000039302e-01,-1.029999999999999893e+01,-7.600000000000040501e+00,-3.510000000000011511e+01,1.799999999999992273e+00,-1.205999999999999801e+02,-1.829999999999994742e+01,-1.951999999999999318e+02,-4.547000000000012960e+02,-3.194000000000001478e+02,-2.062000000000002160e+02,-8.123999999999991815e+02,-1.339999999999938041e+01,-1.374000000000007162e+02,3.320000000000007390e+02,-3.328999999999983856e+02,5.053999999999995794e+02,-3.965999999999975785e+02,3.190000000000010161e+01,3.563999999999998067e+02,5.414000000000019099e+02,-4.739999999999997016e+01,9.999999999999959144e+00,7.164999999999995453e+02,4.278000000000006935e+02,-4.316000000000004206e+02,-1.032000000000000028e+02,-1.139999999999999680e+01,1.999999999999992006e+00,2.759999999999993392e+01,5.089999999999998437e+01,-3.260000000000015064e+01,-9.580000000000015348e+01,-9.690000000000017621e+01,-8.219999999999974705e+01,-1.633999999999997499e+02,-4.710000000000000000e+02,9.119999999999970441e+01,2.606000000000013301e+02,-5.442000000000008413e+02,-7.711000000000010459e+02,-1.949999999999989484e+02,-1.109199999999995271e+03,-1.205000000000004405e+02,-3.858999999999992383e+02,3.370999999999996248e+02,4.532999999999979650e+02,4.395000000000023306e+02,7.735000000000003411e+02,-3.460000000000000853e+01,-5.050000000000002842e+01,1.729999999999987494e+02,7.200000000000000000e+01,-1.366000000000000227e+02,7.389999999999986358e+01,8.500000000000031974e+00,5.900000000000001243e+00,1.979999999999999361e+01,-2.380000000000011084e+01,3.309999999999999432e+01,-4.019999999999997442e+01,3.039999999999999503e+01,-2.699999999999994316e+01,-5.759999999999988063e+01,-1.392000000000002728e+02,4.875999999999994543e+02,7.299999999999987210e+01,-1.810000000000063380e+01,-2.459999999999995168e+02,-2.820999999999965553e+02,1.344000000000005457e+02,-4.020000000000040075e+01,-6.490000000000039790e+02,2.950000000000005329e+01,3.913999999999999204e+02,3.534999999999953388e+02,8.930000000000028137e+01,-2.801999999999994770e+02,-1.805000000000002842e+02,3.190000000000021600e+02,-2.281000000000004775e+02,-1.439999999999993108e+01,-1.070000000000000284e+01,-6.200000000000001066e+00,-3.700000000000000622e+00,4.299999999999998934e+00,-2.809999999999998366e+01,1.025000000000001137e+02,-7.000000000000002665e+00,9.000000000000013545e-01,-3.600000000000001421e+01,3.360000000000002274e+01,5.975000000000002274e+02,5.334999999999997726e+02,-1.155400000000000091e+03,2.971999999999968054e+02,1.719999999999998010e+02,1.569999999999953033e+01,-2.029999999999998010e+02,3.710000000000015064e+01,3.530999999999996248e+02,-7.002999999999948386e+02,-3.330000000000106297e+01,-5.080000000000018758e+02,-4.735000000000000568e+02,-2.663999999999999773e+02,-2.442999999999994714e+02,-1.622000000000002444e+02,-8.409999999999995168e+01,1.170000000000001705e+01,1.000000000000000888e-01,9.000000000000000222e-01,4.000000000000000222e-01,-4.000000000000000222e-01,-5.100000000000001421e+00,4.050000000000002132e+01,-1.839999999999999858e+01,1.059999999999999964e+01,2.519999999999999218e+01,-9.000000000000000222e-01,-6.670000000000001705e+01,-6.895000000000005684e+02,-8.723000000000010914e+02,-3.600000000000095213e+01,-4.769000000000007162e+02,-4.082999999999998408e+02,-6.770000000000005969e+01,-6.745000000000012506e+02,-5.690999999999988859e+02,-3.837000000000015802e+02,-1.079899999999997817e+03,-1.215599999999999682e+03,-8.532000000000020918e+02,-5.093999999999995794e+02,-1.202999999999999829e+02,-1.549000000000001194e+02,-5.949999999999999289e+01,-1.820000000000000284e+01,-3.200000000000000178e+00,-1.300000000000000044e+00,2.000000000000000111e-01,0.000000000000000000e+00,1.269999999999999751e+01,-1.699999999999997957e+00,-5.599999999999996980e+00,-5.000000000000003553e+00,-2.719999999999999574e+01,-8.900000000000003908e+00,-1.390000000000001457e+01,-2.680000000000001137e+02,6.299999999999658762e+00,8.500000000000018474e+01,-1.156999999999995339e+02,-5.900000000000002132e+01,7.200000000000002842e+01,-3.756000000000006480e+02,-5.635999999999996817e+02,-2.693000000000006366e+02,-5.203000000000006366e+02,-7.653000000000006366e+02,-6.591000000000001364e+02,-1.995000000000011369e+02,-1.030000000000000782e+01,-1.009000000000000341e+02,5.030000000000001137e+01,1.500000000000000533e+01,-1.600000000000000089e+00,-4.000000000000000222e-01,0.000000000000000000e+00,0.000000000000000000e+00,-2.650000000000001066e+01,-3.730000000000001847e+01,2.769999999999998508e+01,3.140000000000000924e+01,-3.700000000000000622e+00,-6.409999999999989484e+01,-4.930000000000006111e+01,-2.824000000000000909e+02,-1.942000000000001876e+02,-1.099999999999986766e+00,6.410000000000006537e+01,1.212999999999998977e+02,8.089999999999997726e+01,1.758000000000001819e+02,8.389999999999999147e+01,-1.882000000000001592e+02,-3.389999999999993463e+01,-6.300000000000020250e+00,-2.500000000000003695e+02,-1.886999999999997897e+02,-9.020000000000003126e+01,-1.850000000000001776e+01,-4.870000000000000284e+01,-2.959999999999995879e+01,0.000000000000000000e+00,0.000000000000000000e+00,0.000000000000000000e+00,-5.000000000000000000e-01,-1.169999999999997442e+01
1.399999999999999023e-01,3.360000000000002984e+00,3.659999999999995701e+00,-2.520000000000000018e+00,-7.400000000000002132e-01,-6.400000000000000133e-01,-2.810000000000004938e+00,6.100000000000003197e-01,-1.780000000000001803e+00,-5.729999999999991545e+00,1.711000000000002430e+01,1.113999999999997037e+01,7.779999999999989591e+00,-2.140000000000003233e+00,6.949999999999998401e+00,1.024000000000000021e+01,7.439999999999971081e+00,-1.615000000000001279e+01,3.059999999999983622e+00,1.830000000000002958e+00,-1.020000000000004370e+01,1.895999999999996533e+01,3.470000000000001084e+00,-7.620000000000009877e+00,-2.729999999999997762e+00,4.699999999999998068e-01,3.180000000000002824e+00,7.200000000000004174e-01,-5.399999999999997025e-01,-1.490000000000000879e+00,-2.150000000000002132e+00,-2.229999999999999982e+00,2.050000000000000266e+00,5.899999999999997469e-01,4.200000000000000955e-01,-1.820000000000000950e+00,3.619999999999998774e+00,8.660000000000005471e+00,8.330000000000039151e+00,1.430000000000004601e+00,5.999999999999377359e-02,-2.172999999999995424e+01,-8.799999999999910116e-01,-6.749999999999992006e+00,-1.749999999999994316e+01,-2.901000000000012591e+01,-2.351999999999987168e+01,2.303999999999996007e+01,7.669999999999962625e+00,-1.575999999999999091e+01,-8.400000000000006350e-01,1.867000000000003723e+01,2.420000000000000817e+00,-2.299999999999997324e-01,-1.990000000000000879e+00,3.940000000000000835e+00,1.490000000000000213e+00,8.399999999999999689e-01,-8.500000000000003109e-01,-5.100000000000006750e-01,2.589999999999993641e+00,-1.090000000000001856e+00,-3.049999999999995381e+00,-1.150000000000000133e+00,-8.639999999999988134e+00,-9.489999999999962910e+00,-2.501000000000014722e+01,-2.713000000000000966e+01,-1.494999999999999574e+01,-3.794000000000016826e+01,-3.681000000000016570e+01,-2.613000000000003453e+01,-1.539000000000005741e+01,-6.114000000000002188e+01,-2.945000000000002061e+01,-2.320000000000004281e+00,2.550000000000002487e+00,-6.490000000000019753e+00,-5.329999999999997407e+00,9.099999999999981437e-01,2.419999999999999929e+00,1.500000000000001110e+00,-2.809999999999997833e+00,8.309999999999989839e+00,1.059999999999999165e+00,4.399999999999998357e-01,3.000000000000016889e-02,4.099999999999996425e-01,-1.399999999999999578e-01,-2.709999999999996856e+00,-5.139999999999997016e+00,-5.799999999999998490e-01,3.519999999999997353e+00,-2.569000000000004391e+01,-8.468999999999996930e+01,-6.014999999999996305e+01,-1.467000000000001592e+01,-6.088000000000012335e+01,-9.950999999999983459e+01,-3.092999999999975458e+01,-4.572000000000027597e+01,-8.327999999999985903e+01,6.549999999999993605e+00,-4.088000000000010203e+01,-7.036000000000014154e+01,-3.596000000000005059e+01,-7.080000000000032934e+00,1.083999999999997854e+01,-4.380000000000000782e+00,-1.780000000000000027e+00,-2.110000000000001208e+00,-1.330000000000000071e+00,-3.579999999999992522e+00,1.299999999999996714e-01,6.900000000000005018e-01,-1.500000000000002720e-01,-1.130000000000000115e+00,2.999999999999908989e-02,8.999999999999992728e-02,-4.399999999999995914e+00,-2.354000000000008441e+01,-1.888000000000002032e+01,-5.194999999999983942e+01,-1.320000000000028928e+00,-4.489000000000010715e+01,-5.802000000000035840e+01,-4.233999999999986130e+01,-2.715999999999969106e+01,-7.171999999999977149e+01,-4.496000000000001506e+01,-2.137000000000006139e+01,-5.353999999999978598e+01,3.120999999999990138e+01,4.462000000000020350e+01,8.648999999999995225e+01,-8.850000000000022737e+00,-4.550000000000009592e+00,-1.219999999999997309e+00,2.000000000000001332e+00,1.630000000000000115e+00,3.999999999999949429e-02,-7.000000000000011768e-02,-5.729999999999994209e+00,-2.090000000000000302e+00,2.360000000000002984e+00,-1.460000000000000187e+00,-1.632000000000002160e+01,-2.744000000000000128e+01,2.417000000000000881e+01,-8.760000000000013998e+00,1.957000000000003581e+01,3.859999999999996589e+01,-1.912000000000004718e+01,-7.341999999999994486e+01,7.974999999999968736e+01,6.937000000000018929e+01,-3.122000000000000597e+01,1.058900000000006258e+02,-6.046000000000021402e+01,-5.279999999999988702e+00,1.992000000000001592e+01,-1.116000000000004277e+01,5.246999999999995623e+01,9.769999999999953388e+00,2.283999999999997499e+01,2.646999999999999531e+01,-2.529999999999994031e+00,3.400000000000005240e-01,5.900000000000005240e-01,2.799999999999999378e+00,4.799999999999995381e-01,1.045000000000002593e+01,2.294999999999991402e+01,1.154999999999997939e+01,-1.503999999999996717e+01,-1.800000000000022138e-01,6.496000000000012164e+01,2.444000000000021799e+01,-3.109000000000011354e+01,-1.508000000000003205e+01,-1.208500000000003496e+02,-2.752999999999994429e+01,-1.309999999999994102e+01,-1.930000000000006821e+01,-5.302999999999953928e+01,-2.106999999999995055e+01,-6.979999999999974136e+01,3.289999999999934754e+00,2.675999999999997314e+01,2.353999999999991033e+01,4.299999999999994316e+01,6.554999999999985505e+01,-7.437999999999982492e+01,-6.001999999999996049e+01,-1.811000000000000298e+01,-5.010000000000013110e+00,-2.839999999999999858e+00,1.770000000000000684e+00,-1.440000000000000613e+00,3.539999999999995151e+00,1.314000000000001123e+01,3.259999999999963816e+00,-4.676000000000010459e+01,-1.485999999999998522e+01,1.155999999999999872e+01,-5.319999999999954987e+00,-5.758999999999999631e+01,-1.717999999999991090e+01,-4.499999999999954525e+01,-8.158000000000033936e+01,-4.335000000000000142e+01,-9.511999999999937927e+01,-2.212999999999998479e+01,-6.946999999999984254e+01,3.706999999999992212e+01,-2.720999999999998664e+01,3.961000000000015575e+01,5.750999999999999801e+01,4.934000000000005315e+01,1.397000000000002551e+01,-4.211000000000040444e+01,-6.169999999999992468e+01,-2.295000000000000995e+01,-5.100000000000002309e+00,-4.269999999999999574e+00,-2.890000000000003677e+00,-3.099999999999965006e+00,-1.359000000000000341e+01,-2.660000000000019682e+00,-4.073000000000000398e+01,-2.746000000000004349e+01,-9.059999999999979181e+00,-7.641999999999977433e+01,-1.994999999999949125e+01,-9.010000000000056630e+00,2.024999999999995381e+01,-4.050999999999988432e+01,-5.118000000000003524e+01,-7.316000000000002501e+01,2.169000000000015760e+01,-4.740000000000036628e+00,1.219999999999938911e+00,-5.038999999999973767e+01,-2.982999999999998408e+01,-1.662000000000003652e+01,-4.806999999999979423e+01,-5.724999999999975842e+01,-1.883999999999976183e+01,-6.568000000000031946e+01,-1.149999999999992006e+01,-1.242999999999997662e+01,-7.670000000000031015e+00,-1.234999999999992504e+01,-9.719999999999984652e+00,-3.201999999999999602e+01,-2.044000000000002615e+01,2.914000000000003965e+01,3.399999999999952838e+00,3.389999999999986358e+00,2.710000000000021725e+00,-1.020200000000000671e+02,3.162999999999997058e+01,-5.938999999999995794e+01,7.050000000000153477e+00,-4.429000000000011994e+01,3.437999999999976808e+01,-1.161599999999992718e+02,-1.103000000000004022e+01,-1.039999999999987423e+01,-1.369999999999970797e+00,-2.866999999999996263e+01,4.513999999999991530e+01,-1.732999999999990948e+01,-4.636999999999959954e+01,2.077000000000008484e+01,-7.976999999999948443e+01,1.474000000000007837e+01,2.839999999999998082e+01,-7.710000000000009734e+00,-5.179999999999995275e+00,-6.669999999999989271e+00,4.270000000000001350e+00,-4.560999999999994969e+01,-5.948000000000010346e+01,-4.254999999999981952e+01,-1.281999999999999851e+01,-2.888999999999990109e+01,-1.489999999999990443e+00,1.233000000000006047e+01,-4.927000000000001023e+01,-2.440999999999988646e+01,-5.834999999999993747e+01,2.228000000000007219e+01,-8.806000000000067018e+01,-2.928999999999991033e+01,8.220000000000228013e+00,-3.442999999999994287e+01,2.610000000000007958e+01,-4.111999999999997613e+01,-2.133999999999994657e+01,3.531000000000015859e+01,-1.756999999999996831e+01,3.989999999999989200e+01,-4.025999999999994827e+01,4.134999999999993747e+01,6.859999999999990550e+00,1.880000000000001226e+00,-2.270000000000000906e+00,-2.039999999999997815e+00,-6.430000000000010374e+00,-4.166999999999993065e+01,-4.480000000000009663e+01,-5.533000000000022567e+01,3.611000000000011312e+01,-3.388999999999995083e+01,3.557999999999994856e+01,3.459999999999975540e+00,-8.870000000000029416e+00,-1.375999999999992873e+01,-1.619999999999944595e+00,-5.622000000000009123e+01,-3.129999999999995808e+01,-8.931000000000098282e+01,4.009999999999998010e+01,-1.107000000000001805e+01,-1.065000000000001457e+01,-6.911000000000021259e+01,3.362999999999997414e+01,-2.855000000000001137e+01,-3.874999999999994316e+01,2.620999999999991203e+01,-6.219999999999990337e+01,1.537999999999999901e+01,-1.252999999999999581e+01,-5.719999999999980211e+00,-4.259999999999998899e+00,-4.149999999999983480e+00,-3.090000000000001634e+00,-1.698000000000006438e+01,-4.850000000000055600e+00,1.863000000000000966e+01,7.524000000000006594e+01,-2.216999999999996263e+01,5.188999999999988688e+01,2.340999999999996461e+01,8.778999999999980730e+01,6.762999999999948386e+01,4.259999999999973141e+01,2.130000000000004778e+00,4.701000000000002643e+01,1.179000000000001336e+01,2.215999999999986159e+01,6.931999999999968054e+01,-5.313000000000018019e+01,-1.077999999999983061e+01,-6.125000000000006395e+01,-2.796000000000001151e+01,4.648000000000003240e+01,-5.170999999999960295e+01,-4.190000000000009805e+01,1.744999999999998863e+01,-1.000000000000089706e-02,-5.859999999999996767e+00,-2.500000000000000555e-01,-9.650000000000002132e+00,-7.759999999999996234e+00,-2.564000000000001478e+01,-1.897999999999989384e+01,5.074999999999999289e+01,2.503999999999996362e+01,-1.447999999999997200e+01,4.557999999999997698e+01,1.566999999999990223e+01,4.100000000000010658e+01,5.567999999999970839e+01,6.624999999999972999e+01,1.067400000000004070e+02,-9.440999999999945658e+01,-4.996999999999985675e+01,-1.690000000000068558e+00,-1.365999999999991488e+01,5.132999999999983487e+01,5.830000000000013216e+01,7.380000000000041638e+00,2.554000000000008441e+01,4.380000000000006111e+01,-6.315000000000014069e+01,-3.586999999999998323e+01,1.455999999999999694e+01,1.250000000000008438e+00,-6.499999999999999112e+00,-2.710000000000002629e+00,-6.749999999999990230e+00,-2.889999999999991687e+00,-1.067999999999996241e+01,-3.842999999999996419e+01,2.397000000000000242e+01,3.924000000000005173e+01,1.152300000000012119e+02,8.556000000000005912e+01,-4.029000000000026915e+01,6.737000000000058719e+01,-1.241999999999986493e+01,1.209999999999971321e+00,3.225000000000004974e+01,-2.619999999999993445e+00,-5.892999999999996419e+01,-4.926999999999993918e+01,1.246000000000003638e+01,5.498000000000054399e+01,-3.495000000000017337e+01,3.687000000000059430e+01,2.159000000000004604e+01,3.764999999999984936e+01,4.392999999999975813e+01,-6.245999999999985164e+01,-3.834000000000003894e+01,-1.518000000000001748e+01,-4.209999999999999964e+00,-3.460000000000001297e+00,5.799999999999956302e-01,-8.490000000000003766e+00,-2.489999999999994884e+00,-2.600000000000040945e+00,3.129000000000005244e+01,-4.027999999999995140e+01,-2.094000000000002970e+01,3.245999999999991559e+01,9.059000000000010289e+01,-9.120000000000027640e+00,-5.816999999999990933e+01,5.006999999999955264e+01,2.625999999999999801e+01,9.457999999999958618e+01,6.072000000000008413e+01,3.979000000000001336e+01,2.090000000000165059e+00,1.073999999999992205e+01,1.364000000000006452e+01,2.154999999999992610e+01,1.448000000000001819e+01,-3.368999999999987693e+01,3.639999999999977920e+00,-4.874000000000005173e+01,-8.110999999999998522e+01,-3.854999999999999716e+01,-1.743000000000000327e+01,-4.099999999999998757e+00,-1.028000000000000114e+01,-1.594999999999997620e+01,-1.879999999999999893e+00,-1.435999999999992838e+01,-8.606000000000011596e+01,-2.178999999999983928e+01,-6.537999999999979650e+01,1.479999999999957350e+00,8.030000000000099192e+01,-2.909999999999959286e+00,3.035999999999955534e+01,3.618999999999974193e+01,-4.707000000000013529e+01,8.890000000000163993e+00,-3.618000000000009919e+01,5.588000000000008072e+01,-6.009999999999970299e+01,3.967999999999985761e+01,8.560000000000017906e+01,1.888000000000002032e+01,1.957999999999991658e+01,9.879999999999848015e+00,7.575000000000008527e+01,6.885999999999977206e+01,2.213999999999998991e+01,-3.699999999999998579e+01,-1.747000000000001663e+01,7.729999999999987104e+00,-4.299999999999997158e+00,-8.340000000000005187e+00,-5.940000000000011049e+00,-1.613999999999995438e+01,-9.669999999999990337e+01,4.588999999999987978e+01,1.239000000000001123e+01,1.746999999999994202e+01,1.669999999999978257e+01,-3.338999999999978741e+01,1.275999999999994117e+01,-2.412999999999992795e+01,3.611000000000029075e+01,5.619000000000033879e+01,6.483999999999953445e+01,3.459999999999863185e+00,8.391999999999985960e+01,5.231000000000035044e+01,-4.769000000000005457e+01,-5.500000000000069278e-01,-9.824999999999911893e+01,-6.658000000000002672e+01,-1.373000000000002707e+01,8.876999999999985391e+01,3.670999999999999375e+01,-9.229999999999979110e+00,-1.162000000000000099e+01,-7.799999999999986500e+00,-9.879999999999986571e+00,-3.420000000000001261e+00,-1.389000000000001123e+01,-1.110000000000001563e+01,-1.271599999999999682e+02,-1.397999999999999865e+01,-2.096000000000000085e+01,-2.874999999999999645e+01,8.290000000000002700e+00,1.102999999999992475e+01,-3.741999999999992355e+01,-5.781999999999968054e+01,1.956999999999989370e+01,6.580999999999978911e+01,3.312000000000000455e+01,6.282000000000012108e+01,5.280000000000041993e+00,-5.038000000000001677e+01,-5.857000000000023476e+01,8.369000000000026773e+01,-2.805999999999999162e+01,-1.749999999999999645e+01,-4.462000000000009692e+01,1.690000000000000213e+01,-9.410000000000000142e+00,-3.159999999999999698e+00,1.390000000000001457e+00,6.299999999999997824e-01,1.840000000000001634e+00,-1.057999999999995389e+01,-2.910000000000000497e+01,-1.138000000000000966e+01,-5.454000000000002046e+01,3.199000000000003752e+01,7.183000000000002672e+01,1.870000000000025420e+00,-1.077800000000000864e+02,-3.492000000000008697e+01,-1.114000000000016222e+01,3.294000000000001194e+01,-3.451999999999986812e+01,5.319999999999994600e+01,2.959999999999965326e+00,1.038899999999989490e+02,-5.056000000000028649e+01,-3.559999999999931664e+00,-3.160000000000018616e+01,-4.565999999999959158e+01,-3.705000000000026006e+01,-3.896000000000041297e+01,-9.147000000000005571e+01,-4.650999999999996248e+01,-9.169999999999999929e+00,-1.900000000000000577e+00,-3.169999999999997708e+00,-9.199999999999995959e-01,-1.232999999999999297e+01,-5.000000000000001776e+00,-8.789999999999993818e+00,-3.839999999999987423e+00,-1.360000000000002096e+00,-2.712999999999996348e+01,7.929999999999983729e+00,-1.440000000000000746e+01,-4.677000000000006708e+01,-2.942999999999992156e+01,-1.052700000000006497e+02,5.949999999999989519e+00,-1.232200000000005105e+02,-8.821999999999965780e+01,-2.389999999999994884e+01,-2.928999999999964743e+01,-2.836000000000005272e+01,-1.943000000000008143e+01,-1.989000000000000057e+01,-1.675000000000021672e+01,-3.240000000000054392e+00,2.142999999999998906e+01,-2.334000000000001762e+01,-2.608000000000002672e+01,-8.630000000000004334e+00,7.549999999999987388e+00,-7.999999999999982125e-02,-1.030000000000000693e+00,-7.600000000000013411e-01,-3.509999999999999787e+00,1.799999999999984945e-01,-1.205999999999998273e+01,-1.829999999999998517e+00,-1.951999999999999247e+01,-4.546999999999994202e+01,-3.194000000000005812e+01,-2.061999999999997613e+01,-8.124000000000016541e+01,-1.340000000000072466e+00,-1.373999999999993804e+01,3.319999999999987494e+01,-3.328999999999999915e+01,5.054000000000014836e+01,-3.965999999999968395e+01,3.189999999999878710e+00,3.563999999999997925e+01,5.413999999999968082e+01,-4.739999999999996660e+00,9.999999999999991118e-01,7.164999999999989200e+01,4.278000000000003666e+01,-4.315999999999980474e+01,-1.031999999999999673e+01,-1.140000000000000346e+00,1.999999999999986511e-01,2.760000000000000675e+00,5.090000000000002522e+00,-3.259999999999994902e+00,-9.579999999999994742e+00,-9.689999999999994174e+00,-8.219999999999968665e+00,-1.634000000000001762e+01,-4.709999999999987352e+01,9.119999999999993889e+00,2.605999999999988503e+01,-5.441999999999960380e+01,-7.711000000000004206e+01,-1.950000000000002132e+01,-1.109199999999998880e+02,-1.205000000000001137e+01,-3.858999999999987551e+01,3.371000000000001506e+01,4.532999999999987750e+01,4.394999999999988205e+01,7.735000000000010800e+01,-3.460000000000020393e+00,-5.049999999999958078e+00,1.730000000000007176e+01,7.199999999999955769e+00,-1.365999999999995218e+01,7.389999999999998792e+00,8.500000000000033085e-01,5.900000000000008571e-01,1.980000000000001315e+00,-2.379999999999997229e+00,3.310000000000000497e+00,-4.019999999999994245e+00,3.040000000000001812e+00,-2.699999999999998845e+00,-5.760000000000001563e+00,-1.391999999999994309e+01,4.875999999999991275e+01,7.299999999999982947e+00,-1.809999999999967413e+00,-2.460000000000005471e+01,-2.821000000000030283e+01,1.343999999999997996e+01,-4.019999999999910756e+00,-6.490000000000026148e+01,2.949999999999977973e+00,3.914000000000008583e+01,3.535000000000015064e+01,8.929999999999992610e+00,-2.802000000000000313e+01,-1.804999999999996874e+01,3.189999999999999503e+01,-2.280999999999995254e+01,-1.440000000000009273e+00,-1.070000000000000728e+00,-6.200000000000001066e-01,-3.700000000000000511e-01,4.299999999999999378e-01,-2.809999999999999165e+00,1.025000000000000533e+01,-7.000000000000000666e-01,8.999999999999985789e-02,-3.599999999999994760e+00,3.359999999999998543e+00,5.975000000000002842e+01,5.335000000000001563e+01,-1.155400000000001342e+02,2.972000000000018005e+01,1.720000000000007745e+01,1.569999999999860396e+00,-2.029999999999984439e+01,3.709999999999962661e+00,3.530999999999995964e+01,-7.002999999999991587e+01,-3.329999999999861959e+00,-5.079999999999996163e+01,-4.735000000000010090e+01,-2.663999999999998991e+01,-2.442999999999998195e+01,-1.622000000000001663e+01,-8.410000000000003695e+00,1.170000000000000595e+00,9.999999999999995004e-03,8.999999999999999667e-02,4.000000000000000083e-02,-4.000000000000000083e-02,-5.100000000000001199e-01,4.049999999999998046e+00,-1.840000000000001190e+00,1.059999999999999609e+00,2.520000000000001350e+00,-8.999999999999999667e-02,-6.669999999999991047e+00,-6.895000000000000284e+01,-8.722999999999997556e+01,-3.600000000000050271e+00,-4.769000000000005457e+01,-4.082999999999987750e+01,-6.770000000000009344e+00,-6.744999999999988916e+01,-5.691000000000009607e+01,-3.836999999999989086e+01,-1.079900000000000375e+02,-1.215599999999996612e+02,-8.531999999999982265e+01,-5.093999999999989825e+01,-1.203000000000004022e+01,-1.549000000000004462e+01,-5.950000000000003730e+00,-1.819999999999999396e+00,-3.200000000000000067e-01,-1.300000000000000044e-01,2.000000000000000042e-02,0.000000000000000000e+00,1.270000000000000906e+00,-1.699999999999995681e-01,-5.600000000000003864e-01,-5.000000000000001110e-01,-2.720000000000002416e+00,-8.900000000000002354e-01,-1.389999999999999680e+00,-2.679999999999999005e+01,6.299999999999895683e-01,8.500000000000053291e+00,-1.156999999999996831e+01,-5.900000000000000355e+00,7.199999999999991296e+00,-3.756000000000007333e+01,-5.635999999999990706e+01,-2.692999999999999261e+01,-5.203000000000004377e+01,-7.652999999999990166e+01,-6.591000000000001080e+01,-1.994999999999998508e+01,-1.029999999999999805e+00,-1.009000000000000519e+01,5.029999999999998472e+00,1.499999999999999778e+00,-1.600000000000000033e-01,-4.000000000000000083e-02,0.000000000000000000e+00,0.000000000000000000e+00,-2.650000000000001688e+00,-3.729999999999999094e+00,2.769999999999998241e+00,3.140000000000001013e+00,-3.700000000000002176e-01,-6.410000000000000142e+00,-4.930000000000005045e+00,-2.823999999999998067e+01,-1.941999999999999460e+01,-1.099999999999988765e-01,6.409999999999994813e+00,1.213000000000001144e+01,8.090000000000003411e+00,1.758000000000000185e+01,8.389999999999991687e+00,-1.881999999999998607e+01,-3.389999999999997016e+00,-6.299999999999997824e-01,-2.500000000000001776e+01,-1.887000000000004363e+01,-9.020000000000031548e+00,-1.849999999999995426e+00,-4.870000000000002771e+00,-2.960000000000002629e+00,0.000000000000000000e+00,0.000000000000000000e+00,0.000000000000000000e+00,-5.000000000000000278e-02,-1.170000000000000817e+00
9.140000000000058078e-01,3.340000000000001856e-01,3.730000000000002203e-01,-2.520000000000001683e-01,-1.010000000000000064e-01,-6.700000000000001787e-02,-2.730000000000001315e-01,3.400000000000007877e-02,-1.320000000000001172e-01,-5.859999999999997433e-01,1.681999999999995943e+00,1.145000000000000684e+00,7.560000000000005604e-01,-1.240000000000000546e-01,6.260000000000004450e-01,1.021000000000000796e+00,7.100000000000005196e-01,-1.657000000000000917e+00,3.249999999999995115e-01,1.300000000000000322e-01,-9.680000000000001936e-01,1.941999999999994619e+00,2.860000000000002540e-01,-7.970000000000004858e-01,-2.640000000000001790e-01,5.199999999999994904e-02,2.980000000000001537e-01,8.500000000000007550e-02,-6.399999999999997358e-02,-1.480000000000001037e-01,-2.190000000000001390e-01,-2.460000000000001630e-01,2.060000000000001275e-01,4.800000000000000794e-02,5.199999999999999761e-02,-1.920000000000000595e-01,3.400000000000001910e-01,9.030000000000008020e-01,8.030000000000004912e-01,2.200000000000099792e-02,1.800000000000021722e-02,-1.911000000000002919e+00,6.300000000000009759e-02,-5.780000000000002913e-01,-1.606999999999993767e+00,-2.719999999999984652e+00,-2.045000000000004814e+00,2.286999999999999034e+00,7.280000000000005356e-01,-1.618999999999998218e+00,-1.029999999999998972e-01,1.889999999999992353e+00,2.130000000000001059e-01,-3.999999999999945439e-03,-1.920000000000001428e-01,3.400000000000001910e-01,1.430000000000000437e-01,9.500000000000000111e-02,-9.800000000000001765e-02,-4.800000000000021610e-02,2.660000000000001807e-01,-1.450000000000000733e-01,-3.310000000000001830e-01,-1.290000000000000036e-01,-8.179999999999999494e-01,-9.420000000000101625e-01,-2.566999999999999282e+00,-2.582999999999994856e+00,-1.213000000000003853e+00,-3.598999999999977994e+00,-4.047000000000004150e+00,-2.576000000000016499e+00,-1.159999999999999254e+00,-5.997000000000003439e+00,-3.039999999999997815e+00,-2.610000000000001763e-01,3.120000000000002771e-01,-4.739999999999995328e-01,-3.329999999999994076e-01,3.099999999999999978e-02,2.730000000000001870e-01,1.400000000000000688e-01,-2.209999999999997522e-01,8.740000000000005542e-01,8.199999999999989242e-02,5.600000000000000117e-02,-7.000000000000022697e-03,4.099999999999995315e-02,-1.100000000000002018e-02,-2.800000000000001932e-01,-5.080000000000002292e-01,-8.899999999999999578e-02,3.340000000000007407e-01,-2.403000000000008463e+00,-8.596000000000007191e+00,-6.217999999999993754e+00,-1.446000000000011054e+00,-6.255000000000035421e+00,-9.985999999999913612e+00,-3.152999999999993364e+00,-5.161000000000062649e+00,-8.789999999999967173e+00,3.900000000000017897e-01,-4.404999999999994920e+00,-7.246000000000011099e+00,-3.516999999999991466e+00,-3.729999999999997762e-01,1.132999999999998675e+00,-4.210000000000002074e-01,-1.289999999999999758e-01,-1.910000000000001419e-01,-1.169999999999999790e-01,-3.650000000000002687e-01,1.399999999999993958e-02,6.899999999999996414e-02,-2.999999999999999195e-02,-1.390000000000000679e-01,2.299999999999989553e-02,1.799999999999994313e-02,-4.879999999999999338e-01,-2.256999999999994344e+00,-1.451999999999998847e+00,-5.284000000000024677e+00,-5.770000000000116147e-01,-4.505000000000022098e+00,-5.719999999999969553e+00,-4.047000000000009479e+00,-2.821000000000012609e+00,-7.482000000000002871e+00,-3.843999999999981654e+00,-2.258999999999999009e+00,-5.631000000000007333e+00,2.993000000000007432e+00,4.275000000000021672e+00,8.862999999999955136e+00,-5.170000000000034568e-01,-4.700000000000001399e-01,-1.089999999999999025e-01,1.980000000000001203e-01,1.840000000000000524e-01,1.999999999999928918e-03,-5.600000000000004974e-02,-5.870000000000004103e-01,-2.140000000000001346e-01,1.879999999999999727e-01,-1.530000000000000526e-01,-1.826999999999998181e+00,-3.028000000000002245e+00,2.668000000000007255e+00,-7.080000000000004068e-01,2.020999999999999019e+00,4.646999999999992248e+00,-1.295000000000001039e+00,-7.453000000000011838e+00,7.438000000000024592e+00,6.184999999999985398e+00,-2.965000000000008740e+00,1.121000000000007901e+01,-6.082000000000011397e+00,-8.329999999999984084e-01,2.009999999999998899e+00,-4.139999999999997016e-01,5.828000000000006509e+00,1.457999999999996410e+00,2.159000000000001585e+00,2.109000000000000430e+00,-3.109999999999997211e-01,2.999999999999999889e-02,4.800000000000008427e-02,2.560000000000001719e-01,4.599999999999995065e-02,8.930000000000004601e-01,2.021000000000005681e+00,9.129999999999990346e-01,-1.919000000000003370e+00,-3.100000000000102673e-02,6.398999999999986699e+00,2.268999999999993022e+00,-3.386000000000015664e+00,-1.486999999999998767e+00,-1.236400000000001675e+01,-2.807999999999998941e+00,-1.540000000000000258e+00,-1.103999999999996762e+00,-4.653000000000055536e+00,-1.957999999999998186e+00,-6.046000000000008257e+00,8.089999999999974989e-01,2.012000000000004452e+00,1.960999999999996302e+00,4.610999999999976673e+00,6.878999999999938275e+00,-7.241000000000000547e+00,-5.486999999999994770e+00,-1.760000000000000231e+00,-5.320000000000003615e-01,-2.830000000000001958e-01,1.600000000000000033e-01,-1.550000000000000544e-01,2.279999999999994531e-01,1.108999999999997321e+00,5.100000000000246003e-02,-5.126000000000002110e+00,-1.187000000000000721e+00,1.601999999999999202e+00,1.729999999999954352e-01,-5.218000000000009742e+00,-2.212000000000012623e+00,-4.217000000000001414e+00,-7.661000000000001364e+00,-4.126000000000015433e+00,-9.304000000000025139e+00,-1.896000000000017227e+00,-6.723999999999997534e+00,4.685999999999998167e+00,-1.844000000000002970e+00,3.731999999999999318e+00,5.369000000000000661e+00,4.878999999999981796e+00,1.337000000000005295e+00,-4.124999999999988454e+00,-6.041999999999994486e+00,-2.194999999999998064e+00,-4.730000000000003091e-01,-4.260000000000004339e-01,-2.770000000000001350e-01,-3.470000000000001972e-01,-1.440999999999998726e+00,-2.529999999999889004e-01,-3.936000000000000387e+00,-2.827000000000003066e+00,-8.619999999999995444e-01,-7.072000000000046249e+00,-1.473999999999991539e+00,-6.209999999999921139e-01,1.764999999999996572e+00,-3.224000000000033062e+00,-4.866000000000009429e+00,-7.905999999999997030e+00,1.656000000000014349e+00,-4.639999999999994129e-01,5.220000000000000195e-01,-4.187000000000006494e+00,-3.119000000000003769e+00,-1.148000000000015675e+00,-5.036000000000005805e+00,-5.844999999999971330e+00,-2.142999999999992689e+00,-6.671000000000034902e+00,-1.147999999999985921e+00,-1.118000000000003213e+00,-7.850000000000005862e-01,-1.247999999999999332e+00,-9.750000000000006439e-01,-3.179999999999996607e+00,-1.918999999999996486e+00,2.979999999999984439e+00,4.879999999999988791e-01,2.480000000000034399e-01,5.389999999999987024e-01,-9.797000000000030795e+00,4.118000000000020755e+00,-5.083000000000001073e+00,1.161999999999994593e+00,-4.197999999999993292e+00,3.483999999999993769e+00,-1.192600000000004457e+01,-6.719999999999984874e-01,-1.609000000000007313e+00,1.310000000000044462e-01,-2.724999999999994760e+00,4.184999999999957865e+00,-1.066000000000002501e+00,-4.640999999999980474e+00,1.828999999999998405e+00,-7.851999999999994095e+00,1.635999999999998344e+00,3.200000000000003286e+00,-5.219999999999999085e-01,-4.990000000000003322e-01,-5.640000000000002789e-01,3.430000000000001936e-01,-4.314000000000000057e+00,-5.482999999999992546e+00,-4.203999999999997961e+00,-1.325999999999996737e+00,-3.130000000000001670e+00,-3.990000000000004654e-01,1.821000000000003061e+00,-4.447999999999995957e+00,-2.605000000000004867e+00,-5.503999999999976467e+00,2.476999999999998092e+00,-8.899999999999979039e+00,-2.872000000000006548e+00,1.024000000000007127e+00,-3.624999999999993783e+00,2.908000000000002583e+00,-4.438999999999999169e+00,-1.955000000000002292e+00,3.353000000000013969e+00,-2.078999999999997517e+00,4.672999999999991161e+00,-4.076999999999997293e+00,4.295000000000003482e+00,8.280000000000007354e-01,2.139999999999999958e-01,-2.470000000000001361e-01,-2.890000000000001457e-01,-6.620000000000004770e-01,-3.958999999999995190e+00,-4.354999999999989768e+00,-5.355999999999992767e+00,3.716000000000000192e+00,-3.090999999999999304e+00,3.006000000000000671e+00,7.370000000000028750e-01,-1.594000000000002526e+00,-1.078000000000003178e+00,1.028000000000006464e+00,-5.790000000000006253e+00,-3.909000000000008246e+00,-8.227000000000003865e+00,4.313999999999998280e+00,-1.544000000000001593e+00,-8.159999999999960618e-01,-7.713999999999933799e+00,4.286999999999999922e+00,-3.317000000000022819e+00,-4.323000000000005727e+00,3.092000000000002302e+00,-6.554999999999988169e+00,1.581999999999998741e+00,-1.241000000000000103e+00,-6.150000000000004352e-01,-4.050000000000003042e-01,-4.020000000000003015e-01,-3.080000000000001625e-01,-2.104000000000003645e+00,-8.709999999999944453e-01,2.143000000000002458e+00,7.798999999999999488e+00,-1.733999999999999098e+00,4.303000000000025693e+00,2.283000000000023011e+00,8.189000000000007162e+00,6.535000000000030340e+00,4.348000000000022958e+00,7.700000000000128964e-02,4.766000000000008896e+00,1.180000000000004157e+00,1.574000000000004507e+00,6.978999999999984993e+00,-4.396000000000015007e+00,-6.220000000000180940e-01,-5.525999999999987367e+00,-2.812000000000020261e+00,5.168000000000007255e+00,-5.111999999999992994e+00,-4.212999999999976986e+00,1.853000000000000647e+00,1.010000000000000203e-01,-5.900000000000004130e-01,-2.200000000000000219e-02,-9.750000000000006439e-01,-7.490000000000003322e-01,-3.315999999999992731e+00,-2.112999999999997769e+00,5.172000000000003261e+00,2.526999999999999691e+00,-1.778999999999995696e+00,3.689999999999994618e+00,1.824000000000012278e+00,4.753000000000010772e+00,5.890999999999957382e+00,7.094999999999942908e+00,1.105899999999998151e+01,-8.671000000000001151e+00,-5.388999999999979806e+00,-5.899999999999733236e-01,-1.104999999999996652e+00,4.952999999999985192e+00,6.021999999999968267e+00,1.526999999999995694e+00,2.484999999999985665e+00,4.625999999999995005e+00,-5.844999999999989981e+00,-4.090999999999993975e+00,1.376999999999999336e+00,3.850000000000001199e-01,-6.210000000000004405e-01,-2.810000000000002496e-01,-7.300000000000005373e-01,-3.370000000000004103e-01,-1.234999999999998765e+00,-4.083999999999988972e+00,2.109999999999998543e+00,4.170999999999995822e+00,1.170699999999997942e+01,8.002000000000007773e+00,-4.441000000000006942e+00,6.993000000000034078e+00,-1.339000000000006851e+00,-3.470000000000089124e-01,3.048000000000010701e+00,-1.584999999999999520e+00,-6.796000000000018915e+00,-4.891000000000021330e+00,1.097999999999999199e+00,4.984000000000061270e+00,-3.667999999999998373e+00,4.258000000000023100e+00,2.051000000000003709e+00,3.717999999999990646e+00,3.891999999999992355e+00,-6.590000000000014069e+00,-3.843000000000006633e+00,-1.396999999999995579e+00,-4.400000000000002243e-01,-3.470000000000002527e-01,7.099999999999997979e-02,-8.700000000000005507e-01,-2.620000000000002327e-01,-6.300000000000099964e-02,3.144999999999996909e+00,-3.753999999999996451e+00,-1.957999999999994412e+00,2.852000000000001645e+00,8.919999999999856044e+00,-1.023999999999996025e+00,-5.765999999999971593e+00,4.950999999999993406e+00,3.046999999999999709e+00,9.955000000000039151e+00,6.159000000000052211e+00,4.643000000000030880e+00,1.296000000000010477e+00,3.610000000000024301e-01,1.396999999999995801e+00,2.688000000000000167e+00,1.394000000000006567e+00,-3.150999999999990031e+00,5.660000000000025011e-01,-4.897999999999990806e+00,-7.743999999999994444e+00,-4.099999999999997868e+00,-2.021000000000001684e+00,-4.110000000000003095e-01,-1.042000000000000259e+00,-1.597000000000001085e+00,-1.840000000000001079e-01,-1.398000000000001464e+00,-8.750999999999992340e+00,-2.241999999999988891e+00,-7.025000000000031442e+00,4.540000000000141145e-01,8.889999999999972147e+00,-3.570000000000020934e-01,3.079999999999987192e+00,2.965000000000006075e+00,-5.819999999999959428e+00,2.329999999999948779e-01,-3.068000000000002281e+00,5.924999999999984723e+00,-6.771999999999978925e+00,3.623000000000020204e+00,8.944000000000025707e+00,2.410000000000000142e+00,1.811000000000001053e+00,9.239999999999989333e-01,7.293999999999988937e+00,6.474000000000002863e+00,2.106999999999996653e+00,-4.088000000000000966e+00,-1.966999999999998305e+00,7.600000000000005640e-01,-4.520000000000003459e-01,-9.200000000000007061e-01,-4.990000000000003322e-01,-1.565999999999999615e+00,-9.541000000000007475e+00,4.427000000000004043e+00,7.889999999999982583e-01,1.865999999999998327e+00,1.712999999999997414e+00,-3.208000000000029051e+00,8.790000000000045555e-01,-2.328000000000002956e+00,2.944999999999999396e+00,5.037999999999994039e+00,6.797999999999906784e+00,5.200000000000037925e-01,8.057000000000016371e+00,4.241999999999999993e+00,-4.849000000000011745e+00,2.400000000000143685e-02,-9.916000000000062542e+00,-6.200000000000004619e+00,-1.278999999999998805e+00,8.180000000000005045e+00,3.351000000000006196e+00,-8.939999999999995728e-01,-1.090999999999999970e+00,-7.830000000000001403e-01,-9.840000000000007629e-01,-3.940000000000004055e-01,-1.262999999999999456e+00,-1.026000000000000245e+00,-1.232800000000000118e+01,-1.714999999999995861e+00,-1.908999999999998032e+00,-2.590000000000004299e+00,1.695000000000006724e+00,2.513000000000002565e+00,-2.671000000000018026e+00,-6.113000000000035072e+00,1.368000000000033634e+00,6.651000000000052204e+00,3.140999999999996017e+00,6.251000000000018986e+00,-4.290000000000070424e-01,-5.620999999999996888e+00,-6.161999999999992816e+00,8.190000000000010161e+00,-2.750999999999995005e+00,-1.258999999999994790e+00,-4.025999999999992696e+00,2.274000000000002686e+00,-7.659999999999991260e-01,-2.250000000000000333e-01,2.030000000000000970e-01,3.800000000000004763e-02,2.170000000000003593e-01,-1.044000000000000483e+00,-2.828999999999992632e+00,-1.141000000000001346e+00,-5.407000000000020457e+00,2.566999999999998394e+00,6.839000000000011958e+00,1.389999999999988467e-01,-1.049100000000005650e+01,-2.742999999999942151e+00,-3.279999999999992921e-01,2.829000000000000181e+00,-3.553999999999989168e+00,5.808999999999985064e+00,4.999999999999983347e-01,1.021599999999998865e+01,-5.275000000000028777e+00,-5.179999999999995719e-01,-2.763000000000009670e+00,-4.833999999999986308e+00,-3.293999999999973394e+00,-3.199999999999978861e+00,-9.163999999999997925e+00,-4.426999999999983615e+00,-8.380000000000000782e-01,-1.890000000000001124e-01,-3.310000000000001830e-01,-9.500000000000002887e-02,-1.273000000000000353e+00,-4.470000000000003415e-01,-8.800000000000005596e-01,-3.600000000000002087e-01,-1.750000000000000167e-01,-2.927000000000006708e+00,1.099999999999990152e-01,-1.814000000000009605e+00,-4.661999999999978606e+00,-2.943000000000023597e+00,-1.014499999999988411e+01,9.800000000000135270e-01,-1.168600000000001593e+01,-8.308999999999961972e+00,-2.092999999999998639e+00,-2.550999999999989942e+00,-2.480999999999986549e+00,-1.688999999999999835e+00,-2.086999999999993527e+00,-2.122999999999990894e+00,-5.700000000000041700e-01,2.330000000000005400e+00,-2.185999999999983068e+00,-2.561999999999991395e+00,-9.089999999999995861e-01,7.960000000000005960e-01,-1.600000000000003850e-02,-1.020000000000000490e-01,-1.040000000000000230e-01,-3.810000000000002274e-01,4.600000000000004086e-02,-1.230999999999998762e+00,-4.880000000000001004e-01,-1.968999999999999195e+00,-4.882999999999999119e+00,-3.459999999999995079e+00,-2.169000000000004480e+00,-7.705000000000010729e+00,-2.220000000000063034e-01,-1.170999999999999153e+00,3.321000000000001950e+00,-3.089999999999987867e+00,4.598999999999981547e+00,-4.560999999999982180e+00,9.309999999999930553e-01,3.691000000000005166e+00,6.048000000000001819e+00,-5.619999999999998330e-01,4.599999999999942329e-02,7.235999999999999766e+00,4.358999999999997321e+00,-4.246999999999983899e+00,-9.859999999999999876e-01,-1.080000000000000404e-01,1.099999999999999589e-02,2.640000000000001235e-01,5.610000000000003872e-01,-2.729999999999997984e-01,-9.350000000000007194e-01,-9.850000000000007638e-01,-9.030000000000004690e-01,-1.724999999999998979e+00,-4.924000000000005706e+00,6.940000000000011715e-01,2.824000000000012278e+00,-6.042999999999995708e+00,-7.889000000000043755e+00,-2.133000000000035978e+00,-1.087200000000000522e+01,-1.257000000000003226e+00,-4.599999999999996980e+00,3.152999999999996028e+00,5.034999999999960174e+00,4.616000000000022752e+00,7.962000000000003297e+00,-6.059999999999982068e-01,-4.429999999999983951e-01,2.043999999999998707e+00,8.980000000000061267e-01,-1.379999999999994786e+00,7.230000000000004201e-01,4.400000000000017786e-02,6.700000000000000400e-02,2.110000000000001319e-01,-2.250000000000000888e-01,3.250000000000002887e-01,-3.470000000000003082e-01,3.120000000000001661e-01,-2.340000000000002078e-01,-6.010000000000003118e-01,-1.675000000000000488e+00,4.709999999999995524e+00,6.930000000000003935e-01,-5.079999999999953442e-01,-2.080999999999995076e+00,-2.008000000000004448e+00,8.820000000000007834e-01,-6.339999999999912372e-01,-6.784999999999977938e+00,2.660000000000014575e-01,3.809000000000000163e+00,3.490000000000034408e+00,1.434000000000011710e+00,-2.999999999999990674e+00,-1.645999999999994579e+00,2.870999999999993335e+00,-1.980000000000002203e+00,-2.520000000000002793e-01,-1.090000000000000829e-01,-4.399999999999998357e-02,-3.300000000000000155e-02,3.799999999999999906e-02,-2.850000000000001976e-01,1.047000000000000597e+00,-7.400000000000003797e-02,1.999999999999982694e-03,-3.600000000000002087e-01,3.190000000000002833e-01,5.756000000000001116e+00,5.107999999999994323e+00,-1.146899999999997810e+01,2.714000000000007073e+00,1.700999999999998957e+00,6.190000000000065450e-01,-2.194000000000011052e+00,3.690000000000013269e-01,3.263000000000005674e+00,-7.268999999999980588e+00,-6.189999999999992175e-01,-4.767999999999994465e+00,-4.162999999999986933e+00,-2.408999999999998032e+00,-2.264999999999994351e+00,-1.888999999999994905e+00,-7.779999999999999138e-01,1.910000000000001141e-01,-9.999999999999998473e-03,9.000000000000001055e-03,4.000000000000000083e-03,-8.000000000000000167e-03,-5.300000000000003320e-02,4.060000000000001941e-01,-2.050000000000000988e-01,1.050000000000000377e-01,2.380000000000001004e-01,-1.159999999999999920e-01,-8.819999999999998952e-01,-7.018000000000001570e+00,-8.587999999999976097e+00,-7.040000000000050662e-01,-5.463000000000010736e+00,-4.385000000000002451e+00,-1.015000000000007230e+00,-6.612999999999984446e+00,-5.194999999999977192e+00,-3.779999999999991811e+00,-1.128799999999996828e+01,-1.231099999999996619e+01,-8.678999999999993165e+00,-5.402999999999995140e+00,-1.164999999999988711e+00,-1.492000000000000215e+00,-5.200000000000000178e-01,-2.370000000000000162e-01,-7.099999999999999367e-02,-3.100000000000000325e-02,2.000000000000000042e-03,0.000000000000000000e+00,1.160000000000000753e-01,-1.799999999999999517e-02,-5.600000000000003586e-02,-5.000000000000003053e-02,-2.720000000000001306e-01,-9.300000000000005485e-02,-1.499999999999999667e-01,-2.680000000000000160e+00,5.799999999999480571e-02,6.509999999999913634e-01,-1.421000000000000929e+00,-7.420000000000001039e-01,8.060000000000008269e-01,-3.462999999999992973e+00,-5.081999999999994522e+00,-3.026000000000004242e+00,-5.651000000000002466e+00,-7.885999999999990351e+00,-6.754999999999999005e+00,-2.084000000000001851e+00,-1.220000000000000806e-01,-1.090000000000000746e+00,5.800000000000004041e-01,2.120000000000001328e-01,-3.200000000000000067e-02,-8.000000000000000167e-03,0.000000000000000000e+00,0.000000000000000000e+00,-2.650000000000001799e-01,-3.750000000000001665e-01,2.740000000000001323e-01,3.090000000000002189e-01,-4.199999999999997485e-02,-6.450000000000003508e-01,-4.970000000000002194e-01,-2.839000000000000856e+00,-2.058000000000004270e+00,-5.899999999999989281e-02,7.360000000000006537e-01,1.170999999999998264e+00,8.720000000000006635e-01,1.666999999999991822e+00,8.170000000000005036e-01,-2.188999999999998725e+00,-4.339999999999997193e-01,-2.200000000000002648e-02,-2.500000000000003109e+00,-1.823000000000001064e+00,-8.950000000000004619e-01,-1.109999999999997794e-01,-5.110000000000001208e-01,-2.660000000000000697e-01,0.000000000000000000e+00,0.000000000000000000e+00,0.000000000000000000e+00,-1.000000000000000021e-02,-1.170000000000000900e-01
