1.800000000000000000e+01,-2.600000000000000000e+01,9.700000000000000000e+01,7.000000000000000000e+01,-1.410000000000000000e+02,1.080000000000000000e+02,-8.200000000000000000e+01,-1.300000000000000000e+02,1.810000000000000000e+02,3.560000000000000000e+02,-5.550000000000000000e+02,5.770000000000000000e+02,-1.080000000000000000e+02,-4.360000000000000000e+02,7.820000000000000000e+02,1.640000000000000000e+02,-2.910000000000000000e+02,-5.900000000000000000e+01,2.230000000000000000e+02,-4.480000000000000000e+02,-4.700000000000000000e+01,-2.900000000000000000e+01,1.000000000000000000e+00,-1.020000000000000000e+02,-4.500000000000000000e+01,-2.700000000000000000e+01,-1.900000000000000000e+01,-1.600000000000000000e+01,-3.000000000000000000e+00,1.800000000000000000e+01,-1.780000000000000000e+02,-7.200000000000000000e+01,2.700000000000000000e+01,-1.340000000000000000e+02,8.900000000000000000e+01,4.000000000000000000e+00,1.730000000000000000e+02,-5.310000000000000000e+02,-1.570000000000000000e+02,-3.340000000000000000e+02,1.780000000000000000e+02,-2.700000000000000000e+02,9.310000000000000000e+02,5.120000000000000000e+02,1.750000000000000000e+02,6.880000000000000000e+02,-3.780000000000000000e+02,-1.280000000000000000e+02,1.260000000000000000e+02,-5.960000000000000000e+02,-3.200000000000000000e+01,-6.400000000000000000e+01,-4.000000000000000000e+01,-2.330000000000000000e+02,-1.760000000000000000e+02,7.800000000000000000e+01,-3.900000000000000000e+01,-4.800000000000000000e+01,-1.200000000000000000e+01,-2.300000000000000000e+01,5.100000000000000000e+01,-7.000000000000000000e+00,-5.000000000000000000e+01,-5.100000000000000000e+01,1.500000000000000000e+01,-1.230000000000000000e+02,1.640000000000000000e+03,-1.230000000000000000e+02,-2.846000000000000000e+03,-9.830000000000000000e+02,2.167000000000000000e+03,7.410000000000000000e+02,-1.212000000000000000e+03,1.002000000000000000e+03,2.147000000000000000e+03,6.300000000000000000e+01,7.510000000000000000e+02,9.140000000000000000e+02,-2.090000000000000000e+02,4.830000000000000000e+02,-1.330000000000000000e+02,-1.350000000000000000e+02,-1.400000000000000000e+02,-1.000000000000000000e+01,-1.340000000000000000e+02,-4.300000000000000000e+01,-4.600000000000000000e+01,1.490000000000000000e+02,-1.180000000000000000e+02,4.200000000000000000e+01,-2.280000000000000000e+02,-1.480000000000000000e+02,-1.178000000000000000e+03,-1.121000000000000000e+03,8.090000000000000000e+02,-4.770000000000000000e+02,6.060000000000000000e+02,7.280000000000000000e+02,3.210000000000000000e+02,4.226000000000000000e+03,9.960000000000000000e+02,9.550000000000000000e+02,2.474000000000000000e+03,2.620000000000000000e+03,2.345000000000000000e+03,-4.083000000000000000e+03,-5.015000000000000000e+03,-2.686000000000000000e+03,-1.743000000000000000e+03,-1.890000000000000000e+02,8.000000000000000000e+00,-2.300000000000000000e+02,-2.400000000000000000e+01,-5.400000000000000000e+01,-7.500000000000000000e+01,5.000000000000000000e+00,-3.000000000000000000e+01,-3.420000000000000000e+02,-3.800000000000000000e+02,-6.400000000000000000e+01,-3.390000000000000000e+03,-1.306000000000000000e+03,3.024000000000000000e+03,-1.209000000000000000e+03,-8.910000000000000000e+02,-4.720000000000000000e+03,-2.236000000000000000e+03,-7.900000000000000000e+01,1.950000000000000000e+03,1.130000000000000000e+02,-4.620000000000000000e+02,1.678000000000000000e+03,2.488000000000000000e+03,-2.578000000000000000e+03,-3.785000000000000000e+03,2.180000000000000000e+02,-1.651000000000000000e+03,-2.860000000000000000e+02,2.000000000000000000e+01,-7.100000000000000000e+01,-4.500000000000000000e+01,9.900000000000000000e+01,-1.730000000000000000e+02,-6.900000000000000000e+01,-7.000000000000000000e+01,-1.223000000000000000e+03,3.620000000000000000e+02,-1.081000000000000000e+03,-4.250000000000000000e+03,-6.590000000000000000e+02,6.800000000000000000e+01,-8.200000000000000000e+02,-2.453000000000000000e+03,-1.981000000000000000e+03,-3.778000000000000000e+03,-4.502000000000000000e+03,-5.483000000000000000e+03,1.000000000000000000e+00,1.766000000000000000e+03,5.850000000000000000e+03,3.643000000000000000e+03,-7.880000000000000000e+02,-1.126000000000000000e+03,7.660000000000000000e+02,7.760000000000000000e+02,-1.600000000000000000e+02,-1.920000000000000000e+02,-1.890000000000000000e+02,-7.300000000000000000e+01,5.100000000000000000e+01,1.900000000000000000e+01,4.000000000000000000e+00,-6.100000000000000000e+01,-7.120000000000000000e+02,7.170000000000000000e+02,-2.764000000000000000e+03,-2.977000000000000000e+03,2.950000000000000000e+02,3.070000000000000000e+02,-8.700000000000000000e+02,-7.940000000000000000e+02,-4.280000000000000000e+02,7.550000000000000000e+02,1.984000000000000000e+03,5.160000000000000000e+02,1.262000000000000000e+03,6.170000000000000000e+02,-2.012000000000000000e+03,1.815000000000000000e+03,-3.138000000000000000e+03,-4.012000000000000000e+03,3.720000000000000000e+02,6.870000000000000000e+02,-2.750000000000000000e+02,-1.198000000000000000e+03,-1.321000000000000000e+03,-6.400000000000000000e+01,-2.200000000000000000e+01,-7.800000000000000000e+01,-6.900000000000000000e+01,1.800000000000000000e+01,6.260000000000000000e+02,8.600000000000000000e+02,-3.617000000000000000e+03,-6.518000000000000000e+03,1.082000000000000000e+03,5.250000000000000000e+02,-1.219000000000000000e+03,-5.024000000000000000e+03,-2.639000000000000000e+03,-3.998000000000000000e+03,-2.184000000000000000e+03,-5.230000000000000000e+03,-4.456000000000000000e+03,-3.303000000000000000e+03,-1.949000000000000000e+03,-2.214000000000000000e+03,-1.855000000000000000e+03,-6.210000000000000000e+02,-1.464000000000000000e+03,-1.744000000000000000e+03,-2.871000000000000000e+03,-2.651000000000000000e+03,-5.310000000000000000e+02,2.000000000000000000e+02,-6.540000000000000000e+02,2.710000000000000000e+02,-3.880000000000000000e+02,-3.070000000000000000e+02,5.290000000000000000e+02,-1.112000000000000000e+03,-5.444000000000000000e+03,-4.824000000000000000e+03,-3.561000000000000000e+03,-1.567000000000000000e+03,-3.357000000000000000e+03,-2.340000000000000000e+02,-1.964000000000000000e+03,-1.054000000000000000e+03,-2.038000000000000000e+03,-6.380000000000000000e+02,-1.945000000000000000e+03,-8.305000000000000000e+03,-7.466000000000000000e+03,-9.658000000000000000e+03,-5.273000000000000000e+03,-3.793000000000000000e+03,-4.349000000000000000e+03,-5.281000000000000000e+03,-2.950000000000000000e+03,-4.160000000000000000e+02,3.500000000000000000e+01,-1.640000000000000000e+02,-6.010000000000000000e+02,-7.000000000000000000e+01,-9.100000000000000000e+01,-1.314000000000000000e+03,-8.430000000000000000e+02,-2.271000000000000000e+03,-3.966000000000000000e+03,2.550000000000000000e+02,-2.634000000000000000e+03,-2.966000000000000000e+03,-5.016000000000000000e+03,3.407000000000000000e+03,-9.080000000000000000e+02,8.550000000000000000e+02,7.400000000000000000e+01,-1.786000000000000000e+03,-6.866000000000000000e+03,-7.831000000000000000e+03,-3.172000000000000000e+03,1.345000000000000000e+03,-2.264000000000000000e+03,-4.033000000000000000e+03,-6.028000000000000000e+03,-2.878000000000000000e+03,-1.308000000000000000e+03,-1.580000000000000000e+02,-1.990000000000000000e+02,-2.540000000000000000e+02,-2.510000000000000000e+02,-1.260000000000000000e+02,-1.910000000000000000e+02,-1.692000000000000000e+03,1.210000000000000000e+02,-4.610000000000000000e+02,-1.010000000000000000e+02,1.747000000000000000e+03,3.160000000000000000e+02,-1.122000000000000000e+03,3.270000000000000000e+02,-2.408000000000000000e+03,-3.700000000000000000e+02,1.380000000000000000e+03,-3.754000000000000000e+03,-7.000000000000000000e+03,-2.735000000000000000e+03,-3.471000000000000000e+03,-2.716000000000000000e+03,1.521000000000000000e+03,-3.625000000000000000e+03,-3.856000000000000000e+03,-4.394000000000000000e+03,-1.731000000000000000e+03,-1.125000000000000000e+03,-1.180000000000000000e+02,-1.480000000000000000e+02,-3.700000000000000000e+01,-1.870000000000000000e+02,-3.290000000000000000e+02,-3.400000000000000000e+02,-9.920000000000000000e+02,1.061000000000000000e+03,1.028000000000000000e+03,2.310000000000000000e+02,9.200000000000000000e+02,1.367000000000000000e+03,2.350000000000000000e+02,-2.890000000000000000e+02,2.440000000000000000e+02,-1.981000000000000000e+03,-1.016000000000000000e+03,-5.068000000000000000e+03,-4.258000000000000000e+03,4.650000000000000000e+02,-7.990000000000000000e+02,-1.013000000000000000e+03,-2.622000000000000000e+03,4.424000000000000000e+03,-5.020000000000000000e+02,-4.090000000000000000e+02,1.066000000000000000e+03,-7.390000000000000000e+02,-2.220000000000000000e+02,-3.060000000000000000e+02,-5.500000000000000000e+01,-2.240000000000000000e+02,-3.810000000000000000e+02,1.700000000000000000e+01,-9.920000000000000000e+02,1.670000000000000000e+03,7.100000000000000000e+02,6.340000000000000000e+02,4.255000000000000000e+03,1.906000000000000000e+03,3.700000000000000000e+02,-2.410000000000000000e+02,-7.500000000000000000e+01,-1.787000000000000000e+03,-6.150000000000000000e+02,-1.845000000000000000e+03,-2.109000000000000000e+03,-2.700000000000000000e+02,-1.582000000000000000e+03,-5.378000000000000000e+03,2.051000000000000000e+03,3.745000000000000000e+03,-1.201000000000000000e+03,2.199000000000000000e+03,2.362000000000000000e+03,5.180000000000000000e+02,1.900000000000000000e+01,-5.300000000000000000e+01,-2.810000000000000000e+02,1.350000000000000000e+02,-2.140000000000000000e+02,-1.490000000000000000e+02,-2.940000000000000000e+02,3.175000000000000000e+03,2.500000000000000000e+02,2.370000000000000000e+02,5.662000000000000000e+03,1.034000000000000000e+03,2.558000000000000000e+03,2.386000000000000000e+03,1.611000000000000000e+03,-1.265000000000000000e+03,9.400000000000000000e+01,-2.840000000000000000e+02,1.670000000000000000e+03,-1.822000000000000000e+03,-1.469000000000000000e+03,-2.880000000000000000e+02,5.247000000000000000e+03,1.964000000000000000e+03,1.372000000000000000e+03,2.280000000000000000e+03,2.240000000000000000e+03,2.237000000000000000e+03,-6.200000000000000000e+01,-1.250000000000000000e+02,-1.800000000000000000e+02,-1.120000000000000000e+02,-1.050000000000000000e+02,-1.300000000000000000e+02,-2.680000000000000000e+02,2.179000000000000000e+03,-1.850000000000000000e+02,1.135000000000000000e+03,1.097000000000000000e+03,-1.081000000000000000e+03,4.691000000000000000e+03,4.140000000000000000e+02,3.569000000000000000e+03,5.040000000000000000e+02,1.737000000000000000e+03,-3.170000000000000000e+02,-6.000000000000000000e+02,-4.439000000000000000e+03,-2.335000000000000000e+03,-5.710000000000000000e+02,2.845000000000000000e+03,7.680000000000000000e+02,1.022000000000000000e+03,3.810000000000000000e+03,-3.680000000000000000e+02,2.019000000000000000e+03,-7.900000000000000000e+01,-2.400000000000000000e+01,1.350000000000000000e+02,-6.290000000000000000e+02,8.000000000000000000e+00,3.380000000000000000e+02,-1.099000000000000000e+03,-3.461000000000000000e+03,-3.107000000000000000e+03,2.973000000000000000e+03,1.522000000000000000e+03,5.324000000000000000e+03,2.733000000000000000e+03,-3.667000000000000000e+03,-9.860000000000000000e+02,3.526000000000000000e+03,-4.480000000000000000e+02,3.530000000000000000e+03,4.069000000000000000e+03,1.406000000000000000e+03,3.553000000000000000e+03,-3.192000000000000000e+03,8.770000000000000000e+02,-1.716000000000000000e+03,5.049000000000000000e+03,1.062000000000000000e+03,-2.208000000000000000e+03,2.240000000000000000e+02,-1.162000000000000000e+03,-2.470000000000000000e+02,-3.290000000000000000e+02,-1.500000000000000000e+02,-1.150000000000000000e+02,-3.100000000000000000e+01,-2.529000000000000000e+03,-4.680000000000000000e+02,-5.400000000000000000e+02,-2.898000000000000000e+03,-1.108000000000000000e+03,3.776000000000000000e+03,-3.265000000000000000e+03,2.314000000000000000e+03,1.848000000000000000e+03,8.190000000000000000e+02,-7.600000000000000000e+02,-2.550000000000000000e+03,-3.098000000000000000e+03,-3.304000000000000000e+03,3.988000000000000000e+03,-1.420000000000000000e+02,-3.286000000000000000e+03,5.390000000000000000e+02,4.856000000000000000e+03,-4.270000000000000000e+03,-3.573000000000000000e+03,2.690000000000000000e+02,-5.700000000000000000e+02,-2.480000000000000000e+02,-4.560000000000000000e+02,1.440000000000000000e+02,-1.390000000000000000e+02,-1.390000000000000000e+02,-2.705000000000000000e+03,-4.271000000000000000e+03,-2.597000000000000000e+03,1.280000000000000000e+02,2.792000000000000000e+03,1.886000000000000000e+03,1.727000000000000000e+03,5.922000000000000000e+03,3.619000000000000000e+03,2.202000000000000000e+03,2.200000000000000000e+02,-4.989000000000000000e+03,-2.609000000000000000e+03,-1.123000000000000000e+03,-1.654000000000000000e+03,-6.360000000000000000e+02,2.547000000000000000e+03,5.320000000000000000e+02,-1.225000000000000000e+03,-5.113000000000000000e+03,-2.360000000000000000e+03,3.560000000000000000e+02,-1.220000000000000000e+02,-1.550000000000000000e+02,-2.070000000000000000e+02,-2.750000000000000000e+02,-1.310000000000000000e+02,-2.140000000000000000e+02,-1.018000000000000000e+03,-2.387000000000000000e+03,-3.652000000000000000e+03,-5.260000000000000000e+02,1.786000000000000000e+03,2.323000000000000000e+03,4.450000000000000000e+03,1.926000000000000000e+03,-1.255000000000000000e+03,1.970000000000000000e+02,3.606000000000000000e+03,1.315000000000000000e+03,3.980000000000000000e+02,2.696000000000000000e+03,2.980000000000000000e+02,-5.730000000000000000e+02,-3.286000000000000000e+03,-1.664000000000000000e+03,-2.779000000000000000e+03,-1.144000000000000000e+03,-7.500000000000000000e+02,2.420000000000000000e+02,-1.380000000000000000e+02,-1.510000000000000000e+02,-8.600000000000000000e+01,-3.800000000000000000e+02,-1.350000000000000000e+02,-3.000000000000000000e+00,-8.000000000000000000e+01,-1.146000000000000000e+03,-3.666000000000000000e+03,-5.804000000000000000e+03,-7.960000000000000000e+02,6.285000000000000000e+03,4.778000000000000000e+03,1.003000000000000000e+03,3.089000000000000000e+03,3.185000000000000000e+03,2.070000000000000000e+03,-1.218000000000000000e+03,2.823000000000000000e+03,4.540000000000000000e+02,1.714000000000000000e+03,-1.505000000000000000e+03,4.607000000000000000e+03,-4.010000000000000000e+02,-8.950000000000000000e+02,-1.300000000000000000e+02,-8.430000000000000000e+02,2.500000000000000000e+01,-3.700000000000000000e+01,-1.030000000000000000e+02,3.500000000000000000e+01,-1.210000000000000000e+02,-2.100000000000000000e+01,-2.800000000000000000e+01,-7.330000000000000000e+02,-8.750000000000000000e+02,-3.325000000000000000e+03,-5.872000000000000000e+03,-8.460000000000000000e+02,-2.555000000000000000e+03,1.729000000000000000e+03,-4.110000000000000000e+02,1.278000000000000000e+03,2.637000000000000000e+03,-1.981000000000000000e+03,2.235000000000000000e+03,3.128000000000000000e+03,3.531000000000000000e+03,5.210000000000000000e+02,-6.580000000000000000e+02,-7.770000000000000000e+02,-4.320000000000000000e+02,6.230000000000000000e+02,-2.845000000000000000e+03,-2.126000000000000000e+03,-3.260000000000000000e+02,-1.350000000000000000e+02,-8.000000000000000000e+01,1.150000000000000000e+02,-4.700000000000000000e+01,-4.020000000000000000e+02,-3.000000000000000000e+02,-2.740000000000000000e+02,4.700000000000000000e+01,-1.909000000000000000e+03,-1.738000000000000000e+03,-2.450000000000000000e+02,9.440000000000000000e+02,7.520000000000000000e+02,9.300000000000000000e+02,4.360000000000000000e+03,1.346000000000000000e+03,-2.297000000000000000e+03,-4.261000000000000000e+03,1.048000000000000000e+03,2.170000000000000000e+02,2.583000000000000000e+03,4.144000000000000000e+03,1.368000000000000000e+03,-4.474000000000000000e+03,-3.067000000000000000e+03,-3.555000000000000000e+03,-1.242000000000000000e+03,-6.100000000000000000e+01,-3.000000000000000000e+01,-2.600000000000000000e+01,-5.140000000000000000e+02,2.800000000000000000e+01,-3.100000000000000000e+01,3.140000000000000000e+02,1.090000000000000000e+02,-4.660000000000000000e+02,-2.387000000000000000e+03,-1.956000000000000000e+03,1.029000000000000000e+03,9.720000000000000000e+02,1.870000000000000000e+02,-4.832000000000000000e+03,-1.832000000000000000e+03,-7.720000000000000000e+02,2.676000000000000000e+03,3.788000000000000000e+03,1.175000000000000000e+03,-7.780000000000000000e+02,-9.320000000000000000e+02,-2.255000000000000000e+03,-3.810000000000000000e+03,-3.489000000000000000e+03,-1.472000000000000000e+03,-9.610000000000000000e+02,-8.090000000000000000e+02,-1.460000000000000000e+02,-1.970000000000000000e+02,-8.600000000000000000e+01,-1.250000000000000000e+02,1.960000000000000000e+02,-3.880000000000000000e+02,-1.400000000000000000e+02,-5.110000000000000000e+02,-6.080000000000000000e+02,-1.712000000000000000e+03,-3.182000000000000000e+03,-5.507000000000000000e+03,-6.962000000000000000e+03,-6.835000000000000000e+03,-7.995000000000000000e+03,-8.560000000000000000e+03,1.407000000000000000e+03,-2.920000000000000000e+02,-4.154000000000000000e+03,-3.997000000000000000e+03,-3.524000000000000000e+03,5.200000000000000000e+02,-1.139000000000000000e+03,-5.150000000000000000e+02,-2.092000000000000000e+03,-5.340000000000000000e+02,-3.970000000000000000e+02,-1.200000000000000000e+02,-7.300000000000000000e+01,-7.300000000000000000e+01,-4.400000000000000000e+01,0.000000000000000000e+00,-7.100000000000000000e+01,0.000000000000000000e+00,-4.000000000000000000e+00,0.000000000000000000e+00,-2.880000000000000000e+02,-7.770000000000000000e+02,-9.850000000000000000e+02,-1.298000000000000000e+03,-2.185000000000000000e+03,-1.433000000000000000e+03,-2.194000000000000000e+03,-3.713000000000000000e+03,-4.309000000000000000e+03,-4.265000000000000000e+03,-2.709000000000000000e+03,-2.270000000000000000e+03,-2.320000000000000000e+03,-1.586000000000000000e+03,-1.937000000000000000e+03,-1.044000000000000000e+03,-1.909000000000000000e+03,-1.200000000000000000e+02,-5.000000000000000000e+01,0.000000000000000000e+00,0.000000000000000000e+00,0.000000000000000000e+00,0.000000000000000000e+00,-1.000000000000000000e+01,-1.900000000000000000e+01,0.000000000000000000e+00,-1.200000000000000000e+01,-4.600000000000000000e+01,-1.990000000000000000e+02,-3.000000000000000000e+02,-2.790000000000000000e+02,-5.980000000000000000e+02,-8.030000000000000000e+02,-5.810000000000000000e+02,-3.020000000000000000e+02,-3.790000000000000000e+02,-5.640000000000000000e+02,-1.067000000000000000e+03,-3.780000000000000000e+02,-1.151000000000000000e+03,-1.018000000000000000e+03,-5.410000000000000000e+02,-1.553000000000000000e+03,-6.800000000000000000e+02,-2.091000000000000000e+03,-2.270000000000000000e+02,-1.190000000000000000e+02,0.000000000000000000e+00,0.000000000000000000e+00,0.000000000000000000e+00,0.000000000000000000e+00,-9.000000000000000000e+00,0.000000000000000000e+00,-9.000000000000000000e+00,-5.000000000000000000e+00,-3.300000000000000000e+01,-1.800000000000000000e+01,-5.000000000000000000e+00,0.000000000000000000e+00,-3.590000000000000000e+02,-6.570000000000000000e+02,-3.120000000000000000e+02,-1.490000000000000000e+02,-2.600000000000000000e+02,-1.700000000000000000e+02,-7.200000000000000000e+01,-1.850000000000000000e+02,-1.290000000000000000e+02,-9.600000000000000000e+01,-3.310000000000000000e+02,-2.620000000000000000e+02,-4.470000000000000000e+02,-1.860000000000000000e+03,-5.560000000000000000e+02,-1.890000000000000000e+02,0.000000000000000000e+00,0.000000000000000000e+00,0.000000000000000000e+00,0.000000000000000000e+00,-8.000000000000000000e+00,-6.000000000000000000e+00,-2.700000000000000000e+01,-2.100000000000000000e+01,-1.200000000000000000e+01,0.000000000000000000e+00,-1.200000000000000000e+01,-6.100000000000000000e+01,-1.730000000000000000e+02,-8.600000000000000000e+01,-1.800000000000000000e+02,-1.630000000000000000e+02,-1.810000000000000000e+02,-2.270000000000000000e+02,-2.000000000000000000e+02,-1.060000000000000000e+02,-1.290000000000000000e+02,-1.080000000000000000e+02,-3.410000000000000000e+02,-1.720000000000000000e+02,-2.880000000000000000e+02,-1.686000000000000000e+03,-8.870000000000000000e+02,-1.180000000000000000e+02,0.000000000000000000e+00,0.000000000000000000e+00,0.000000000000000000e+00,0.000000000000000000e+00,-6.600000000000000000e+01
2.699999999999999734e+00,-2.600000000000000089e+00,9.700000000000001066e+00,7.000000000000001776e+00,-1.410000000000000142e+01,1.080000000000000071e+01,-8.199999999999995737e+00,-1.299999999999999467e+01,1.809999999999998010e+01,3.560000000000005826e+01,-5.550000000000000000e+01,5.769999999999992468e+01,-1.079999999999999538e+01,-4.360000000000002274e+01,7.820000000000007390e+01,1.639999999999997371e+01,-2.909999999999994102e+01,-5.899999999999990585e+00,2.230000000000001492e+01,-4.479999999999999005e+01,-4.699999999999997513e+00,-2.900000000000056311e+00,1.000000000000013656e-01,-1.019999999999998685e+01,-4.500000000000000888e+00,-2.700000000000001066e+00,-1.900000000000000355e+00,-1.600000000000000311e+00,-2.999999999999999889e-01,1.799999999999999378e+00,-1.779999999999999361e+01,-7.199999999999999289e+00,2.699999999999999289e+00,-1.340000000000000746e+01,8.900000000000000355e+00,3.999999999999999112e-01,1.729999999999996163e+01,-5.310000000000000853e+01,-1.570000000000001705e+01,-3.340000000000005542e+01,1.779999999999996518e+01,-2.700000000000002842e+01,9.310000000000023590e+01,5.120000000000009521e+01,1.749999999999999645e+01,6.879999999999994031e+01,-3.780000000000006111e+01,-1.280000000000002380e+01,1.260000000000002451e+01,-5.959999999999998010e+01,-3.199999999999997957e+00,-6.399999999999993250e+00,-4.000000000000000000e+00,-2.330000000000000426e+01,-1.759999999999999787e+01,7.800000000000002487e+00,-3.900000000000000355e+00,-4.800000000000004263e+00,-1.200000000000000400e+00,-2.299999999999999822e+00,5.099999999999999645e+00,-7.000000000000001776e-01,-5.000000000000000888e+00,-5.100000000000001421e+00,1.500000000000001332e+00,-1.229999999999999893e+01,1.639999999999998295e+02,-1.229999999999998650e+01,-2.846000000000000227e+02,-9.830000000000013927e+01,2.167000000000000171e+02,7.409999999999986642e+01,-1.211999999999999318e+02,1.001999999999996049e+02,2.146999999999993918e+02,6.300000000000007816e+00,7.510000000000002274e+01,9.140000000000003411e+01,-2.090000000000000924e+01,4.830000000000001847e+01,-1.329999999999999893e+01,-1.350000000000000533e+01,-1.399999999999999822e+01,-1.000000000000000000e+00,-1.339999999999999858e+01,-4.300000000000002487e+00,-4.600000000000004974e+00,1.490000000000000213e+01,-1.179999999999999893e+01,4.200000000000000178e+00,-2.279999999999998650e+01,-1.479999999999999183e+01,-1.177999999999998693e+02,-1.120999999999994543e+02,8.089999999999997726e+01,-4.770000000000005969e+01,6.059999999999998721e+01,7.280000000000018190e+01,3.210000000000004405e+01,4.225999999999999659e+02,9.960000000000042064e+01,9.550000000000029843e+01,2.473999999999996930e+02,2.619999999999984084e+02,2.345000000000001990e+02,-4.082999999999998408e+02,-5.014999999999999432e+02,-2.685999999999997954e+02,-1.742999999999999829e+02,-1.889999999999999858e+01,8.000000000000003775e-01,-2.299999999999999645e+01,-2.400000000000001243e+00,-5.400000000000000355e+00,-7.499999999999996447e+00,4.999999999999982236e-01,-3.000000000000000000e+00,-3.419999999999998153e+01,-3.800000000000000000e+01,-6.400000000000002132e+00,-3.389999999999999432e+02,-1.305999999999999375e+02,3.024000000000006025e+02,-1.209000000000000625e+02,-8.909999999999993747e+01,-4.720000000000001137e+02,-2.236000000000001364e+02,-7.899999999999984368e+00,1.950000000000000568e+02,1.130000000000009308e+01,-4.619999999999998153e+01,1.678000000000001251e+02,2.488000000000004661e+02,-2.578000000000000114e+02,-3.784999999999998295e+02,2.179999999999997229e+01,-1.651000000000000227e+02,-2.859999999999999787e+01,1.999999999999999556e+00,-7.100000000000003197e+00,-4.500000000000001776e+00,9.900000000000000355e+00,-1.729999999999999716e+01,-6.900000000000001243e+00,-7.000000000000000000e+00,-1.223000000000000114e+02,3.619999999999998863e+01,-1.080999999999999659e+02,-4.249999999999989200e+02,-6.590000000000007674e+01,6.799999999999921663e+00,-8.200000000000002842e+01,-2.453000000000005798e+02,-1.981000000000003638e+02,-3.778000000000002387e+02,-4.501999999999993065e+02,-5.483000000000001819e+02,1.000000000000760281e-01,1.765999999999999659e+02,5.850000000000015916e+02,3.643000000000000114e+02,-7.879999999999996874e+01,-1.126000000000001222e+02,7.659999999999999432e+01,7.760000000000000853e+01,-1.599999999999999645e+01,-1.919999999999999929e+01,-1.889999999999999503e+01,-7.299999999999998934e+00,5.099999999999998757e+00,1.899999999999999911e+00,3.999999999999996891e-01,-6.099999999999996092e+00,-7.119999999999997442e+01,7.170000000000001705e+01,-2.764000000000000341e+02,-2.976999999999999886e+02,2.949999999999987210e+01,3.070000000000002061e+01,-8.700000000000011369e+01,-7.940000000000031832e+01,-4.279999999999996874e+01,7.549999999999997158e+01,1.984000000000000909e+02,5.159999999999993747e+01,1.262000000000001307e+02,6.170000000000000995e+01,-2.012000000000002728e+02,1.815000000000000853e+02,-3.138000000000003524e+02,-4.011999999999993065e+02,3.719999999999992468e+01,6.870000000000000284e+01,-2.750000000000001776e+01,-1.198000000000000256e+02,-1.321000000000000512e+02,-6.399999999999997691e+00,-2.200000000000000178e+00,-7.799999999999995381e+00,-6.900000000000001243e+00,1.800000000000001599e+00,6.260000000000000142e+01,8.600000000000001421e+01,-3.617000000000000455e+02,-6.517999999999992724e+02,1.082000000000000028e+02,5.249999999999989342e+01,-1.218999999999996504e+02,-5.024000000000012847e+02,-2.638999999999990109e+02,-3.997999999999997840e+02,-2.183999999999998636e+02,-5.229999999999986358e+02,-4.456000000000022396e+02,-3.302999999999998977e+02,-1.948999999999998636e+02,-2.214000000000001478e+02,-1.854999999999998579e+02,-6.209999999999990905e+01,-1.464000000000000057e+02,-1.744000000000000909e+02,-2.871000000000000227e+02,-2.651000000000001364e+02,-5.309999999999999432e+01,2.000000000000000355e+01,-6.540000000000004832e+01,2.709999999999999432e+01,-3.880000000000001137e+01,-3.069999999999999218e+01,5.290000000000001990e+01,-1.111999999999998607e+02,-5.444000000000004320e+02,-4.823999999999993520e+02,-3.561000000000001364e+02,-1.566999999999995907e+02,-3.356999999999993065e+02,-2.339999999999997016e+01,-1.963999999999997783e+02,-1.053999999999999346e+02,-2.038000000000002672e+02,-6.379999999999991189e+01,-1.945000000000003126e+02,-8.305000000000007958e+02,-7.466000000000015007e+02,-9.657999999999966576e+02,-5.272999999999998408e+02,-3.792999999999999545e+02,-4.349000000000006594e+02,-5.280999999999996817e+02,-2.950000000000000000e+02,-4.160000000000003695e+01,3.500000000000001332e+00,-1.640000000000001634e+01,-6.010000000000002274e+01,-6.999999999999982236e+00,-9.099999999999996092e+00,-1.314000000000000057e+02,-8.430000000000001137e+01,-2.271000000000001648e+02,-3.965999999999997954e+02,2.549999999999999645e+01,-2.633999999999998067e+02,-2.966000000000002501e+02,-5.015999999999995111e+02,3.407000000000007276e+02,-9.080000000000012506e+01,8.550000000000004263e+01,7.399999999999813838e+00,-1.785999999999995396e+02,-6.865999999999988859e+02,-7.831000000000005912e+02,-3.172000000000002160e+02,1.344999999999999716e+02,-2.264000000000002046e+02,-4.032999999999992724e+02,-6.027999999999991587e+02,-2.878000000000000114e+02,-1.308000000000000682e+02,-1.580000000000000782e+01,-1.989999999999999858e+01,-2.540000000000001279e+01,-2.510000000000001208e+01,-1.260000000000000853e+01,-1.910000000000000853e+01,-1.692000000000002728e+02,1.210000000000011333e+01,-4.610000000000015774e+01,-1.010000000000002629e+01,1.746999999999998749e+02,3.160000000000011156e+01,-1.122000000000004434e+02,3.269999999999998153e+01,-2.407999999999997272e+02,-3.699999999999995026e+01,1.380000000000000853e+02,-3.754000000000002046e+02,-6.999999999999998863e+02,-2.735000000000001705e+02,-3.471000000000008754e+02,-2.715999999999993406e+02,1.520999999999999091e+02,-3.625000000000003411e+02,-3.856000000000017849e+02,-4.394000000000000341e+02,-1.730999999999999091e+02,-1.125000000000000711e+02,-1.180000000000000071e+01,-1.480000000000000604e+01,-3.700000000000002398e+00,-1.870000000000000995e+01,-3.289999999999999147e+01,-3.399999999999999289e+01,-9.919999999999990337e+01,1.061000000000000085e+02,1.027999999999999972e+02,2.309999999999995168e+01,9.200000000000011369e+01,1.367000000000001023e+02,2.350000000000012790e+01,-2.889999999999996660e+01,2.440000000000003411e+01,-1.981000000000006196e+02,-1.016000000000000227e+02,-5.067999999999993292e+02,-4.258000000000015461e+02,4.649999999999980105e+01,-7.990000000000017621e+01,-1.013000000000001677e+02,-2.621999999999996476e+02,4.424000000000000341e+02,-5.019999999999959783e+01,-4.089999999999979963e+01,1.065999999999999233e+02,-7.390000000000006253e+01,-2.220000000000000284e+01,-3.059999999999999432e+01,-5.500000000000000000e+00,-2.239999999999999503e+01,-3.810000000000005116e+01,1.699999999999999956e+00,-9.920000000000023022e+01,1.670000000000000568e+02,7.100000000000002842e+01,6.340000000000004832e+01,4.254999999999999432e+02,1.906000000000000227e+02,3.699999999999983658e+01,-2.409999999999991260e+01,-7.500000000000174971e+00,-1.786999999999993918e+02,-6.150000000000004263e+01,-1.844999999999998010e+02,-2.108999999999996078e+02,-2.700000000000031974e+01,-1.581999999999997044e+02,-5.378000000000006366e+02,2.050999999999999943e+02,3.744999999999998295e+02,-1.200999999999998522e+02,2.199000000000000909e+02,2.362000000000001307e+02,5.180000000000000426e+01,1.899999999999999467e+00,-5.299999999999995381e+00,-2.809999999999998366e+01,1.350000000000000355e+01,-2.140000000000000924e+01,-1.490000000000000568e+01,-2.940000000000001279e+01,3.174999999999997726e+02,2.499999999999998579e+01,2.369999999999997442e+01,5.662000000000014097e+02,1.033999999999998778e+02,2.557999999999994429e+02,2.386000000000004775e+02,1.610999999999999943e+02,-1.265000000000001847e+02,9.399999999999966604e+00,-2.840000000000015490e+01,1.670000000000001421e+02,-1.821999999999999602e+02,-1.469000000000001194e+02,-2.879999999999998650e+01,5.246999999999994770e+02,1.964000000000008299e+02,1.372000000000004718e+02,2.280000000000001421e+02,2.239999999999998863e+02,2.237000000000001876e+02,-6.199999999999995737e+00,-1.250000000000000000e+01,-1.800000000000000000e+01,-1.120000000000000995e+01,-1.050000000000000000e+01,-1.299999999999998401e+01,-2.680000000000001137e+01,2.179000000000001478e+02,-1.849999999999993605e+01,1.134999999999999432e+02,1.097000000000000028e+02,-1.080999999999998948e+02,4.691000000000007049e+02,4.140000000000026859e+01,3.568999999999994657e+02,5.039999999999985647e+01,1.736999999999999886e+02,-3.170000000000042562e+01,-6.000000000000004974e+01,-4.439000000000008299e+02,-2.334999999999998579e+02,-5.709999999999994458e+01,2.844999999999999432e+02,7.680000000000025295e+01,1.022000000000003723e+02,3.809999999999994316e+02,-3.679999999999994031e+01,2.019000000000000341e+02,-7.899999999999995914e+00,-2.399999999999999023e+00,1.349999999999999112e+01,-6.289999999999990621e+01,7.999999999999988232e-01,3.380000000000000426e+01,-1.099000000000000057e+02,-3.460999999999997385e+02,-3.106999999999999318e+02,2.972999999999998977e+02,1.522000000000000171e+02,5.323999999999991815e+02,2.733000000000001251e+02,-3.666999999999992497e+02,-9.859999999999998010e+01,3.525999999999992838e+02,-4.479999999999975557e+01,3.530000000000001137e+02,4.068999999999999773e+02,1.406000000000000227e+02,3.552999999999992156e+02,-3.191999999999999886e+02,8.770000000000000284e+01,-1.716000000000001080e+02,5.048999999999998636e+02,1.062000000000003723e+02,-2.208000000000000114e+02,2.240000000000000568e+01,-1.161999999999999460e+02,-2.470000000000000284e+01,-3.290000000000000568e+01,-1.500000000000000178e+01,-1.150000000000000178e+01,-3.100000000000000533e+00,-2.529000000000001762e+02,-4.679999999999998295e+01,-5.400000000000004263e+01,-2.897999999999995566e+02,-1.107999999999999403e+02,3.775999999999987153e+02,-3.265000000000001705e+02,2.314000000000002899e+02,1.847999999999991871e+02,8.189999999999952252e+01,-7.600000000000046896e+01,-2.550000000000004547e+02,-3.098000000000000114e+02,-3.304000000000003752e+02,3.987999999999998977e+02,-1.420000000000018581e+01,-3.285999999999998522e+02,5.389999999999992752e+01,4.856000000000008185e+02,-4.270000000000001137e+02,-3.573000000000001251e+02,2.690000000000000213e+01,-5.699999999999998579e+01,-2.479999999999999361e+01,-4.560000000000000853e+01,1.440000000000000213e+01,-1.390000000000000036e+01,-1.389999999999999858e+01,-2.704999999999999432e+02,-4.271000000000007617e+02,-2.596999999999998181e+02,1.280000000000002558e+01,2.792000000000011823e+02,1.886000000000001648e+02,1.727000000000007844e+02,5.921999999999991360e+02,3.618999999999999204e+02,2.202000000000002160e+02,2.199999999999960920e+01,-4.989000000000015120e+02,-2.609000000000008299e+02,-1.122999999999998408e+02,-1.654000000000001194e+02,-6.359999999999985221e+01,2.547000000000006992e+02,5.319999999999991047e+01,-1.225000000000000426e+02,-5.112999999999997272e+02,-2.360000000000001705e+02,3.560000000000000142e+01,-1.220000000000000284e+01,-1.549999999999999645e+01,-2.069999999999999929e+01,-2.750000000000002487e+01,-1.310000000000000320e+01,-2.140000000000000924e+01,-1.017999999999997129e+02,-2.387000000000002160e+02,-3.651999999999996476e+02,-5.259999999999984510e+01,1.786000000000000227e+02,2.323000000000009209e+02,4.449999999999986358e+02,1.925999999999996248e+02,-1.254999999999999858e+02,1.969999999999994955e+01,3.605999999999991132e+02,1.315000000000008242e+02,3.979999999999993321e+01,2.695999999999999659e+02,2.980000000000000071e+01,-5.730000000000029559e+01,-3.286000000000001933e+02,-1.664000000000001194e+02,-2.778999999999991815e+02,-1.143999999999998209e+02,-7.500000000000002842e+01,2.420000000000000284e+01,-1.380000000000000426e+01,-1.509999999999999254e+01,-8.599999999999999645e+00,-3.799999999999998579e+01,-1.350000000000000178e+01,-3.000000000000001554e-01,-8.000000000000001776e+00,-1.145999999999999943e+02,-3.665999999999999659e+02,-5.804000000000005457e+02,-7.960000000000007958e+01,6.284999999999981810e+02,4.777999999999992724e+02,1.003000000000002387e+02,3.089000000000003183e+02,3.185000000000005116e+02,2.070000000000007958e+02,-1.217999999999996277e+02,2.822999999999999545e+02,4.540000000000004832e+01,1.713999999999998352e+02,-1.505000000000003695e+02,4.606999999999994202e+02,-4.010000000000003695e+01,-8.950000000000004263e+01,-1.300000000000004796e+01,-8.429999999999995453e+01,2.500000000000000888e+00,-3.700000000000000178e+00,-1.030000000000000426e+01,3.500000000000002220e+00,-1.210000000000000320e+01,-2.099999999999994760e+00,-2.800000000000009148e+00,-7.330000000000001137e+01,-8.750000000000000000e+01,-3.325000000000003411e+02,-5.871999999999993634e+02,-8.459999999999995168e+01,-2.554999999999995168e+02,1.729000000000002615e+02,-4.110000000000010800e+01,1.277999999999997982e+02,2.636999999999998181e+02,-1.980999999999999659e+02,2.235000000000002558e+02,3.127999999999999545e+02,3.530999999999987722e+02,5.210000000000030695e+01,-6.580000000000009663e+01,-7.769999999999998863e+01,-4.319999999999991758e+01,6.230000000000008953e+01,-2.845000000000006253e+02,-2.125999999999999091e+02,-3.260000000000001563e+01,-1.350000000000000000e+01,-8.000000000000001776e+00,1.150000000000000711e+01,-4.699999999999999289e+00,-4.019999999999998863e+01,-2.999999999999998934e+01,-2.740000000000002700e+01,4.699999999999996625e+00,-1.909000000000000625e+02,-1.738000000000005230e+02,-2.450000000000012434e+01,9.440000000000001990e+01,7.520000000000007390e+01,9.300000000000032685e+01,4.359999999999999432e+02,1.346000000000002501e+02,-2.297000000000000455e+02,-4.261000000000016144e+02,1.048000000000001108e+02,2.170000000000009521e+01,2.583000000000004093e+02,4.144000000000000909e+02,1.367999999999998977e+02,-4.473999999999993520e+02,-3.066999999999994202e+02,-3.554999999999997726e+02,-1.242000000000000028e+02,-6.099999999999998757e+00,-3.000000000000001776e+00,-2.600000000000000533e+00,-5.140000000000004832e+01,2.799999999999998490e+00,-3.100000000000002753e+00,3.139999999999997016e+01,1.089999999999999858e+01,-4.660000000000000142e+01,-2.386999999999996476e+02,-1.955999999999999659e+02,1.028999999999998209e+02,9.719999999999987494e+01,1.869999999999994955e+01,-4.831999999999994202e+02,-1.832000000000004718e+02,-7.719999999999984652e+01,2.676000000000001364e+02,3.788000000000000114e+02,1.174999999999998153e+02,-7.779999999999978400e+01,-9.320000000000007390e+01,-2.255000000000001137e+02,-3.809999999999995453e+02,-3.488999999999995794e+02,-1.471999999999999602e+02,-9.610000000000010800e+01,-8.090000000000001990e+01,-1.460000000000000497e+01,-1.969999999999999574e+01,-8.600000000000004974e+00,-1.249999999999999467e+01,1.960000000000001208e+01,-3.879999999999999716e+01,-1.399999999999999645e+01,-5.110000000000000853e+01,-6.079999999999997584e+01,-1.711999999999999602e+02,-3.181999999999999886e+02,-5.506999999999992497e+02,-6.961999999999991360e+02,-6.835000000000021600e+02,-7.994999999999994316e+02,-8.559999999999980673e+02,1.407000000000002444e+02,-2.920000000000002416e+01,-4.153999999999991815e+02,-3.996999999999993065e+02,-3.523999999999997499e+02,5.199999999999995026e+01,-1.139000000000001620e+02,-5.150000000000007105e+01,-2.092000000000002444e+02,-5.339999999999986358e+01,-3.970000000000003126e+01,-1.199999999999999822e+01,-7.300000000000001599e+00,-7.299999999999999822e+00,-4.400000000000000355e+00,0.000000000000000000e+00,-7.100000000000000533e+00,0.000000000000000000e+00,-4.000000000000000222e-01,0.000000000000000000e+00,-2.880000000000000426e+01,-7.770000000000001705e+01,-9.850000000000000000e+01,-1.298000000000000114e+02,-2.185000000000000568e+02,-1.432999999999999829e+02,-2.194000000000000057e+02,-3.713000000000000682e+02,-4.309000000000001478e+02,-4.265000000000000000e+02,-2.708999999999999204e+02,-2.269999999999999716e+02,-2.320000000000000284e+02,-1.585999999999999943e+02,-1.936999999999999602e+02,-1.043999999999999915e+02,-1.909000000000000057e+02,-1.200000000000000000e+01,-4.999999999999999112e+00,0.000000000000000000e+00,0.000000000000000000e+00,0.000000000000000000e+00,0.000000000000000000e+00,-1.000000000000000000e+00,-1.899999999999999911e+00,0.000000000000000000e+00,-1.200000000000000178e+00,-4.600000000000000533e+00,-1.990000000000000213e+01,-2.999999999999999645e+01,-2.790000000000000213e+01,-5.979999999999999716e+01,-8.029999999999996874e+01,-5.809999999999999432e+01,-3.020000000000000639e+01,-3.790000000000001279e+01,-5.640000000000003411e+01,-1.067000000000000313e+02,-3.780000000000000426e+01,-1.151000000000000085e+02,-1.017999999999999545e+02,-5.410000000000002274e+01,-1.552999999999999545e+02,-6.799999999999998579e+01,-2.090999999999999659e+02,-2.269999999999999929e+01,-1.189999999999999680e+01,0.000000000000000000e+00,0.000000000000000000e+00,0.000000000000000000e+00,0.000000000000000000e+00,-9.000000000000001332e-01,0.000000000000000000e+00,-9.000000000000000222e-01,-5.000000000000000000e-01,-3.300000000000000266e+00,-1.800000000000000044e+00,-5.000000000000000000e-01,0.000000000000000000e+00,-3.589999999999999147e+01,-6.570000000000000284e+01,-3.120000000000000995e+01,-1.490000000000000391e+01,-2.599999999999998579e+01,-1.700000000000000355e+01,-7.200000000000001954e+00,-1.849999999999999645e+01,-1.289999999999999858e+01,-9.599999999999997868e+00,-3.309999999999999432e+01,-2.620000000000000995e+01,-4.470000000000000284e+01,-1.860000000000000000e+02,-5.560000000000001563e+01,-1.890000000000000568e+01,0.000000000000000000e+00,0.000000000000000000e+00,0.000000000000000000e+00,0.000000000000000000e+00,-8.000000000000000444e-01,-6.000000000000000888e-01,-2.700000000000000178e+00,-2.100000000000000089e+00,-1.200000000000000178e+00,0.000000000000000000e+00,-1.200000000000000178e+00,-6.100000000000000533e+00,-1.730000000000000071e+01,-8.600000000000001421e+00,-1.800000000000000711e+01,-1.630000000000000071e+01,-1.810000000000000142e+01,-2.269999999999999218e+01,-1.999999999999999289e+01,-1.059999999999999787e+01,-1.289999999999999680e+01,-1.080000000000000604e+01,-3.410000000000000142e+01,-1.720000000000000639e+01,-2.880000000000000071e+01,-1.686000000000000227e+02,-8.869999999999997442e+01,-1.179999999999999893e+01,0.000000000000000000e+00,0.000000000000000000e+00,0.000000000000000000e+00,0.000000000000000000e+00,-6.599999999999992539e+00
1.169999999999999929e+00,-2.600000000000000089e-01,9.699999999999998623e-01,6.999999999999999556e-01,-1.409999999999999920e+00,1.079999999999999849e+00,-8.199999999999997291e-01,-1.300000000000000711e+00,1.810000000000000941e+00,3.560000000000000497e+00,-5.550000000000004263e+00,5.770000000000003126e+00,-1.080000000000000737e+00,-4.359999999999998543e+00,7.819999999999999396e+00,1.640000000000000124e+00,-2.910000000000002363e+00,-5.899999999999996358e-01,2.229999999999996430e+00,-4.479999999999997762e+00,-4.700000000000010836e-01,-2.899999999999982037e-01,9.999999999999713979e-03,-1.020000000000000018e+00,-4.500000000000000666e-01,-2.700000000000000178e-01,-1.900000000000000022e-01,-1.599999999999999756e-01,-2.999999999999998848e-02,1.800000000000000211e-01,-1.780000000000000027e+00,-7.200000000000001954e-01,2.700000000000000178e-01,-1.339999999999999858e+00,8.900000000000003464e-01,4.000000000000001471e-02,1.729999999999999760e+00,-5.310000000000004050e+00,-1.569999999999999396e+00,-3.340000000000003855e+00,1.780000000000000693e+00,-2.699999999999999289e+00,9.309999999999996945e+00,5.119999999999985896e+00,1.749999999999998224e+00,6.879999999999990123e+00,-3.780000000000002469e+00,-1.280000000000000915e+00,1.260000000000000231e+00,-5.960000000000003517e+00,-3.199999999999991185e-01,-6.399999999999994582e-01,-3.999999999999999667e-01,-2.329999999999999627e+00,-1.760000000000000675e+00,7.799999999999998046e-01,-3.900000000000001243e-01,-4.799999999999999822e-01,-1.200000000000000094e-01,-2.300000000000000100e-01,5.100000000000000089e-01,-6.999999999999997891e-02,-5.000000000000000000e-01,-5.100000000000000089e-01,1.499999999999998557e-01,-1.229999999999999982e+00,1.640000000000000213e+01,-1.229999999999999760e+00,-2.845999999999997954e+01,-9.830000000000001847e+00,2.167000000000002302e+01,7.409999999999999254e+00,-1.211999999999999922e+01,1.002000000000002800e+01,2.147000000000000242e+01,6.300000000000004485e-01,7.509999999999992681e+00,9.139999999999998792e+00,-2.090000000000010960e+00,4.830000000000002736e+00,-1.329999999999999849e+00,-1.350000000000000311e+00,-1.400000000000000355e+00,-1.000000000000000194e-01,-1.340000000000000080e+00,-4.299999999999999933e-01,-4.600000000000001310e-01,1.489999999999999991e+00,-1.179999999999999938e+00,4.199999999999999289e-01,-2.280000000000000693e+00,-1.479999999999999538e+00,-1.177999999999998515e+01,-1.120999999999999375e+01,8.090000000000005187e+00,-4.770000000000004015e+00,6.060000000000003162e+00,7.280000000000025118e+00,3.210000000000003961e+00,4.225999999999999091e+01,9.959999999999970655e+00,9.549999999999990052e+00,2.474000000000000554e+01,2.620000000000000995e+01,2.345000000000000995e+01,-4.082999999999999829e+01,-5.014999999999997726e+01,-2.685999999999998522e+01,-1.742999999999999972e+01,-1.889999999999999902e+00,7.999999999999998779e-02,-2.300000000000000711e+00,-2.400000000000000189e-01,-5.399999999999999245e-01,-7.500000000000001110e-01,4.999999999999976685e-02,-2.999999999999999334e-01,-3.419999999999999485e+00,-3.799999999999995826e+00,-6.399999999999996803e-01,-3.389999999999997726e+01,-1.306000000000003070e+01,3.024000000000001975e+01,-1.209000000000001940e+01,-8.910000000000001918e+00,-4.720000000000000995e+01,-2.235999999999997101e+01,-7.900000000000113598e-01,1.950000000000002842e+01,1.129999999999962146e+00,-4.619999999999994778e+00,1.678000000000000114e+01,2.488000000000002743e+01,-2.577999999999997982e+01,-3.784999999999999432e+01,2.180000000000004601e+00,-1.650999999999999446e+01,-2.860000000000000320e+00,1.999999999999999833e-01,-7.100000000000001865e-01,-4.500000000000001221e-01,9.899999999999997691e-01,-1.729999999999999760e+00,-6.900000000000000577e-01,-6.999999999999999556e-01,-1.222999999999999510e+01,3.619999999999998330e+00,-1.081000000000000050e+01,-4.250000000000002842e+01,-6.589999999999998082e+00,6.800000000000372413e-01,-8.199999999999995737e+00,-2.452999999999997982e+01,-1.980999999999998096e+01,-3.778000000000000114e+01,-4.501999999999997470e+01,-5.482999999999994145e+01,1.000000000000889067e-02,1.766000000000003212e+01,5.849999999999995737e+01,3.642999999999999261e+01,-7.880000000000015881e+00,-1.125999999999999268e+01,7.659999999999998366e+00,7.759999999999999787e+00,-1.599999999999999201e+00,-1.920000000000000151e+00,-1.890000000000000346e+00,-7.300000000000002043e-01,5.100000000000000089e-01,1.899999999999999745e-01,4.000000000000001471e-02,-6.100000000000003197e-01,-7.119999999999997442e+00,7.169999999999998153e+00,-2.763999999999998991e+01,-2.976999999999997115e+01,2.950000000000010836e+00,3.069999999999990958e+00,-8.699999999999997513e+00,-7.940000000000042135e+00,-4.279999999999986038e+00,7.550000000000002487e+00,1.984000000000000696e+01,5.160000000000014353e+00,1.262000000000001698e+01,6.169999999999998153e+00,-2.011999999999993349e+01,1.814999999999998437e+01,-3.137999999999999190e+01,-4.012000000000001165e+01,3.719999999999997531e+00,6.870000000000000107e+00,-2.749999999999999112e+00,-1.197999999999999510e+01,-1.320999999999999730e+01,-6.400000000000000133e-01,-2.199999999999998901e-01,-7.800000000000002487e-01,-6.899999999999999467e-01,1.800000000000000488e-01,6.259999999999998899e+00,8.600000000000001421e+00,-3.617000000000000171e+01,-6.518000000000009209e+01,1.082000000000000384e+01,5.250000000000015987e+00,-1.219000000000002970e+01,-5.023999999999995936e+01,-2.638999999999996149e+01,-3.997999999999994714e+01,-2.184000000000001052e+01,-5.229999999999998295e+01,-4.456000000000015859e+01,-3.303000000000003666e+01,-1.948999999999996291e+01,-2.214000000000002544e+01,-1.855000000000001492e+01,-6.209999999999976872e+00,-1.464000000000000057e+01,-1.744000000000000483e+01,-2.871000000000000796e+01,-2.651000000000000156e+01,-5.309999999999999609e+00,2.000000000000000444e+00,-6.539999999999994706e+00,2.710000000000000409e+00,-3.879999999999996785e+00,-3.070000000000004725e+00,5.289999999999996483e+00,-1.112000000000000810e+01,-5.443999999999999062e+01,-4.823999999999995936e+01,-3.560999999999995680e+01,-1.566999999999991999e+01,-3.357000000000000028e+01,-2.339999999999998082e+00,-1.963999999999998991e+01,-1.053999999999999382e+01,-2.037999999999996348e+01,-6.379999999999965254e+00,-1.944999999999997442e+01,-8.304999999999995453e+01,-7.465999999999988290e+01,-9.658000000000006935e+01,-5.272999999999994714e+01,-3.793000000000001393e+01,-4.349000000000003752e+01,-5.281000000000001648e+01,-2.949999999999999289e+01,-4.159999999999999254e+00,3.499999999999998113e-01,-1.639999999999999680e+00,-6.009999999999998899e+00,-6.999999999999980682e-01,-9.099999999999999201e-01,-1.314000000000000945e+01,-8.429999999999973070e+00,-2.270999999999997954e+01,-3.965999999999999659e+01,2.550000000000018030e+00,-2.633999999999996788e+01,-2.966000000000002146e+01,-5.015999999999997527e+01,3.406999999999995055e+01,-9.079999999999987637e+00,8.549999999999984723e+00,7.399999999999855582e-01,-1.785999999999999943e+01,-6.865999999999995396e+01,-7.830999999999994543e+01,-3.172000000000000242e+01,1.345000000000003304e+01,-2.263999999999997925e+01,-4.033000000000001251e+01,-6.027999999999998693e+01,-2.878000000000000824e+01,-1.308000000000000362e+01,-1.580000000000000515e+00,-1.990000000000000879e+00,-2.540000000000002256e+00,-2.509999999999995790e+00,-1.259999999999998677e+00,-1.910000000000000364e+00,-1.692000000000000881e+01,1.210000000000005516e+00,-4.609999999999999432e+00,-1.010000000000016440e+00,1.747000000000001663e+01,3.160000000000026787e+00,-1.121999999999991182e+01,3.270000000000013340e+00,-2.408000000000001251e+01,-3.700000000000006395e+00,1.379999999999996163e+01,-3.753999999999997783e+01,-6.999999999999990052e+01,-2.735000000000003695e+01,-3.471000000000000085e+01,-2.715999999999995396e+01,1.521000000000002572e+01,-3.625000000000004263e+01,-3.855999999999995254e+01,-4.393999999999999773e+01,-1.731000000000003425e+01,-1.125000000000000178e+01,-1.180000000000000160e+00,-1.480000000000000648e+00,-3.699999999999998290e-01,-1.870000000000000551e+00,-3.289999999999996483e+00,-3.400000000000001243e+00,-9.920000000000023022e+00,1.061000000000000654e+01,1.028000000000000291e+01,2.310000000000009379e+00,9.200000000000017053e+00,1.366999999999998394e+01,2.350000000000028511e+00,-2.889999999999992575e+00,2.440000000000012825e+00,-1.981000000000011951e+01,-1.016000000000001080e+01,-5.068000000000001393e+01,-4.258000000000007645e+01,4.649999999999988809e+00,-7.989999999999980673e+00,-1.012999999999999723e+01,-2.622000000000008768e+01,4.424000000000005173e+01,-5.020000000000012896e+00,-4.089999999999985647e+00,1.066000000000000192e+01,-7.389999999999999680e+00,-2.220000000000001084e+00,-3.060000000000000497e+00,-5.500000000000000444e-01,-2.240000000000001990e+00,-3.809999999999994724e+00,1.700000000000001510e-01,-9.920000000000026574e+00,1.670000000000000995e+01,7.099999999999999645e+00,6.339999999999995417e+00,4.254999999999995453e+01,1.905999999999999872e+01,3.699999999999971756e+00,-2.409999999999989928e+00,-7.499999999999551470e-01,-1.786999999999994770e+01,-6.149999999999964828e+00,-1.844999999999995666e+01,-2.109000000000006381e+01,-2.699999999999992628e+00,-1.581999999999997542e+01,-5.377999999999999403e+01,2.051000000000006196e+01,3.745000000000001705e+01,-1.200999999999994117e+01,2.199000000000001620e+01,2.362000000000002231e+01,5.179999999999999716e+00,1.900000000000000855e-01,-5.300000000000000266e-01,-2.809999999999997389e+00,1.350000000000000755e+00,-2.139999999999999680e+00,-1.489999999999999991e+00,-2.940000000000002167e+00,3.175000000000001066e+01,2.500000000000000888e+00,2.370000000000000995e+00,5.661999999999999034e+01,1.034000000000001585e+01,2.558000000000000895e+01,2.385999999999993904e+01,1.610999999999992838e+01,-1.264999999999998437e+01,9.399999999999986144e-01,-2.839999999999999414e+00,1.669999999999996021e+01,-1.821999999999996334e+01,-1.468999999999998529e+01,-2.879999999999983906e+00,5.246999999999997755e+01,1.963999999999991886e+01,1.371999999999999176e+01,2.279999999999997584e+01,2.239999999999999858e+01,2.236999999999998323e+01,-6.200000000000001066e-01,-1.250000000000000222e+00,-1.800000000000000266e+00,-1.119999999999998774e+00,-1.050000000000000266e+00,-1.300000000000000044e+00,-2.680000000000001492e+00,2.179000000000003823e+01,-1.849999999999997868e+00,1.135000000000000675e+01,1.097000000000000597e+01,-1.080999999999998451e+01,4.691000000000005343e+01,4.139999999999986358e+00,3.568999999999996930e+01,5.040000000000019575e+00,1.736999999999998323e+01,-3.169999999999992824e+00,-5.999999999999993783e+00,-4.438999999999999346e+01,-2.334999999999998010e+01,-5.710000000000018616e+00,2.844999999999999218e+01,7.680000000000061888e+00,1.021999999999999886e+01,3.810000000000002274e+01,-3.679999999999997051e+00,2.019000000000000483e+01,-7.899999999999991473e-01,-2.399999999999999356e-01,1.350000000000000755e+00,-6.290000000000003588e+00,7.999999999999991840e-02,3.379999999999999893e+00,-1.099000000000000554e+01,-3.460999999999999233e+01,-3.107000000000000739e+01,2.972999999999999687e+01,1.522000000000003261e+01,5.324000000000014410e+01,2.733000000000002316e+01,-3.666999999999995907e+01,-9.860000000000008313e+00,3.525999999999999801e+01,-4.479999999999998650e+00,3.529999999999992610e+01,4.069000000000004746e+01,1.405999999999994898e+01,3.553000000000001535e+01,-3.191999999999995552e+01,8.769999999999978257e+00,-1.715999999999997883e+01,5.048999999999988830e+01,1.061999999999998678e+01,-2.208000000000000185e+01,2.240000000000000213e+00,-1.161999999999999389e+01,-2.470000000000000195e+00,-3.290000000000002256e+00,-1.500000000000000888e+00,-1.150000000000000799e+00,-3.100000000000001643e-01,-2.529000000000002402e+01,-4.679999999999981952e+00,-5.400000000000005684e+00,-2.898000000000001108e+01,-1.107999999999999652e+01,3.775999999999987722e+01,-3.264999999999994884e+01,2.314000000000002544e+01,1.848000000000015319e+01,8.190000000000029701e+00,-7.599999999999988098e+00,-2.550000000000000711e+01,-3.098000000000003240e+01,-3.304000000000010573e+01,3.987999999999997414e+01,-1.420000000000001261e+00,-3.285999999999994259e+01,5.390000000000011227e+00,4.855999999999990280e+01,-4.270000000000001705e+01,-3.573000000000001108e+01,2.690000000000001279e+00,-5.700000000000000178e+00,-2.479999999999999094e+00,-4.559999999999994280e+00,1.440000000000000835e+00,-1.390000000000000124e+00,-1.390000000000000124e+00,-2.704999999999995097e+01,-4.270999999999994401e+01,-2.597000000000005571e+01,1.280000000000013571e+00,2.792000000000003368e+01,1.885999999999997101e+01,1.727000000000008129e+01,5.921999999999991360e+01,3.618999999999992667e+01,2.201999999999996760e+01,2.200000000000060130e+00,-4.989000000000003610e+01,-2.608999999999996788e+01,-1.122999999999998799e+01,-1.654000000000000625e+01,-6.360000000000027853e+00,2.546999999999999886e+01,5.319999999999993179e+00,-1.224999999999998934e+01,-5.113000000000008072e+01,-2.360000000000000142e+01,3.559999999999999609e+00,-1.220000000000000417e+00,-1.550000000000000711e+00,-2.070000000000001172e+00,-2.750000000000002665e+00,-1.310000000000000719e+00,-2.140000000000000568e+00,-1.018000000000000860e+01,-2.386999999999999389e+01,-3.652000000000003155e+01,-5.260000000000001563e+00,1.785999999999998522e+01,2.322999999999997200e+01,4.450000000000006395e+01,1.926000000000003709e+01,-1.254999999999998295e+01,1.970000000000019735e+00,3.605999999999991701e+01,1.314999999999989733e+01,3.979999999999999094e+00,2.695999999999999730e+01,2.979999999999992877e+00,-5.729999999999996874e+00,-3.285999999999999943e+01,-1.664000000000001833e+01,-2.779000000000003112e+01,-1.144000000000002792e+01,-7.499999999999993783e+00,2.419999999999999929e+00,-1.380000000000000338e+00,-1.510000000000000897e+00,-8.599999999999997646e-01,-3.799999999999998046e+00,-1.350000000000000311e+00,-2.999999999999972133e-02,-8.000000000000001554e-01,-1.145999999999999552e+01,-3.666000000000004633e+01,-5.804000000000002757e+01,-7.960000000000002629e+00,6.285000000000014353e+01,4.777999999999995140e+01,1.003000000000000114e+01,3.088999999999997215e+01,3.185000000000004405e+01,2.070000000000013074e+01,-1.217999999999997485e+01,2.823000000000002174e+01,4.540000000000000036e+00,1.713999999999998280e+01,-1.504999999999994920e+01,4.606999999999994344e+01,-4.010000000000007780e+00,-8.949999999999997513e+00,-1.299999999999999600e+00,-8.430000000000003268e+00,2.500000000000000000e-01,-3.700000000000001066e-01,-1.030000000000000027e+00,3.499999999999998668e-01,-1.210000000000000409e+00,-2.099999999999997424e-01,-2.799999999999998601e-01,-7.329999999999992966e+00,-8.750000000000001776e+00,-3.325000000000000000e+01,-5.872000000000002728e+01,-8.459999999999999076e+00,-2.555000000000000782e+01,1.729000000000000270e+01,-4.110000000000008313e+00,1.278000000000008818e+01,2.637000000000006139e+01,-1.981000000000000227e+01,2.234999999999997300e+01,3.127999999999996916e+01,3.531000000000003780e+01,5.209999999999973319e+00,-6.579999999999976090e+00,-7.769999999999981810e+00,-4.320000000000000284e+00,6.229999999999988880e+00,-2.845000000000006324e+01,-2.125999999999999801e+01,-3.260000000000000675e+00,-1.350000000000000533e+00,-7.999999999999999334e-01,1.150000000000000133e+00,-4.699999999999998068e-01,-4.019999999999994245e+00,-3.000000000000000444e+00,-2.739999999999999769e+00,4.699999999999999178e-01,-1.909000000000002473e+01,-1.738000000000003098e+01,-2.449999999999990852e+00,9.440000000000013713e+00,7.519999999999981810e+00,9.300000000000036238e+00,4.360000000000000853e+01,1.345999999999990138e+01,-2.297000000000002373e+01,-4.261000000000004917e+01,1.047999999999998622e+01,2.170000000000000373e+00,2.583000000000003027e+01,4.143999999999999773e+01,1.367999999999999972e+01,-4.474000000000007304e+01,-3.067000000000009408e+01,-3.554999999999999716e+01,-1.241999999999999993e+01,-6.100000000000000977e-01,-3.000000000000000444e-01,-2.600000000000000089e-01,-5.139999999999996128e+00,2.800000000000000266e-01,-3.099999999999998868e-01,3.140000000000000568e+00,1.090000000000000302e+00,-4.659999999999999254e+00,-2.386999999999999744e+01,-1.955999999999999162e+01,1.029000000000002046e+01,9.720000000000005969e+00,1.870000000000023421e+00,-4.832000000000009265e+01,-1.831999999999988660e+01,-7.720000000000007745e+00,2.675999999999999446e+01,3.788000000000000256e+01,1.175000000000001599e+01,-7.780000000000020677e+00,-9.319999999999996732e+00,-2.255000000000000071e+01,-3.809999999999997300e+01,-3.489000000000000767e+01,-1.471999999999998820e+01,-9.609999999999994102e+00,-8.089999999999999858e+00,-1.460000000000000409e+00,-1.970000000000000195e+00,-8.600000000000003197e-01,-1.250000000000001110e+00,1.959999999999999076e+00,-3.879999999999995453e+00,-1.400000000000000577e+00,-5.110000000000002096e+00,-6.080000000000002736e+00,-1.711999999999997968e+01,-3.182000000000003581e+01,-5.507000000000008555e+01,-6.962000000000013245e+01,-6.834999999999999432e+01,-7.995000000000013074e+01,-8.560000000000007958e+01,1.407000000000002338e+01,-2.920000000000000817e+00,-4.153999999999999204e+01,-3.997000000000003439e+01,-3.523999999999997357e+01,5.200000000000005507e+00,-1.139000000000000767e+01,-5.149999999999993250e+00,-2.091999999999997684e+01,-5.339999999999997193e+00,-3.969999999999995755e+00,-1.200000000000000178e+00,-7.300000000000000933e-01,-7.300000000000000933e-01,-4.400000000000000577e-01,0.000000000000000000e+00,-7.099999999999999645e-01,0.000000000000000000e+00,-4.000000000000000083e-02,0.000000000000000000e+00,-2.879999999999999893e+00,-7.770000000000000462e+00,-9.849999999999999645e+00,-1.297999999999999687e+01,-2.184999999999999787e+01,-1.432999999999999474e+01,-2.194000000000000483e+01,-3.712999999999998835e+01,-4.308999999999998920e+01,-4.264999999999999858e+01,-2.708999999999999986e+01,-2.269999999999999929e+01,-2.320000000000000639e+01,-1.586000000000000121e+01,-1.937000000000000099e+01,-1.043999999999999950e+01,-1.909000000000000341e+01,-1.200000000000000178e+00,-5.000000000000002220e-01,0.000000000000000000e+00,0.000000000000000000e+00,0.000000000000000000e+00,0.000000000000000000e+00,-1.000000000000000056e-01,-1.900000000000000022e-01,0.000000000000000000e+00,-1.199999999999999956e-01,-4.600000000000000755e-01,-1.989999999999999991e+00,-3.000000000000000000e+00,-2.790000000000000480e+00,-5.979999999999999538e+00,-8.030000000000002913e+00,-5.809999999999998721e+00,-3.019999999999998241e+00,-3.789999999999998259e+00,-5.639999999999997904e+00,-1.067000000000000171e+01,-3.779999999999999361e+00,-1.150999999999999801e+01,-1.017999999999999972e+01,-5.409999999999999254e+00,-1.553000000000000469e+01,-6.799999999999999822e+00,-2.091000000000000014e+01,-2.270000000000000018e+00,-1.190000000000000169e+00,0.000000000000000000e+00,0.000000000000000000e+00,0.000000000000000000e+00,0.000000000000000000e+00,-8.999999999999999667e-02,0.000000000000000000e+00,-8.999999999999999667e-02,-5.000000000000000278e-02,-3.300000000000000155e-01,-1.799999999999999933e-01,-5.000000000000000278e-02,0.000000000000000000e+00,-3.589999999999999858e+00,-6.569999999999996732e+00,-3.119999999999999662e+00,-1.490000000000000213e+00,-2.600000000000000089e+00,-1.700000000000000622e+00,-7.200000000000001954e-01,-1.850000000000000311e+00,-1.290000000000000258e+00,-9.599999999999999645e-01,-3.309999999999999165e+00,-2.619999999999999662e+00,-4.469999999999999751e+00,-1.860000000000000497e+01,-5.559999999999998721e+00,-1.890000000000000124e+00,0.000000000000000000e+00,0.000000000000000000e+00,0.000000000000000000e+00,0.000000000000000000e+00,-8.000000000000000167e-02,-5.999999999999999778e-02,-2.700000000000000178e-01,-2.100000000000000200e-01,-1.199999999999999956e-01,0.000000000000000000e+00,-1.199999999999999956e-01,-6.100000000000000977e-01,-1.730000000000000426e+00,-8.600000000000003197e-01,-1.800000000000000933e+00,-1.630000000000000782e+00,-1.810000000000000719e+00,-2.270000000000000462e+00,-2.000000000000000888e+00,-1.060000000000000275e+00,-1.290000000000000480e+00,-1.080000000000000293e+00,-3.409999999999999254e+00,-1.720000000000000417e+00,-2.880000000000000338e+00,-1.685999999999999588e+01,-8.869999999999999218e+00,-1.180000000000000382e+00,0.000000000000000000e+00,0.000000000000000000e+00,0.000000000000000000e+00,0.000000000000000000e+00,-6.600000000000003642e-01
1.016999999999999238e+00,-2.600000000000000228e-02,9.700000000000003064e-02,6.999999999999999278e-02,-1.409999999999999865e-01,1.079999999999999710e-01,-8.199999999999996181e-02,-1.300000000000000600e-01,1.810000000000000497e-01,3.559999999999999831e-01,-5.550000000000003819e-01,5.770000000000004015e-01,-1.080000000000000682e-01,-4.360000000000002762e-01,7.820000000000004725e-01,1.640000000000000346e-01,-2.910000000000001474e-01,-5.900000000000012873e-02,2.230000000000001426e-01,-4.480000000000002869e-01,-4.699999999999998623e-02,-2.899999999999973432e-02,9.999999999999687958e-04,-1.020000000000001183e-01,-4.500000000000001221e-02,-2.699999999999999623e-02,-1.900000000000000300e-02,-1.600000000000000033e-02,-3.000000000000000062e-03,1.799999999999999864e-02,-1.780000000000000471e-01,-7.200000000000000844e-02,2.699999999999999969e-02,-1.340000000000000357e-01,8.900000000000003741e-02,4.000000000000000083e-03,1.730000000000001537e-01,-5.310000000000003606e-01,-1.570000000000000562e-01,-3.340000000000001301e-01,1.779999999999999638e-01,-2.699999999999999623e-01,9.310000000000003828e-01,5.119999999999998996e-01,1.749999999999997946e-01,6.880000000000003890e-01,-3.780000000000001692e-01,-1.279999999999999472e-01,1.259999999999999731e-01,-5.960000000000003073e-01,-3.199999999999997985e-02,-6.399999999999994582e-02,-4.000000000000000083e-02,-2.330000000000000127e-01,-1.760000000000001008e-01,7.800000000000001377e-02,-3.900000000000000688e-02,-4.800000000000001488e-02,-1.200000000000000545e-02,-2.300000000000000655e-02,5.099999999999998979e-02,-7.000000000000001013e-03,-5.000000000000000278e-02,-5.099999999999998979e-02,1.500000000000000291e-02,-1.229999999999999566e-01,1.639999999999997460e+00,-1.229999999999998872e-01,-2.846000000000001862e+00,-9.830000000000014282e-01,2.167000000000001592e+00,7.409999999999998810e-01,-1.212000000000000410e+00,1.001999999999997337e+00,2.146999999999997133e+00,6.300000000000005596e-02,7.510000000000004450e-01,9.139999999999999236e-01,-2.090000000000008240e-01,4.830000000000002069e-01,-1.330000000000000071e-01,-1.349999999999999811e-01,-1.400000000000000133e-01,-1.000000000000000194e-02,-1.340000000000000080e-01,-4.299999999999999656e-02,-4.600000000000001310e-02,1.489999999999999936e-01,-1.180000000000000077e-01,4.200000000000000261e-02,-2.280000000000000082e-01,-1.480000000000001315e-01,-1.178000000000001046e+00,-1.120999999999997998e+00,8.089999999999999414e-01,-4.770000000000007012e-01,6.059999999999995390e-01,7.279999999999975380e-01,3.210000000000005071e-01,4.225999999999997314e+00,9.959999999999963327e-01,9.549999999999965183e-01,2.474000000000012633e+00,2.619999999999993001e+00,2.345000000000008633e+00,-4.083000000000004626e+00,-5.015000000000006786e+00,-2.685999999999996835e+00,-1.743000000000000771e+00,-1.889999999999999736e-01,7.999999999999996697e-03,-2.300000000000000655e-01,-2.400000000000001091e-02,-5.399999999999999939e-02,-7.500000000000001110e-02,5.000000000000017451e-03,-3.000000000000000236e-02,-3.419999999999999707e-01,-3.800000000000002265e-01,-6.399999999999991807e-02,-3.389999999999991687e+00,-1.305999999999999384e+00,3.024000000000000465e+00,-1.208999999999998742e+00,-8.910000000000005693e-01,-4.720000000000008633e+00,-2.235999999999997989e+00,-7.899999999999759992e-02,1.949999999999997957e+00,1.130000000000039861e-01,-4.620000000000001883e-01,1.677999999999994829e+00,2.488000000000003542e+00,-2.578000000000003400e+00,-3.785000000000009024e+00,2.179999999999993054e-01,-1.651000000000000689e+00,-2.860000000000000875e-01,2.000000000000000389e-02,-7.099999999999997979e-02,-4.500000000000000527e-02,9.900000000000003242e-02,-1.729999999999999594e-01,-6.899999999999999190e-02,-7.000000000000000666e-02,-1.222999999999999643e+00,3.620000000000001550e-01,-1.081000000000000183e+00,-4.250000000000007994e+00,-6.589999999999999192e-01,6.800000000000183675e-02,-8.200000000000000622e-01,-2.452999999999998071e+00,-1.981000000000001204e+00,-3.778000000000013348e+00,-4.502000000000021096e+00,-5.482999999999996099e+00,1.000000000000222933e-03,1.766000000000002457e+00,5.850000000000010303e+00,3.642999999999999350e+00,-7.879999999999994786e-01,-1.126000000000000556e+00,7.659999999999997922e-01,7.759999999999998010e-01,-1.599999999999999756e-01,-1.920000000000000595e-01,-1.890000000000000568e-01,-7.300000000000002320e-02,5.100000000000000366e-02,1.899999999999999953e-02,4.000000000000000083e-03,-6.100000000000008193e-02,-7.119999999999998552e-01,7.169999999999997486e-01,-2.764000000000001123e+00,-2.977000000000001201e+00,2.949999999999997069e-01,3.069999999999994955e-01,-8.700000000000002176e-01,-7.939999999999993729e-01,-4.280000000000003801e-01,7.549999999999994493e-01,1.983999999999998654e+00,5.160000000000013465e-01,1.261999999999999789e+00,6.169999999999993268e-01,-2.012000000000003119e+00,1.815000000000000835e+00,-3.138000000000004786e+00,-4.011999999999991573e+00,3.720000000000002194e-01,6.870000000000001661e-01,-2.750000000000000222e-01,-1.197999999999999510e+00,-1.320999999999999730e+00,-6.400000000000000133e-02,-2.199999999999999872e-02,-7.799999999999999989e-02,-6.900000000000000577e-02,1.800000000000000211e-02,6.260000000000000009e-01,8.599999999999999867e-01,-3.616999999999999549e+00,-6.517999999999987359e+00,1.082000000000000073e+00,5.250000000000007994e-01,-1.218999999999995199e+00,-5.024000000000005350e+00,-2.639000000000008672e+00,-3.998000000000002441e+00,-2.183999999999999275e+00,-5.230000000000004867e+00,-4.456000000000014616e+00,-3.302999999999999048e+00,-1.948999999999991628e+00,-2.214000000000001300e+00,-1.854999999999996652e+00,-6.209999999999995524e-01,-1.463999999999999302e+00,-1.743999999999998884e+00,-2.871000000000000441e+00,-2.650999999999999357e+00,-5.309999999999999165e-01,2.000000000000000389e-01,-6.540000000000003588e-01,2.710000000000001297e-01,-3.880000000000002336e-01,-3.070000000000001061e-01,5.290000000000001368e-01,-1.112000000000000099e+00,-5.443999999999993733e+00,-4.823999999999985633e+00,-3.560999999999999943e+00,-1.566999999999996618e+00,-3.357000000000001982e+00,-2.340000000000002356e-01,-1.964000000000000856e+00,-1.053999999999996717e+00,-2.037999999999996259e+00,-6.380000000000016769e-01,-1.944999999999991847e+00,-8.304999999999985505e+00,-7.465999999999991310e+00,-9.657999999999997698e+00,-5.272999999999989917e+00,-3.792999999999999261e+00,-4.348999999999999311e+00,-5.280999999999997030e+00,-2.949999999999998845e+00,-4.160000000000001474e-01,3.499999999999997558e-02,-1.640000000000000624e-01,-6.010000000000000897e-01,-6.999999999999997891e-02,-9.099999999999999756e-02,-1.314000000000001389e+00,-8.429999999999971960e-01,-2.270999999999997687e+00,-3.966000000000004189e+00,2.549999999999998934e-01,-2.633999999999998121e+00,-2.966000000000009518e+00,-5.015999999999997350e+00,3.407000000000005357e+00,-9.079999999999991411e-01,8.549999999999993161e-01,7.400000000000092615e-02,-1.785999999999998478e+00,-6.866000000000016534e+00,-7.830999999999995964e+00,-3.171999999999997488e+00,1.344999999999998419e+00,-2.264000000000005564e+00,-4.032999999999996810e+00,-6.028000000000001357e+00,-2.878000000000000114e+00,-1.308000000000000940e+00,-1.580000000000000571e-01,-1.990000000000000657e-01,-2.540000000000000591e-01,-2.509999999999999454e-01,-1.259999999999998899e-01,-1.910000000000000586e-01,-1.691999999999999282e+00,1.209999999999993164e-01,-4.610000000000012976e-01,-1.010000000000004228e-01,1.746999999999999664e+00,3.160000000000020015e-01,-1.121999999999988562e+00,3.270000000000006235e-01,-2.407999999999999030e+00,-3.699999999999994404e-01,1.380000000000000338e+00,-3.754000000000000448e+00,-6.999999999999993783e+00,-2.735000000000000320e+00,-3.471000000000004970e+00,-2.715999999999992642e+00,1.520999999999999019e+00,-3.624999999999997335e+00,-3.856000000000014083e+00,-4.393999999999996575e+00,-1.730999999999998540e+00,-1.125000000000000000e+00,-1.179999999999999660e-01,-1.480000000000000759e-01,-3.700000000000000511e-02,-1.870000000000000551e-01,-3.290000000000001257e-01,-3.399999999999999689e-01,-9.919999999999999929e-01,1.061000000000000387e+00,1.028000000000000025e+00,2.309999999999999554e-01,9.200000000000005951e-01,1.367000000000000881e+00,2.350000000000013189e-01,-2.889999999999999236e-01,2.439999999999992175e-01,-1.981000000000010530e+00,-1.016000000000002235e+00,-5.068000000000006722e+00,-4.257999999999995566e+00,4.650000000000013012e-01,-7.990000000000010427e-01,-1.012999999999996570e+00,-2.621999999999991005e+00,4.424000000000003929e+00,-5.020000000000026663e-01,-4.090000000000013625e-01,1.065999999999999837e+00,-7.390000000000001013e-01,-2.220000000000001139e-01,-3.060000000000001052e-01,-5.500000000000000722e-02,-2.240000000000000879e-01,-3.810000000000001164e-01,1.699999999999997347e-02,-9.920000000000002149e-01,1.670000000000002149e+00,7.099999999999998535e-01,6.339999999999998970e-01,4.255000000000005222e+00,1.906000000000003913e+00,3.700000000000036593e-01,-2.410000000000007414e-01,-7.499999999999894251e-02,-1.786999999999997257e+00,-6.150000000000006573e-01,-1.845000000000004192e+00,-2.108999999999992880e+00,-2.699999999999973532e-01,-1.581999999999996520e+00,-5.378000000000019654e+00,2.051000000000006374e+00,3.745000000000003659e+00,-1.200999999999992740e+00,2.198999999999998956e+00,2.362000000000000099e+00,5.179999999999997939e-01,1.899999999999999606e-02,-5.300000000000000544e-02,-2.810000000000000830e-01,1.350000000000000644e-01,-2.140000000000000235e-01,-1.490000000000000213e-01,-2.940000000000001501e-01,3.175000000000003375e+00,2.500000000000001665e-01,2.369999999999999329e-01,5.661999999999993705e+00,1.033999999999999142e+00,2.558000000000006491e+00,2.386000000000013443e+00,1.611000000000001320e+00,-1.264999999999999680e+00,9.399999999999963940e-02,-2.840000000000008074e-01,1.669999999999996154e+00,-1.822000000000004283e+00,-1.468999999999999417e+00,-2.879999999999995897e-01,5.246999999999992781e+00,1.964000000000008850e+00,1.372000000000000997e+00,2.280000000000003357e+00,2.240000000000001101e+00,2.237000000000001876e+00,-6.200000000000006894e-02,-1.250000000000000278e-01,-1.800000000000000488e-01,-1.120000000000000162e-01,-1.050000000000000516e-01,-1.299999999999999489e-01,-2.680000000000001825e-01,2.179000000000000270e+00,-1.849999999999995537e-01,1.135000000000001563e+00,1.096999999999999753e+00,-1.080999999999998851e+00,4.690999999999999837e+00,4.139999999999989244e-01,3.568999999999998174e+00,5.039999999999997815e-01,1.737000000000001654e+00,-3.170000000000012252e-01,-5.999999999999995337e-01,-4.439000000000003610e+00,-2.335000000000001741e+00,-5.709999999999999520e-01,2.844999999999994422e+00,7.679999999999996829e-01,1.022000000000004016e+00,3.809999999999997833e+00,-3.680000000000001603e-01,2.019000000000000572e+00,-7.899999999999990363e-02,-2.399999999999999356e-02,1.350000000000000644e-01,-6.290000000000004476e-01,7.999999999999989758e-03,3.380000000000001892e-01,-1.098999999999999977e+00,-3.461000000000000743e+00,-3.106999999999998430e+00,2.972999999999997200e+00,1.521999999999998687e+00,5.323999999999998956e+00,2.732999999999997431e+00,-3.666999999999994486e+00,-9.860000000000024301e-01,3.525999999999998469e+00,-4.480000000000009530e-01,3.529999999999996696e+00,4.069000000000005279e+00,1.406000000000000583e+00,3.552999999999997716e+00,-3.192000000000003279e+00,8.769999999999994467e-01,-1.715999999999999970e+00,5.048999999999995048e+00,1.062000000000006050e+00,-2.207999999999999741e+00,2.239999999999999214e-01,-1.162000000000000144e+00,-2.470000000000001639e-01,-3.290000000000002367e-01,-1.499999999999999667e-01,-1.150000000000000605e-01,-3.100000000000002059e-02,-2.529000000000003912e+00,-4.679999999999991944e-01,-5.400000000000005906e-01,-2.898000000000000131e+00,-1.108000000000000762e+00,3.776000000000015344e+00,-3.265000000000005009e+00,2.314000000000000057e+00,1.847999999999998755e+00,8.190000000000033920e-01,-7.599999999999981215e-01,-2.549999999999998934e+00,-3.097999999999997200e+00,-3.304000000000005155e+00,3.987999999999995548e+00,-1.420000000000007645e-01,-3.286000000000002252e+00,5.389999999999991465e-01,4.856000000000011418e+00,-4.270000000000001350e+00,-3.572999999999997289e+00,2.689999999999997948e-01,-5.700000000000000622e-01,-2.480000000000001092e-01,-4.560000000000003495e-01,1.440000000000001001e-01,-1.390000000000000402e-01,-1.390000000000000679e-01,-2.704999999999997407e+00,-4.271000000000007013e+00,-2.596999999999998643e+00,1.279999999999996418e-01,2.792000000000006477e+00,1.886000000000007226e+00,1.727000000000000979e+00,5.921999999999997044e+00,3.619000000000004214e+00,2.202000000000001290e+00,2.200000000000038591e-01,-4.989000000000001656e+00,-2.608999999999999986e+00,-1.122999999999999998e+00,-1.654000000000001025e+00,-6.360000000000001208e-01,2.547000000000009035e+00,5.319999999999991402e-01,-1.225000000000000089e+00,-5.112999999999994216e+00,-2.359999999999998987e+00,3.559999999999999831e-01,-1.220000000000000112e-01,-1.550000000000000822e-01,-2.070000000000001839e-01,-2.750000000000001332e-01,-1.310000000000000053e-01,-2.140000000000001068e-01,-1.017999999999998240e+00,-2.387000000000002231e+00,-3.651999999999998359e+00,-5.259999999999995790e-01,1.786000000000002252e+00,2.323000000000005283e+00,4.450000000000003730e+00,1.925999999999996826e+00,-1.254999999999999449e+00,1.970000000000015072e-01,3.606000000000002537e+00,1.315000000000002389e+00,3.980000000000008531e-01,2.696000000000004615e+00,2.980000000000002647e-01,-5.730000000000008420e-01,-3.285999999999996923e+00,-1.664000000000001922e+00,-2.778999999999997250e+00,-1.143999999999999240e+00,-7.500000000000002220e-01,2.419999999999999929e-01,-1.380000000000000115e-01,-1.510000000000000786e-01,-8.599999999999999312e-02,-3.800000000000002265e-01,-1.350000000000000644e-01,-2.999999999999984450e-03,-7.999999999999998779e-02,-1.145999999999999908e+00,-3.665999999999995040e+00,-5.804000000000002046e+00,-7.960000000000019282e-01,6.284999999999993037e+00,4.778000000000020897e+00,1.003000000000001224e+00,3.089000000000001300e+00,3.185000000000008047e+00,2.069999999999994955e+00,-1.217999999999999527e+00,2.823000000000004395e+00,4.539999999999997371e-01,1.713999999999998858e+00,-1.505000000000000560e+00,4.606999999999998430e+00,-4.010000000000006892e-01,-8.950000000000001288e-01,-1.299999999999997546e-01,-8.430000000000000826e-01,2.500000000000000139e-02,-3.700000000000001205e-02,-1.030000000000000360e-01,3.500000000000001027e-02,-1.210000000000000242e-01,-2.099999999999987293e-02,-2.800000000000002834e-02,-7.330000000000005400e-01,-8.750000000000003331e-01,-3.325000000000001066e+00,-5.871999999999987452e+00,-8.460000000000009734e-01,-2.554999999999997051e+00,1.729000000000000981e+00,-4.109999999999995879e-01,1.277999999999994252e+00,2.636999999999994237e+00,-1.981000000000000760e+00,2.235000000000004317e+00,3.128000000000000558e+00,3.531000000000008576e+00,5.210000000000016840e-01,-6.580000000000002514e-01,-7.769999999999995799e-01,-4.320000000000002727e-01,6.230000000000002203e-01,-2.844999999999999307e+00,-2.125999999999999890e+00,-3.260000000000000675e-01,-1.350000000000000366e-01,-7.999999999999998779e-02,1.150000000000000050e-01,-4.700000000000000705e-02,-4.020000000000002460e-01,-3.000000000000001554e-01,-2.740000000000000768e-01,4.700000000000000011e-02,-1.908999999999998476e+00,-1.738000000000000878e+00,-2.450000000000004396e-01,9.439999999999992841e-01,7.520000000000033324e-01,9.300000000000056000e-01,4.360000000000014531e+00,1.346000000000006080e+00,-2.296999999999998376e+00,-4.261000000000002785e+00,1.047999999999999821e+00,2.170000000000011642e-01,2.583000000000005958e+00,4.144000000000003681e+00,1.368000000000001881e+00,-4.473999999999999311e+00,-3.066999999999990845e+00,-3.555000000000000604e+00,-1.241999999999999993e+00,-6.100000000000000561e-02,-3.000000000000001624e-02,-2.600000000000000228e-02,-5.140000000000003455e-01,2.800000000000003875e-02,-3.100000000000002059e-02,3.140000000000001124e-01,1.089999999999999997e-01,-4.660000000000001918e-01,-2.387000000000000455e+00,-1.955999999999995964e+00,1.028999999999999693e+00,9.720000000000010854e-01,1.869999999999978624e-01,-4.831999999999996298e+00,-1.831999999999999851e+00,-7.720000000000007967e-01,2.676000000000006374e+00,3.788000000000006029e+00,1.174999999999999822e+00,-7.779999999999961391e-01,-9.319999999999986073e-01,-2.254999999999995008e+00,-3.809999999999993392e+00,-3.488999999999998103e+00,-1.472000000000000197e+00,-9.610000000000000764e-01,-8.090000000000000524e-01,-1.459999999999999909e-01,-1.970000000000000084e-01,-8.599999999999999312e-02,-1.250000000000001388e-01,1.960000000000000075e-01,-3.880000000000002891e-01,-1.400000000000000411e-01,-5.110000000000002318e-01,-6.080000000000003180e-01,-1.711999999999996636e+00,-3.182000000000000384e+00,-5.506999999999984574e+00,-6.962000000000011291e+00,-6.835000000000007958e+00,-7.995000000000000107e+00,-8.560000000000004050e+00,1.407000000000004247e+00,-2.919999999999984275e-01,-4.154000000000006132e+00,-3.996999999999993225e+00,-3.523999999999998689e+00,5.200000000000001288e-01,-1.139000000000000901e+00,-5.150000000000000133e-01,-2.091999999999999194e+00,-5.339999999999998082e-01,-3.970000000000000751e-01,-1.200000000000000233e-01,-7.300000000000003708e-02,-7.300000000000000933e-02,-4.399999999999999745e-02,0.000000000000000000e+00,-7.100000000000000755e-02,0.000000000000000000e+00,-4.000000000000000083e-03,0.000000000000000000e+00,-2.880000000000000338e-01,-7.770000000000001350e-01,-9.849999999999999867e-01,-1.298000000000000043e+00,-2.184999999999999609e+00,-1.432999999999999607e+00,-2.193999999999999506e+00,-3.712999999999999634e+00,-4.308999999999999275e+00,-4.264999999999999680e+00,-2.708999999999997854e+00,-2.270000000000000018e+00,-2.319999999999999396e+00,-1.585999999999999854e+00,-1.936999999999998945e+00,-1.043999999999999817e+00,-1.908999999999999808e+00,-1.199999999999999678e-01,-5.000000000000001665e-02,0.000000000000000000e+00,0.000000000000000000e+00,0.000000000000000000e+00,0.000000000000000000e+00,-1.000000000000000021e-02,-1.900000000000000300e-02,0.000000000000000000e+00,-1.200000000000000025e-02,-4.599999999999999922e-02,-1.990000000000000102e-01,-3.000000000000000444e-01,-2.790000000000000258e-01,-5.980000000000001981e-01,-8.030000000000002691e-01,-5.810000000000000719e-01,-3.020000000000000462e-01,-3.790000000000001146e-01,-5.640000000000000568e-01,-1.066999999999999726e+00,-3.780000000000001137e-01,-1.150999999999999801e+00,-1.018000000000000016e+00,-5.410000000000000364e-01,-1.552999999999999492e+00,-6.800000000000000488e-01,-2.090999999999999748e+00,-2.269999999999999796e-01,-1.190000000000000224e-01,0.000000000000000000e+00,0.000000000000000000e+00,0.000000000000000000e+00,0.000000000000000000e+00,-9.000000000000001055e-03,0.000000000000000000e+00,-9.000000000000001055e-03,-5.000000000000000104e-03,-3.300000000000000155e-02,-1.800000000000000211e-02,-5.000000000000000104e-03,0.000000000000000000e+00,-3.590000000000001523e-01,-6.570000000000001394e-01,-3.120000000000001661e-01,-1.489999999999999936e-01,-2.600000000000000644e-01,-1.700000000000000677e-01,-7.200000000000002232e-02,-1.850000000000000533e-01,-1.290000000000000036e-01,-9.600000000000001588e-02,-3.310000000000000719e-01,-2.620000000000001217e-01,-4.470000000000000084e-01,-1.859999999999999876e+00,-5.560000000000000497e-01,-1.890000000000000568e-01,0.000000000000000000e+00,0.000000000000000000e+00,0.000000000000000000e+00,0.000000000000000000e+00,-8.000000000000000167e-03,-6.000000000000000125e-03,-2.700000000000000316e-02,-2.100000000000000130e-02,-1.200000000000000025e-02,0.000000000000000000e+00,-1.200000000000000025e-02,-6.100000000000000561e-02,-1.730000000000000981e-01,-8.600000000000002087e-02,-1.800000000000001044e-01,-1.630000000000000615e-01,-1.810000000000000497e-01,-2.270000000000000906e-01,-2.000000000000000944e-01,-1.060000000000000386e-01,-1.290000000000000313e-01,-1.080000000000000265e-01,-3.410000000000000808e-01,-1.720000000000000417e-01,-2.880000000000000338e-01,-1.685999999999999721e+00,-8.870000000000000107e-01,-1.180000000000000354e-01,0.000000000000000000e+00,0.000000000000000000e+00,0.000000000000000000e+00,0.000000000000000000e+00,-6.600000000000004474e-02
