-3.740000000000000000e+02,-1.270000000000000000e+02,1.090000000000000000e+02,-3.000000000000000000e+01,-1.940000000000000000e+02,2.000000000000000000e+00,2.200000000000000000e+01,5.600000000000000000e+01,-2.230000000000000000e+02,-1.127000000000000000e+03,-1.097000000000000000e+03,-9.840000000000000000e+02,-1.482000000000000000e+03,2.580000000000000000e+03,3.900000000000000000e+01,-9.980000000000000000e+02,2.077000000000000000e+03,1.100000000000000000e+03,2.080000000000000000e+02,-1.998000000000000000e+03,1.244000000000000000e+03,-1.936000000000000000e+03,1.872000000000000000e+03,1.198000000000000000e+03,-2.400000000000000000e+01,-3.800000000000000000e+01,-6.700000000000000000e+01,-4.900000000000000000e+01,8.000000000000000000e+01,-8.600000000000000000e+01,-3.890000000000000000e+02,-1.100000000000000000e+02,-1.520000000000000000e+02,5.000000000000000000e+00,-1.760000000000000000e+02,-3.400000000000000000e+01,-6.060000000000000000e+02,-5.810000000000000000e+02,1.730000000000000000e+02,-3.110000000000000000e+02,4.430000000000000000e+02,2.340000000000000000e+03,-2.114000000000000000e+03,-1.755000000000000000e+03,-3.430000000000000000e+03,-3.690000000000000000e+03,-3.489000000000000000e+03,6.940000000000000000e+02,8.980000000000000000e+02,2.663000000000000000e+03,-1.960000000000000000e+03,-2.664000000000000000e+03,-6.600000000000000000e+01,-4.100000000000000000e+01,-5.000000000000000000e+00,-7.600000000000000000e+01,-2.440000000000000000e+02,-2.170000000000000000e+02,1.660000000000000000e+02,3.400000000000000000e+01,-2.450000000000000000e+02,-3.060000000000000000e+02,-4.140000000000000000e+02,1.150000000000000000e+02,-1.321000000000000000e+03,-5.030000000000000000e+02,-2.025000000000000000e+03,-7.010000000000000000e+02,-7.320000000000000000e+03,-6.621000000000000000e+03,-4.610000000000000000e+02,4.379000000000000000e+03,1.748000000000000000e+03,7.600000000000000000e+01,1.057000000000000000e+03,-2.520000000000000000e+02,-4.435000000000000000e+03,-4.510000000000000000e+02,1.496000000000000000e+03,-6.900000000000000000e+02,-7.100000000000000000e+01,-7.100000000000000000e+01,-1.200000000000000000e+02,-1.000000000000000000e+02,-7.400000000000000000e+01,-1.770000000000000000e+02,-9.800000000000000000e+01,-1.680000000000000000e+02,2.080000000000000000e+02,1.680000000000000000e+02,1.240000000000000000e+02,2.010000000000000000e+02,-3.410000000000000000e+03,-1.143000000000000000e+03,-2.228000000000000000e+03,-3.501000000000000000e+03,-8.706000000000000000e+03,-5.081000000000000000e+03,-6.667000000000000000e+03,-8.385000000000000000e+03,-7.493000000000000000e+03,-8.276000000000000000e+03,-6.213000000000000000e+03,-2.125000000000000000e+03,-3.700000000000000000e+03,1.196000000000000000e+03,-8.090000000000000000e+02,-3.816000000000000000e+03,-3.300000000000000000e+01,-8.000000000000000000e+00,-1.800000000000000000e+01,-4.100000000000000000e+01,1.130000000000000000e+02,-1.990000000000000000e+02,-1.290000000000000000e+02,-7.200000000000000000e+01,2.680000000000000000e+02,-5.050000000000000000e+02,-4.070000000000000000e+02,-7.530000000000000000e+02,1.069000000000000000e+03,-7.310000000000000000e+02,1.451000000000000000e+03,3.622000000000000000e+03,-8.780000000000000000e+02,-1.065700000000000000e+04,1.764000000000000000e+03,2.017000000000000000e+03,-3.297000000000000000e+03,-6.006000000000000000e+03,-1.392400000000000000e+04,-9.554000000000000000e+03,-3.600000000000000000e+03,-1.135000000000000000e+03,-4.895000000000000000e+03,1.644000000000000000e+03,-1.810000000000000000e+02,-2.200000000000000000e+01,-1.010000000000000000e+02,-1.080000000000000000e+02,-7.270000000000000000e+02,-3.110000000000000000e+02,2.400000000000000000e+02,3.880000000000000000e+02,4.300000000000000000e+02,-2.620000000000000000e+02,-1.187000000000000000e+03,-2.487000000000000000e+03,-6.752000000000000000e+03,-4.300000000000000000e+03,-2.415000000000000000e+03,-1.762000000000000000e+03,5.575000000000000000e+03,8.134000000000000000e+03,-3.511000000000000000e+03,-6.658000000000000000e+03,-6.093000000000000000e+03,1.008600000000000000e+04,-9.844000000000000000e+03,-1.118300000000000000e+04,-6.889000000000000000e+03,-4.212000000000000000e+03,-6.234000000000000000e+03,-5.698000000000000000e+03,-2.154000000000000000e+03,-9.480000000000000000e+02,-9.500000000000000000e+01,-2.100000000000000000e+01,2.390000000000000000e+02,1.600000000000000000e+01,8.000000000000000000e+00,-2.540000000000000000e+02,-3.830000000000000000e+02,-1.358000000000000000e+03,-5.534000000000000000e+03,-6.174000000000000000e+03,-9.500000000000000000e+03,-1.368000000000000000e+03,5.590000000000000000e+03,-7.510000000000000000e+02,-8.228000000000000000e+03,3.862000000000000000e+03,5.207000000000000000e+03,-4.160000000000000000e+02,4.318000000000000000e+03,1.296200000000000000e+04,6.274000000000000000e+03,-8.330000000000000000e+02,-7.025000000000000000e+03,-1.572000000000000000e+04,-5.053000000000000000e+03,-6.973000000000000000e+03,-1.525000000000000000e+03,-1.025000000000000000e+03,-6.020000000000000000e+02,-1.350000000000000000e+02,-1.000000000000000000e+02,1.900000000000000000e+01,9.000000000000000000e+01,-3.500000000000000000e+01,-1.658000000000000000e+03,-7.989000000000000000e+03,-1.095100000000000000e+04,-8.574000000000000000e+03,5.024000000000000000e+03,-7.297000000000000000e+03,7.989000000000000000e+03,-9.726000000000000000e+03,-6.109000000000000000e+03,8.410000000000000000e+02,2.241600000000000000e+04,5.806000000000000000e+03,3.397000000000000000e+03,-1.348000000000000000e+03,3.573000000000000000e+03,-4.856000000000000000e+03,-3.562000000000000000e+03,-7.922000000000000000e+03,-2.946000000000000000e+03,-7.507000000000000000e+03,-1.482000000000000000e+03,-8.330000000000000000e+02,-2.300000000000000000e+02,1.000000000000000000e+01,-1.030000000000000000e+02,-1.920000000000000000e+02,-2.648000000000000000e+03,-6.970000000000000000e+02,-2.266000000000000000e+03,-1.142900000000000000e+04,-9.039000000000000000e+03,9.970000000000000000e+02,7.218000000000000000e+03,-9.797000000000000000e+03,3.874000000000000000e+03,2.780000000000000000e+03,-8.246000000000000000e+03,1.428000000000000000e+03,-8.110000000000000000e+02,1.536000000000000000e+03,1.850000000000000000e+02,1.737000000000000000e+03,-1.106900000000000000e+04,7.070000000000000000e+03,3.960000000000000000e+03,8.996000000000000000e+03,-1.338300000000000000e+04,-1.093900000000000000e+04,-8.913000000000000000e+03,-6.124000000000000000e+03,-9.800000000000000000e+01,-5.200000000000000000e+02,9.970000000000000000e+02,-1.040000000000000000e+03,1.226000000000000000e+03,2.010000000000000000e+02,-3.185000000000000000e+03,-1.229500000000000000e+04,-1.916000000000000000e+03,-1.045000000000000000e+03,-7.377000000000000000e+03,6.012000000000000000e+03,5.951000000000000000e+03,-3.945000000000000000e+03,-1.139000000000000000e+03,-7.279000000000000000e+03,1.300000000000000000e+04,1.601900000000000000e+04,-1.107200000000000000e+04,-3.720000000000000000e+02,3.903000000000000000e+03,-9.665000000000000000e+03,-2.098000000000000000e+03,5.595000000000000000e+03,-1.804000000000000000e+03,-9.522000000000000000e+03,-8.072000000000000000e+03,-5.593000000000000000e+03,-3.810000000000000000e+02,-1.560000000000000000e+02,-2.356000000000000000e+03,1.590000000000000000e+02,-2.842000000000000000e+03,-5.424000000000000000e+03,1.142000000000000000e+03,-3.949000000000000000e+03,4.641000000000000000e+03,1.876000000000000000e+03,1.955000000000000000e+03,-2.083100000000000000e+04,1.245500000000000000e+04,6.702000000000000000e+03,9.520000000000000000e+02,-1.746500000000000000e+04,-1.169300000000000000e+04,-3.178000000000000000e+03,-8.873000000000000000e+03,-4.113000000000000000e+03,5.320000000000000000e+03,1.492500000000000000e+04,-4.785000000000000000e+03,1.579000000000000000e+03,-3.140000000000000000e+03,2.048000000000000000e+03,-1.936000000000000000e+03,-3.910000000000000000e+02,-2.910000000000000000e+02,-2.040000000000000000e+02,-2.134000000000000000e+03,8.800000000000000000e+01,-1.719000000000000000e+03,-2.196000000000000000e+03,-7.899000000000000000e+03,3.067000000000000000e+03,5.360000000000000000e+03,4.907000000000000000e+03,2.640000000000000000e+02,1.186300000000000000e+04,2.798000000000000000e+03,7.500000000000000000e+01,1.274400000000000000e+04,1.978000000000000000e+03,-1.488800000000000000e+04,7.175000000000000000e+03,4.584000000000000000e+03,-1.373000000000000000e+03,-6.952000000000000000e+03,-4.842000000000000000e+03,1.100800000000000000e+04,8.698000000000000000e+03,-5.161000000000000000e+03,1.125900000000000000e+04,-2.557000000000000000e+03,-3.400000000000000000e+01,-2.740000000000000000e+02,-3.000000000000000000e+02,-1.109000000000000000e+03,-4.900000000000000000e+01,-2.018000000000000000e+03,-3.788000000000000000e+03,-4.323000000000000000e+03,-5.510000000000000000e+02,9.410000000000000000e+03,-5.449000000000000000e+03,7.865000000000000000e+03,-1.094000000000000000e+04,-3.117000000000000000e+03,5.241000000000000000e+03,1.271200000000000000e+04,-9.966000000000000000e+03,2.960000000000000000e+03,6.063000000000000000e+03,2.416000000000000000e+03,1.901400000000000000e+04,2.517000000000000000e+03,7.246000000000000000e+03,-7.336000000000000000e+03,7.678000000000000000e+03,4.662000000000000000e+03,1.290100000000000000e+04,-4.368000000000000000e+03,-9.710000000000000000e+02,-7.080000000000000000e+02,-1.950000000000000000e+02,-1.813000000000000000e+03,-2.000000000000000000e+02,-6.890000000000000000e+02,-9.370000000000000000e+02,-3.600000000000000000e+03,2.880000000000000000e+02,-1.308000000000000000e+03,4.096000000000000000e+03,1.297100000000000000e+04,4.369000000000000000e+03,4.468000000000000000e+03,-9.198000000000000000e+03,5.438000000000000000e+03,-7.702000000000000000e+03,-4.129000000000000000e+03,8.381000000000000000e+03,-4.870000000000000000e+03,-4.877000000000000000e+03,7.947000000000000000e+03,1.862000000000000000e+03,-8.680000000000000000e+02,7.912000000000000000e+03,-5.914000000000000000e+03,1.288100000000000000e+04,-5.814000000000000000e+03,-1.392000000000000000e+03,-4.250000000000000000e+02,-6.960000000000000000e+02,-1.834000000000000000e+03,5.000000000000000000e+02,-2.970000000000000000e+02,-1.749000000000000000e+03,4.390000000000000000e+02,-3.207000000000000000e+03,-9.133000000000000000e+03,3.366000000000000000e+03,-1.168100000000000000e+04,5.539000000000000000e+03,-5.398000000000000000e+03,7.473000000000000000e+03,-1.724000000000000000e+03,1.178300000000000000e+04,-3.281000000000000000e+03,6.204000000000000000e+03,-1.330000000000000000e+02,-7.453000000000000000e+03,3.034000000000000000e+03,8.021000000000000000e+03,1.644000000000000000e+03,-7.563000000000000000e+03,8.810000000000000000e+02,-1.361000000000000000e+03,-8.915000000000000000e+03,-8.730000000000000000e+02,1.530000000000000000e+02,2.100000000000000000e+01,-9.460000000000000000e+02,-3.972000000000000000e+03,7.610000000000000000e+02,-1.903000000000000000e+03,2.545000000000000000e+03,1.557300000000000000e+04,6.764000000000000000e+03,-1.153000000000000000e+04,5.634000000000000000e+03,-1.245000000000000000e+04,4.251000000000000000e+03,2.987000000000000000e+03,-7.125000000000000000e+03,-5.691000000000000000e+03,-5.356000000000000000e+03,-9.692000000000000000e+03,1.706300000000000000e+04,4.689000000000000000e+03,-1.667600000000000000e+04,-3.171000000000000000e+03,3.859000000000000000e+03,-5.789000000000000000e+03,-4.633000000000000000e+03,-4.957000000000000000e+03,-4.459000000000000000e+03,-8.100000000000000000e+01,-5.500000000000000000e+01,-2.700000000000000000e+01,1.183000000000000000e+03,6.770000000000000000e+02,-9.140000000000000000e+02,-3.674000000000000000e+03,-2.453000000000000000e+03,-3.020000000000000000e+03,-1.567000000000000000e+03,3.391000000000000000e+03,-3.852000000000000000e+03,3.408000000000000000e+03,-2.318000000000000000e+03,3.468000000000000000e+03,1.399700000000000000e+04,8.278000000000000000e+03,-1.208300000000000000e+04,-3.436000000000000000e+03,5.309000000000000000e+03,-7.969000000000000000e+03,2.462000000000000000e+03,-1.256500000000000000e+04,6.620000000000000000e+02,-9.413000000000000000e+03,-9.384000000000000000e+03,-5.469000000000000000e+03,-3.040000000000000000e+03,-2.690000000000000000e+02,-6.500000000000000000e+01,-7.300000000000000000e+01,-2.427000000000000000e+03,2.130000000000000000e+02,-1.455000000000000000e+03,1.622000000000000000e+03,-1.320000000000000000e+02,-1.087000000000000000e+03,2.142000000000000000e+03,-7.108000000000000000e+03,-1.339400000000000000e+04,1.443800000000000000e+04,9.326000000000000000e+03,-1.490000000000000000e+02,-8.875000000000000000e+03,4.213000000000000000e+03,7.618000000000000000e+03,6.758000000000000000e+03,3.666000000000000000e+03,-1.090000000000000000e+02,7.828000000000000000e+03,-8.629000000000000000e+03,-2.146000000000000000e+03,-1.595200000000000000e+04,-1.279900000000000000e+04,-5.339000000000000000e+03,-4.859000000000000000e+03,-7.540000000000000000e+02,-3.300000000000000000e+01,-1.280000000000000000e+02,-2.000000000000000000e+02,-9.980000000000000000e+02,-1.060000000000000000e+03,3.059000000000000000e+03,-4.669000000000000000e+03,-1.345200000000000000e+04,3.127000000000000000e+03,1.507000000000000000e+03,-1.436600000000000000e+04,-6.239000000000000000e+03,-2.471000000000000000e+03,-5.506000000000000000e+03,-1.743000000000000000e+03,1.558000000000000000e+03,-5.459000000000000000e+03,-9.575000000000000000e+03,5.890000000000000000e+02,1.427300000000000000e+04,-4.513000000000000000e+03,1.908000000000000000e+03,-3.160000000000000000e+02,1.202000000000000000e+03,-3.187000000000000000e+03,-7.729000000000000000e+03,-3.986000000000000000e+03,-2.780000000000000000e+02,3.460000000000000000e+02,-1.510000000000000000e+02,-6.430000000000000000e+02,5.370000000000000000e+02,-1.576000000000000000e+03,6.607000000000000000e+03,-5.353000000000000000e+03,-9.778000000000000000e+03,2.935000000000000000e+03,4.116000000000000000e+03,4.930000000000000000e+02,-4.960000000000000000e+02,4.194000000000000000e+03,-4.909000000000000000e+03,-5.615000000000000000e+03,-6.296000000000000000e+03,-5.214000000000000000e+03,-6.895000000000000000e+03,-3.616000000000000000e+03,-6.293000000000000000e+03,-1.635000000000000000e+03,2.612000000000000000e+03,-1.584000000000000000e+03,7.390000000000000000e+02,8.975000000000000000e+03,1.093000000000000000e+03,1.155000000000000000e+03,4.800000000000000000e+01,5.600000000000000000e+01,-3.140000000000000000e+02,5.170000000000000000e+02,-2.920000000000000000e+02,-5.732000000000000000e+03,-2.125000000000000000e+03,-8.007000000000000000e+03,-4.852000000000000000e+03,8.232000000000000000e+03,1.014700000000000000e+04,-5.290000000000000000e+03,6.669000000000000000e+03,-1.081700000000000000e+04,-2.965000000000000000e+03,-6.485000000000000000e+03,-4.248000000000000000e+03,-1.300000000000000000e+02,-2.170000000000000000e+03,-1.249100000000000000e+04,-1.509200000000000000e+04,2.466000000000000000e+03,1.071700000000000000e+04,-1.039700000000000000e+04,-1.129700000000000000e+04,-4.712000000000000000e+03,7.850000000000000000e+02,5.101000000000000000e+03,1.430000000000000000e+02,-2.500000000000000000e+01,-3.160000000000000000e+02,1.484000000000000000e+03,9.560000000000000000e+02,-4.373000000000000000e+03,-9.571000000000000000e+03,-5.026000000000000000e+03,-5.090000000000000000e+03,-3.280000000000000000e+02,4.541000000000000000e+03,-4.825000000000000000e+03,-3.572000000000000000e+03,1.418000000000000000e+03,-1.500000000000000000e+03,9.706000000000000000e+03,-1.000000000000000000e+01,2.262000000000000000e+03,6.040000000000000000e+03,-3.748000000000000000e+03,6.024000000000000000e+03,-5.065000000000000000e+03,5.868000000000000000e+03,-1.946000000000000000e+03,-2.412000000000000000e+03,1.779000000000000000e+03,6.780000000000000000e+02,2.640000000000000000e+03,-2.080000000000000000e+02,-2.110000000000000000e+02,-2.490000000000000000e+02,9.000000000000000000e+01,-1.202000000000000000e+03,-1.499000000000000000e+03,-9.610000000000000000e+02,-5.815000000000000000e+03,-7.408000000000000000e+03,-8.978000000000000000e+03,-2.168000000000000000e+03,9.040000000000000000e+02,8.741000000000000000e+03,-9.657000000000000000e+03,5.049000000000000000e+03,-2.669000000000000000e+03,6.325000000000000000e+03,-1.713000000000000000e+03,-1.448500000000000000e+04,-2.160000000000000000e+03,7.092000000000000000e+03,-7.995000000000000000e+03,-2.015000000000000000e+03,-5.275000000000000000e+03,-5.520000000000000000e+02,-1.107000000000000000e+03,-2.222000000000000000e+03,-4.850000000000000000e+02,-2.790000000000000000e+02,-2.000000000000000000e+01,5.800000000000000000e+01,7.200000000000000000e+02,-2.812000000000000000e+03,8.500000000000000000e+01,-1.841000000000000000e+03,-4.213000000000000000e+03,-3.395000000000000000e+03,-4.155000000000000000e+03,-7.450000000000000000e+02,1.207000000000000000e+03,-6.576000000000000000e+03,-1.417000000000000000e+03,-1.167200000000000000e+04,-1.523700000000000000e+04,-1.330500000000000000e+04,-2.416000000000000000e+03,3.547000000000000000e+03,-3.737000000000000000e+03,-1.139200000000000000e+04,-1.427000000000000000e+03,-4.633000000000000000e+03,1.295000000000000000e+03,9.505000000000000000e+03,2.906000000000000000e+03,3.781000000000000000e+03,1.978000000000000000e+03,5.900000000000000000e+02,-6.140000000000000000e+02,3.190000000000000000e+02,-3.870000000000000000e+02,-5.100000000000000000e+02,-4.890000000000000000e+02,-1.684000000000000000e+03,-5.382000000000000000e+03,-5.651000000000000000e+03,3.731000000000000000e+03,-7.025000000000000000e+03,-2.399000000000000000e+03,-2.651000000000000000e+03,1.122000000000000000e+04,-4.300000000000000000e+02,5.525000000000000000e+03,2.418000000000000000e+03,-6.640000000000000000e+03,8.960000000000000000e+02,9.357000000000000000e+03,-5.788000000000000000e+03,-2.860000000000000000e+03,-1.705000000000000000e+03,8.452000000000000000e+03,7.501000000000000000e+03,8.814000000000000000e+03,4.641000000000000000e+03,3.322000000000000000e+03,1.320000000000000000e+02,0.000000000000000000e+00,4.960000000000000000e+02,7.210000000000000000e+02,-9.560000000000000000e+02,8.300000000000000000e+02,-1.693000000000000000e+03,-1.842000000000000000e+03,1.787000000000000000e+03,2.945000000000000000e+03,7.030000000000000000e+03,-5.799000000000000000e+03,7.750000000000000000e+02,3.475000000000000000e+03,-2.618000000000000000e+03,4.776000000000000000e+03,9.777000000000000000e+03,3.518000000000000000e+03,1.110800000000000000e+04,8.539000000000000000e+03,8.480000000000000000e+02,6.755000000000000000e+03,8.440000000000000000e+02,-1.623000000000000000e+03,-1.843000000000000000e+03,5.155000000000000000e+03,5.334000000000000000e+03,4.374000000000000000e+03,1.440000000000000000e+03,0.000000000000000000e+00,1.760000000000000000e+02,1.930000000000000000e+02,-1.168000000000000000e+03,5.320000000000000000e+02,3.104000000000000000e+03,-1.185000000000000000e+03,7.950000000000000000e+02,5.742000000000000000e+03,-3.720000000000000000e+03,4.882000000000000000e+03,7.769000000000000000e+03,-3.575000000000000000e+03,-8.133000000000000000e+03,4.500000000000000000e+03,-7.716000000000000000e+03,-4.785000000000000000e+03,-9.290000000000000000e+03,5.242000000000000000e+03,6.480000000000000000e+03,5.508000000000000000e+03,5.490000000000000000e+02,1.213000000000000000e+03,-3.647000000000000000e+03,1.840000000000000000e+02,6.620000000000000000e+02,1.434000000000000000e+03,3.200000000000000000e+02,1.100000000000000000e+02,6.600000000000000000e+01,-9.190000000000000000e+02,1.298000000000000000e+03,-7.900000000000000000e+01,-3.000000000000000000e+00,-4.180000000000000000e+02,-4.504000000000000000e+03,-1.099600000000000000e+04,-7.482000000000000000e+03,-1.253000000000000000e+03,-1.873000000000000000e+03,-1.111000000000000000e+03,2.390000000000000000e+02,-3.184000000000000000e+03,-2.248000000000000000e+03,2.245000000000000000e+03,-4.410000000000000000e+02,-5.310000000000000000e+02,2.232000000000000000e+03,5.607000000000000000e+03,3.521000000000000000e+03,2.187000000000000000e+03,-4.911000000000000000e+03,-2.983000000000000000e+03,1.088000000000000000e+03,0.000000000000000000e+00,6.600000000000000000e+01,1.100000000000000000e+02,4.000000000000000000e+02,-3.770000000000000000e+02
-3.649999999999995737e+01,-1.270000000000000107e+01,1.089999999999999325e+01,-2.999999999999996891e+00,-1.939999999999999503e+01,2.000000000000060063e-01,2.200000000000031708e+00,5.599999999999997868e+00,-2.230000000000005400e+01,-1.126999999999998181e+02,-1.096999999999996760e+02,-9.839999999999899671e+01,-1.482000000000002160e+02,2.580000000000000568e+02,3.899999999999380407e+00,-9.980000000000012506e+01,2.076999999999999602e+02,1.099999999999994316e+02,2.080000000000146443e+01,-1.997999999999983629e+02,1.244000000000008299e+02,-1.936000000000010459e+02,1.872000000000006992e+02,1.198000000000010630e+02,-2.399999999999999911e+00,-3.800000000000000711e+00,-6.700000000000001066e+00,-4.900000000000000355e+00,8.000000000000005329e+00,-8.599999999999994316e+00,-3.889999999999998437e+01,-1.100000000000000888e+01,-1.520000000000000107e+01,5.000000000000013323e-01,-1.759999999999999432e+01,-3.400000000000005240e+00,-6.060000000000021458e+01,-5.809999999999998721e+01,1.730000000000008598e+01,-3.109999999999998366e+01,4.429999999999984794e+01,2.340000000000001137e+02,-2.113999999999997499e+02,-1.754999999999996874e+02,-3.429999999999980673e+02,-3.689999999999993179e+02,-3.489000000000000341e+02,6.940000000000075886e+01,8.980000000000056559e+01,2.662999999999996135e+02,-1.959999999999999147e+02,-2.663999999999979309e+02,-6.600000000000002309e+00,-4.099999999999998757e+00,-5.000000000000008882e-01,-7.599999999999998757e+00,-2.440000000000017621e+01,-2.170000000000010942e+01,1.660000000000000853e+01,3.400000000000000355e+00,-2.450000000000002132e+01,-3.059999999999991260e+01,-4.140000000000002700e+01,1.150000000000000178e+01,-1.321000000000000796e+02,-5.030000000000062244e+01,-2.025000000000008242e+02,-7.010000000000006537e+01,-7.320000000000027285e+02,-6.620999999999970669e+02,-4.609999999999989484e+01,4.378999999999963393e+02,1.748000000000003240e+02,7.600000000000003197e+00,1.057000000000003013e+02,-2.519999999999991047e+01,-4.434999999999998863e+02,-4.509999999999999432e+01,1.496000000000002217e+02,-6.900000000000018474e+01,-7.099999999999996980e+00,-7.100000000000000533e+00,-1.199999999999999822e+01,-9.999999999999996447e+00,-7.400000000000010125e+00,-1.769999999999997797e+01,-9.799999999999986500e+00,-1.679999999999999005e+01,2.080000000000000426e+01,1.680000000000001137e+01,1.240000000000000213e+01,2.010000000000001563e+01,-3.409999999999980105e+02,-1.142999999999999545e+02,-2.227999999999995282e+02,-3.500999999999976922e+02,-8.705999999999992269e+02,-5.080999999999978627e+02,-6.667000000000148248e+02,-8.385000000000007958e+02,-7.492999999999949523e+02,-8.275999999999994543e+02,-6.213000000000041609e+02,-2.125000000000020179e+02,-3.700000000000000000e+02,1.195999999999999091e+02,-8.089999999999999147e+01,-3.815999999999964416e+02,-3.300000000000000711e+00,-7.999999999999998224e-01,-1.800000000000000044e+00,-4.099999999999999645e+00,1.129999999999995275e+01,-1.989999999999999147e+01,-1.290000000000000568e+01,-7.200000000000003730e+00,2.679999999999995097e+01,-5.049999999999990052e+01,-4.070000000000003126e+01,-7.530000000000030980e+01,1.068999999999993094e+02,-7.309999999999878639e+01,1.451000000000004775e+02,3.621999999999985675e+02,-8.779999999999891713e+01,-1.065699999999993224e+03,1.764000000000047237e+02,2.016999999999987949e+02,-3.296999999999997613e+02,-6.006000000000034333e+02,-1.392399999999997135e+03,-9.553999999999998636e+02,-3.600000000000042633e+02,-1.134999999999995026e+02,-4.895000000000014211e+02,1.643999999999988972e+02,-1.809999999999999787e+01,-2.200000000000002842e+00,-1.010000000000000142e+01,-1.079999999999999716e+01,-7.269999999999994600e+01,-3.110000000000011511e+01,2.399999999999998934e+01,3.879999999999999716e+01,4.299999999999997158e+01,-2.620000000000002061e+01,-1.186999999999996334e+02,-2.486999999999994202e+02,-6.751999999999990223e+02,-4.299999999999988631e+02,-2.415000000000007105e+02,-1.761999999999940201e+02,5.574999999999974989e+02,8.133999999999995225e+02,-3.510999999999999091e+02,-6.657999999999992724e+02,-6.092999999999990450e+02,1.008599999999986267e+03,-9.844000000000008868e+02,-1.118300000000004502e+03,-6.889000000000061164e+02,-4.211999999999985107e+02,-6.234000000000002046e+02,-5.698000000000010914e+02,-2.153999999999999773e+02,-9.479999999999998295e+01,-9.500000000000001776e+00,-2.100000000000000533e+00,2.389999999999999147e+01,1.600000000000003642e+00,8.000000000000098144e-01,-2.540000000000003766e+01,-3.830000000000000426e+01,-1.357999999999998977e+02,-5.534000000000008868e+02,-6.174000000000031605e+02,-9.499999999999891998e+02,-1.367999999999984198e+02,5.589999999999965894e+02,-7.509999999999989484e+01,-8.228000000000074579e+02,3.862000000000016371e+02,5.206999999999994770e+02,-4.160000000000034959e+01,4.317999999999997840e+02,1.296200000000011187e+03,6.273999999999995225e+02,-8.330000000000013927e+01,-7.025000000000020464e+02,-1.572000000000008640e+03,-5.052999999999979650e+02,-6.973000000000041609e+02,-1.525000000000000000e+02,-1.024999999999999716e+02,-6.020000000000000284e+01,-1.350000000000000000e+01,-9.999999999999966249e+00,1.900000000000003020e+00,8.999999999999994671e+00,-3.500000000000001776e+00,-1.658000000000000682e+02,-7.989000000000006594e+02,-1.095099999999997635e+03,-8.574000000000073669e+02,5.024000000000000341e+02,-7.297000000000014097e+02,7.988999999999997499e+02,-9.725999999999988859e+02,-6.108999999999983856e+02,8.409999999999946851e+01,2.241599999999984902e+03,5.806000000000029786e+02,3.396999999999960096e+02,-1.348000000000089642e+02,3.572999999999966008e+02,-4.856000000000047976e+02,-3.561999999999969759e+02,-7.922000000000080036e+02,-2.946000000000046271e+02,-7.507000000000005002e+02,-1.481999999999999318e+02,-8.330000000000001137e+01,-2.300000000000000355e+01,1.000000000000000444e+00,-1.029999999999994920e+01,-1.920000000000000284e+01,-2.647999999999996135e+02,-6.969999999999893703e+01,-2.266000000000007049e+02,-1.142899999999999181e+03,-9.039000000000087311e+02,9.970000000000055707e+01,7.217999999999954071e+02,-9.796999999999991360e+02,3.874000000000007731e+02,2.780000000000008527e+02,-8.245999999999863803e+02,1.428000000000002956e+02,-8.110000000000164277e+01,1.535999999999991132e+02,1.850000000000004263e+01,1.737000000000005855e+02,-1.106899999999998727e+03,7.069999999999972715e+02,3.960000000000022169e+02,8.995999999999979764e+02,-1.338299999999991996e+03,-1.093900000000003274e+03,-8.913000000000005230e+02,-6.124000000000000909e+02,-9.800000000000002487e+00,-5.199999999999987921e+01,9.970000000000024443e+01,-1.040000000000005826e+02,1.225999999999997527e+02,2.010000000000005116e+01,-3.184999999999995453e+02,-1.229500000000005457e+03,-1.915999999999997669e+02,-1.044999999999998010e+02,-7.376999999999974307e+02,6.012000000000017508e+02,5.950999999999994543e+02,-3.945000000000021032e+02,-1.139000000000011568e+02,-7.278999999999883812e+02,1.299999999999981583e+03,1.601899999999984857e+03,-1.107199999999982083e+03,-3.719999999999954099e+01,3.902999999999980787e+02,-9.665000000000056843e+02,-2.097999999999976239e+02,5.594999999999967031e+02,-1.803999999999958277e+02,-9.522000000000000455e+02,-8.071999999999989086e+02,-5.592999999999998408e+02,-3.810000000000001563e+01,-1.560000000000001563e+01,-2.355999999999993690e+02,1.589999999999984936e+01,-2.841999999999995907e+02,-5.423999999999995225e+02,1.141999999999990081e+02,-3.949000000000010004e+02,4.640999999999989996e+02,1.875999999999983174e+02,1.954999999999984084e+02,-2.083099999999996271e+03,1.245500000000008640e+03,6.702000000000097089e+02,9.520000000000145235e+01,-1.746500000000002274e+03,-1.169299999999997908e+03,-3.178000000000004661e+02,-8.872999999999888132e+02,-4.113000000000018872e+02,5.320000000000007958e+02,1.492500000000001364e+03,-4.784999999999982947e+02,1.579000000000000057e+02,-3.140000000000015916e+02,2.047999999999966008e+02,-1.936000000000001364e+02,-3.909999999999996589e+01,-2.909999999999998721e+01,-2.039999999999998082e+01,-2.133999999999992951e+02,8.800000000000041567e+00,-1.718999999999991246e+02,-2.196000000000001933e+02,-7.899000000000036152e+02,3.066999999999997613e+02,5.360000000000012506e+02,4.907000000000043656e+02,2.639999999999992752e+01,1.186299999999991996e+03,2.797999999999984766e+02,7.500000000000944134e+00,1.274400000000011687e+03,1.978000000000003240e+02,-1.488800000000017008e+03,7.175000000000017053e+02,4.583999999999995794e+02,-1.373000000000009209e+02,-6.951999999999977717e+02,-4.841999999999975444e+02,1.100799999999983811e+03,8.698000000000021146e+02,-5.161000000000004775e+02,1.125899999999999864e+03,-2.557000000000000739e+02,-3.400000000000002132e+00,-2.740000000000001990e+01,-2.999999999999998224e+01,-1.108999999999996504e+02,-4.900000000000405365e+00,-2.018000000000003240e+02,-3.787999999999959755e+02,-4.322999999999984198e+02,-5.509999999999994458e+01,9.410000000000039790e+02,-5.448999999999977035e+02,7.865000000000082991e+02,-1.094000000000004320e+03,-3.117000000000043656e+02,5.240999999999979764e+02,1.271199999999987767e+03,-9.966000000000033197e+02,2.960000000000032969e+02,6.063000000000030241e+02,2.416000000000024386e+02,1.901399999999994634e+03,2.517000000000001023e+02,7.246000000000032060e+02,-7.335999999999983174e+02,7.677999999999889269e+02,4.661999999999976012e+02,1.290099999999988768e+03,-4.368000000000001251e+02,-9.710000000000002274e+01,-7.080000000000002558e+01,-1.950000000000000000e+01,-1.812999999999999261e+02,-1.999999999999982947e+01,-6.889999999999987779e+01,-9.369999999999848228e+01,-3.600000000000005116e+02,2.879999999999968807e+01,-1.307999999999986755e+02,4.095999999999990564e+02,1.297100000000000136e+03,4.368999999999977035e+02,4.467999999999998408e+02,-9.197999999999858574e+02,5.438000000000000682e+02,-7.702000000000005002e+02,-4.129000000000018531e+02,8.381000000000011596e+02,-4.870000000000000000e+02,-4.876999999999995339e+02,7.946999999999917463e+02,1.861999999999999318e+02,-8.680000000000197247e+01,7.912000000000052751e+02,-5.913999999999986130e+02,1.288099999999987858e+03,-5.813999999999999773e+02,-1.392000000000000171e+02,-4.249999999999998579e+01,-6.960000000000000853e+01,-1.834000000000014268e+02,4.999999999999989342e+01,-2.969999999999994600e+01,-1.748999999999994941e+02,4.389999999999746905e+01,-3.207000000000005002e+02,-9.133000000000055252e+02,3.365999999999997385e+02,-1.168100000000028331e+03,5.538999999999876991e+02,-5.398000000000085947e+02,7.472999999999993861e+02,-1.724000000000002046e+02,1.178299999999993815e+03,-3.281000000000038881e+02,6.203999999999978172e+02,-1.330000000000273275e+01,-7.452999999999966576e+02,3.033999999999983856e+02,8.020999999999960437e+02,1.644000000000002046e+02,-7.562999999999909733e+02,8.809999999999961062e+01,-1.360999999999984595e+02,-8.915000000000013642e+02,-8.729999999999994031e+01,1.530000000000000426e+01,2.100000000000002753e+00,-9.460000000000084697e+01,-3.972000000000002728e+02,7.609999999999993747e+01,-1.903000000000001819e+02,2.545000000000096065e+02,1.557299999999995634e+03,6.764000000000048658e+02,-1.153000000000005684e+03,5.633999999999994088e+02,-1.245000000000010232e+03,4.251000000000015575e+02,2.986999999999996476e+02,-7.124999999999990905e+02,-5.690999999999968395e+02,-5.356000000000015007e+02,-9.691999999999828788e+02,1.706299999999986312e+03,4.688999999999904276e+02,-1.667600000000018554e+03,-3.171000000000054797e+02,3.858999999999984425e+02,-5.789000000000013415e+02,-4.632999999999988745e+02,-4.956999999999962370e+02,-4.459000000000004320e+02,-8.099999999999990763e+00,-5.500000000000005329e+00,-2.700000000000015721e+00,1.182999999999998408e+02,6.769999999999930651e+01,-9.140000000000026148e+01,-3.673999999999999773e+02,-2.452999999999997840e+02,-3.020000000000003411e+02,-1.566999999999989939e+02,3.391000000000007617e+02,-3.852000000000018076e+02,3.407999999999954071e+02,-2.318000000000004093e+02,3.468000000000008640e+02,1.399700000000004366e+03,8.277999999999941565e+02,-1.208299999999981310e+03,-3.435999999999951342e+02,5.308999999999937245e+02,-7.969000000000031605e+02,2.462000000000012108e+02,-1.256499999999998408e+03,6.620000000000055707e+01,-9.413000000000075715e+02,-9.383999999999945203e+02,-5.469000000000013415e+02,-3.039999999999996589e+02,-2.690000000000000213e+01,-6.500000000000006217e+00,-7.299999999999997158e+00,-2.426999999999997328e+02,2.130000000000019966e+01,-1.455000000000005969e+02,1.622000000000004150e+02,-1.320000000000004903e+01,-1.087000000000010544e+02,2.141999999999997897e+02,-7.108000000000045020e+02,-1.339399999999989859e+03,1.443800000000001546e+03,9.325999999999901320e+02,-1.490000000000083524e+01,-8.875000000000103455e+02,4.213000000000026830e+02,7.618000000000100727e+02,6.757999999999952934e+02,3.665999999999957595e+02,-1.090000000000085834e+01,7.827999999999950660e+02,-8.628999999999936108e+02,-2.146000000000029218e+02,-1.595199999999985948e+03,-1.279900000000010778e+03,-5.339000000000031605e+02,-4.859000000000004320e+02,-7.540000000000001990e+01,-3.299999999999999822e+00,-1.280000000000000249e+01,-2.000000000000004974e+01,-9.979999999999951399e+01,-1.060000000000005542e+02,3.059000000000000341e+02,-4.669000000000009436e+02,-1.345199999999998226e+03,3.127000000000006139e+02,1.506999999999999886e+02,-1.436599999999973079e+03,-6.238999999999963393e+02,-2.470999999999996248e+02,-5.506000000000029786e+02,-1.742999999999981071e+02,1.558000000000001251e+02,-5.459000000000017963e+02,-9.574999999999965894e+02,5.889999999999835012e+01,1.427299999999997908e+03,-4.512999999999971692e+02,1.908000000000002103e+02,-3.159999999999896048e+01,1.202000000000012534e+02,-3.187000000000048772e+02,-7.729000000000047521e+02,-3.986000000000000227e+02,-2.780000000000001847e+01,3.459999999999998010e+01,-1.509999999999999787e+01,-6.430000000000028137e+01,5.370000000000005258e+01,-1.575999999999997954e+02,6.607000000000008413e+02,-5.352999999999993861e+02,-9.777999999999997272e+02,2.934999999999989200e+02,4.116000000000001364e+02,4.930000000000070770e+01,-4.960000000000069065e+01,4.194000000000030468e+02,-4.909000000000004889e+02,-5.614999999999952252e+02,-6.295999999999975216e+02,-5.213999999999978172e+02,-6.895000000000056843e+02,-3.616000000000011028e+02,-6.293000000000020009e+02,-1.634999999999996589e+02,2.611999999999981696e+02,-1.584000000000011426e+02,7.389999999999949409e+01,8.975000000000036380e+02,1.092999999999997982e+02,1.155000000000000853e+02,4.800000000000001599e+00,5.600000000000001421e+00,-3.140000000000000924e+01,5.170000000000003126e+01,-2.920000000000003837e+01,-5.732000000000005002e+02,-2.125000000000005969e+02,-8.007000000000008413e+02,-4.851999999999957254e+02,8.231999999999977717e+02,1.014700000000003001e+03,-5.290000000000028422e+02,6.668999999999983856e+02,-1.081700000000013233e+03,-2.964999999999984652e+02,-6.484999999999936335e+02,-4.247999999999995566e+02,-1.299999999999826628e+01,-2.169999999999994884e+02,-1.249100000000016507e+03,-1.509200000000022783e+03,2.465999999999983743e+02,1.071699999999999136e+03,-1.039700000000011187e+03,-1.129700000000010277e+03,-4.712000000000034561e+02,7.850000000000055422e+01,5.101000000000006480e+02,1.429999999999997939e+01,-2.499999999999999556e+00,-3.160000000000003340e+01,1.483999999999996078e+02,9.559999999999992326e+01,-4.373000000000006366e+02,-9.570999999999949068e+02,-5.026000000000020123e+02,-5.090000000000000000e+02,-3.279999999999999716e+01,4.541000000000004775e+02,-4.824999999999982947e+02,-3.571999999999960096e+02,1.418000000000001251e+02,-1.500000000000010232e+02,9.705999999999900183e+02,-1.000000000000948575e+00,2.262000000000037971e+02,6.040000000000032969e+02,-3.747999999999987040e+02,6.023999999999963393e+02,-5.065000000000018758e+02,5.868000000000020009e+02,-1.946000000000009322e+02,-2.412000000000004434e+02,1.779000000000005741e+02,6.779999999999951399e+01,2.640000000000001137e+02,-2.080000000000000782e+01,-2.110000000000001918e+01,-2.489999999999999503e+01,8.999999999999987566e+00,-1.202000000000012676e+02,-1.498999999999999204e+02,-9.609999999999983800e+01,-5.814999999999988631e+02,-7.408000000000018872e+02,-8.977999999999972260e+02,-2.168000000000012619e+02,9.040000000000063096e+01,8.740999999999942247e+02,-9.657000000000230102e+02,5.049000000000003183e+02,-2.669000000000046384e+02,6.325000000000017053e+02,-1.713000000000032514e+02,-1.448500000000002956e+03,-2.160000000000006821e+02,7.092000000000002728e+02,-7.995000000000064801e+02,-2.014999999999994884e+02,-5.275000000000043201e+02,-5.520000000000003126e+01,-1.106999999999993918e+02,-2.221999999999974875e+02,-4.849999999999998579e+01,-2.789999999999999503e+01,-2.000000000000000888e+00,5.799999999999992717e+00,7.200000000000034106e+01,-2.812000000000008981e+02,8.500000000000021316e+00,-1.841000000000004775e+02,-4.212999999999979650e+02,-3.394999999999989768e+02,-4.155000000000042633e+02,-7.450000000000021316e+01,1.206999999999990223e+02,-6.576000000000092314e+02,-1.417000000000074635e+02,-1.167200000000001182e+03,-1.523700000000001637e+03,-1.330499999999980446e+03,-2.415999999999957026e+02,3.547000000000000455e+02,-3.736999999999979991e+02,-1.139199999999990951e+03,-1.426999999999991360e+02,-4.632999999999981924e+02,1.294999999999987494e+02,9.505000000000004547e+02,2.905999999999997385e+02,3.780999999999995111e+02,1.978000000000000682e+02,5.899999999999999289e+01,-6.140000000000000568e+01,3.190000000000000568e+01,-3.869999999999995310e+01,-5.100000000000000000e+01,-4.890000000000005542e+01,-1.684000000000011426e+02,-5.381999999999997044e+02,-5.650999999999996817e+02,3.731000000000033197e+02,-7.025000000000007958e+02,-2.398999999999984425e+02,-2.651000000000001933e+02,1.122000000000010687e+03,-4.299999999999931788e+01,5.524999999999994316e+02,2.418000000000013472e+02,-6.639999999999921556e+02,8.959999999999945430e+01,9.357000000000056161e+02,-5.788000000000057526e+02,-2.860000000000012506e+02,-1.705000000000002558e+02,8.451999999999965212e+02,7.500999999999960437e+02,8.813999999999991815e+02,4.640999999999996248e+02,3.322000000000002160e+02,1.319999999999999574e+01,0.000000000000000000e+00,4.959999999999991616e+01,7.209999999999988063e+01,-9.559999999999996589e+01,8.299999999999978684e+01,-1.692999999999992724e+02,-1.841999999999986812e+02,1.787000000000002160e+02,2.944999999999965894e+02,7.029999999999996589e+02,-5.799000000000013415e+02,7.750000000000025580e+01,3.475000000000008527e+02,-2.618000000000008072e+02,4.776000000000041155e+02,9.777000000000015234e+02,3.518000000000053547e+02,1.110799999999991769e+03,8.538999999999963393e+02,8.480000000000062244e+01,6.755000000000023874e+02,8.439999999999963620e+01,-1.623000000000000682e+02,-1.843000000000001819e+02,5.154999999999986358e+02,5.333999999999990678e+02,4.373999999999992951e+02,1.439999999999999432e+02,0.000000000000000000e+00,1.760000000000000497e+01,1.929999999999979465e+01,-1.167999999999995566e+02,5.320000000000000284e+01,3.103999999999994657e+02,-1.184999999999998721e+02,7.949999999999994316e+01,5.742000000000014097e+02,-3.719999999999997726e+02,4.881999999999925421e+02,7.769000000000000909e+02,-3.575000000000007958e+02,-8.132999999999993861e+02,4.499999999999989768e+02,-7.715999999999986585e+02,-4.785000000000005116e+02,-9.289999999999960210e+02,5.242000000000019782e+02,6.480000000000012506e+02,5.507999999999982492e+02,5.489999999999997016e+01,1.212999999999993008e+02,-3.646999999999995907e+02,1.839999999999973923e+01,6.619999999999993179e+01,1.433999999999998067e+02,3.199999999999995026e+01,1.100000000000000000e+01,6.599999999999997868e+00,-9.190000000000007674e+01,1.298000000000000398e+02,-7.900000000000002132e+00,-3.000000000000156430e-01,-4.180000000000001847e+01,-4.503999999999996930e+02,-1.099599999999999000e+03,-7.482000000000009550e+02,-1.253000000000000966e+02,-1.872999999999992156e+02,-1.110999999999996533e+02,2.390000000000001990e+01,-3.184000000000002046e+02,-2.248000000000007503e+02,2.244999999999992326e+02,-4.410000000000010800e+01,-5.309999999999921272e+01,2.231999999999999318e+02,5.606999999999985675e+02,3.521000000000009891e+02,2.187000000000014097e+02,-4.911000000000013870e+02,-2.983000000000005798e+02,1.088000000000006366e+02,0.000000000000000000e+00,6.599999999999997868e+00,1.100000000000000000e+01,4.000000000000000000e+01,-3.770000000000026574e+01
-2.750000000000000000e+00,-1.270000000000000240e+00,1.090000000000000968e+00,-3.000000000000000444e-01,-1.940000000000000613e+00,2.000000000000007674e-02,2.200000000000006672e-01,5.600000000000007194e-01,-2.229999999999994209e+00,-1.126999999999998536e+01,-1.097000000000005038e+01,-9.840000000000062030e+00,-1.482000000000000206e+01,2.580000000000000071e+01,3.899999999999403388e-01,-9.979999999999986215e+00,2.077000000000003865e+01,1.099999999999988276e+01,2.080000000000069793e+00,-1.998000000000005016e+01,1.243999999999986628e+01,-1.935999999999995325e+01,1.871999999999993136e+01,1.197999999999999510e+01,-2.399999999999999356e-01,-3.800000000000000044e-01,-6.700000000000000400e-01,-4.899999999999998801e-01,8.000000000000004885e-01,-8.600000000000003197e-01,-3.890000000000003677e+00,-1.099999999999999867e+00,-1.520000000000000462e+00,5.000000000000001665e-02,-1.760000000000000897e+00,-3.399999999999998024e-01,-6.060000000000017373e+00,-5.810000000000000497e+00,1.730000000000017968e+00,-3.109999999999991438e+00,4.430000000000007709e+00,2.340000000000003766e+01,-2.113999999999986912e+01,-1.755000000000000071e+01,-3.429999999999992610e+01,-3.689999999999988489e+01,-3.489000000000018531e+01,6.939999999999965752e+00,8.980000000000117666e+00,2.663000000000009138e+01,-1.959999999999990550e+01,-2.663999999999995438e+01,-6.600000000000001421e-01,-4.100000000000000311e-01,-5.000000000000007216e-02,-7.600000000000001199e-01,-2.439999999999985292e+00,-2.169999999999995044e+00,1.660000000000001252e+00,3.399999999999998579e-01,-2.449999999999998401e+00,-3.060000000000006271e+00,-4.140000000000000568e+00,1.150000000000000355e+00,-1.320999999999988006e+01,-5.029999999999946070e+00,-2.024999999999989697e+01,-7.010000000000017550e+00,-7.320000000000020179e+01,-6.620999999999978058e+01,-4.610000000000002096e+00,4.379000000000002046e+01,1.747999999999995069e+01,7.600000000000055600e-01,1.057000000000000384e+01,-2.520000000000012008e+00,-4.435000000000032117e+01,-4.509999999999998899e+00,1.495999999999983565e+01,-6.900000000000028777e+00,-7.100000000000002975e-01,-7.100000000000001865e-01,-1.199999999999999956e+00,-9.999999999999997780e-01,-7.399999999999997691e-01,-1.770000000000001128e+00,-9.800000000000006484e-01,-1.680000000000000604e+00,2.080000000000001403e+00,1.680000000000001270e+00,1.240000000000001323e+00,2.010000000000001119e+00,-3.410000000000005116e+01,-1.142999999999999972e+01,-2.227999999999991942e+01,-3.501000000000023960e+01,-8.705999999999986017e+01,-5.080999999999979622e+01,-6.666999999999995907e+01,-8.384999999999941167e+01,-7.492999999999960892e+01,-8.275999999999993406e+01,-6.212999999999991729e+01,-2.124999999999993250e+01,-3.699999999999990763e+01,1.196000000000002039e+01,-8.090000000000001634e+00,-3.815999999999993975e+01,-3.299999999999999600e-01,-8.000000000000004330e-02,-1.799999999999999933e-01,-4.100000000000000311e-01,1.130000000000000338e+00,-1.990000000000001545e+00,-1.290000000000000258e+00,-7.199999999999993072e-01,2.680000000000001492e+00,-5.050000000000016698e+00,-4.070000000000001172e+00,-7.530000000000002025e+00,1.069000000000000128e+01,-7.309999999999921450e+00,1.450999999999998202e+01,3.622000000000001307e+01,-8.779999999999997584e+00,-1.065699999999996805e+02,1.764000000000005031e+01,2.017000000000010473e+01,-3.297000000000004150e+01,-6.005999999999995254e+01,-1.392400000000002365e+02,-9.553999999999930992e+01,-3.600000000000058265e+01,-1.134999999999999254e+01,-4.895000000000008811e+01,1.644000000000004036e+01,-1.810000000000000497e+00,-2.200000000000001954e-01,-1.010000000000000453e+00,-1.080000000000000071e+00,-7.270000000000001350e+00,-3.109999999999994102e+00,2.400000000000001243e+00,3.879999999999996341e+00,4.299999999999997158e+00,-2.620000000000000551e+00,-1.186999999999998856e+01,-2.486999999999997613e+01,-6.752000000000008129e+01,-4.300000000000041211e+01,-2.415000000000009450e+01,-1.761999999999899202e+01,5.574999999999951683e+01,8.133999999999973340e+01,-3.511000000000043286e+01,-6.658000000000049567e+01,-6.093000000000015604e+01,1.008600000000023158e+02,-9.843999999999975614e+01,-1.118300000000003820e+02,-6.889000000000010004e+01,-4.211999999999985533e+01,-6.234000000000002473e+01,-5.697999999999917264e+01,-2.153999999999999915e+01,-9.479999999999996874e+00,-9.500000000000000666e-01,-2.099999999999999090e-01,2.390000000000000124e+00,1.600000000000007805e-01,7.999999999999961309e-02,-2.540000000000004476e+00,-3.829999999999998295e+00,-1.357999999999999119e+01,-5.533999999999988262e+01,-6.173999999999960409e+01,-9.500000000000027001e+01,-1.367999999999988248e+01,5.590000000000019043e+01,-7.510000000000005116e+00,-8.227999999999988745e+01,3.862000000000013955e+01,5.206999999999979423e+01,-4.160000000000087184e+00,4.318000000000009919e+01,1.296200000000001467e+02,6.273999999999999488e+01,-8.330000000000017835e+00,-7.025000000000002842e+01,-1.572000000000007844e+02,-5.052999999999988034e+01,-6.972999999999981924e+01,-1.524999999999999822e+01,-1.025000000000000000e+01,-6.020000000000001350e+00,-1.350000000000000089e+00,-1.000000000000000444e+00,1.900000000000004186e-01,9.000000000000005773e-01,-3.499999999999997558e-01,-1.657999999999999474e+01,-7.989000000000000057e+01,-1.095099999999999909e+02,-8.574000000000066279e+01,5.024000000000037147e+01,-7.296999999999992781e+01,7.989000000000038426e+01,-9.726000000000031775e+01,-6.108999999999977604e+01,8.410000000000238174e+00,2.241600000000019293e+02,5.805999999999926331e+01,3.397000000000011966e+01,-1.347999999999984055e+01,3.573000000000043030e+01,-4.855999999999988148e+01,-3.561999999999969901e+01,-7.921999999999928832e+01,-2.945999999999934715e+01,-7.506999999999992212e+01,-1.482000000000001094e+01,-8.330000000000000071e+00,-2.300000000000000266e+00,9.999999999999999167e-02,-1.029999999999992477e+00,-1.919999999999997931e+00,-2.647999999999981213e+01,-6.969999999999986429e+00,-2.265999999999981540e+01,-1.142900000000005036e+02,-9.039000000000002899e+01,9.969999999999958007e+00,7.218000000000000682e+01,-9.796999999999928832e+01,3.873999999999929145e+01,2.779999999999998650e+01,-8.246000000000175589e+01,1.427999999999993896e+01,-8.110000000000153975e+00,1.535999999999942389e+01,1.849999999999957456e+00,1.737000000000009337e+01,-1.106899999999988040e+02,7.069999999999946283e+01,3.959999999999990905e+01,8.995999999999931163e+01,-1.338299999999996999e+02,-1.093899999999991195e+02,-8.913000000000008072e+01,-6.123999999999998778e+01,-9.800000000000003153e-01,-5.200000000000010836e+00,9.969999999999984652e+00,-1.039999999999977476e+01,1.226000000000010637e+01,2.009999999999995346e+00,-3.185000000000003340e+01,-1.229499999999989086e+02,-1.915999999999985093e+01,-1.045000000000010942e+01,-7.377000000000019497e+01,6.012000000000013955e+01,5.950999999999950063e+01,-3.945000000000008811e+01,-1.138999999999994195e+01,-7.279000000000071680e+01,1.299999999999996021e+02,1.601900000000004525e+02,-1.107200000000037790e+02,-3.719999999999910933e+00,3.902999999999985192e+01,-9.665000000000051728e+01,-2.097999999999982990e+01,5.594999999999991758e+01,-1.804000000000036508e+01,-9.521999999999987097e+01,-8.072000000000008413e+01,-5.593000000000002814e+01,-3.809999999999995612e+00,-1.560000000000000053e+00,-2.355999999999995254e+01,1.590000000000001856e+00,-2.842000000000003368e+01,-5.424000000000051358e+01,1.142000000000005500e+01,-3.949000000000037147e+01,4.640999999999974790e+01,1.876000000000031065e+01,1.955000000000026361e+01,-2.083099999999986380e+02,1.245499999999991587e+02,6.702000000000012392e+01,9.519999999999940954e+00,-1.746500000000028194e+02,-1.169299999999999500e+02,-3.177999999999943270e+01,-8.873000000000088505e+01,-4.112999999999996703e+01,5.319999999999984652e+01,1.492499999999999716e+02,-4.784999999999991616e+01,1.578999999999955151e+01,-3.140000000000028280e+01,2.047999999999985121e+01,-1.935999999999997456e+01,-3.910000000000000586e+00,-2.910000000000001474e+00,-2.040000000000004032e+00,-2.134000000000003183e+01,8.799999999999998934e-01,-1.719000000000004036e+01,-2.195999999999998309e+01,-7.899000000000056332e+01,3.066999999999994841e+01,5.360000000000000142e+01,4.906999999999965212e+01,2.640000000000373159e+00,1.186299999999987591e+02,2.798000000000034859e+01,7.499999999997545297e-01,1.274399999999975961e+02,1.978000000000003666e+01,-1.488799999999994270e+02,7.174999999999957367e+01,4.584000000000022368e+01,-1.372999999999976772e+01,-6.952000000000006708e+01,-4.842000000000012250e+01,1.100799999999996857e+02,8.697999999999980503e+01,-5.161000000000031207e+01,1.125900000000003445e+02,-2.557000000000001450e+01,-3.399999999999999689e-01,-2.740000000000000213e+00,-3.000000000000000444e+00,-1.108999999999998032e+01,-4.899999999999749001e-01,-2.017999999999985761e+01,-3.787999999999994571e+01,-4.322999999999969134e+01,-5.509999999999971365e+00,9.410000000000033538e+01,-5.449000000000002331e+01,7.865000000000091518e+01,-1.093999999999991957e+02,-3.116999999999947590e+01,5.241000000000012449e+01,1.271199999999999051e+02,-9.966000000000050818e+01,2.959999999999999432e+01,6.062999999999937017e+01,2.416000000000010672e+01,1.901399999999993611e+02,2.516999999999996973e+01,7.245999999999952479e+01,-7.335999999999965837e+01,7.677999999999958902e+01,4.662000000000026034e+01,1.290100000000002183e+02,-4.367999999999998550e+01,-9.709999999999999076e+00,-7.080000000000003624e+00,-1.950000000000001066e+00,-1.812999999999994216e+01,-1.999999999999976463e+00,-6.889999999999987246e+00,-9.369999999999983231e+00,-3.599999999999986500e+01,2.880000000000071392e+00,-1.307999999999995033e+01,4.096000000000014296e+01,1.297100000000008890e+02,4.368999999999974904e+01,4.468000000000044025e+01,-9.198000000000067189e+01,5.438000000000029388e+01,-7.702000000000042235e+01,-4.128999999999993520e+01,8.380999999999995964e+01,-4.869999999999974705e+01,-4.877000000000053603e+01,7.947000000000056730e+01,1.861999999999978428e+01,-8.679999999999571614e+00,7.912000000000034561e+01,-5.913999999999988688e+01,1.288100000000004570e+02,-5.813999999999995794e+01,-1.391999999999999638e+01,-4.249999999999994671e+00,-6.959999999999999076e+00,-1.833999999999997144e+01,5.000000000000015099e+00,-2.970000000000003748e+00,-1.749000000000002331e+01,4.389999999999993463e+00,-3.207000000000004292e+01,-9.132999999999958618e+01,3.365999999999969816e+01,-1.168099999999996044e+02,5.538999999999956003e+01,-5.397999999999895238e+01,7.473000000000104137e+01,-1.723999999999991672e+01,1.178300000000003678e+02,-3.280999999999966832e+01,6.203999999999940940e+01,-1.329999999999741167e+00,-7.453000000000163539e+01,3.034000000000002828e+01,8.020999999999990848e+01,1.643999999999986628e+01,-7.563000000000158707e+01,8.810000000000163922e+00,-1.361000000000018950e+01,-8.914999999999990621e+01,-8.729999999999986215e+00,1.530000000000000027e+00,2.099999999999999367e-01,-9.459999999999974207e+00,-3.972000000000021913e+01,7.610000000000043840e+00,-1.902999999999996561e+01,2.544999999999976126e+01,1.557299999999999045e+02,6.764000000000011426e+01,-1.153000000000000398e+02,5.634000000000003894e+01,-1.244999999999987068e+02,4.251000000000004775e+01,2.986999999999991218e+01,-7.125000000000029843e+01,-5.690999999999907288e+01,-5.355999999999979622e+01,-9.692000000000111015e+01,1.706300000000034345e+02,4.688999999999947477e+01,-1.667600000000046521e+02,-3.170999999999983032e+01,3.858999999999977604e+01,-5.788999999999830237e+01,-4.633000000000028962e+01,-4.956999999999918316e+01,-4.459000000000003183e+01,-8.100000000000009415e-01,-5.499999999999981570e-01,-2.699999999999967426e-01,1.183000000000004803e+01,6.770000000000012008e+00,-9.139999999999979252e+00,-3.674000000000048516e+01,-2.453000000000006153e+01,-3.019999999999999218e+01,-1.567000000000009052e+01,3.391000000000002501e+01,-3.851999999999979707e+01,3.407999999999890406e+01,-2.317999999999983629e+01,3.467999999999973681e+01,1.399700000000009084e+02,8.277999999999994429e+01,-1.208300000000017462e+02,-3.436000000000105814e+01,5.308999999999901576e+01,-7.969000000000028194e+01,2.462000000000001165e+01,-1.256500000000011283e+02,6.619999999999738094e+00,-9.412999999999820488e+01,-9.384000000000014552e+01,-5.468999999999957851e+01,-3.040000000000001279e+01,-2.689999999999999947e+00,-6.500000000000001332e-01,-7.300000000000002043e-01,-2.426999999999993918e+01,2.129999999999991456e+00,-1.455000000000013571e+01,1.621999999999994557e+01,-1.320000000000006724e+00,-1.087000000000005429e+01,2.142000000000002302e+01,-7.107999999999947249e+01,-1.339400000000014757e+02,1.443800000000001944e+02,9.325999999999973511e+01,-1.489999999999815694e+00,-8.874999999999968736e+01,4.212999999999985334e+01,7.617999999999841521e+01,6.757999999999998408e+01,3.665999999999989001e+01,-1.089999999999805791e+00,7.827999999999994429e+01,-8.629000000000044679e+01,-2.145999999999986940e+01,-1.595200000000007776e+02,-1.279899999999996538e+02,-5.338999999999924029e+01,-4.858999999999996788e+01,-7.540000000000002700e+00,-3.300000000000000711e-01,-1.279999999999999583e+00,-1.999999999999995115e+00,-9.979999999999998650e+00,-1.060000000000001741e+01,3.058999999999988262e+01,-4.668999999999995509e+01,-1.345200000000001523e+02,3.126999999999992497e+01,1.506999999999998607e+01,-1.436600000000005650e+02,-6.238999999999926871e+01,-2.471000000000012164e+01,-5.506000000000005201e+01,-1.743000000000010630e+01,1.558000000000023810e+01,-5.459000000000048658e+01,-9.575000000000085265e+01,5.890000000000082281e+00,1.427300000000000466e+02,-4.512999999999981071e+01,1.908000000000029317e+01,-3.159999999999992593e+00,1.201999999999981306e+01,-3.187000000000037403e+01,-7.729000000000002046e+01,-3.985999999999997812e+01,-2.779999999999999361e+00,3.460000000000004405e+00,-1.510000000000000009e+00,-6.429999999999974847e+00,5.369999999999990337e+00,-1.575999999999989498e+01,6.607000000000010687e+01,-5.353000000000057668e+01,-9.777999999999914849e+01,2.934999999999989129e+01,4.115999999999998238e+01,4.929999999999763460e+00,-4.959999999999979536e+00,4.194000000000016826e+01,-4.909000000000008157e+01,-5.614999999999928804e+01,-6.296000000000170616e+01,-5.214000000000110191e+01,-6.895000000000020179e+01,-3.615999999999989001e+01,-6.292999999999980787e+01,-1.634999999999993037e+01,2.611999999999995126e+01,-1.583999999999989683e+01,7.390000000000003233e+00,8.975000000000061107e+01,1.092999999999997307e+01,1.155000000000000604e+01,4.799999999999998712e-01,5.600000000000002753e-01,-3.140000000000001901e+00,5.169999999999998153e+00,-2.919999999999999929e+00,-5.732000000000016371e+01,-2.125000000000001776e+01,-8.007000000000023476e+01,-4.852000000000028734e+01,8.231999999999965212e+01,1.014699999999988904e+02,-5.290000000000013358e+01,6.669000000000002615e+01,-1.081699999999986659e+02,-2.965000000000049596e+01,-6.484999999999985221e+01,-4.248000000000034504e+01,-1.300000000000182343e+00,-2.169999999999999929e+01,-1.249100000000003092e+02,-1.509199999999973727e+02,2.465999999999990067e+01,1.071700000000003570e+02,-1.039700000000007236e+02,-1.129700000000003826e+02,-4.712000000000016087e+01,7.849999999999914380e+00,5.100999999999999091e+01,1.430000000000002824e+00,-2.500000000000000555e-01,-3.159999999999997922e+00,1.484000000000006381e+01,9.560000000000037801e+00,-4.372999999999996845e+01,-9.570999999999951058e+01,-5.025999999999988432e+01,-5.090000000000033964e+01,-3.279999999999980265e+00,4.541000000000005343e+01,-4.825000000000002842e+01,-3.571999999999994202e+01,1.418000000000004057e+01,-1.499999999999983835e+01,9.705999999999926331e+01,-1.000000000001053380e-01,2.261999999999975586e+01,6.039999999999854907e+01,-3.747999999999995424e+01,6.023999999999965382e+01,-5.065000000000018332e+01,5.868000000000043315e+01,-1.945999999999990848e+01,-2.411999999999963507e+01,1.778999999999997428e+01,6.780000000000138805e+00,2.640000000000000924e+01,-2.080000000000000515e+00,-2.109999999999999432e+00,-2.490000000000001990e+00,8.999999999999999112e-01,-1.201999999999997470e+01,-1.499000000000002153e+01,-9.609999999999985221e+00,-5.814999999999983515e+01,-7.407999999999994145e+01,-8.978000000000015746e+01,-2.167999999999962313e+01,9.039999999999940528e+00,8.740999999999914394e+01,-9.656999999999965212e+01,5.048999999999946908e+01,-2.668999999999993378e+01,6.325000000000019895e+01,-1.712999999999979295e+01,-1.448500000000045986e+02,-2.160000000000045617e+01,7.091999999999974591e+01,-7.995000000000040075e+01,-2.015000000000028280e+01,-5.275000000000041211e+01,-5.520000000000077733e+00,-1.107000000000005713e+01,-2.222000000000031505e+01,-4.850000000000001421e+00,-2.789999999999999147e+00,-1.999999999999999556e-01,5.799999999999992939e-01,7.199999999999970868e+00,-2.811999999999995836e+01,8.500000000000031974e-01,-1.841000000000008185e+01,-4.212999999999982492e+01,-3.395000000000003837e+01,-4.154999999999992610e+01,-7.449999999999979750e+00,1.207000000000010687e+01,-6.575999999999999091e+01,-1.416999999999990756e+01,-1.167199999999985494e+02,-1.523700000000009425e+02,-1.330500000000002956e+02,-2.416000000000011383e+01,3.547000000000004860e+01,-3.736999999999992639e+01,-1.139200000000002007e+02,-1.426999999999994095e+01,-4.632999999999987040e+01,1.295000000000003837e+01,9.505000000000016769e+01,2.905999999999994898e+01,3.780999999999996675e+01,1.977999999999999403e+01,5.900000000000001243e+00,-6.139999999999997016e+00,3.190000000000002611e+00,-3.869999999999999218e+00,-5.100000000000013856e+00,-4.889999999999981029e+00,-1.684000000000012420e+01,-5.382000000000004292e+01,-5.650999999999996959e+01,3.730999999999978201e+01,-7.024999999999994316e+01,-2.399000000000000199e+01,-2.650999999999991985e+01,1.122000000000016939e+02,-4.299999999999856826e+00,5.524999999999943867e+01,2.417999999999972616e+01,-6.639999999999990621e+01,8.960000000000091447e+00,9.357000000000007844e+01,-5.788000000000047862e+01,-2.860000000000016129e+01,-1.705000000000006466e+01,8.451999999999941338e+01,7.500999999999997669e+01,8.813999999999983004e+01,4.640999999999998238e+01,3.321999999999996334e+01,1.320000000000000728e+00,0.000000000000000000e+00,4.960000000000003517e+00,7.210000000000009734e+00,-9.560000000000009379e+00,8.300000000000002487e+00,-1.692999999999996419e+01,-1.842000000000006921e+01,1.787000000000000099e+01,2.945000000000035101e+01,7.029999999999998295e+01,-5.798999999999977462e+01,7.749999999999958256e+00,3.475000000000024158e+01,-2.617999999999991445e+01,4.776000000000083645e+01,9.777000000000035129e+01,3.518000000000012051e+01,1.110800000000006946e+02,8.539000000000054058e+01,8.479999999999924043e+00,6.754999999999992610e+01,8.440000000000088320e+00,-1.622999999999989384e+01,-1.842999999999995708e+01,5.154999999999994031e+01,5.334000000000006025e+01,4.374000000000003752e+01,1.439999999999998614e+01,0.000000000000000000e+00,1.760000000000000453e+00,1.929999999999994831e+00,-1.167999999999999439e+01,5.320000000000002061e+00,3.104000000000000981e+01,-1.184999999999997122e+01,7.950000000000008171e+00,5.742000000000034277e+01,-3.719999999999996021e+01,4.881999999999962370e+01,7.769000000000042405e+01,-3.575000000000007816e+01,-8.132999999999962881e+01,4.499999999999994316e+01,-7.716000000000022396e+01,-4.784999999999997300e+01,-9.289999999999874092e+01,5.242000000000007276e+01,6.480000000000049454e+01,5.507999999999985619e+01,5.489999999999985114e+00,1.212999999999999545e+01,-3.646999999999996334e+01,1.839999999999988090e+00,6.619999999999986784e+00,1.434000000000001229e+01,3.200000000000001954e+00,1.100000000000000311e+00,6.600000000000003642e-01,-9.189999999999983515e+00,1.297999999999998444e+01,-7.899999999999995914e-01,-3.000000000000143871e-02,-4.179999999999999716e+00,-4.503999999999997783e+01,-1.099599999999996527e+02,-7.481999999999996476e+01,-1.253000000000001357e+01,-1.873000000000007503e+01,-1.110999999999999055e+01,2.390000000000006786e+00,-3.183999999999976538e+01,-2.247999999999994714e+01,2.244999999999975770e+01,-4.409999999999957510e+00,-5.309999999999973852e+00,2.232000000000002871e+01,5.607000000000024897e+01,3.521000000000010743e+01,2.187000000000012179e+01,-4.910999999999992127e+01,-2.982999999999994145e+01,1.087999999999999190e+01,0.000000000000000000e+00,6.600000000000003642e-01,1.100000000000000311e+00,3.999999999999993783e+00,-3.769999999999963602e+00
6.349999999999996758e-01,-1.610000000000000320e-01,1.170000000000001317e-01,-3.099999999999995814e-02,-2.140000000000001346e-01,1.300000000000001502e-02,2.300000000000012104e-02,2.600000000000013065e-02,-2.149999999999996914e-01,-9.170000000000007034e-01,-1.193999999999986183e+00,-8.780000000000005578e-01,-1.431999999999998163e+00,2.492999999999995442e+00,9.000000000000003830e-02,-9.860000000000008757e-01,2.030999999999990813e+00,1.184999999999995834e+00,3.500000000000029476e-02,-1.896000000000001906e+00,1.201999999999997515e+00,-1.998000000000007770e+00,1.839000000000002188e+00,1.360000000000016529e+00,-2.600000000000000921e-02,-3.400000000000000938e-02,-6.499999999999998834e-02,-5.300000000000001932e-02,8.800000000000007816e-02,-8.200000000000000344e-02,-3.960000000000001852e-01,-1.089999999999999858e-01,-1.570000000000000562e-01,1.100000000000000630e-02,-1.860000000000000819e-01,-1.699999999999995959e-02,-6.430000000000010152e-01,-5.860000000000001874e-01,1.570000000000004448e-01,-2.920000000000003704e-01,5.110000000000008979e-01,2.464000000000003521e+00,-1.998999999999992783e+00,-1.893000000000001792e+00,-3.390999999999985359e+00,-3.774000000000014232e+00,-3.662999999999994483e+00,6.330000000000005622e-01,7.990000000000048175e-01,2.820999999999991292e+00,-2.005999999999993566e+00,-2.645999999999985253e+00,-7.100000000000002143e-02,-4.800000000000002875e-02,-1.200000000000000025e-02,-9.200000000000002620e-02,-2.500000000000000555e-01,-2.310000000000001219e-01,1.650000000000000910e-01,4.799999999999995937e-02,-2.200000000000000289e-01,-3.220000000000001750e-01,-4.380000000000002780e-01,1.090000000000000968e-01,-1.216999999999989868e+00,-5.110000000000003428e-01,-2.053000000000017256e+00,-7.670000000000005702e-01,-7.067000000000020599e+00,-6.388999999999971813e+00,-3.589999999999997637e-01,4.347000000000041275e+00,1.771999999999999575e+00,1.080000000000001792e-01,1.243000000000001437e+00,-3.109999999999997766e-01,-4.475999999999952905e+00,-5.220000000000002416e-01,1.635999999999987242e+00,-6.640000000000007008e-01,-7.900000000000004241e-02,-6.200000000000001343e-02,-1.130000000000000449e-01,-1.000000000000000333e-01,-9.000000000000001055e-02,-1.780000000000001303e-01,-9.900000000000006017e-02,-1.620000000000000884e-01,2.210000000000001685e-01,1.750000000000000999e-01,1.420000000000001261e-01,1.910000000000001419e-01,-3.365999999999981451e+00,-1.084000000000000075e+00,-2.106999999999999762e+00,-3.287000000000017241e+00,-8.029999999999995808e+00,-4.682999999999944762e+00,-6.529000000000096726e+00,-8.310000000000057341e+00,-7.372000000000020314e+00,-8.150999999999976708e+00,-5.988000000000005763e+00,-1.940000000000001723e+00,-3.755000000000009219e+00,1.462000000000013067e+00,-7.530000000000006688e-01,-3.675000000000003375e+00,-3.300000000000000849e-02,-9.000000000000007994e-03,-1.800000000000000211e-02,-4.499999999999999833e-02,1.160000000000000198e-01,-1.900000000000001132e-01,-1.159999999999999920e-01,-9.399999999999997247e-02,2.330000000000002069e-01,-5.260000000000003562e-01,-4.000000000000002998e-01,-7.540000000000000036e-01,1.081999999999997408e+00,-4.760000000000084164e-01,7.080000000000004068e-01,2.592000000000002302e+00,-1.007999999999985796e+00,-1.052199999999995228e+01,1.730999999999971450e+00,1.824999999999976419e+00,-2.848000000000000753e+00,-5.818000000000020933e+00,-1.348399999999989163e+01,-8.256000000000003780e+00,-3.180999999999963190e+00,-1.245000000000006102e+00,-4.891000000000007120e+00,1.777999999999999137e+00,-1.850000000000000255e-01,-3.600000000000000422e-02,-1.270000000000000573e-01,-9.900000000000003242e-02,-7.630000000000004556e-01,-3.300000000000001266e-01,2.450000000000002176e-01,3.870000000000002882e-01,4.390000000000003344e-01,-2.400000000000000744e-01,-1.171999999999997266e+00,-2.445999999999986851e+00,-6.380999999999953154e+00,-4.034999999999940634e+00,-2.435000000000005382e+00,-2.225999999999995538e+00,5.271000000000040764e+00,8.108999999999900510e+00,-3.291999999999929649e+00,-5.009000000000018993e+00,-5.754999999999962590e+00,9.807999999999911012e+00,-9.856000000000028294e+00,-1.133399999999998542e+01,-6.933999999999989505e+00,-4.104000000000003645e+00,-7.016999999999977256e+00,-5.970999999999932584e+00,-2.366000000000000103e+00,-1.016999999999999682e+00,-8.700000000000000788e-02,-2.500000000000000486e-02,2.790000000000001368e-01,8.000000000000079964e-03,1.099999999999993344e-02,-2.520000000000000573e-01,-4.060000000000001386e-01,-1.574999999999997957e+00,-5.840000000000004299e+00,-6.115999999999950809e+00,-9.251000000000011880e+00,-1.852999999999997316e+00,5.887999999999991019e+00,-1.555999999999974293e+00,-7.953999999999912696e+00,3.556000000000040906e+00,4.392000000000011894e+00,-7.610000000000146647e-01,4.147999999999963272e+00,1.337200000000013489e+01,6.703000000000011838e+00,-1.032000000000008022e+00,-7.137999999999994571e+00,-1.606500000000019313e+01,-4.813999999999957424e+00,-6.960000000000007070e+00,-1.289000000000000590e+00,-7.520000000000002238e-01,-4.719999999999999751e-01,-1.180000000000000077e-01,-9.400000000000002798e-02,1.500000000000001679e-02,9.300000000000011036e-02,-3.200000000000000067e-02,-1.763999999999999568e+00,-8.491999999999995552e+00,-1.136700000000004174e+01,-8.238000000000035072e+00,5.550999999999985945e+00,-7.958000000000008178e+00,7.949000000000051358e+00,-9.783000000000022567e+00,-6.444999999999972751e+00,1.281999999999995365e+00,2.186499999999990251e+01,5.557000000000162032e+00,2.671000000000037566e+00,-2.673999999999982613e+00,3.369000000000010431e+00,-5.283000000000093621e+00,-3.143999999999990358e+00,-7.784999999999976161e+00,-1.819000000000013495e+00,-6.907999999999974605e+00,-1.496999999999998776e+00,-7.880000000000000338e-01,-2.120000000000000773e-01,7.999999999999993228e-03,-2.170000000000000817e-01,-2.279999999999999805e-01,-2.627999999999996561e+00,-7.130000000000004112e-01,-2.787000000000019018e+00,-1.175300000000010314e+01,-8.792000000000031790e+00,1.759000000000007891e+00,8.190000000000031477e+00,-1.017400000000002791e+01,4.566000000000081549e+00,2.879999999999979909e+00,-7.735000000000042064e+00,2.204999999999996518e+00,-1.181000000000014261e+00,2.130999999999989569e+00,6.119999999999869988e-01,1.128999999999987125e+00,-1.174300000000000388e+01,7.638000000000005230e+00,4.239000000000002544e+00,9.479999999999975557e+00,-1.361100000000012500e+01,-1.032500000000005258e+01,-9.005000000000006111e+00,-6.027000000000000135e+00,-9.600000000000002975e-02,-5.260000000000003562e-01,1.112000000000001210e+00,-9.410000000000053877e-01,1.267999999999994687e+00,8.000000000000484154e-03,-3.405999999999982375e+00,-1.190200000000001879e+01,-1.592999999999989980e+00,-1.438000000000007050e+00,-7.835000000000014175e+00,6.006999999999959705e+00,6.836000000000014509e+00,-3.356999999999980222e+00,-6.760000000000134790e-01,-7.330999999999949779e+00,1.364299999999995983e+01,1.721099999999998786e+01,-1.051399999999976487e+01,6.599999999999406342e-02,3.334000000000014730e+00,-9.976999999999996760e+00,-2.135000000000020215e+00,5.327999999999994074e+00,-2.499000000000007660e+00,-9.481999999999967343e+00,-8.317000000000001947e+00,-5.679999999999999716e+00,-4.370000000000002771e-01,-1.720000000000000695e-01,-2.271999999999985143e+00,-3.499999999999986455e-02,-2.706000000000003070e+00,-5.170999999999992269e+00,1.226999999999987212e+00,-3.384000000000021657e+00,4.300000000000032685e+00,1.912000000000051880e+00,1.179000000000005821e+00,-2.256700000000004636e+01,1.359500000000000597e+01,7.755000000000112692e+00,1.392999999999978922e+00,-1.707200000000002760e+01,-1.135800000000011600e+01,-2.448999999999974975e+00,-8.809000000000013486e+00,-5.822999999999987963e+00,6.002000000000002444e+00,1.415000000000002878e+01,-3.585999999999979426e+00,2.395000000000034213e+00,-2.991000000000050285e+00,2.346999999999980879e+00,-1.958000000000001295e+00,-3.940000000000002389e-01,-2.710000000000001852e-01,-2.200000000000001399e-01,-2.165999999999987935e+00,4.399999999999999745e-02,-1.570000000000002283e+00,-1.878000000000001890e+00,-8.201000000000064460e+00,2.696000000000005503e+00,4.342999999999971550e+00,4.398999999999986699e+00,1.489999999999906122e-01,1.222800000000006904e+01,3.037000000000109612e+00,-5.199999999998553002e-02,1.257500000000010054e+01,2.466999999999994753e+00,-1.524799999999997624e+01,8.323000000000050136e+00,4.243000000000006544e+00,-1.195999999999975305e+00,-6.382000000000012996e+00,-4.912000000000014133e+00,1.184900000000000553e+01,9.075999999999966761e+00,-5.666999999999966953e+00,1.082600000000008578e+01,-2.485000000000000764e+00,-9.600000000000001588e-02,-2.810000000000001386e-01,-3.020000000000002127e-01,-1.321999999999998732e+00,-3.399999999999989142e-02,-1.819999999999999396e+00,-3.616999999999975124e+00,-4.073999999999990962e+00,-7.840000000000004743e-01,9.262999999999960821e+00,-4.843999999999997641e+00,8.539999999999819735e+00,-1.104699999999994375e+01,-3.163000000000019352e+00,4.487000000000033850e+00,1.295999999999992092e+01,-1.065299999999997915e+01,3.266000000000046644e+00,5.760000000000114362e+00,3.094000000000043382e+00,1.947799999999989851e+01,2.268999999999988582e+00,7.841999999999973880e+00,-7.208999999999933905e+00,7.875999999999984347e+00,4.232999999999981888e+00,1.264199999999982715e+01,-3.890000000000001013e+00,-8.510000000000002007e-01,-7.290000000000005365e-01,-2.150000000000001354e-01,-1.777000000000010127e+00,-2.120000000000000773e-01,-8.240000000000006208e-01,-7.839999999999862634e-01,-3.697999999999993292e+00,6.409999999999949072e-01,-1.701999999999948665e+00,4.001000000000026979e+00,1.231399999999995032e+01,5.442000000000025040e+00,4.580000000000032934e+00,-9.668000000000045446e+00,5.500999999999986123e+00,-8.293999999999858375e+00,-3.847000000000011077e+00,8.325000000000011724e+00,-4.713000000000028500e+00,-4.331000000000144290e+00,8.432999999999951868e+00,2.280999999999997918e+00,-6.319999999999953433e-01,7.958000000000083674e+00,-5.309999999999983622e+00,1.226399999999996737e+01,-5.547999999999994714e+00,-1.252999999999999448e+00,-4.230000000000003202e-01,-6.640000000000004787e-01,-1.815999999999997172e+00,4.660000000000003584e-01,-3.860000000000003428e-01,-1.566999999999992399e+00,6.789999999999736247e-01,-3.868999999999991779e+00,-9.801000000000028578e+00,3.624000000000120458e+00,-1.149500000000000455e+01,5.925000000000019362e+00,-5.023000000000019227e+00,7.910999999999904553e+00,-1.122999999999977572e+00,1.307200000000005069e+01,-3.196000000000032593e+00,7.872999999999975351e+00,3.060000000000118181e-01,-7.314000000000037360e+00,3.165000000000025793e+00,7.737999999999926715e+00,2.005999999999982020e+00,-6.848999999999975330e+00,1.015999999999984915e+00,-1.849000000000018629e+00,-9.014000000000002899e+00,-9.630000000000005222e-01,1.190000000000000779e-01,-1.200000000000000025e-02,-9.940000000000007718e-01,-3.739999999999966462e+00,6.070000000000005391e-01,-1.773999999999986255e+00,3.262000000000033317e+00,1.610099999999997422e+01,6.994000000000021977e+00,-1.150400000000007239e+01,5.341000000000023284e+00,-1.185099999999993514e+01,3.907999999999980822e+00,2.899000000000007127e+00,-6.347999999999967891e+00,-5.871999999999927944e+00,-5.155000000000026894e+00,-9.282999999999843155e+00,1.715100000000028402e+01,5.247000000000064723e+00,-1.596599999999999042e+01,-3.072999999999960874e+00,3.891000000000047088e+00,-4.947999999999948884e+00,-4.883000000000013330e+00,-5.589999999999967883e+00,-5.072000000000003617e+00,-3.800000000000000044e-01,-1.360000000000002318e-01,-4.900000000000008515e-02,1.201000000000000290e+00,6.930000000000005045e-01,-8.800000000000005596e-01,-3.656000000000025008e+00,-1.796999999999993491e+00,-1.999999999999992450e+00,-1.094000000000007411e+00,3.414999999999995595e+00,-3.698999999999966537e+00,3.712000000000144961e+00,-9.919999999999636886e-01,3.313000000000028589e+00,1.442900000000039640e+01,7.721000000000032948e+00,-1.282700000000005147e+01,-2.839000000000035939e+00,4.146999999999930075e+00,-7.419000000000066208e+00,2.419999999999991491e+00,-1.219100000000002559e+01,8.939999999999986846e-01,-9.132999999999926288e+00,-9.642999999999993577e+00,-5.572000000000023157e+00,-3.324999999999998401e+00,-2.300000000000000933e-01,-7.199999999999998068e-02,-6.500000000000001610e-02,-2.329999999999998739e+00,2.919999999999999818e-01,-1.518000000000006233e+00,1.217000000000001414e+00,-1.699999999999998734e-01,-7.120000000000057394e-01,2.785000000000016573e+00,-6.771999999999960274e+00,-1.430900000000011651e+01,1.381200000000010775e+01,8.088000000000040046e+00,-6.459999999999909148e-01,-8.997000000000106468e+00,4.494000000000013983e+00,7.607000000000114781e+00,6.822000000000024045e+00,2.316999999999977522e+00,2.200000000002644285e-02,7.250000000000079936e+00,-8.053999999999966519e+00,-2.109000000000019526e+00,-1.557100000000005124e+01,-1.240300000000013370e+01,-5.116000000000020975e+00,-4.866000000000005876e+00,-5.180000000000000160e-01,-2.500000000000001527e-02,-1.150000000000000328e-01,-2.350000000000000977e-01,-1.035000000000000808e+00,-1.010000000000000453e+00,2.727000000000010083e+00,-4.869999999999990337e+00,-1.337400000000000233e+01,2.955999999999997296e+00,2.431000000000004491e+00,-1.381199999999995143e+01,-5.803000000000008818e+00,-3.248999999999984567e+00,-5.978000000000143643e+00,-1.422999999999967846e+00,1.569000000000009720e+00,-4.540999999999974612e+00,-9.576000000000053802e+00,1.369999999999774176e-01,1.380500000000013827e+01,-4.907000000000006246e+00,2.441000000000038028e+00,-1.969999999999912932e-01,1.641000000000005565e+00,-2.574999999999969091e+00,-7.635000000000017550e+00,-3.826000000000000512e+00,-2.590000000000000635e-01,3.340000000000001301e-01,-1.260000000000000009e-01,-5.400000000000000355e-01,4.610000000000001874e-01,-1.437000000000000277e+00,6.193000000000009386e+00,-5.809999999999915232e+00,-9.880999999999954042e+00,2.468999999999993644e+00,4.619999999999988560e+00,4.130000000000120242e-01,-1.175999999999999268e+00,4.406000000000015682e+00,-5.027999999999998693e+00,-5.153999999999998138e+00,-6.910999999999970278e+00,-4.866999999999995552e+00,-6.974999999999947242e+00,-3.082999999999977092e+00,-6.565000000000035030e+00,-1.340000000000006519e+00,2.357000000000023743e+00,-2.302999999999991942e+00,6.520000000000000240e-01,8.813999999999976964e+00,8.550000000000022027e-01,1.065999999999998282e+00,3.400000000000001632e-02,7.400000000000001021e-02,-3.060000000000002163e-01,5.180000000000003491e-01,-3.270000000000003459e-01,-5.621999999999999886e+00,-2.327000000000001290e+00,-8.265999999999984027e+00,-4.701999999999967095e+00,8.544000000000025352e+00,1.009600000000006048e+01,-5.794999999999993712e+00,6.549000000000102517e+00,-1.005700000000008743e+01,-3.381000000000013106e+00,-6.599999999999925926e+00,-5.178000000000009706e+00,1.110000000000414405e-01,-2.934999999999989839e+00,-1.281399999999996098e+01,-1.508899999999996844e+01,2.618999999999973571e+00,1.104700000000004678e+01,-1.100900000000000034e+01,-1.179400000000005555e+01,-5.449000000000005173e+00,3.260000000000006226e-01,4.993999999999998884e+00,1.720000000000000973e-01,-4.500000000000000527e-02,-3.340000000000001301e-01,1.354000000000005421e+00,9.420000000000008367e-01,-4.253999999999994230e+00,-9.377000000000027313e+00,-4.990000000000005542e+00,-5.041000000000018133e+00,-2.299999999999886025e-01,3.909000000000018460e+00,-4.801999999999989832e+00,-3.276999999999986812e+00,1.084999999999987752e+00,-1.361000000000017529e+00,8.963000000000040046e+00,5.370000000000084706e-01,2.037000000000080302e+00,5.659000000000061092e+00,-4.312999999999932221e+00,5.373999999999973021e+00,-5.435000000000014708e+00,5.569000000000014161e+00,-1.954999999999951665e+00,-2.682999999999981622e+00,1.706999999999998741e+00,4.169999999999948193e-01,2.507000000000001005e+00,-2.070000000000001283e-01,-2.260000000000000342e-01,-2.600000000000000644e-01,1.960000000000002296e-01,-1.117000000000000881e+00,-1.524000000000013122e+00,-1.004000000000000448e+00,-5.442000000000004611e+00,-7.072000000000011610e+00,-8.749999999999996447e+00,-2.134000000000010111e+00,1.027000000000001911e+00,8.681999999999893802e+00,-9.731999999999858986e+00,5.161999999999927979e+00,-2.338999999999967550e+00,6.530999999999980155e+00,-1.712999999999998746e+00,-1.440400000000015268e+01,-2.478000000000025516e+00,7.087000000000017508e+00,-7.677999999999944869e+00,-2.830999999999933792e+00,-4.888000000000039869e+00,-6.310000000000000053e-01,-1.177999999999997938e+00,-2.768999999999985029e+00,-6.209999999999998854e-01,-2.840000000000000302e-01,-5.800000000000002376e-02,5.899999999999996914e-02,6.790000000000004921e-01,-2.669000000000001815e+00,1.440000000000002667e-01,-1.738999999999995882e+00,-4.243000000000006544e+00,-3.855999999999990990e+00,-5.075000000000044587e+00,-4.170000000000049223e-01,1.683000000000010266e+00,-6.461999999999965993e+00,-1.358999999999984443e+00,-1.105200000000008487e+01,-1.461100000000009658e+01,-1.288899999999992829e+01,-2.858999999999980446e+00,3.980000000000006644e+00,-3.920999999999993602e+00,-1.045099999999996854e+01,-1.510000000000002673e+00,-5.234000000000012420e+00,2.042000000000003368e+00,9.622999999999963805e+00,2.798000000000002263e+00,3.586000000000022059e+00,1.869000000000002437e+00,5.560000000000003828e-01,-6.910000000000001696e-01,3.100000000000001643e-01,-3.520000000000002571e-01,-5.880000000000003002e-01,-5.140000000000003455e-01,-1.842999999999992866e+00,-5.575999999999986301e+00,-6.393000000000001570e+00,3.393000000000021998e+00,-7.188000000000020151e+00,-2.493000000000009653e+00,-3.494000000000022421e+00,1.074799999999983946e+01,2.900000000000482747e-02,5.342999999999944016e+00,3.238000000000005763e+00,-7.807999999999962526e+00,1.297999999999994269e+00,1.001599999999990231e+01,-4.679000000000022474e+00,-2.498999999999988564e+00,-1.490999999999989667e+00,9.195000000000005613e+00,7.275999999999995360e+00,8.676999999999980062e+00,4.352000000000010083e+00,3.222000000000003528e+00,1.260000000000000286e-01,0.000000000000000000e+00,4.920000000000003815e-01,6.820000000000004947e-01,-9.440000000000006164e-01,8.420000000000004148e-01,-1.601999999999995428e+00,-1.279000000000011683e+00,2.213999999999999524e+00,3.701000000000008949e+00,6.924999999999974065e+00,-5.783999999999995367e+00,3.020000000000027107e-01,3.415000000000021352e+00,-2.971000000000000529e+00,4.600000000000020961e+00,9.709999999999970655e+00,2.309000000000065889e+00,1.134900000000015829e+01,8.203999999999998849e+00,9.939999999999988844e-01,7.011999999999997790e+00,8.429999999999804317e-01,-9.720000000000152962e-01,-2.450999999999996515e+00,5.064999999999985292e+00,5.100999999999981327e+00,4.356000000000001648e+00,1.458000000000001073e+00,0.000000000000000000e+00,1.680000000000000937e-01,1.180000000000000077e-01,-1.124999999999998890e+00,5.270000000000005791e-01,3.020000000000001794e+00,-1.113999999999999879e+00,5.650000000000006128e-01,5.553000000000024805e+00,-4.237999999999996881e+00,4.601000000000013301e+00,7.540000000000039115e+00,-3.688999999999999169e+00,-7.733999999999992880e+00,4.302999999999987502e+00,-7.304999999999935767e+00,-4.733999999999997321e+00,-9.171999999999949083e+00,4.997000000000030973e+00,6.693999999999852513e+00,5.732000000000011752e+00,6.009999999999989795e-01,1.349000000000001309e+00,-3.925000000000000711e+00,2.020000000000045648e-01,5.710000000000003961e-01,1.443000000000000727e+00,3.240000000000002323e-01,1.050000000000000239e-01,6.300000000000001432e-02,-8.940000000000006830e-01,1.291999999999999593e+00,-8.800000000000005040e-02,-4.100000000000030009e-02,-4.650000000000002465e-01,-4.412999999999994039e+00,-1.051699999999998170e+01,-6.675000000000000711e+00,-1.166000000000008141e+00,-1.946999999999985631e+00,-1.108999999999999320e+00,3.110000000000001652e-01,-3.232000000000009532e+00,-2.362999999999997769e+00,2.303999999999993609e+00,1.300000000000096391e-02,1.140000000000002678e-01,2.751999999999999336e+00,5.791999999999995374e+00,3.669000000000001815e+00,2.156999999999997364e+00,-5.120000000000008988e+00,-3.093000000000004412e+00,1.135999999999999899e+00,0.000000000000000000e+00,6.300000000000001432e-02,1.050000000000000239e-01,4.050000000000002487e-01,-3.820000000000002838e-01
