5.360000000000000000e+02,-5.230000000000000000e+02,-4.900000000000000000e+01,-2.760000000000000000e+02,-8.920000000000000000e+02,-2.240000000000000000e+02,-2.310000000000000000e+02,2.850000000000000000e+02,-2.961000000000000000e+03,-1.072000000000000000e+03,-2.797000000000000000e+03,-1.960000000000000000e+03,3.500000000000000000e+01,8.300000000000000000e+02,-3.354000000000000000e+03,-1.820000000000000000e+02,5.850000000000000000e+02,-2.470000000000000000e+02,2.300000000000000000e+02,1.760000000000000000e+03,2.060000000000000000e+02,7.400000000000000000e+01,-4.800000000000000000e+01,-1.601000000000000000e+03,2.150000000000000000e+02,6.090000000000000000e+02,1.033000000000000000e+03,2.700000000000000000e+01,-1.210000000000000000e+02,-8.280000000000000000e+02,1.150000000000000000e+02,6.460000000000000000e+02,2.460000000000000000e+02,-1.060000000000000000e+02,-6.710000000000000000e+02,-3.340000000000000000e+02,-2.973000000000000000e+03,1.203000000000000000e+03,1.341000000000000000e+03,-1.449000000000000000e+03,-3.186000000000000000e+03,-3.830000000000000000e+02,-2.533000000000000000e+03,-3.192000000000000000e+03,-7.900000000000000000e+01,-3.060000000000000000e+02,1.661000000000000000e+03,-3.853000000000000000e+03,-3.938000000000000000e+03,-3.998000000000000000e+03,-1.234000000000000000e+03,1.033000000000000000e+03,1.414000000000000000e+03,3.770000000000000000e+02,1.070000000000000000e+02,-2.550000000000000000e+02,-4.880000000000000000e+02,-3.400000000000000000e+02,1.510000000000000000e+02,1.200000000000000000e+01,-2.740000000000000000e+02,9.800000000000000000e+01,-3.410000000000000000e+02,9.800000000000000000e+01,-7.880000000000000000e+02,-4.551000000000000000e+03,-3.712000000000000000e+03,-9.740000000000000000e+02,-6.051000000000000000e+03,-1.086000000000000000e+04,-1.178200000000000000e+04,-4.820000000000000000e+03,-6.140000000000000000e+03,-4.155000000000000000e+03,-2.966000000000000000e+03,-4.921000000000000000e+03,-7.206000000000000000e+03,-5.239000000000000000e+03,-4.536000000000000000e+03,-1.037000000000000000e+03,6.010000000000000000e+02,1.271000000000000000e+03,2.394000000000000000e+03,9.130000000000000000e+02,-3.210000000000000000e+02,3.910000000000000000e+02,-3.800000000000000000e+01,-7.670000000000000000e+02,-5.100000000000000000e+02,-4.310000000000000000e+02,5.800000000000000000e+01,-1.060000000000000000e+02,2.896000000000000000e+03,-2.923000000000000000e+03,-8.491000000000000000e+03,-2.478000000000000000e+03,-3.481000000000000000e+03,-2.629000000000000000e+03,-4.144000000000000000e+03,-1.178500000000000000e+04,2.051000000000000000e+03,-2.480000000000000000e+02,-2.244000000000000000e+03,1.264000000000000000e+03,-1.179500000000000000e+04,-7.173000000000000000e+03,4.565000000000000000e+03,2.780000000000000000e+03,1.361000000000000000e+03,5.890000000000000000e+02,2.370000000000000000e+02,1.055000000000000000e+03,1.750000000000000000e+02,1.430000000000000000e+02,-1.370000000000000000e+02,-1.600000000000000000e+02,-8.000000000000000000e+00,8.000000000000000000e+00,2.760000000000000000e+02,-2.561000000000000000e+03,-8.190000000000000000e+02,4.060000000000000000e+02,9.092000000000000000e+03,8.878000000000000000e+03,-4.682000000000000000e+03,4.059000000000000000e+03,-3.064000000000000000e+03,-1.531000000000000000e+03,-3.198000000000000000e+03,-1.279700000000000000e+04,6.034000000000000000e+03,-5.360000000000000000e+02,2.155000000000000000e+03,-3.952000000000000000e+03,1.364200000000000000e+04,-4.967000000000000000e+03,4.900000000000000000e+03,7.086000000000000000e+03,3.360000000000000000e+03,-3.350000000000000000e+02,-4.570000000000000000e+02,-5.280000000000000000e+02,7.300000000000000000e+01,1.380000000000000000e+02,2.570000000000000000e+02,-6.440000000000000000e+02,1.379000000000000000e+03,-1.000000000000000000e+00,-4.923000000000000000e+03,-8.696000000000000000e+03,-2.721000000000000000e+03,-3.505000000000000000e+03,-3.396000000000000000e+03,3.587000000000000000e+03,3.190000000000000000e+02,-2.846000000000000000e+03,-5.800000000000000000e+02,8.923000000000000000e+03,6.564000000000000000e+03,-8.293000000000000000e+03,-1.106000000000000000e+03,7.600000000000000000e+02,1.177300000000000000e+04,-2.470000000000000000e+03,-4.785000000000000000e+03,3.691000000000000000e+03,1.865000000000000000e+03,1.286000000000000000e+03,-1.190000000000000000e+02,-5.100000000000000000e+01,2.930000000000000000e+02,-3.280000000000000000e+02,-1.452000000000000000e+03,-1.753000000000000000e+03,-2.000000000000000000e+01,-2.917000000000000000e+03,-1.467000000000000000e+03,2.600000000000000000e+01,-5.344000000000000000e+03,-4.507000000000000000e+03,1.122100000000000000e+04,-2.948000000000000000e+03,2.920000000000000000e+02,2.898000000000000000e+03,-8.400000000000000000e+03,-8.909000000000000000e+03,7.861000000000000000e+03,3.259000000000000000e+03,7.898000000000000000e+03,1.101000000000000000e+03,5.067000000000000000e+03,-3.853000000000000000e+03,9.667000000000000000e+03,4.499000000000000000e+03,2.000000000000000000e+01,4.370000000000000000e+02,7.030000000000000000e+02,-1.430000000000000000e+02,-4.000000000000000000e+00,-9.920000000000000000e+02,-4.362000000000000000e+03,-4.853000000000000000e+03,-1.527000000000000000e+03,-3.940000000000000000e+03,5.037000000000000000e+03,1.922000000000000000e+03,6.054000000000000000e+03,-8.436000000000000000e+03,1.690000000000000000e+02,1.184000000000000000e+03,-3.000000000000000000e+00,4.334000000000000000e+03,-9.230000000000000000e+02,3.713000000000000000e+03,-1.240700000000000000e+04,4.840000000000000000e+02,7.026000000000000000e+03,-6.360000000000000000e+03,-1.177000000000000000e+03,3.386000000000000000e+03,6.985000000000000000e+03,1.269600000000000000e+04,2.385000000000000000e+03,-3.540000000000000000e+02,-2.164000000000000000e+03,3.900000000000000000e+02,-1.141000000000000000e+03,-1.442000000000000000e+03,-3.314000000000000000e+03,-5.749000000000000000e+03,6.300000000000000000e+01,-5.267000000000000000e+03,5.671000000000000000e+03,7.884000000000000000e+03,-4.135000000000000000e+03,9.601000000000000000e+03,-4.613000000000000000e+03,1.027600000000000000e+04,-9.913000000000000000e+03,1.231800000000000000e+04,-1.966000000000000000e+03,5.094000000000000000e+03,2.924000000000000000e+03,-5.000000000000000000e+00,4.836000000000000000e+03,1.071900000000000000e+04,5.687000000000000000e+03,1.330800000000000000e+04,4.171000000000000000e+03,1.693400000000000000e+04,2.765000000000000000e+03,8.950000000000000000e+02,4.300000000000000000e+02,3.590000000000000000e+02,-7.920000000000000000e+02,-4.260000000000000000e+02,-2.677000000000000000e+03,1.752000000000000000e+03,6.453000000000000000e+03,-9.433000000000000000e+03,1.939000000000000000e+03,-1.130000000000000000e+02,-1.421600000000000000e+04,1.398300000000000000e+04,-8.098000000000000000e+03,-7.000000000000000000e+01,-2.326000000000000000e+03,-1.654600000000000000e+04,-1.293800000000000000e+04,8.972000000000000000e+03,5.940000000000000000e+03,-2.948000000000000000e+03,-5.110000000000000000e+03,-2.087000000000000000e+03,-3.077000000000000000e+03,-3.451000000000000000e+03,3.796000000000000000e+03,1.761900000000000000e+04,3.175000000000000000e+03,2.421000000000000000e+03,5.890000000000000000e+02,-1.514000000000000000e+03,3.000000000000000000e+01,1.987000000000000000e+03,-5.240000000000000000e+03,-9.180000000000000000e+02,-2.310000000000000000e+03,-8.964000000000000000e+03,6.919000000000000000e+03,5.320000000000000000e+02,1.070400000000000000e+04,1.432000000000000000e+03,-1.884000000000000000e+03,6.514000000000000000e+03,1.469700000000000000e+04,9.442000000000000000e+03,-1.391900000000000000e+04,-9.345000000000000000e+03,-1.085900000000000000e+04,-7.121000000000000000e+03,9.490000000000000000e+02,-3.160000000000000000e+03,7.128000000000000000e+03,3.604000000000000000e+03,1.156600000000000000e+04,2.156800000000000000e+04,2.132000000000000000e+03,-1.240000000000000000e+02,7.100000000000000000e+01,6.740000000000000000e+02,1.770000000000000000e+02,0.000000000000000000e+00,-4.526000000000000000e+03,1.048000000000000000e+03,-3.061000000000000000e+03,-8.000000000000000000e+00,5.046000000000000000e+03,-2.070000000000000000e+02,8.130000000000000000e+02,6.666000000000000000e+03,1.905000000000000000e+03,-6.550000000000000000e+02,-5.367000000000000000e+03,2.958000000000000000e+03,-1.797000000000000000e+03,-7.704000000000000000e+03,-3.424000000000000000e+03,-5.518000000000000000e+03,-2.378100000000000000e+04,-1.124500000000000000e+04,-1.392100000000000000e+04,-8.922000000000000000e+03,-1.835000000000000000e+03,1.430800000000000000e+04,2.632000000000000000e+03,6.650000000000000000e+02,-1.769000000000000000e+03,-5.720000000000000000e+02,-6.490000000000000000e+02,5.440000000000000000e+02,-2.834000000000000000e+03,5.829000000000000000e+03,-9.000000000000000000e+00,8.659000000000000000e+03,-9.214000000000000000e+03,6.800000000000000000e+02,-4.020000000000000000e+02,1.069400000000000000e+04,-5.425000000000000000e+03,-3.746000000000000000e+03,1.151000000000000000e+03,-6.930000000000000000e+02,1.682400000000000000e+04,-1.064900000000000000e+04,1.613000000000000000e+03,6.526000000000000000e+03,3.819000000000000000e+03,-1.303800000000000000e+04,-3.976000000000000000e+03,-7.934000000000000000e+03,-2.389000000000000000e+03,5.681000000000000000e+03,2.380000000000000000e+02,-2.580000000000000000e+02,-2.760000000000000000e+02,2.940000000000000000e+02,-1.144000000000000000e+03,-3.100000000000000000e+01,1.450000000000000000e+02,-1.809000000000000000e+03,-2.137000000000000000e+03,7.582000000000000000e+03,9.931000000000000000e+03,-1.536000000000000000e+03,5.372000000000000000e+03,-3.292000000000000000e+03,1.933000000000000000e+03,9.166000000000000000e+03,-1.328000000000000000e+03,-1.082000000000000000e+04,-7.295000000000000000e+03,-1.230400000000000000e+04,6.453000000000000000e+03,1.130000000000000000e+02,6.295000000000000000e+03,3.020000000000000000e+02,-2.146200000000000000e+04,-1.617500000000000000e+04,-7.148000000000000000e+03,-1.590000000000000000e+03,4.700000000000000000e+01,1.303000000000000000e+03,7.300000000000000000e+01,-2.000000000000000000e+01,-2.343000000000000000e+03,-1.130000000000000000e+02,-6.260000000000000000e+02,-6.438000000000000000e+03,-2.441000000000000000e+03,1.291000000000000000e+03,-5.828000000000000000e+03,5.496000000000000000e+03,2.505000000000000000e+03,-2.922000000000000000e+03,1.622000000000000000e+04,-5.388000000000000000e+03,8.610000000000000000e+02,1.671000000000000000e+03,2.835000000000000000e+03,1.432200000000000000e+04,-8.400000000000000000e+03,8.962000000000000000e+03,-2.053600000000000000e+04,6.910000000000000000e+02,-1.449700000000000000e+04,-1.063000000000000000e+04,-1.153000000000000000e+03,-8.500000000000000000e+02,8.620000000000000000e+02,-2.680000000000000000e+02,-1.083000000000000000e+03,-9.190000000000000000e+02,-2.232000000000000000e+03,7.900000000000000000e+02,7.500000000000000000e+01,-4.924000000000000000e+03,-1.170800000000000000e+04,-8.287000000000000000e+03,-2.231000000000000000e+03,-1.634200000000000000e+04,1.516500000000000000e+04,-3.288000000000000000e+03,-5.000000000000000000e+01,-8.991000000000000000e+03,-3.995000000000000000e+03,2.199000000000000000e+03,-8.077000000000000000e+03,-1.960000000000000000e+03,-3.326000000000000000e+03,6.393000000000000000e+03,5.882000000000000000e+03,2.646000000000000000e+03,-1.307100000000000000e+04,-2.349000000000000000e+03,3.871000000000000000e+03,-2.248000000000000000e+03,4.150000000000000000e+02,1.080000000000000000e+03,4.694000000000000000e+03,1.482000000000000000e+03,2.364000000000000000e+03,2.615000000000000000e+03,2.355000000000000000e+03,-3.353000000000000000e+03,-3.850000000000000000e+02,-1.186500000000000000e+04,-2.016000000000000000e+03,5.281000000000000000e+03,1.121000000000000000e+03,-8.195000000000000000e+03,-1.690000000000000000e+02,7.601000000000000000e+03,-8.797000000000000000e+03,1.153000000000000000e+03,-6.889000000000000000e+03,-9.145000000000000000e+03,-8.880000000000000000e+03,3.500000000000000000e+02,-1.192000000000000000e+03,5.640000000000000000e+02,2.725000000000000000e+03,-6.070000000000000000e+02,2.395000000000000000e+03,-9.230000000000000000e+02,-7.000000000000000000e+00,9.700000000000000000e+01,-9.420000000000000000e+02,1.349000000000000000e+03,3.060000000000000000e+03,3.057000000000000000e+03,-7.230000000000000000e+02,-3.461000000000000000e+03,1.003000000000000000e+04,3.721000000000000000e+03,-4.429000000000000000e+03,-1.182200000000000000e+04,-1.016100000000000000e+04,6.324000000000000000e+03,-9.374000000000000000e+03,-6.328000000000000000e+03,-1.260100000000000000e+04,4.430000000000000000e+03,-8.480000000000000000e+02,1.355100000000000000e+04,-2.376000000000000000e+03,-4.037000000000000000e+03,-4.003000000000000000e+03,4.540000000000000000e+03,2.516000000000000000e+03,4.287000000000000000e+03,-8.080000000000000000e+02,-7.300000000000000000e+01,-2.570000000000000000e+02,-4.010000000000000000e+02,1.144000000000000000e+03,2.912000000000000000e+03,3.410000000000000000e+03,-1.290000000000000000e+02,-2.114000000000000000e+03,2.313000000000000000e+03,8.192000000000000000e+03,7.782000000000000000e+03,-1.082300000000000000e+04,-4.346000000000000000e+03,-1.280400000000000000e+04,-5.681000000000000000e+03,-9.554000000000000000e+03,2.507000000000000000e+03,-4.621000000000000000e+03,5.168000000000000000e+03,7.483000000000000000e+03,4.944000000000000000e+03,3.279000000000000000e+03,2.771000000000000000e+03,1.748000000000000000e+03,3.926000000000000000e+03,-3.932000000000000000e+03,6.860000000000000000e+02,-7.723000000000000000e+03,-5.240000000000000000e+02,-2.500000000000000000e+01,-2.430000000000000000e+02,2.191000000000000000e+03,7.660000000000000000e+02,1.370000000000000000e+02,-1.439000000000000000e+03,-2.009000000000000000e+03,-1.112600000000000000e+04,5.408000000000000000e+03,1.091000000000000000e+04,1.009600000000000000e+04,-6.152000000000000000e+03,1.435000000000000000e+03,3.094000000000000000e+03,3.754000000000000000e+03,7.787000000000000000e+03,-6.683000000000000000e+03,1.550000000000000000e+03,-9.780000000000000000e+03,-1.178000000000000000e+04,6.226000000000000000e+03,5.816000000000000000e+03,4.115000000000000000e+03,1.081000000000000000e+04,1.007400000000000000e+04,-2.745000000000000000e+03,-1.315000000000000000e+03,9.200000000000000000e+01,2.620000000000000000e+02,1.950000000000000000e+02,8.640000000000000000e+02,2.322000000000000000e+03,2.034000000000000000e+03,4.710000000000000000e+03,1.722000000000000000e+03,-2.816000000000000000e+03,-4.370000000000000000e+03,-7.129000000000000000e+03,-2.244000000000000000e+03,1.391700000000000000e+04,1.750000000000000000e+02,-2.500000000000000000e+01,-1.012400000000000000e+04,1.194600000000000000e+04,-7.939000000000000000e+03,-8.566000000000000000e+03,1.435000000000000000e+03,5.853000000000000000e+03,-8.274000000000000000e+03,-1.207900000000000000e+04,6.818000000000000000e+03,-2.836000000000000000e+03,-3.429000000000000000e+03,6.788000000000000000e+03,1.374000000000000000e+03,-5.580000000000000000e+02,-1.500000000000000000e+01,4.000000000000000000e+01,-1.570000000000000000e+02,3.078000000000000000e+03,5.970000000000000000e+02,6.516000000000000000e+03,5.465000000000000000e+03,1.705000000000000000e+03,7.462000000000000000e+03,1.538000000000000000e+03,-3.370000000000000000e+02,7.160000000000000000e+03,-3.962000000000000000e+03,6.340000000000000000e+03,-7.070000000000000000e+03,1.028000000000000000e+03,-2.880000000000000000e+02,3.869000000000000000e+03,9.823000000000000000e+03,7.590000000000000000e+02,-5.525000000000000000e+03,9.350000000000000000e+02,-4.356000000000000000e+03,-3.548000000000000000e+03,2.526000000000000000e+03,7.459000000000000000e+03,4.192000000000000000e+03,3.640000000000000000e+02,-1.150000000000000000e+02,-5.000000000000000000e+01,3.835000000000000000e+03,1.526000000000000000e+03,6.720000000000000000e+02,-2.063000000000000000e+03,-9.570000000000000000e+02,-5.174000000000000000e+03,-1.425000000000000000e+03,-1.360000000000000000e+02,-8.780000000000000000e+03,-3.080000000000000000e+02,-1.069700000000000000e+04,7.760000000000000000e+02,5.607000000000000000e+03,2.872000000000000000e+03,6.016000000000000000e+03,-4.806000000000000000e+03,-1.112700000000000000e+04,-3.608000000000000000e+03,-5.083000000000000000e+03,1.022500000000000000e+04,-1.262000000000000000e+03,8.540000000000000000e+02,7.007000000000000000e+03,2.297000000000000000e+03,5.750000000000000000e+02,-3.810000000000000000e+02,-2.880000000000000000e+02,4.780000000000000000e+02,1.111000000000000000e+03,1.017000000000000000e+03,3.932000000000000000e+03,7.040000000000000000e+02,3.210000000000000000e+02,-4.865000000000000000e+03,-4.940000000000000000e+03,1.419000000000000000e+03,3.409000000000000000e+03,2.623000000000000000e+03,-3.568000000000000000e+03,3.320000000000000000e+02,9.919000000000000000e+03,-1.650100000000000000e+04,-2.480000000000000000e+02,4.908000000000000000e+03,8.545000000000000000e+03,7.497000000000000000e+03,4.193000000000000000e+03,-9.030000000000000000e+03,-4.040000000000000000e+02,-2.567000000000000000e+03,-5.750000000000000000e+02,-1.300000000000000000e+02,-1.810000000000000000e+02,6.200000000000000000e+01,-1.970000000000000000e+02,-1.950000000000000000e+02,-5.200000000000000000e+01,-9.100000000000000000e+01,-4.660000000000000000e+02,5.690000000000000000e+02,4.012000000000000000e+03,4.681000000000000000e+03,1.432000000000000000e+03,-2.158000000000000000e+03,4.270000000000000000e+02,-9.186000000000000000e+03,2.225000000000000000e+03,-3.590000000000000000e+02,2.723000000000000000e+03,7.992000000000000000e+03,9.657000000000000000e+03,-9.159000000000000000e+03,-1.439100000000000000e+04,-1.582000000000000000e+03,3.927000000000000000e+03,-4.374000000000000000e+03,-2.055000000000000000e+03,-9.191000000000000000e+03,-1.806000000000000000e+03,-6.200000000000000000e+01,0.000000000000000000e+00,0.000000000000000000e+00,0.000000000000000000e+00,0.000000000000000000e+00,-4.110000000000000000e+02,3.030000000000000000e+02,5.810000000000000000e+02,-2.100000000000000000e+02,-3.130000000000000000e+02,1.890000000000000000e+02,-6.950000000000000000e+02,-5.175000000000000000e+03,-7.571000000000000000e+03,1.794000000000000000e+03,1.150000000000000000e+02,-3.995000000000000000e+03,-1.175600000000000000e+04,-6.601000000000000000e+03,-4.715000000000000000e+03,-3.272000000000000000e+03,3.235000000000000000e+03,7.850000000000000000e+03,-5.290000000000000000e+02,-4.172000000000000000e+03,-2.391000000000000000e+03,-8.984000000000000000e+03,-2.030000000000000000e+03,-1.480000000000000000e+02,0.000000000000000000e+00,0.000000000000000000e+00,0.000000000000000000e+00,0.000000000000000000e+00,8.000000000000000000e+01,-5.100000000000000000e+01,2.800000000000000000e+01,-1.180000000000000000e+02,-5.270000000000000000e+02,9.000000000000000000e+01,3.400000000000000000e+01,-3.510000000000000000e+02,-4.245000000000000000e+03,-5.174000000000000000e+03,-5.075000000000000000e+03,-2.014000000000000000e+03,-5.079000000000000000e+03,-3.488000000000000000e+03,-2.036000000000000000e+03,1.452000000000000000e+03,2.926000000000000000e+03,3.698000000000000000e+03,-1.827000000000000000e+03,-2.513000000000000000e+03,-2.392000000000000000e+03,-7.138000000000000000e+03,-1.902000000000000000e+03,-3.500000000000000000e+01,0.000000000000000000e+00,0.000000000000000000e+00,0.000000000000000000e+00,0.000000000000000000e+00,5.500000000000000000e+02,-2.510000000000000000e+02,-1.390000000000000000e+02,4.390000000000000000e+02,-7.000000000000000000e+00,-6.700000000000000000e+01,-1.120000000000000000e+02,-2.840000000000000000e+02,1.219000000000000000e+03,2.207000000000000000e+03,-7.230000000000000000e+02,8.520000000000000000e+02,-6.100000000000000000e+01,-3.182000000000000000e+03,3.599000000000000000e+03,-5.100000000000000000e+02,-1.263000000000000000e+03,-1.760000000000000000e+02,1.160000000000000000e+02,1.393000000000000000e+03,-2.660000000000000000e+02,-6.894000000000000000e+03,-4.099000000000000000e+03,-2.400000000000000000e+01,0.000000000000000000e+00,0.000000000000000000e+00,0.000000000000000000e+00,0.000000000000000000e+00,1.030000000000000000e+02
5.450000000000016342e+01,-5.229999999999985505e+01,-4.899999999999998579e+00,-2.760000000000009379e+01,-8.919999999999984652e+01,-2.239999999999999503e+01,-2.310000000000006182e+01,2.849999999999999645e+01,-2.960999999999986017e+02,-1.072000000000000313e+02,-2.796999999999994770e+02,-1.960000000000010232e+02,3.499999999999570122e+00,8.300000000000024158e+01,-3.354000000000031605e+02,-1.819999999999973639e+01,5.850000000000007105e+01,-2.470000000000005969e+01,2.299999999999997513e+01,1.760000000000009379e+02,2.060000000000002629e+01,7.400000000000904521e+00,-4.800000000000028244e+00,-1.600999999999996817e+02,2.149999999999999289e+01,6.090000000000000568e+01,1.033000000000000682e+02,2.700000000000003730e+00,-1.210000000000001386e+01,-8.280000000000008242e+01,1.150000000000001776e+01,6.460000000000013642e+01,2.459999999999992326e+01,-1.060000000000001386e+01,-6.709999999999996589e+01,-3.339999999999999858e+01,-2.972999999999989882e+02,1.202999999999993008e+02,1.341000000000005912e+02,-1.449000000000004320e+02,-3.185999999999993975e+02,-3.830000000000043769e+01,-2.532999999999990735e+02,-3.192000000000004434e+02,-7.900000000000106937e+00,-3.060000000000084341e+01,1.661000000000005627e+02,-3.852999999999973397e+02,-3.938000000000030241e+02,-3.997999999999979082e+02,-1.233999999999995367e+02,1.033000000000000824e+02,1.414000000000005173e+02,3.770000000000020179e+01,1.069999999999998863e+01,-2.550000000000006395e+01,-4.880000000000000426e+01,-3.399999999999996447e+01,1.510000000000000142e+01,1.199999999999991740e+00,-2.739999999999992397e+01,9.800000000000000711e+00,-3.410000000000000142e+01,9.799999999999934985e+00,-7.880000000000035243e+01,-4.551000000000016712e+02,-3.712000000000023761e+02,-9.740000000000127045e+01,-6.051000000000013870e+02,-1.086000000000000909e+03,-1.178200000000002547e+03,-4.819999999999947704e+02,-6.140000000000010232e+02,-4.155000000000027285e+02,-2.965999999999990564e+02,-4.921000000000075829e+02,-7.205999999999842203e+02,-5.239000000000044110e+02,-4.536000000000029218e+02,-1.037000000000002302e+02,6.009999999999988773e+01,1.270999999999998096e+02,2.393999999999998352e+02,9.129999999999967031e+01,-3.210000000000003695e+01,3.909999999999998721e+01,-3.799999999999994049e+00,-7.670000000000010232e+01,-5.100000000000011369e+01,-4.310000000000002274e+01,5.800000000000027356e+00,-1.060000000000001918e+01,2.896000000000015007e+02,-2.922999999999993292e+02,-8.491000000000036607e+02,-2.477999999999987040e+02,-3.481000000000047407e+02,-2.629000000000007731e+02,-4.144000000000044110e+02,-1.178499999999992269e+03,2.051000000000011028e+02,-2.479999999999964899e+01,-2.243999999999981014e+02,1.264000000000002899e+02,-1.179499999999999773e+03,-7.172999999999977945e+02,4.565000000000001705e+02,2.779999999999993179e+02,1.361000000000001648e+02,5.889999999999992752e+01,2.369999999999990692e+01,1.055000000000002132e+02,1.750000000000000000e+01,1.429999999999998828e+01,-1.370000000000000817e+01,-1.600000000000001421e+01,-8.000000000000071498e-01,8.000000000000115907e-01,2.759999999999996234e+01,-2.561000000000003070e+02,-8.189999999999997726e+01,4.059999999999844533e+01,9.091999999999986812e+02,8.877999999999976808e+02,-4.681999999999988518e+02,4.058999999999974193e+02,-3.064000000000046384e+02,-1.531000000000030923e+02,-3.197999999999992724e+02,-1.279700000000001182e+03,6.033999999999965667e+02,-5.359999999999996589e+01,2.154999999999998863e+02,-3.952000000000024329e+02,1.364199999999987767e+03,-4.966999999999944180e+02,4.899999999999993747e+02,7.085999999999988859e+02,3.360000000000024443e+02,-3.349999999999994316e+01,-4.569999999999997442e+01,-5.280000000000002558e+01,7.299999999999990052e+00,1.380000000000001847e+01,2.569999999999997797e+01,-6.440000000000006253e+01,1.379000000000000057e+02,-9.999999999998698819e-02,-4.923000000000079694e+02,-8.695999999999970669e+02,-2.720999999999997385e+02,-3.504999999999982947e+02,-3.396000000000021828e+02,3.586999999999957822e+02,3.189999999999981384e+01,-2.846000000000015575e+02,-5.799999999999669598e+01,8.923000000000010914e+02,6.563999999999934971e+02,-8.292999999999968850e+02,-1.106000000000005201e+02,7.599999999999931788e+01,1.177300000000008367e+03,-2.469999999999976694e+02,-4.784999999999997726e+02,3.690999999999991132e+02,1.865000000000013074e+02,1.286000000000001364e+02,-1.189999999999998970e+01,-5.100000000000007638e+00,2.929999999999995453e+01,-3.279999999999999716e+01,-1.451999999999998465e+02,-1.752999999999997556e+02,-1.999999999999998224e+00,-2.917000000000020350e+02,-1.467000000000011539e+02,2.600000000000846079e+00,-5.343999999999994088e+02,-4.507000000000050477e+02,1.122100000000001273e+03,-2.948000000000014325e+02,2.920000000000025864e+01,2.898000000000024556e+02,-8.400000000000161435e+02,-8.908999999999866759e+02,7.861000000000015007e+02,3.258999999999989541e+02,7.898000000000128011e+02,1.101000000000001506e+02,5.066999999999942474e+02,-3.853000000000003524e+02,9.666999999999995907e+02,4.498999999999984425e+02,2.000000000000002220e+00,4.369999999999998153e+01,7.029999999999991189e+01,-1.429999999999997939e+01,-3.999999999999999667e-01,-9.919999999999991758e+01,-4.362000000000008981e+02,-4.853000000000001819e+02,-1.527000000000001023e+02,-3.939999999999992042e+02,5.037000000000054456e+02,1.921999999999993349e+02,6.054000000000011141e+02,-8.435999999999800139e+02,1.689999999999613323e+01,1.183999999999982435e+02,-2.999999999990876631e-01,4.334000000000040700e+02,-9.230000000000157456e+01,3.712999999999955207e+02,-1.240699999999992315e+03,4.840000000000141256e+01,7.026000000000008185e+02,-6.359999999999986358e+02,-1.176999999999989512e+02,3.386000000000005912e+02,6.984999999999992042e+02,1.269599999999996726e+03,2.384999999999988916e+02,-3.540000000000010516e+01,-2.164000000000002331e+02,3.900000000000009237e+01,-1.141000000000000654e+02,-1.442000000000003581e+02,-3.313999999999996930e+02,-5.749000000000012278e+02,6.300000000001683809e+00,-5.266999999999993634e+02,5.671000000000072987e+02,7.884000000000007731e+02,-4.134999999999990337e+02,9.601000000000022965e+02,-4.613000000000004093e+02,1.027600000000004229e+03,-9.913000000000022283e+02,1.231799999999998590e+03,-1.965999999999974648e+02,5.093999999999844590e+02,2.924000000000129376e+02,-4.999999999985256238e-01,4.836000000000040018e+02,1.071900000000000318e+03,5.686999999999924285e+02,1.330799999999972897e+03,4.171000000000022396e+02,1.693400000000001000e+03,2.765000000000000000e+02,8.949999999999982947e+01,4.299999999999997158e+01,3.589999999999983515e+01,-7.919999999999980389e+01,-4.259999999999993037e+01,-2.676999999999998749e+02,1.752000000000008413e+02,6.452999999999990450e+02,-9.433000000000043883e+02,1.938999999999995794e+02,-1.129999999999905214e+01,-1.421600000000003320e+03,1.398299999999993133e+03,-8.098000000000014325e+02,-7.000000000001200817e+00,-2.326000000000044565e+02,-1.654599999999985357e+03,-1.293800000000019509e+03,8.972000000000037971e+02,5.939999999999881766e+02,-2.947999999999991019e+02,-5.109999999999976694e+02,-2.086999999999986528e+02,-3.077000000000013529e+02,-3.451000000000010459e+02,3.796000000000057071e+02,1.761900000000000773e+03,3.175000000000006253e+02,2.420999999999998238e+02,5.889999999999992042e+01,-1.514000000000000341e+02,3.000000000000011102e+00,1.987000000000010402e+02,-5.239999999999988631e+02,-9.180000000000009663e+01,-2.309999999999998579e+02,-8.963999999999995225e+02,6.918999999999989541e+02,5.320000000000297291e+01,1.070400000000006457e+03,1.432000000000047066e+02,-1.884000000000025068e+02,6.513999999999855390e+02,1.469699999999996180e+03,9.441999999999781039e+02,-1.391899999999996453e+03,-9.344999999999967031e+02,-1.085900000000000091e+03,-7.121000000000090040e+02,9.489999999999842828e+01,-3.160000000000071054e+02,7.127999999999973397e+02,3.604000000000004320e+02,1.156600000000002410e+03,2.156800000000000182e+03,2.131999999999997044e+02,-1.240000000000002522e+01,7.100000000000028066e+00,6.739999999999992042e+01,1.770000000000003126e+01,9.714451465470119729e-14,-4.525999999999996817e+02,1.048000000000001393e+02,-3.061000000000017849e+02,-8.000000000002138734e-01,5.045999999999984880e+02,-2.070000000000021600e+01,8.130000000000015348e+01,6.666000000000065029e+02,1.904999999999985505e+02,-6.549999999999964473e+01,-5.366999999999945885e+02,2.957999999999909733e+02,-1.797000000000024329e+02,-7.704000000000028194e+02,-3.424000000000100385e+02,-5.518000000000074579e+02,-2.378099999999999454e+03,-1.124499999999999545e+03,-1.392100000000004002e+03,-8.921999999999906095e+02,-1.834999999999998295e+02,1.430800000000001546e+03,2.632000000000018076e+02,6.649999999999988631e+01,-1.769000000000000625e+02,-5.719999999999987494e+01,-6.490000000000007674e+01,5.439999999999992752e+01,-2.833999999999995794e+02,5.828999999999990678e+02,-9.000000000004599876e-01,8.658999999999969077e+02,-9.213999999999981583e+02,6.799999999999995737e+01,-4.019999999999998153e+01,1.069400000000003502e+03,-5.425000000000095497e+02,-3.745999999999895635e+02,1.151000000000024670e+02,-6.930000000000225668e+01,1.682400000000032833e+03,-1.064900000000001455e+03,1.612999999999994998e+02,6.525999999999951342e+02,3.819000000000003752e+02,-1.303799999999999272e+03,-3.976000000000058776e+02,-7.933999999999937245e+02,-2.389000000000004320e+02,5.681000000000015007e+02,2.379999999999994742e+01,-2.580000000000000426e+01,-2.760000000000003340e+01,2.939999999999999858e+01,-1.143999999999999488e+02,-3.099999999999988987e+00,1.449999999999997868e+01,-1.808999999999989257e+02,-2.136999999999993918e+02,7.582000000000015234e+02,9.931000000000026375e+02,-1.536000000000033481e+02,5.371999999999973170e+02,-3.291999999999999886e+02,1.933000000000002103e+02,9.165999999999939973e+02,-1.327999999999999261e+02,-1.081999999999990905e+03,-7.294999999999989768e+02,-1.230400000000004184e+03,6.453000000000014325e+02,1.129999999999934701e+01,6.295000000000007958e+02,3.019999999999926033e+01,-2.146199999999986176e+03,-1.617500000000010687e+03,-7.147999999999988177e+02,-1.590000000000001137e+02,4.700000000000073896e+00,1.303000000000002956e+02,7.300000000000047784e+00,-2.000000000000023093e+00,-2.343000000000002956e+02,-1.129999999999990123e+01,-6.260000000000007248e+01,-6.438000000000023419e+02,-2.440999999999981753e+02,1.291000000000002501e+02,-5.827999999999963165e+02,5.496000000000055934e+02,2.505000000000005116e+02,-2.921999999999985107e+02,1.622000000000000000e+03,-5.388000000000041609e+02,8.609999999999845954e+01,1.670999999999999091e+02,2.835000000000068781e+02,1.432199999999996180e+03,-8.400000000000045475e+02,8.961999999999866304e+02,-2.053600000000004002e+03,6.910000000000042064e+01,-1.449700000000013461e+03,-1.063000000000005912e+03,-1.152999999999998693e+02,-8.500000000000009948e+01,8.620000000000011653e+01,-2.680000000000005400e+01,-1.083000000000002814e+02,-9.189999999999994884e+01,-2.231999999999999318e+02,7.899999999999985789e+01,7.500000000000060396e+00,-4.923999999999972488e+02,-1.170799999999996089e+03,-8.287000000000025466e+02,-2.230999999999918657e+02,-1.634199999999986176e+03,1.516499999999996589e+03,-3.287999999999982492e+02,-5.000000000000547118e+00,-8.991000000000138925e+02,-3.995000000000011937e+02,2.198999999999999488e+02,-8.077000000000114142e+02,-1.959999999999960210e+02,-3.326000000000100272e+02,6.393000000000047294e+02,5.882000000000032287e+02,2.645999999999996817e+02,-1.307099999999991724e+03,-2.348999999999992099e+02,3.870999999999992838e+02,-2.247999999999998408e+02,4.150000000000020606e+01,1.080000000000001279e+02,4.693999999999993520e+02,1.481999999999989086e+02,2.364000000000005741e+02,2.614999999999991473e+02,2.354999999999986358e+02,-3.352999999999992156e+02,-3.849999999999941025e+01,-1.186500000000000909e+03,-2.016000000000015575e+02,5.281000000000084356e+02,1.121000000000002785e+02,-8.195000000000028422e+02,-1.689999999999835012e+01,7.601000000000052523e+02,-8.796999999999928832e+02,1.152999999999997129e+02,-6.889000000000115733e+02,-9.145000000000006821e+02,-8.880000000000023874e+02,3.499999999999973710e+01,-1.192000000000014666e+02,5.640000000000039648e+01,2.725000000000000000e+02,-6.070000000000054996e+01,2.395000000000003126e+02,-9.230000000000003979e+01,-7.000000000000035083e-01,9.699999999999999289e+00,-9.419999999999983231e+01,1.349000000000000057e+02,3.060000000000009663e+02,3.056999999999989654e+02,-7.229999999999998295e+01,-3.460999999999977490e+02,1.003000000000015234e+03,3.721000000000019554e+02,-4.428999999999888928e+02,-1.182199999999996635e+03,-1.016099999999992065e+03,6.323999999999994088e+02,-9.373999999999888360e+02,-6.327999999999912006e+02,-1.260100000000002410e+03,4.429999999999977263e+02,-8.480000000000214300e+01,1.355099999999973079e+03,-2.375999999999983174e+02,-4.036999999999981696e+02,-4.002999999999984198e+02,4.540000000000014779e+02,2.516000000000016144e+02,4.286999999999971465e+02,-8.079999999999998295e+01,-7.299999999999998046e+00,-2.569999999999998863e+01,-4.010000000000001563e+01,1.143999999999989825e+02,2.911999999999997044e+02,3.409999999999963620e+02,-1.290000000000008740e+01,-2.114000000000003183e+02,2.312999999999998408e+02,8.192000000000080036e+02,7.782000000000037971e+02,-1.082300000000011323e+03,-4.345999999999966121e+02,-1.280400000000037153e+03,-5.680999999999933152e+02,-9.553999999999909960e+02,2.507000000000013813e+02,-4.621000000000015007e+02,5.167999999999967713e+02,7.483000000000151886e+02,4.943999999999953729e+02,3.278999999999997499e+02,2.771000000000109935e+02,1.747999999999999545e+02,3.925999999999948500e+02,-3.932000000000027171e+02,6.860000000000016485e+01,-7.723000000000007503e+02,-5.240000000000003411e+01,-2.500000000000000000e+00,-2.429999999999999005e+01,2.190999999999990848e+02,7.660000000000056275e+01,1.369999999999998685e+01,-1.439000000000002046e+02,-2.009000000000000909e+02,-1.112599999999999454e+03,5.407999999999997272e+02,1.090999999999995453e+03,1.009599999999998886e+03,-6.152000000000001592e+02,1.434999999999987494e+02,3.094000000000004889e+02,3.753999999999977035e+02,7.786999999999984539e+02,-6.683000000000015461e+02,1.550000000000017053e+02,-9.780000000000137561e+02,-1.178000000000000909e+03,6.225999999999946795e+02,5.815999999999991132e+02,4.114999999999962483e+02,1.080999999999999773e+03,1.007399999999994748e+03,-2.745000000000002842e+02,-1.314999999999999716e+02,9.200000000000002842e+00,2.620000000000001350e+01,1.950000000000000000e+01,8.639999999999974989e+01,2.321999999999997613e+02,2.033999999999998067e+02,4.710000000000015916e+02,1.722000000000001592e+02,-2.816000000000043428e+02,-4.370000000000019327e+02,-7.128999999999962256e+02,-2.244000000000000341e+02,1.391699999999967531e+03,1.749999999999959144e+01,-2.500000000000482725e+00,-1.012399999999994975e+03,1.194599999999993997e+03,-7.939000000000042974e+02,-8.565999999999963848e+02,1.434999999999982663e+02,5.853000000000023419e+02,-8.274000000000005457e+02,-1.207899999999993042e+03,6.817999999999855163e+02,-2.835999999999993975e+02,-3.429000000000052069e+02,6.788000000000009777e+02,1.374000000000000057e+02,-5.579999999999996874e+01,-1.500000000000000000e+00,4.000000000000000888e+00,-1.570000000000011475e+01,3.077999999999978513e+02,5.970000000000012363e+01,6.516000000000043428e+02,5.465000000000021600e+02,1.705000000000002274e+02,7.462000000000058435e+02,1.537999999999997556e+02,-3.369999999999601670e+01,7.160000000000062528e+02,-3.961999999999997613e+02,6.339999999999993179e+02,-7.070000000000029559e+02,1.027999999999927923e+02,-2.880000000000038440e+01,3.869000000000132786e+02,9.822999999999951797e+02,7.589999999999923830e+01,-5.525000000000028422e+02,9.350000000000220268e+01,-4.355999999999983174e+02,-3.548000000000007503e+02,2.525999999999977774e+02,7.459000000000070258e+02,4.191999999999999886e+02,3.640000000000000568e+01,-1.150000000000000000e+01,-5.000000000000000000e+00,3.835000000000010232e+02,1.526000000000014438e+02,6.720000000000025864e+01,-2.063000000000003240e+02,-9.569999999999929230e+01,-5.173999999999981583e+02,-1.425000000000001990e+02,-1.359999999999815756e+01,-8.779999999999910187e+02,-3.080000000000027782e+01,-1.069700000000005957e+03,7.759999999999890008e+01,5.606999999999908368e+02,2.871999999999925421e+02,6.016000000000116188e+02,-4.805999999999838792e+02,-1.112700000000020736e+03,-3.607999999999986471e+02,-5.083000000000008640e+02,1.022499999999997840e+03,-1.261999999999995765e+02,8.539999999999936620e+01,7.006999999999956117e+02,2.297000000000000171e+02,5.750000000000000000e+01,-3.810000000000000142e+01,-2.879999999999999716e+01,4.780000000000003268e+01,1.111000000000002501e+02,1.016999999999996049e+02,3.932000000000018076e+02,7.039999999999994884e+01,3.210000000000123066e+01,-4.865000000000009095e+02,-4.940000000000029559e+02,1.419000000000001194e+02,3.408999999999972488e+02,2.623000000000006366e+02,-3.567999999999926786e+02,3.320000000000374030e+01,9.918999999999952024e+02,-1.650099999999988540e+03,-2.479999999999888871e+01,4.908000000000053547e+02,8.545000000000111413e+02,7.497000000000085720e+02,4.192999999999968850e+02,-9.029999999999863576e+02,-4.039999999999888303e+01,-2.566999999999979423e+02,-5.749999999999999289e+01,-1.300000000000047251e+01,-1.809999999999999432e+01,6.200000000000008171e+00,-1.969999999999997797e+01,-1.950000000000000355e+01,-5.199999999999985967e+00,-9.099999999999988987e+00,-4.660000000000012932e+01,5.689999999999987068e+01,4.011999999999993065e+02,4.681000000000009891e+02,1.432000000000006423e+02,-2.158000000000004093e+02,4.269999999999929230e+01,-9.186000000000033197e+02,2.224999999999997158e+02,-3.589999999999947988e+01,2.722999999999997272e+02,7.992000000000068667e+02,9.657000000000032287e+02,-9.159000000000114596e+02,-1.439100000000002638e+03,-1.581999999999993918e+02,3.926999999999995339e+02,-4.374000000000016257e+02,-2.054999999999998863e+02,-9.191000000000015007e+02,-1.806000000000001933e+02,-6.200000000000211564e+00,0.000000000000000000e+00,0.000000000000000000e+00,0.000000000000000000e+00,0.000000000000000000e+00,-4.109999999999998721e+01,3.030000000000005400e+01,5.809999999999993037e+01,-2.099999999999998579e+01,-3.130000000000003979e+01,1.890000000000000924e+01,-6.949999999999997158e+01,-5.175000000000001137e+02,-7.571000000000016144e+02,1.793999999999998920e+02,1.150000000000062172e+01,-3.995000000000003411e+02,-1.175599999999999454e+03,-6.601000000000025238e+02,-4.715000000000009095e+02,-3.272000000000018645e+02,3.235000000000014211e+02,7.850000000000006821e+02,-5.289999999999965041e+01,-4.171999999999997044e+02,-2.390999999999995680e+02,-8.984000000000012278e+02,-2.029999999999991758e+02,-1.480000000000000426e+01,0.000000000000000000e+00,0.000000000000000000e+00,0.000000000000000000e+00,0.000000000000000000e+00,7.999999999999996447e+00,-5.100000000000007638e+00,2.799999999999999822e+00,-1.180000000000002203e+01,-5.269999999999999574e+01,8.999999999999987566e+00,3.400000000000006573e+00,-3.509999999999998721e+01,-4.244999999999990905e+02,-5.174000000000007731e+02,-5.075000000000048317e+02,-2.013999999999992099e+02,-5.078999999999992383e+02,-3.488000000000006366e+02,-2.036000000000001648e+02,1.452000000000005286e+02,2.926000000000001364e+02,3.698000000000001251e+02,-1.827000000000004718e+02,-2.513000000000009493e+02,-2.392000000000003297e+02,-7.137999999999992724e+02,-1.901999999999997044e+02,-3.500000000000019540e+00,0.000000000000000000e+00,0.000000000000000000e+00,0.000000000000000000e+00,0.000000000000000000e+00,5.500000000000007105e+01,-2.509999999999998010e+01,-1.389999999999997549e+01,4.390000000000001279e+01,-6.999999999999979572e-01,-6.699999999999993960e+00,-1.120000000000002593e+01,-2.840000000000005542e+01,1.218999999999995367e+02,2.207000000000015518e+02,-7.229999999999998295e+01,8.519999999999993179e+01,-6.099999999999837996e+00,-3.182000000000005002e+02,3.598999999999994088e+02,-5.100000000000004263e+01,-1.263000000000003524e+02,-1.760000000000029985e+01,1.160000000000003872e+01,1.392999999999999545e+02,-2.659999999999998721e+01,-6.893999999999994088e+02,-4.098999999999998636e+02,-2.399999999999991029e+00,0.000000000000000000e+00,0.000000000000000000e+00,0.000000000000000000e+00,0.000000000000000000e+00,1.029999999999997939e+01
6.349999999999985434e+00,-5.230000000000004867e+00,-4.899999999999999911e-01,-2.759999999999989129e+00,-8.920000000000028351e+00,-2.240000000000000213e+00,-2.309999999999994280e+00,2.849999999999997424e+00,-2.960999999999985022e+01,-1.071999999999998998e+01,-2.796999999999988518e+01,-1.959999999999988063e+01,3.500000000000354494e-01,8.299999999999990052e+00,-3.353999999999983572e+01,-1.820000000000039808e+00,5.849999999999988098e+00,-2.469999999999998863e+00,2.300000000000012701e+00,1.759999999999994102e+01,2.060000000000008491e+00,7.399999999999886668e-01,-4.800000000000008704e-01,-1.601000000000001222e+01,2.150000000000000799e+00,6.089999999999992752e+00,1.032999999999998586e+01,2.700000000000031264e-01,-1.210000000000000187e+00,-8.279999999999997584e+00,1.149999999999998579e+00,6.459999999999992859e+00,2.460000000000007958e+00,-1.060000000000000275e+00,-6.710000000000010623e+00,-3.340000000000010960e+00,-2.973000000000007148e+01,1.202999999999997272e+01,1.340999999999998238e+01,-1.448999999999991495e+01,-3.185999999999973298e+01,-3.829999999999985416e+00,-2.532999999999977447e+01,-3.191999999999997328e+01,-7.900000000000035882e-01,-3.060000000000046683e+00,1.660999999999989640e+01,-3.853000000000005087e+01,-3.937999999999998835e+01,-3.997999999999997556e+01,-1.234000000000003361e+01,1.032999999999999829e+01,1.413999999999997392e+01,3.769999999999960938e+00,1.070000000000002505e+00,-2.550000000000010036e+00,-4.879999999999992788e+00,-3.399999999999997691e+00,1.510000000000001341e+00,1.200000000000002870e-01,-2.740000000000005098e+00,9.799999999999985389e-01,-3.409999999999999698e+00,9.800000000000006484e-01,-7.879999999999938609e+00,-4.551000000000029644e+01,-3.711999999999970612e+01,-9.739999999999776392e+00,-6.051000000000019696e+01,-1.085999999999993832e+02,-1.178199999999992542e+02,-4.819999999999991758e+01,-6.139999999999989200e+01,-4.155000000000033822e+01,-2.966000000000006054e+01,-4.920999999999930452e+01,-7.206000000000045702e+01,-5.238999999999950319e+01,-4.536000000000012022e+01,-1.037000000000009159e+01,6.010000000000000675e+00,1.271000000000002572e+01,2.393999999999997996e+01,9.129999999999977689e+00,-3.210000000000000853e+00,3.910000000000000586e+00,-3.799999999999957856e-01,-7.669999999999988383e+00,-5.099999999999987210e+00,-4.309999999999993392e+00,5.799999999999999600e-01,-1.060000000000001386e+00,2.895999999999978414e+01,-2.923000000000005727e+01,-8.490999999999996817e+01,-2.478000000000001180e+01,-3.480999999999922778e+01,-2.628999999999992454e+01,-4.143999999999998352e+01,-1.178500000000005059e+02,2.050999999999994827e+01,-2.480000000000053717e+00,-2.244000000000021444e+01,1.263999999999999879e+01,-1.179499999999981128e+02,-7.173000000000010346e+01,4.565000000000005542e+01,2.780000000000003624e+01,1.361000000000002075e+01,5.890000000000013003e+00,2.370000000000005880e+00,1.054999999999997407e+01,1.750000000000001332e+00,1.430000000000001270e+00,-1.370000000000000107e+00,-1.600000000000000755e+00,-7.999999999999990452e-02,7.999999999999966860e-02,2.760000000000005560e+00,-2.560999999999996035e+01,-8.189999999999963975e+00,4.059999999999809539e+00,9.092000000000007276e+01,8.877999999999934744e+01,-4.682000000000041950e+01,4.059000000000050079e+01,-3.064000000000009294e+01,-1.531000000000006089e+01,-3.198000000000078202e+01,-1.279700000000020310e+02,6.034000000000008868e+01,-5.359999999999973674e+00,2.154999999999982663e+01,-3.951999999999924285e+01,1.364200000000004422e+02,-4.967000000000042803e+01,4.900000000000016342e+01,7.086000000000019838e+01,3.359999999999998721e+01,-3.350000000000004974e+00,-4.569999999999992291e+00,-5.279999999999997584e+00,7.299999999999993161e-01,1.380000000000001448e+00,2.570000000000002061e+00,-6.440000000000012825e+00,1.379000000000000981e+01,-1.000000000000267342e-02,-4.922999999999937870e+01,-8.695999999999949637e+01,-2.720999999999985519e+01,-3.504999999999986215e+01,-3.395999999999962427e+01,3.586999999999971322e+01,3.190000000000025260e+00,-2.846000000000001506e+01,-5.799999999999878142e+00,8.922999999999824183e+01,6.564000000000145008e+01,-8.293000000000095895e+01,-1.106000000000004313e+01,7.600000000000049383e+00,1.177299999999992224e+02,-2.470000000000016271e+01,-4.785000000000013642e+01,3.690999999999991843e+01,1.864999999999982805e+01,1.285999999999990884e+01,-1.190000000000000169e+00,-5.100000000000013411e-01,2.930000000000007709e+00,-3.280000000000001581e+00,-1.452000000000004221e+01,-1.753000000000000824e+01,-1.999999999999934053e-01,-2.917000000000000526e+01,-1.466999999999985249e+01,2.600000000001047584e-01,-5.343999999999986983e+01,-4.507000000000015660e+01,1.122100000000002495e+02,-2.947999999999996490e+01,2.920000000000023910e+00,2.898000000000020648e+01,-8.399999999999944578e+01,-8.908999999999899444e+01,7.860999999999889098e+01,3.258999999999942787e+01,7.897999999999937870e+01,1.100999999999992696e+01,5.066999999999996618e+01,-3.852999999999989456e+01,9.666999999999978854e+01,4.499000000000020094e+01,1.999999999999990674e-01,4.370000000000004547e+00,7.030000000000002025e+00,-1.430000000000000604e+00,-4.000000000000090983e-02,-9.920000000000008811e+00,-4.361999999999995481e+01,-4.853000000000007930e+01,-1.527000000000000490e+01,-3.939999999999987779e+01,5.036999999999968480e+01,1.922000000000002373e+01,6.054000000000007731e+01,-8.436000000000065313e+01,1.689999999999897806e+00,1.183999999999987907e+01,-2.999999999989233501e-02,4.334000000000000341e+01,-9.230000000000103455e+00,3.712999999999968281e+01,-1.240699999999998937e+02,4.839999999999963443e+00,7.026000000000048828e+01,-6.359999999999961773e+01,-1.177000000000013991e+01,3.385999999999972232e+01,6.985000000000032117e+01,1.269599999999997237e+02,2.384999999999998721e+01,-3.540000000000018687e+00,-2.163999999999984425e+01,3.900000000000004796e+00,-1.140999999999995396e+01,-1.441999999999997151e+01,-3.314000000000034873e+01,-5.748999999999996646e+01,6.299999999999490452e-01,-5.267000000000023618e+01,5.671000000000091035e+01,7.883999999999934971e+01,-4.135000000000042775e+01,9.601000000000060197e+01,-4.612999999999986045e+01,1.027599999999994367e+02,-9.913000000000013756e+01,1.231800000000012290e+02,-1.966000000000013159e+01,5.094000000000015405e+01,2.923999999999957211e+01,-4.999999999990079047e-02,4.835999999999970811e+01,1.071899999999995856e+02,5.687000000000097089e+01,1.330799999999995293e+02,4.171000000000047692e+01,1.693399999999998897e+02,2.765000000000005187e+01,8.949999999999993960e+00,4.299999999999987388e+00,3.590000000000020286e+00,-7.919999999999954632e+00,-4.259999999999998010e+00,-2.676999999999993918e+01,1.751999999999997826e+01,6.452999999999998693e+01,-9.432999999999937302e+01,1.939000000000005031e+01,-1.130000000000135341e+00,-1.421599999999999682e+02,1.398300000000005809e+02,-8.098000000000411092e+01,-6.999999999998518518e-01,-2.325999999999973156e+01,-1.654599999999979332e+02,-1.293800000000001944e+02,8.971999999999930253e+01,5.939999999999930935e+01,-2.948000000000013188e+01,-5.110000000000013642e+01,-2.087000000000022837e+01,-3.076999999999971891e+01,-3.451000000000009038e+01,3.796000000000029218e+01,1.761899999999999125e+02,3.174999999999999289e+01,2.421000000000009322e+01,5.890000000000013891e+00,-1.513999999999995794e+01,3.000000000000007661e-01,1.986999999999994770e+01,-5.240000000000016200e+01,-9.179999999999997939e+00,-2.309999999999981668e+01,-8.963999999999946056e+01,6.919000000000022510e+01,5.320000000000582929e+00,1.070400000000011005e+02,1.432000000000001450e+01,-1.883999999999989683e+01,6.514000000000078217e+01,1.469700000000005957e+02,9.441999999999831061e+01,-1.391899999999995430e+02,-9.344999999999967599e+01,-1.085899999999999750e+02,-7.120999999999928320e+01,9.489999999999938041e+00,-3.159999999999967102e+01,7.127999999999981640e+01,3.604000000000059600e+01,1.156599999999998971e+02,2.156800000000009447e+02,2.131999999999993634e+01,-1.239999999999999769e+00,7.099999999999996314e-01,6.739999999999989555e+00,1.769999999999999796e+00,-5.877243136609422436e-15,-4.525999999999998380e+01,1.048000000000000753e+01,-3.060999999999958376e+01,-7.999999999991125321e-02,5.046000000000024244e+01,-2.069999999999943441e+00,8.129999999999991900e+00,6.665999999999942816e+01,1.904999999999968097e+01,-6.550000000000052225e+00,-5.366999999999966064e+01,2.958000000000143359e+01,-1.797000000000017295e+01,-7.704000000000023363e+01,-3.423999999999948329e+01,-5.517999999999915417e+01,-2.378099999999973875e+02,-1.124500000000016797e+02,-1.392099999999999227e+02,-8.921999999999972886e+01,-1.835000000000000853e+01,1.430800000000000978e+02,2.632000000000003936e+01,6.650000000000023448e+00,-1.768999999999996220e+01,-5.720000000000012186e+00,-6.489999999999996660e+00,5.440000000000071445e+00,-2.833999999999996433e+01,5.828999999999996362e+01,-8.999999999982077892e-02,8.658999999999986130e+01,-9.214000000000093848e+01,6.799999999999879918e+00,-4.020000000000005791e+00,1.069400000000004525e+02,-5.424999999999973710e+01,-3.746000000000012875e+01,1.150999999999941537e+01,-6.930000000000335447e+00,1.682400000000008333e+02,-1.064899999999994549e+02,1.612999999999988177e+01,6.526000000000001933e+01,3.819000000000005457e+01,-1.303800000000002228e+02,-3.975999999999984880e+01,-7.934000000000011710e+01,-2.388999999999996149e+01,5.680999999999977490e+01,2.379999999999999005e+00,-2.580000000000001847e+00,-2.759999999999990461e+00,2.939999999999997282e+00,-1.144000000000000306e+01,-3.100000000000025513e-01,1.450000000000002842e+00,-1.809000000000001052e+01,-2.137000000000005073e+01,7.581999999999996476e+01,9.931000000000069861e+01,-1.536000000000049326e+01,5.371999999999980702e+01,-3.292000000000025750e+01,1.932999999999925578e+01,9.165999999999915815e+01,-1.328000000000022673e+01,-1.081999999999998749e+02,-7.295000000000004547e+01,-1.230399999999988552e+02,6.453000000000005798e+01,1.130000000000128679e+00,6.295000000000053575e+01,3.019999999999865015e+00,-2.146200000000013688e+02,-1.617499999999993179e+02,-7.148000000000014609e+01,-1.590000000000000391e+01,4.700000000000004174e-01,1.302999999999997627e+01,7.300000000000015365e-01,-1.999999999999989841e-01,-2.343000000000000327e+01,-1.129999999999999227e+00,-6.260000000000004228e+00,-6.437999999999985334e+01,-2.440999999999989711e+01,1.291000000000000014e+01,-5.828000000000047010e+01,5.495999999999940400e+01,2.504999999999960281e+01,-2.922000000000004150e+01,1.622000000000003297e+02,-5.387999999999986755e+01,8.610000000000104237e+00,1.670999999999995111e+01,2.834999999999927667e+01,1.432200000000000557e+02,-8.400000000000017053e+01,8.962000000000097089e+01,-2.053599999999995873e+02,6.910000000000048104e+00,-1.449700000000003683e+02,-1.063000000000010772e+02,-1.153000000000001002e+01,-8.499999999999989342e+00,8.620000000000002771e+00,-2.680000000000009930e+00,-1.083000000000000362e+01,-9.190000000000015490e+00,-2.231999999999998963e+01,7.899999999999983480e+00,7.499999999999917843e-01,-4.924000000000023647e+01,-1.170800000000006946e+02,-8.286999999999950717e+01,-2.231000000000004135e+01,-1.634200000000037392e+02,1.516499999999996078e+02,-3.287999999999993861e+01,-4.999999999999098499e-01,-8.991000000000032344e+01,-3.994999999999993179e+01,2.199000000000008015e+01,-8.077000000000127500e+01,-1.960000000000013642e+01,-3.325999999999934431e+01,6.392999999999944549e+01,5.881999999999938922e+01,2.645999999999977703e+01,-1.307099999999997237e+02,-2.349000000000012278e+01,3.871000000000008612e+01,-2.247999999999999332e+01,4.150000000000003020e+00,1.079999999999999183e+01,4.694000000000007589e+01,1.481999999999992923e+01,2.364000000000005741e+01,2.615000000000001279e+01,2.355000000000029559e+01,-3.352999999999973113e+01,-3.850000000000098677e+00,-1.186499999999997215e+02,-2.015999999999961645e+01,5.281000000000067729e+01,1.120999999999994046e+01,-8.194999999999912177e+01,-1.689999999999970193e+00,7.601000000000223622e+01,-8.797000000000052466e+01,1.153000000000024627e+01,-6.888999999999990109e+01,-9.144999999999950546e+01,-8.879999999999937188e+01,3.500000000000172751e+00,-1.191999999999986670e+01,5.639999999999872671e+00,2.724999999999998224e+01,-6.070000000000182361e+00,2.394999999999997797e+01,-9.229999999999996874e+00,-6.999999999999953482e-02,9.700000000000004174e-01,-9.419999999999996376e+00,1.349000000000000909e+01,3.059999999999986997e+01,3.057000000000022055e+01,-7.229999999999979998e+00,-3.460999999999992838e+01,1.002999999999996561e+02,3.720999999999990138e+01,-4.428999999999983572e+01,-1.182200000000004536e+02,-1.016100000000006389e+02,6.324000000000012278e+01,-9.374000000000212651e+01,-6.327999999999980929e+01,-1.260099999999990104e+02,4.430000000000045901e+01,-8.479999999999936477e+00,1.355099999999994793e+02,-2.375999999999961787e+01,-4.036999999999903110e+01,-4.002999999999958902e+01,4.539999999999991331e+01,2.515999999999978698e+01,4.287000000000059430e+01,-8.080000000000008953e+00,-7.300000000000002043e-01,-2.570000000000002505e+00,-4.009999999999997122e+00,1.143999999999998707e+01,2.912000000000010402e+01,3.410000000000012221e+01,-1.289999999999996927e+00,-2.114000000000004675e+01,2.312999999999997058e+01,8.192000000000062698e+01,7.781999999999946738e+01,-1.082300000000000892e+02,-4.346000000000052665e+01,-1.280399999999999920e+02,-5.680999999999961858e+01,-9.553999999999956572e+01,2.507000000000016371e+01,-4.620999999999983032e+01,5.167999999999914706e+01,7.482999999999843510e+01,4.943999999999957140e+01,3.279000000000012705e+01,2.771000000000081798e+01,1.748000000000003240e+01,3.925999999999962142e+01,-3.932000000000001450e+01,6.860000000000053610e+00,-7.723000000000001819e+01,-5.240000000000001990e+00,-2.499999999999999445e-01,-2.430000000000000160e+00,2.190999999999988646e+01,7.660000000000014353e+00,1.370000000000005436e+00,-1.439000000000002721e+01,-2.008999999999976183e+01,-1.112599999999999625e+02,5.407999999999982776e+01,1.091000000000002927e+02,1.009599999999995674e+02,-6.152000000000006708e+01,1.435000000000004050e+01,3.094000000000000483e+01,3.754000000000024784e+01,7.787000000000091404e+01,-6.683000000000005514e+01,1.550000000000007994e+01,-9.779999999999867555e+01,-1.177999999999992724e+02,6.226000000000025381e+01,5.816000000000026660e+01,4.115000000000073044e+01,1.081000000000004491e+02,1.007400000000005349e+02,-2.744999999999978968e+01,-1.315000000000000924e+01,9.200000000000002620e-01,2.619999999999999218e+00,1.950000000000000400e+00,8.639999999999991687e+00,2.321999999999989228e+01,2.033999999999996788e+01,4.710000000000007958e+01,1.721999999999996689e+01,-2.815999999999960934e+01,-4.369999999999989626e+01,-7.128999999999962256e+01,-2.243999999999937600e+01,1.391699999999995043e+02,1.750000000000008660e+00,-2.500000000000323075e-01,-1.012399999999993980e+02,1.194600000000006901e+02,-7.939000000000028479e+01,-8.566000000000158821e+01,1.435000000000027676e+01,5.853000000000017167e+01,-8.274000000000106070e+01,-1.207899999999996083e+02,6.818000000000112948e+01,-2.836000000000017707e+01,-3.428999999999996362e+01,6.788000000000000966e+01,1.374000000000000909e+01,-5.579999999999999183e+00,-1.500000000000000222e-01,4.000000000000000777e-01,-1.570000000000006724e+00,3.078000000000001180e+01,5.969999999999966889e+00,6.516000000000013870e+01,5.464999999999997016e+01,1.704999999999997584e+01,7.461999999999972033e+01,1.538000000000002032e+01,-3.369999999999940155e+00,7.160000000000000853e+01,-3.962000000000002586e+01,6.339999999999951541e+01,-7.070000000000104023e+01,1.028000000000001357e+01,-2.880000000000003002e+00,3.868999999999955719e+01,9.822999999999954923e+01,7.590000000000147296e+00,-5.525000000000018474e+01,9.349999999999591083e+00,-4.356000000000004491e+01,-3.548000000000008924e+01,2.526000000000011170e+01,7.459000000000001762e+01,4.191999999999998749e+01,3.639999999999995239e+00,-1.149999999999999911e+00,-5.000000000000000000e-01,3.835000000000031406e+01,1.525999999999995360e+01,6.719999999999941132e+00,-2.063000000000026546e+01,-9.570000000000019824e+00,-5.173999999999973198e+01,-1.424999999999970690e+01,-1.360000000000180620e+00,-8.780000000000067928e+01,-3.080000000000004512e+00,-1.069699999999984641e+02,7.759999999999870113e+00,5.607000000000056872e+01,2.872000000000068454e+01,6.015999999999915104e+01,-4.806000000000080519e+01,-1.112699999999971254e+02,-3.608000000000048146e+01,-5.083000000000018304e+01,1.022500000000000711e+02,-1.261999999999997790e+01,8.539999999999807301e+00,7.007000000000043372e+01,2.296999999999992781e+01,5.750000000000000000e+00,-3.809999999999997833e+00,-2.880000000000000338e+00,4.779999999999994920e+00,1.111000000000000476e+01,1.016999999999998927e+01,3.932000000000010687e+01,7.039999999999960956e+00,3.209999999999947562e+00,-4.864999999999981384e+01,-4.940000000000001279e+01,1.418999999999997996e+01,3.409000000000010999e+01,2.622999999999976595e+01,-3.568000000000038341e+01,3.320000000000092655e+00,9.919000000000035300e+01,-1.650099999999977740e+02,-2.479999999999784155e+00,4.908000000000088647e+01,8.545000000000111129e+01,7.496999999999972886e+01,4.193000000000081684e+01,-9.030000000000043769e+01,-4.040000000000148361e+00,-2.566999999999964643e+01,-5.749999999999890754e+00,-1.299999999999986722e+00,-1.809999999999998277e+00,6.200000000000003286e-01,-1.970000000000000417e+00,-1.950000000000000622e+00,-5.200000000000000178e-01,-9.100000000000001421e-01,-4.660000000000001918e+00,5.690000000000020819e+00,4.012000000000001876e+01,4.680999999999978911e+01,1.431999999999989548e+01,-2.157999999999998408e+01,4.269999999999894769e+00,-9.186000000000099419e+01,2.224999999999996803e+01,-3.589999999999876401e+00,2.723000000000039122e+01,7.991999999999936222e+01,9.656999999999921158e+01,-9.158999999999888075e+01,-1.439100000000002240e+02,-1.581999999999992212e+01,3.927000000000004576e+01,-4.373999999999990251e+01,-2.054999999999997229e+01,-9.191000000000006764e+01,-1.806000000000004135e+01,-6.199999999999965539e-01,0.000000000000000000e+00,0.000000000000000000e+00,0.000000000000000000e+00,0.000000000000000000e+00,-4.109999999999999432e+00,3.029999999999997140e+00,5.810000000000013820e+00,-2.100000000000002753e+00,-3.130000000000002558e+00,1.890000000000001457e+00,-6.950000000000010836e+00,-5.175000000000002842e+01,-7.570999999999941110e+01,1.794000000000000483e+01,1.150000000000062306e+00,-3.995000000000030127e+01,-1.175599999999992207e+02,-6.600999999999964984e+01,-4.714999999999986358e+01,-3.271999999999983544e+01,3.234999999999996589e+01,7.850000000000007105e+01,-5.290000000000042668e+00,-4.171999999999996334e+01,-2.391000000000006409e+01,-8.984000000000023078e+01,-2.029999999999996518e+01,-1.480000000000002203e+00,0.000000000000000000e+00,0.000000000000000000e+00,0.000000000000000000e+00,0.000000000000000000e+00,7.999999999999988232e-01,-5.100000000000001199e-01,2.799999999999996936e-01,-1.180000000000000160e+00,-5.270000000000004015e+00,8.999999999999989120e-01,3.400000000000013012e-01,-3.510000000000002451e+00,-4.245000000000010232e+01,-5.173999999999994515e+01,-5.074999999999986500e+01,-2.013999999999993307e+01,-5.079000000000011994e+01,-3.488000000000004519e+01,-2.036000000000002785e+01,1.452000000000002089e+01,2.925999999999987011e+01,3.697999999999996135e+01,-1.826999999999994273e+01,-2.513000000000008782e+01,-2.392000000000006921e+01,-7.138000000000000966e+01,-1.901999999999998892e+01,-3.500000000000008105e-01,0.000000000000000000e+00,0.000000000000000000e+00,0.000000000000000000e+00,0.000000000000000000e+00,5.499999999999994671e+00,-2.510000000000001119e+00,-1.390000000000000790e+00,4.390000000000000568e+00,-6.999999999999981237e-02,-6.700000000000001510e-01,-1.119999999999998996e+00,-2.840000000000002078e+00,1.218999999999998884e+01,2.206999999999998607e+01,-7.230000000000019078e+00,8.520000000000024443e+00,-6.099999999999952127e-01,-3.181999999999987594e+01,3.599000000000015831e+01,-5.099999999999998757e+00,-1.263000000000003098e+01,-1.759999999999978249e+00,1.160000000000003251e+00,1.392999999999998728e+01,-2.660000000000001030e+00,-6.893999999999986983e+01,-4.099000000000003041e+01,-2.399999999999986033e-01,0.000000000000000000e+00,0.000000000000000000e+00,0.000000000000000000e+00,0.000000000000000000e+00,1.030000000000000693e+00
1.517000000000001236e+00,-4.550000000000003486e-01,-4.800000000000002182e-02,-2.580000000000001736e-01,-8.430000000000005267e-01,-2.550000000000002265e-01,-2.780000000000000804e-01,3.170000000000002260e-01,-2.960999999999970989e+00,-1.123999999999998778e+00,-3.029999999999997140e+00,-1.965999999999992864e+00,-2.999999999999990175e-02,6.430000000000004601e-01,-3.382000000000002782e+00,-1.640000000000000902e-01,6.760000000000006004e-01,-1.469999999999996587e-01,2.710000000000001297e-01,1.736000000000007315e+00,3.260000000000003451e-01,1.029999999999999666e-01,-2.119999999999999107e-01,-1.445999999999997288e+00,2.350000000000001532e-01,5.710000000000003961e-01,9.710000000000006404e-01,3.300000000000001543e-02,-5.899999999999995526e-02,-8.300000000000006262e-01,1.029999999999999805e-01,6.460000000000004627e-01,2.760000000000001341e-01,-1.020000000000000628e-01,-6.790000000000004921e-01,-3.450000000000001954e-01,-3.031999999999992035e+00,1.175000000000000488e+00,1.264000000000002899e+00,-1.592999999999997529e+00,-3.445000000000005613e+00,-3.790000000000000036e-01,-2.656000000000019678e+00,-2.998000000000004661e+00,-1.619999999999999774e-01,-4.630000000000001892e-01,1.741999999999991555e+00,-3.887000000000013333e+00,-3.593000000000026617e+00,-4.034999999999970832e+00,-1.239999999999997327e+00,8.230000000000007310e-01,1.444999999999993179e+00,3.880000000000002336e-01,1.510000000000002174e-01,-1.709999999999999853e-01,-4.830000000000003735e-01,-3.790000000000002256e-01,1.490000000000001323e-01,4.499999999999999140e-02,-2.370000000000000995e-01,8.399999999999997746e-02,-3.290000000000001812e-01,1.100000000000000838e-01,-8.910000000000005693e-01,-4.613999999999960799e+00,-3.832000000000018503e+00,-4.599999999999985212e-01,-5.729000000000100457e+00,-1.109699999999999420e+01,-1.168499999999987438e+01,-4.652999999999948955e+00,-5.967000000000021842e+00,-4.206000000000043926e+00,-2.905000000000051319e+00,-4.836000000000084675e+00,-7.317000000000131621e+00,-5.319000000000120743e+00,-4.319000000000036366e+00,-9.199999999999932676e-01,5.130000000000003446e-01,1.233000000000002538e+00,2.319000000000003503e+00,9.200000000000005951e-01,-3.510000000000002562e-01,3.620000000000001550e-01,2.699999999999994765e-02,-7.620000000000005658e-01,-5.060000000000003384e-01,-4.080000000000002514e-01,5.299999999999995687e-02,-8.299999999999997657e-02,2.954999999999999627e+00,-2.958000000000005958e+00,-8.475999999999944023e+00,-2.381999999999999673e+00,-3.202000000000041702e+00,-2.433000000000034468e+00,-3.287999999999979384e+00,-1.158299999999990426e+01,2.125000000000028866e+00,-4.579999999999994076e-01,-2.569000000000047468e+00,4.430000000000083871e-01,-1.198099999999993770e+01,-6.840999999999946901e+00,4.759000000000028763e+00,2.605999999999989658e+00,1.412999999999997147e+00,5.830000000000004068e-01,2.100000000000001310e-01,1.005000000000001004e+00,1.780000000000001581e-01,1.630000000000001448e-01,-8.899999999999999578e-02,-1.960000000000000908e-01,-8.100000000000021072e-02,3.799999999999993661e-02,3.160000000000001696e-01,-2.621999999999999886e+00,-1.025000000000005018e+00,-6.400000000000739819e-02,8.204000000000020165e+00,8.918000000000020577e+00,-5.734999999999976339e+00,4.291999999999970505e+00,-2.351999999999986102e+00,-1.585999999999991195e+00,-2.330000000000048921e+00,-1.270499999999980645e+01,6.416999999999942084e+00,-5.639999999999999458e-01,1.085000000000012177e+00,-4.220000000000021956e+00,1.409399999999978981e+01,-4.578999999999947335e+00,5.268999999999991246e+00,7.202000000000001734e+00,3.374999999999995559e+00,-3.150000000000001688e-01,-4.790000000000003699e-01,-5.080000000000003402e-01,1.289999999999998925e-01,1.850000000000001643e-01,4.740000000000004210e-01,-4.470000000000000639e-01,1.244999999999998996e+00,-2.350000000000005140e-01,-5.374000000000027200e+00,-9.971999999999995978e+00,-3.232999999999994767e+00,-3.009000000000008779e+00,-3.586999999999980648e+00,3.484000000000000874e+00,1.001999999999998003e+00,-2.567999999999999172e+00,1.790000000000220859e-01,9.462999999999759382e+00,6.973000000000051379e+00,-8.825999999999933010e+00,-1.749999999999997558e+00,1.859999999999969456e-01,1.155400000000005711e+01,-2.463000000000009404e+00,-4.719999999999996199e+00,3.658000000000008356e+00,1.961000000000001853e+00,1.269999999999997353e+00,-1.170000000000000762e-01,-4.100000000000018907e-02,3.340000000000001856e-01,-2.399999999999985131e-02,-9.390000000000001679e-01,-1.318999999999997952e+00,-1.310000000000002551e-01,-2.700000000000000622e+00,-8.209999999999900711e-01,3.880000000000011218e-01,-4.918999999999995154e+00,-4.771999999999990472e+00,1.167699999999992677e+01,-2.866000000000013426e+00,7.539999999999935643e-01,2.356000000000039396e+00,-8.518999999999998352e+00,-9.607000000000068596e+00,8.418999999999941863e+00,3.094999999999973550e+00,7.151000000000004242e+00,-2.639999999999934066e-01,4.469000000000032280e+00,-5.040000000000000036e+00,8.834000000000013841e+00,4.359999999999999432e+00,1.669999999999999540e-01,5.450000000000005951e-01,7.350000000000005418e-01,-1.120000000000000440e-01,9.999999999998412936e-04,-4.829999999999998739e-01,-3.857000000000002871e+00,-4.255999999999994898e+00,-1.219000000000000528e+00,-3.342999999999999972e+00,5.492999999999976346e+00,2.724000000000000199e+00,5.402000000000027669e+00,-8.397000000000154785e+00,1.682000000000003270e+00,1.266000000000048198e+00,6.889999999999893987e-01,3.536000000000011134e+00,-2.543000000000001037e+00,3.172999999999980059e+00,-1.239100000000006396e+01,-5.429999999999928217e-01,6.622999999999952259e+00,-6.222999999999933252e+00,-1.551999999999995605e+00,2.635999999999956600e+00,7.111999999999941480e+00,1.222800000000011522e+01,2.163000000000005585e+00,-2.129999999999994675e-01,-2.172000000000001041e+00,4.940000000000001057e-01,-1.086000000000000965e+00,-9.120000000000000329e-01,-3.082999999999997964e+00,-5.169000000000001371e+00,3.080000000000053806e-01,-5.112000000000008093e+00,5.391999999999907089e+00,8.793999999999968509e+00,-5.121999999999996334e+00,9.371000000000005770e+00,-4.137000000000005784e+00,1.043300000000001404e+01,-9.949999999999985079e+00,1.226600000000010837e+01,-1.943999999999970418e+00,5.005999999999976247e+00,2.846000000000060481e+00,-6.090000000000144187e-01,4.512999999999995460e+00,1.011300000000001198e+01,5.487000000000014310e+00,1.364899999999981972e+01,5.306999999999995943e+00,1.725999999999995538e+01,2.892999999999999794e+00,9.960000000000007736e-01,4.090000000000003078e-01,4.540000000000001812e-01,-7.540000000000006697e-01,-1.480000000000001037e-01,-2.397999999999990806e+00,2.341999999999990756e+00,6.924000000000033239e+00,-8.555999999999965411e+00,2.347999999999991427e+00,7.350000000000022071e-01,-1.486400000000000610e+01,1.338300000000000090e+01,-8.393999999999769202e+00,-2.101000000000008860e+00,-1.776000000000103718e+00,-1.674699999999986133e+01,-1.313000000000016421e+01,8.389999999999922409e+00,4.871999999999961695e+00,-3.141999999999991022e+00,-4.950000000000012612e+00,-1.697000000000000508e+00,-2.656999999999993811e+00,-3.173999999999991051e+00,4.152000000000008129e+00,1.798400000000007637e+01,3.335000000000005294e+00,2.500999999999999002e+00,6.910000000000006137e-01,-1.527999999999998249e+00,4.900000000000002270e-02,2.098000000000001641e+00,-5.437999999999975742e+00,-8.710000000000008846e-01,-2.442000000000003279e+00,-8.696000000000001506e+00,7.620000000000038298e+00,4.560000000000318798e-01,1.225599999999987055e+01,5.049999999999832401e-01,-2.500000000000010214e+00,6.635000000000037090e+00,1.443200000000016203e+01,9.176999999999967628e+00,-1.404599999999992832e+01,-9.071000000000195129e+00,-1.130400000000002514e+01,-7.074999999999942446e+00,2.229999999999841276e-01,-3.427000000000077318e+00,7.952999999999986969e+00,4.097000000000023512e+00,1.152400000000001334e+01,2.168000000000003524e+01,2.292999999999989491e+00,-1.189999999999999392e-01,1.839999999999998304e-01,6.760000000000003784e-01,2.060000000000000997e-01,4.399999999999996969e-02,-4.722000000000003084e+00,1.128000000000007885e+00,-3.564999999999991509e+00,-3.650000000000016565e-01,4.610999999999956245e+00,7.200000000000494893e-02,8.810000000000063336e-01,6.505000000000138449e+00,2.052000000000006708e+00,-6.280000000000127702e-01,-4.615999999999995218e+00,3.584999999999927134e+00,-2.146000000000111818e+00,-8.477999999999964231e+00,-3.530999999999981931e+00,-5.261999999999999567e+00,-2.493400000000011829e+01,-1.149499999999969901e+01,-1.340300000000002001e+01,-8.670999999999954966e+00,-2.112999999999999545e+00,1.423199999999994958e+01,2.665999999999994596e+00,6.700000000000004841e-01,-1.703999999999989967e+00,-5.550000000000002709e-01,-6.080000000000004290e-01,5.870000000000002993e-01,-2.696999999999995623e+00,5.733999999999982222e+00,-1.227999999999967784e+00,7.521999999999954056e+00,-9.451999999999973312e+00,5.740000000000120561e-01,-7.150000000000014122e-01,1.040699999999998759e+01,-6.008999999999986130e+00,-4.339999999999988312e+00,6.160000000000193099e-01,-3.060000000000058229e-01,1.732699999999982410e+01,-1.126699999999994084e+01,8.460000000000108544e-01,6.373000000000056176e+00,3.380999999999982908e+00,-1.378200000000001957e+01,-3.954000000000026382e+00,-8.289000000000088519e+00,-2.512000000000009337e+00,5.581000000000012840e+00,1.950000000000001177e-01,-2.590000000000001745e-01,-1.730000000000000426e-01,3.119999999999999996e-01,-1.217999999999998195e+00,-3.600000000000013606e-02,7.789999999999988045e-01,-1.922999999999992715e+00,-2.780999999999991701e+00,7.754999999999997229e+00,9.440999999999972303e+00,-2.392000000000021220e+00,5.718000000000039940e+00,-3.295000000000023022e+00,2.648999999999915644e+00,9.400000000000014566e+00,-1.224000000000016630e+00,-1.108300000000016716e+01,-6.743000000000060723e+00,-1.235800000000010890e+01,6.593000000000039940e+00,-9.410000000000091624e-01,5.843000000000029281e+00,5.310000000000015818e-01,-2.116699999999991277e+01,-1.605900000000000105e+01,-6.838999999999991530e+00,-1.587000000000003519e+00,3.200000000000027128e-02,1.315999999999997394e+00,1.590000000000000857e-01,-4.699999999999977807e-02,-2.417999999999994376e+00,-7.999999999999964084e-02,-5.520000000000008233e-01,-6.302000000000021807e+00,-2.892999999999979366e+00,1.313999999999994728e+00,-6.417999999999951299e+00,5.562000000000026922e+00,1.459000000000013175e+00,-4.586000000000017174e+00,1.592600000000009608e+01,-5.184000000000035691e+00,1.007999999999990237e+00,1.816000000000010495e+00,2.690999999999961201e+00,1.460299999999996601e+01,-9.286999999999988376e+00,7.682999999999851504e+00,-2.087499999999984723e+01,2.530000000000096616e-01,-1.490500000000011660e+01,-1.034399999999990705e+01,-5.969999999999995310e-01,-7.509999999999993348e-01,9.330000000000007176e-01,-2.110000000000000764e-01,-1.065000000000000169e+00,-8.980000000000006866e-01,-2.177999999999984837e+00,6.930000000000007265e-01,-1.620000000000000329e-01,-4.872999999999987786e+00,-1.211999999999986599e+01,-7.570999999999982855e+00,-2.965000000000010072e+00,-1.632300000000015316e+01,1.462400000000009825e+01,-3.634999999999988241e+00,-9.459999999999941789e-01,-9.236000000000066379e+00,-3.609999999999982112e+00,3.160999999999998700e+00,-6.830000000000018723e+00,-2.349999999999988542e+00,-3.964000000000065693e+00,5.610999999999936705e+00,6.503000000000074721e+00,2.367999999999997662e+00,-1.365000000000008207e+01,-2.061999999999989175e+00,4.373999999999973021e+00,-2.299000000000002597e+00,3.970000000000002416e-01,1.116000000000000103e+00,4.698999999999971422e+00,1.569999999999978746e+00,2.499999999999984457e+00,2.546999999999980613e+00,2.190999999999966974e+00,-2.812000000000046018e+00,-5.400000000002356387e-02,-1.146100000000001096e+01,-2.333999999999945896e+00,5.908000000000047436e+00,5.970000000000192930e-01,-8.130999999999868777e+00,-1.929999999999900961e-01,7.026999999999967272e+00,-9.240999999999909065e+00,1.538999999999996149e+00,-7.278999999999974158e+00,-9.688000000000029033e+00,-8.820999999999973085e+00,1.248000000000001997e+00,-9.340000000000066027e-01,7.900000000000904909e-02,2.217000000000001858e+00,-5.420000000000051443e-01,2.867000000000001769e+00,-9.179999999999999272e-01,-9.999999999999479791e-04,1.080000000000000265e-01,-9.030000000000006910e-01,1.315999999999998504e+00,3.178999999999982506e+00,3.156999999999972495e+00,-6.200000000000107647e-01,-3.275000000000003464e+00,9.940999999999922565e+00,3.207000000000004736e+00,-4.768000000000014893e+00,-1.216800000000013959e+01,-9.444999999999964757e+00,6.830999999999979089e+00,-9.788999999999690615e+00,-6.117000000000013316e+00,-1.232499999999990870e+01,5.036999999999994593e+00,-4.609999999999991327e-01,1.281200000000000472e+01,-2.485999999999890520e+00,-3.389000000000028656e+00,-3.510999999999979249e+00,3.697999999999962650e+00,2.488999999999975454e+00,3.984000000000015529e+00,-3.450000000000007505e-01,-5.600000000000003586e-02,-2.570000000000000617e-01,-4.000000000000002442e-01,1.306999999999990170e+00,2.800999999999992163e+00,3.394999999999972040e+00,1.130000000000002808e-01,-1.743000000000007654e+00,2.417999999999998373e+00,7.827000000000063018e+00,8.455999999999946226e+00,-1.027800000000009994e+01,-5.042000000000044224e+00,-1.336300000000029087e+01,-5.125000000000071942e+00,-1.029999999999992966e+01,3.265999999999993797e+00,-4.364999999999993996e+00,5.035999999999961396e+00,7.900000000000103384e+00,4.887999999999926182e+00,3.420000000000057216e+00,3.199000000000163713e+00,2.669000000000004036e+00,3.199000000000008725e+00,-4.969999999999998863e+00,8.310000000000037357e-01,-7.405999999999989925e+00,-5.090000000000002300e-01,-2.000000000000000389e-02,-2.410000000000001585e-01,2.280999999999988148e+00,8.930000000000003491e-01,-3.599999999999919237e-02,-1.482000000000008644e+00,-1.952000000000033708e+00,-1.141400000000001747e+01,5.747999999999961140e+00,1.169600000000005657e+01,1.074500000000005073e+01,-7.652999999999917868e+00,1.443999999999983075e+00,3.194999999999976747e+00,3.017999999999981142e+00,8.142999999999991800e+00,-6.826999999999976865e+00,1.177000000000011370e+00,-1.009899999999996112e+01,-1.212499999999986500e+01,6.407999999999942631e+00,6.184000000000031250e+00,4.135000000000042419e+00,1.082200000000002760e+01,9.589999999999914593e+00,-2.520000000000002238e+00,-1.210000000000000187e+00,9.200000000000005396e-02,2.690000000000000724e-01,2.100000000000000200e-01,8.510000000000007558e-01,2.335999999999984311e+00,1.973999999999990651e+00,4.881000000000014438e+00,1.319999999999998508e+00,-3.654000000000013682e+00,-4.663000000000042888e+00,-7.612000000000005429e+00,-1.267000000000042093e+00,1.437399999999998101e+01,1.015000000000003677e+00,-2.180000000000198723e-01,-1.080700000000002525e+01,1.138700000000000045e+01,-7.061000000000047017e+00,-8.793999999999979167e+00,1.064000000000014046e+00,6.184000000000002828e+00,-7.903000000000043990e+00,-1.257600000000006268e+01,6.811000000000085208e+00,-2.932000000000005713e+00,-3.353999999999978332e+00,7.648999999999980481e+00,1.498999999999999888e+00,-5.100000000000003419e-01,-1.099999999999999936e-02,4.000000000000002165e-02,-1.620000000000000051e-01,3.060999999999987509e+00,5.250000000000004663e-01,6.917999999999960181e+00,5.294999999999989271e+00,2.123999999999991672e+00,7.967999999999960892e+00,1.306999999999985729e+00,-8.439999999999709956e-01,7.105999999999895067e+00,-3.904999999999979376e+00,7.291999999999980275e+00,-7.035000000000126263e+00,7.429999999999173932e-01,-6.639999999999925961e-01,3.573000000000038590e+00,9.565000000000075886e+00,1.281999999999997364e+00,-5.731000000000020300e+00,5.359999999999609521e-01,-6.053999999999929216e+00,-4.135999999999971699e+00,2.305000000000003268e+00,8.003999999999976467e+00,4.203000000000003844e+00,3.690000000000002167e-01,-1.099999999999999867e-01,-4.799999999999999406e-02,3.868999999999955808e+00,1.519999999999970264e+00,6.980000000000006199e-01,-1.577999999999978309e+00,-7.989999999999999325e-01,-4.615000000000008207e+00,-9.200000000000236877e-01,4.409999999999580922e-01,-8.104999999999964899e+00,-7.679999999999980176e-01,-1.023800000000004751e+01,8.680000000000230864e-01,5.977000000000114888e+00,2.292999999999938865e+00,5.718999999999937245e+00,-5.498000000000102361e+00,-1.042200000000035409e+01,-3.508000000000033758e+00,-4.508999999999995900e+00,9.706999999999945672e+00,-2.321000000000004615e+00,1.750000000000165312e-01,6.835999999999984311e+00,2.221000000000001418e+00,5.750000000000001776e-01,-3.740000000000002212e-01,-2.740000000000000768e-01,4.890000000000001568e-01,1.061999999999999167e+00,1.065000000000000169e+00,4.013999999999950496e+00,7.310000000000007603e-01,2.480000000000004978e-01,-4.872000000000004327e+00,-4.811000000000040799e+00,1.343999999999972328e+00,4.423000000000012477e+00,3.722000000000011966e+00,-4.490000000000001101e+00,5.149999999999478328e-01,1.019899999999999274e+01,-1.708899999999973573e+01,-1.039000000000007473e+00,4.847000000000012854e+00,8.149000000000068411e+00,7.561000000000024812e+00,4.637000000000108813e+00,-9.329999999999945004e+00,-8.170000000000152696e-01,-2.460000000000002629e+00,-7.659999999999989040e-01,-2.449999999999994404e-01,-1.679999999999999549e-01,6.799999999999999101e-02,-1.940000000000001168e-01,-1.850000000000001088e-01,-4.499999999999985956e-02,-8.399999999999996358e-02,-4.580000000000002958e-01,5.090000000000001190e-01,3.822000000000006281e+00,4.366000000000001435e+00,1.178999999999993609e+00,-1.919999999999994600e+00,6.909999999999721920e-01,-8.809000000000059671e+00,2.373999999999999222e+00,2.470000000000005247e-01,3.618000000000023419e+00,8.180999999999997385e+00,9.705000000000023164e+00,-9.021000000000015007e+00,-1.498899999999994748e+01,-1.141000000000004011e+00,4.700999999999986301e+00,-4.311000000000004384e+00,-2.407000000000001805e+00,-9.395999999999995467e+00,-2.280999999999997030e+00,-1.279999999999997251e-01,0.000000000000000000e+00,0.000000000000000000e+00,0.000000000000000000e+00,0.000000000000000000e+00,-4.300000000000002709e-01,2.940000000000000946e-01,5.980000000000000870e-01,-2.130000000000001059e-01,-2.870000000000001994e-01,1.940000000000001723e-01,-7.010000000000000675e-01,-5.188000000000002387e+00,-7.261000000000050747e+00,2.045000000000004814e+00,2.610000000000162190e-01,-3.452000000000003510e+00,-1.142100000000013971e+01,-6.713999999999988866e+00,-4.817999999999998728e+00,-3.932000000000018591e+00,3.099999999999993872e+00,8.632999999999992013e+00,2.570000000000018381e-01,-4.524000000000001798e+00,-2.974999999999996092e+00,-8.955000000000001847e+00,-2.205999999999993744e+00,-1.519999999999998852e-01,0.000000000000000000e+00,0.000000000000000000e+00,0.000000000000000000e+00,0.000000000000000000e+00,1.010000000000000064e-01,-4.600000000000001310e-02,3.100000000000000672e-02,-1.200000000000000511e-01,-5.430000000000002602e-01,1.179999999999997717e-01,5.100000000000011469e-02,-3.620000000000000440e-01,-4.605999999999994543e+00,-5.186000000000012378e+00,-4.927000000000039570e+00,-1.798999999999992161e+00,-5.388000000000000789e+00,-3.394999999999996909e+00,-1.790999999999994374e+00,1.506999999999995898e+00,3.282000000000004469e+00,3.878000000000001890e+00,-1.688000000000000833e+00,-2.751999999999998447e+00,-2.614999999999999325e+00,-6.750000000000023093e+00,-1.723000000000002085e+00,-8.000000000000001554e-02,0.000000000000000000e+00,0.000000000000000000e+00,0.000000000000000000e+00,0.000000000000000000e+00,5.210000000000003517e-01,-2.440000000000001612e-01,-1.450000000000000733e-01,4.700000000000002509e-01,-9.999999999999991535e-03,-8.900000000000002354e-02,-1.140000000000000180e-01,-2.670000000000001261e-01,1.260000000000000897e+00,2.194000000000003503e+00,-7.370000000000003215e-01,9.799999999999989830e-01,4.100000000000003642e-02,-3.058000000000006491e+00,3.823999999999984301e+00,-3.360000000000005760e-01,-1.389000000000007784e+00,-3.929999999999995719e-01,1.260000000000002507e-01,1.455000000000000515e+00,-2.030000000000001803e-01,-6.481000000000000760e+00,-3.884000000000017661e+00,-1.699999999999974101e-02,0.000000000000000000e+00,0.000000000000000000e+00,0.000000000000000000e+00,0.000000000000000000e+00,1.120000000000000856e-01
