-5.000000000000000000e+01,-5.100000000000000000e+01,-4.200000000000000000e+01,-1.700000000000000000e+01,-2.400000000000000000e+01,-8.500000000000000000e+01,-9.000000000000000000e+00,-4.600000000000000000e+01,-4.850000000000000000e+02,5.140000000000000000e+02,-4.160000000000000000e+02,-2.940000000000000000e+02,-1.970000000000000000e+02,-1.730000000000000000e+02,-3.500000000000000000e+01,-4.630000000000000000e+02,-3.160000000000000000e+02,9.180000000000000000e+02,-6.170000000000000000e+02,1.240000000000000000e+02,-6.640000000000000000e+02,1.210000000000000000e+02,-1.460000000000000000e+02,1.400000000000000000e+02,-4.700000000000000000e+01,-3.900000000000000000e+01,-1.500000000000000000e+02,-5.300000000000000000e+01,-9.300000000000000000e+01,-3.300000000000000000e+01,-4.800000000000000000e+01,-4.900000000000000000e+01,-1.600000000000000000e+01,-2.000000000000000000e+00,-6.200000000000000000e+01,-5.300000000000000000e+01,2.680000000000000000e+02,6.900000000000000000e+01,-4.350000000000000000e+02,-2.290000000000000000e+02,-2.590000000000000000e+02,-5.840000000000000000e+02,1.280000000000000000e+02,-5.750000000000000000e+02,4.420000000000000000e+02,-9.050000000000000000e+02,-2.620000000000000000e+02,-1.160000000000000000e+02,2.760000000000000000e+02,-5.100000000000000000e+01,-4.740000000000000000e+02,-2.620000000000000000e+02,-1.300000000000000000e+01,-5.800000000000000000e+01,-6.400000000000000000e+01,-7.500000000000000000e+01,-7.600000000000000000e+01,-4.800000000000000000e+01,-3.200000000000000000e+01,-2.700000000000000000e+01,-2.400000000000000000e+01,-3.900000000000000000e+01,-5.100000000000000000e+01,-1.230000000000000000e+02,9.800000000000000000e+01,2.570000000000000000e+02,1.970000000000000000e+02,-4.450000000000000000e+02,-7.790000000000000000e+02,-7.540000000000000000e+02,-1.906000000000000000e+03,-1.277000000000000000e+03,-1.085000000000000000e+03,-5.920000000000000000e+02,5.640000000000000000e+02,-5.580000000000000000e+02,-9.700000000000000000e+02,-1.008000000000000000e+03,3.130000000000000000e+02,-2.740000000000000000e+02,-1.240000000000000000e+02,-1.540000000000000000e+02,-9.700000000000000000e+01,-2.560000000000000000e+02,-1.900000000000000000e+01,-3.800000000000000000e+01,-3.800000000000000000e+01,-1.330000000000000000e+02,-3.600000000000000000e+01,-2.400000000000000000e+01,-3.100000000000000000e+01,-1.680000000000000000e+02,-6.700000000000000000e+01,-1.280000000000000000e+03,-1.792000000000000000e+03,-3.613000000000000000e+03,-5.081000000000000000e+03,-3.168000000000000000e+03,-3.638000000000000000e+03,-3.638000000000000000e+03,-2.183000000000000000e+03,-2.028000000000000000e+03,-1.630000000000000000e+03,-2.244000000000000000e+03,-1.466000000000000000e+03,-1.549000000000000000e+03,4.500000000000000000e+01,-6.240000000000000000e+02,4.000000000000000000e+00,-1.040000000000000000e+02,-4.100000000000000000e+01,-1.600000000000000000e+01,-7.600000000000000000e+01,-5.500000000000000000e+01,-1.600000000000000000e+01,-2.800000000000000000e+01,-9.900000000000000000e+01,-1.690000000000000000e+02,-2.360000000000000000e+02,-3.850000000000000000e+02,1.217000000000000000e+03,-7.210000000000000000e+02,-2.807000000000000000e+03,-9.320000000000000000e+02,-3.504000000000000000e+03,-2.760000000000000000e+02,-6.260000000000000000e+02,-3.584000000000000000e+03,-3.399000000000000000e+03,2.144000000000000000e+03,2.588000000000000000e+03,-2.953000000000000000e+03,-1.603000000000000000e+03,-1.948000000000000000e+03,-7.290000000000000000e+02,3.640000000000000000e+02,6.100000000000000000e+02,-1.390000000000000000e+02,-2.730000000000000000e+02,-1.900000000000000000e+02,-5.600000000000000000e+01,-2.200000000000000000e+01,-4.100000000000000000e+01,-4.900000000000000000e+01,-8.350000000000000000e+02,-1.561000000000000000e+03,-2.442000000000000000e+03,-2.600000000000000000e+03,-3.702000000000000000e+03,-3.875000000000000000e+03,-4.331000000000000000e+03,-3.294000000000000000e+03,-3.625000000000000000e+03,-6.510000000000000000e+02,1.467000000000000000e+03,3.777000000000000000e+03,9.800000000000000000e+02,-1.135000000000000000e+03,2.000000000000000000e+01,1.224000000000000000e+03,-1.900000000000000000e+02,4.470000000000000000e+02,8.910000000000000000e+02,5.450000000000000000e+02,-2.410000000000000000e+02,-4.070000000000000000e+02,-1.400000000000000000e+01,-8.200000000000000000e+01,-3.700000000000000000e+01,-1.600000000000000000e+01,-7.400000000000000000e+01,-1.360000000000000000e+02,-1.574000000000000000e+03,-2.353000000000000000e+03,-2.708000000000000000e+03,-1.996000000000000000e+03,-3.055000000000000000e+03,-1.102000000000000000e+03,-1.665000000000000000e+03,1.213000000000000000e+03,2.006000000000000000e+03,8.970000000000000000e+02,-6.950000000000000000e+02,-1.400000000000000000e+01,-6.060000000000000000e+02,2.209000000000000000e+03,-1.891000000000000000e+03,2.962000000000000000e+03,-6.400000000000000000e+02,1.452000000000000000e+03,4.540000000000000000e+02,-1.396000000000000000e+03,-4.397000000000000000e+03,-3.275000000000000000e+03,-3.820000000000000000e+02,-2.600000000000000000e+01,-5.200000000000000000e+01,-2.300000000000000000e+01,-1.290000000000000000e+02,-6.200000000000000000e+01,-1.090000000000000000e+03,-1.784000000000000000e+03,-1.965000000000000000e+03,-1.554000000000000000e+03,-2.285000000000000000e+03,1.550000000000000000e+02,-2.400000000000000000e+01,1.840000000000000000e+03,-1.333000000000000000e+03,5.240000000000000000e+02,4.928000000000000000e+03,3.980000000000000000e+03,2.726000000000000000e+03,2.177000000000000000e+03,-2.525000000000000000e+03,3.752000000000000000e+03,-6.050000000000000000e+02,-1.530000000000000000e+02,-2.297000000000000000e+03,-8.560000000000000000e+02,-4.198000000000000000e+03,-3.338000000000000000e+03,-8.200000000000000000e+01,-4.300000000000000000e+01,-1.160000000000000000e+02,-8.800000000000000000e+01,1.800000000000000000e+01,8.800000000000000000e+01,-1.486000000000000000e+03,-1.766000000000000000e+03,-7.000000000000000000e+02,-1.486000000000000000e+03,-9.600000000000000000e+01,-3.170000000000000000e+03,1.865000000000000000e+03,-3.830000000000000000e+02,-4.705000000000000000e+03,-2.202000000000000000e+03,2.300000000000000000e+02,1.105000000000000000e+03,2.121000000000000000e+03,2.483000000000000000e+03,1.385000000000000000e+03,-7.300000000000000000e+01,2.240000000000000000e+02,9.780000000000000000e+02,-1.618000000000000000e+03,-1.047000000000000000e+03,-1.990000000000000000e+03,-2.889000000000000000e+03,-3.070000000000000000e+02,1.300000000000000000e+01,-1.060000000000000000e+02,-4.000000000000000000e+00,-1.830000000000000000e+02,-1.880000000000000000e+02,-1.026000000000000000e+03,-1.438000000000000000e+03,-8.400000000000000000e+02,-1.327000000000000000e+03,-1.277000000000000000e+03,-2.480000000000000000e+02,2.880000000000000000e+02,7.720000000000000000e+02,-1.868000000000000000e+03,1.851000000000000000e+03,-7.000000000000000000e+00,-5.620000000000000000e+02,3.900000000000000000e+02,1.360000000000000000e+03,1.460000000000000000e+03,1.032000000000000000e+03,-1.875000000000000000e+03,-1.225000000000000000e+03,9.490000000000000000e+02,6.140000000000000000e+02,2.360000000000000000e+02,-1.272000000000000000e+03,-5.800000000000000000e+01,-4.200000000000000000e+01,7.400000000000000000e+01,-2.110000000000000000e+02,-8.200000000000000000e+01,-2.720000000000000000e+02,-6.890000000000000000e+02,-5.300000000000000000e+02,-1.549000000000000000e+03,8.760000000000000000e+02,-1.820000000000000000e+02,-1.267000000000000000e+03,5.400000000000000000e+02,4.380000000000000000e+02,1.341000000000000000e+03,-3.144000000000000000e+03,-5.970000000000000000e+02,-1.870000000000000000e+03,-2.372000000000000000e+03,2.350000000000000000e+02,4.690000000000000000e+02,4.240000000000000000e+02,6.940000000000000000e+02,9.210000000000000000e+02,1.507000000000000000e+03,6.080000000000000000e+02,-1.512000000000000000e+03,-1.307000000000000000e+03,-1.420000000000000000e+02,-8.300000000000000000e+01,-8.500000000000000000e+01,-2.580000000000000000e+02,5.500000000000000000e+01,-7.880000000000000000e+02,-1.622000000000000000e+03,-5.050000000000000000e+02,-3.700000000000000000e+01,2.925000000000000000e+03,-2.415000000000000000e+03,-2.422000000000000000e+03,2.079000000000000000e+03,3.921000000000000000e+03,-2.000000000000000000e+02,-3.055000000000000000e+03,4.050000000000000000e+02,-1.705000000000000000e+03,-2.047000000000000000e+03,2.411000000000000000e+03,3.393000000000000000e+03,6.320000000000000000e+02,2.231000000000000000e+03,1.392000000000000000e+03,4.243000000000000000e+03,1.863000000000000000e+03,-5.620000000000000000e+02,-3.270000000000000000e+02,2.850000000000000000e+02,-8.600000000000000000e+01,-2.310000000000000000e+02,7.000000000000000000e+01,-1.360000000000000000e+02,-4.460000000000000000e+02,-1.349000000000000000e+03,1.660000000000000000e+02,2.248000000000000000e+03,3.236000000000000000e+03,-1.149000000000000000e+03,5.440000000000000000e+02,1.354000000000000000e+03,-4.117000000000000000e+03,-7.810000000000000000e+02,-9.000000000000000000e+01,-1.538000000000000000e+03,-2.748000000000000000e+03,-3.944000000000000000e+03,1.273000000000000000e+03,-1.842000000000000000e+03,-2.947000000000000000e+03,-5.870000000000000000e+02,-1.224000000000000000e+03,3.432000000000000000e+03,1.037000000000000000e+03,6.750000000000000000e+02,-1.700000000000000000e+02,1.470000000000000000e+02,-5.600000000000000000e+01,-9.700000000000000000e+01,3.600000000000000000e+01,1.600000000000000000e+01,-4.820000000000000000e+02,-9.030000000000000000e+02,9.250000000000000000e+02,2.341000000000000000e+03,1.838000000000000000e+03,1.523000000000000000e+03,2.078000000000000000e+03,2.500000000000000000e+02,5.300000000000000000e+02,-2.187000000000000000e+03,-3.932000000000000000e+03,-6.901000000000000000e+03,-1.851000000000000000e+03,-5.556000000000000000e+03,2.960000000000000000e+02,-3.662000000000000000e+03,-1.533000000000000000e+03,1.599000000000000000e+03,-3.990000000000000000e+02,2.666000000000000000e+03,4.050000000000000000e+02,1.278000000000000000e+03,-2.850000000000000000e+02,-1.480000000000000000e+02,-1.000000000000000000e+01,-3.060000000000000000e+02,2.200000000000000000e+01,-1.680000000000000000e+02,-2.420000000000000000e+02,-2.670000000000000000e+02,2.090000000000000000e+03,1.328000000000000000e+03,4.140000000000000000e+02,1.237000000000000000e+03,-1.614000000000000000e+03,1.257000000000000000e+03,-6.470000000000000000e+02,5.530000000000000000e+02,-2.090000000000000000e+03,-7.541000000000000000e+03,-4.278000000000000000e+03,-4.321000000000000000e+03,9.140000000000000000e+02,-8.050000000000000000e+02,9.620000000000000000e+02,1.720000000000000000e+03,4.400000000000000000e+01,2.100000000000000000e+03,1.015000000000000000e+03,1.975000000000000000e+03,-2.270000000000000000e+02,-7.400000000000000000e+01,5.000000000000000000e+00,-2.300000000000000000e+01,4.300000000000000000e+01,-2.990000000000000000e+02,2.100000000000000000e+01,-2.580000000000000000e+02,1.470000000000000000e+03,1.191000000000000000e+03,-6.650000000000000000e+02,1.939000000000000000e+03,7.630000000000000000e+02,8.000000000000000000e+02,-2.485000000000000000e+03,3.599000000000000000e+03,-2.678000000000000000e+03,-1.171500000000000000e+04,-2.293000000000000000e+03,-2.526000000000000000e+03,-2.286000000000000000e+03,-2.665000000000000000e+03,-1.815000000000000000e+03,-1.410000000000000000e+02,-1.260000000000000000e+03,1.147000000000000000e+03,1.495000000000000000e+03,1.047000000000000000e+03,-9.890000000000000000e+02,-4.970000000000000000e+02,-1.130000000000000000e+02,7.000000000000000000e+00,-5.550000000000000000e+02,2.440000000000000000e+02,-6.450000000000000000e+02,-2.741000000000000000e+03,7.210000000000000000e+02,-4.630000000000000000e+02,4.711000000000000000e+03,4.506000000000000000e+03,-1.265000000000000000e+03,1.260000000000000000e+02,2.151000000000000000e+03,1.782000000000000000e+03,-1.246400000000000000e+04,-1.206400000000000000e+04,-1.385000000000000000e+03,8.280000000000000000e+02,-8.790000000000000000e+02,-5.067000000000000000e+03,-1.232000000000000000e+03,-1.371000000000000000e+03,2.940000000000000000e+02,1.400000000000000000e+01,2.049000000000000000e+03,-3.280000000000000000e+02,-8.250000000000000000e+02,-2.800000000000000000e+02,-7.900000000000000000e+01,-4.330000000000000000e+02,2.300000000000000000e+02,-3.680000000000000000e+02,-1.303000000000000000e+03,-1.156000000000000000e+03,8.310000000000000000e+02,-3.106000000000000000e+03,1.694000000000000000e+03,3.627000000000000000e+03,-1.024000000000000000e+03,2.791000000000000000e+03,4.310000000000000000e+03,-1.886000000000000000e+03,-8.176000000000000000e+03,-3.892000000000000000e+03,1.885000000000000000e+03,-1.333000000000000000e+03,-1.002000000000000000e+03,-8.710000000000000000e+02,2.703000000000000000e+03,-3.589000000000000000e+03,1.248000000000000000e+03,1.012000000000000000e+03,-1.570000000000000000e+02,-1.173000000000000000e+03,-6.860000000000000000e+02,-4.900000000000000000e+01,-5.700000000000000000e+01,-1.620000000000000000e+02,7.000000000000000000e+01,-2.460000000000000000e+02,-4.410000000000000000e+02,-8.680000000000000000e+02,1.555000000000000000e+03,1.278000000000000000e+03,4.091000000000000000e+03,4.510000000000000000e+03,-2.443000000000000000e+03,1.015000000000000000e+03,4.174000000000000000e+03,-1.702000000000000000e+03,-8.809000000000000000e+03,-1.785000000000000000e+03,-4.770000000000000000e+02,-2.067000000000000000e+03,-2.040000000000000000e+03,2.515000000000000000e+03,-1.194000000000000000e+03,4.750000000000000000e+02,1.285000000000000000e+03,-1.647000000000000000e+03,-2.041000000000000000e+03,-8.410000000000000000e+02,-2.350000000000000000e+02,6.000000000000000000e+00,-1.430000000000000000e+02,1.000000000000000000e+00,-3.270000000000000000e+02,-7.660000000000000000e+02,-1.450000000000000000e+03,5.800000000000000000e+01,1.414000000000000000e+03,6.580000000000000000e+02,-4.850000000000000000e+02,3.874000000000000000e+03,1.609000000000000000e+03,1.331000000000000000e+03,7.896000000000000000e+03,9.420000000000000000e+02,-1.014500000000000000e+04,-3.341000000000000000e+03,-2.122000000000000000e+03,-1.415000000000000000e+03,-6.540000000000000000e+02,8.620000000000000000e+02,5.170000000000000000e+02,-2.090000000000000000e+03,-3.765000000000000000e+03,-3.622000000000000000e+03,-1.513000000000000000e+03,-5.630000000000000000e+02,-1.270000000000000000e+02,-8.200000000000000000e+01,-1.450000000000000000e+02,-2.580000000000000000e+02,1.460000000000000000e+02,-3.840000000000000000e+02,-2.101000000000000000e+03,-1.355000000000000000e+03,-5.580000000000000000e+02,1.915000000000000000e+03,3.330000000000000000e+02,-1.030000000000000000e+02,-2.673000000000000000e+03,3.781000000000000000e+03,5.805000000000000000e+03,3.138000000000000000e+03,3.283000000000000000e+03,-3.799000000000000000e+03,7.000000000000000000e+01,-1.294000000000000000e+03,-2.597000000000000000e+03,-4.192000000000000000e+03,-4.299000000000000000e+03,-3.217000000000000000e+03,-4.890000000000000000e+03,-1.135000000000000000e+03,7.150000000000000000e+02,-3.530000000000000000e+02,-1.110000000000000000e+02,1.480000000000000000e+02,-2.100000000000000000e+01,-3.500000000000000000e+02,-3.680000000000000000e+02,1.180000000000000000e+02,-1.339000000000000000e+03,-1.128000000000000000e+03,-6.450000000000000000e+02,9.640000000000000000e+02,1.683000000000000000e+03,8.870000000000000000e+02,-2.545000000000000000e+03,2.271000000000000000e+03,3.659000000000000000e+03,-2.430000000000000000e+02,-1.373000000000000000e+03,-3.385000000000000000e+03,5.170000000000000000e+02,-2.360000000000000000e+03,-6.188000000000000000e+03,-1.474000000000000000e+03,-2.358000000000000000e+03,-4.020000000000000000e+02,1.999000000000000000e+03,-2.150000000000000000e+02,-2.318000000000000000e+03,-1.730000000000000000e+02,5.000000000000000000e+00,2.330000000000000000e+02,-1.100000000000000000e+01,-2.090000000000000000e+02,-2.320000000000000000e+02,-6.000000000000000000e+01,-4.800000000000000000e+02,1.064000000000000000e+03,7.060000000000000000e+02,9.810000000000000000e+02,-2.995000000000000000e+03,-1.185000000000000000e+03,9.250000000000000000e+02,2.294000000000000000e+03,2.017000000000000000e+03,3.420000000000000000e+02,3.976000000000000000e+03,4.177000000000000000e+03,-1.293000000000000000e+03,-2.711000000000000000e+03,-2.845000000000000000e+03,-1.550000000000000000e+02,2.090000000000000000e+03,1.801000000000000000e+03,1.141000000000000000e+03,-1.398000000000000000e+03,-1.563000000000000000e+03,-2.300000000000000000e+01,1.900000000000000000e+01,9.200000000000000000e+01,-1.000000000000000000e+02,1.510000000000000000e+02,-4.920000000000000000e+02,-1.330000000000000000e+02,1.000000000000000000e+01,-7.450000000000000000e+02,1.339000000000000000e+03,9.490000000000000000e+02,-1.191000000000000000e+03,-2.509000000000000000e+03,-6.200000000000000000e+01,5.667000000000000000e+03,4.038000000000000000e+03,1.444000000000000000e+03,2.598000000000000000e+03,2.677000000000000000e+03,4.760000000000000000e+02,-5.270000000000000000e+02,4.610000000000000000e+02,6.360000000000000000e+02,-2.445000000000000000e+03,-2.282000000000000000e+03,-1.791000000000000000e+03,-2.176000000000000000e+03,-1.848000000000000000e+03,-8.400000000000000000e+01,-2.000000000000000000e+00,-4.400000000000000000e+01,-8.000000000000000000e+01,-1.300000000000000000e+01,3.600000000000000000e+01,-1.900000000000000000e+01,7.000000000000000000e+00,-7.000000000000000000e+00,7.120000000000000000e+02,3.680000000000000000e+02,1.041000000000000000e+03,-1.880000000000000000e+02,-2.350000000000000000e+03,-2.462000000000000000e+03,-7.840000000000000000e+02,1.560000000000000000e+02,-1.919000000000000000e+03,-1.723000000000000000e+03,-1.547000000000000000e+03,-4.236000000000000000e+03,-2.784000000000000000e+03,-1.868000000000000000e+03,-1.027000000000000000e+03,-6.690000000000000000e+02,-5.840000000000000000e+02,-4.270000000000000000e+02,-4.590000000000000000e+02,0.000000000000000000e+00,0.000000000000000000e+00,0.000000000000000000e+00,0.000000000000000000e+00,-8.000000000000000000e+00,-6.000000000000000000e+00,-2.200000000000000000e+01,-3.800000000000000000e+01,-3.100000000000000000e+01,8.900000000000000000e+01,-6.040000000000000000e+02,-1.171000000000000000e+03,-1.296000000000000000e+03,-1.353000000000000000e+03,-2.975000000000000000e+03,-2.341000000000000000e+03,-2.468000000000000000e+03,-3.459000000000000000e+03,-4.409000000000000000e+03,-3.239000000000000000e+03,-1.426000000000000000e+03,-1.630000000000000000e+02,-3.910000000000000000e+02,-4.510000000000000000e+02,-1.100000000000000000e+02,-1.430000000000000000e+02,-1.010000000000000000e+02,9.200000000000000000e+01,0.000000000000000000e+00,0.000000000000000000e+00,0.000000000000000000e+00,0.000000000000000000e+00,-3.300000000000000000e+01,6.000000000000000000e+00,-2.600000000000000000e+01,-9.400000000000000000e+01,-7.000000000000000000e+01,1.400000000000000000e+01,-6.280000000000000000e+02,-6.860000000000000000e+02,-5.870000000000000000e+02,-4.880000000000000000e+02,-7.530000000000000000e+02,-6.490000000000000000e+02,-5.200000000000000000e+02,-6.220000000000000000e+02,-3.930000000000000000e+02,-3.020000000000000000e+02,-2.490000000000000000e+02,-7.000000000000000000e+00,-1.320000000000000000e+02,1.800000000000000000e+01,-3.400000000000000000e+01,-1.630000000000000000e+02,-1.290000000000000000e+02,-1.500000000000000000e+01,0.000000000000000000e+00,0.000000000000000000e+00,0.000000000000000000e+00,0.000000000000000000e+00,-1.800000000000000000e+01,-5.000000000000000000e+00,9.000000000000000000e+00,-1.900000000000000000e+01,-2.900000000000000000e+01,-2.570000000000000000e+02,-2.860000000000000000e+02,-3.700000000000000000e+01,-6.200000000000000000e+01,-2.220000000000000000e+02,-1.240000000000000000e+02,4.200000000000000000e+01,1.400000000000000000e+01,-6.000000000000000000e+01,-1.200000000000000000e+02,-1.840000000000000000e+02,-6.800000000000000000e+01,-2.360000000000000000e+02,-4.600000000000000000e+01,2.800000000000000000e+01,-3.300000000000000000e+01,-7.400000000000000000e+01,-1.100000000000000000e+01,-3.200000000000000000e+01,0.000000000000000000e+00,0.000000000000000000e+00,0.000000000000000000e+00,0.000000000000000000e+00,-7.900000000000000000e+01
-4.099999999999999645e+00,-5.099999999999999645e+00,-4.200000000000000178e+00,-1.700000000000000178e+00,-2.400000000000000355e+00,-8.500000000000000000e+00,-9.000000000000003553e-01,-4.599999999999999645e+00,-4.849999999999999289e+01,5.139999999999996305e+01,-4.160000000000000853e+01,-2.939999999999997726e+01,-1.969999999999993534e+01,-1.729999999999999005e+01,-3.500000000000005329e+00,-4.629999999999999716e+01,-3.160000000000002984e+01,9.180000000000012506e+01,-6.169999999999994600e+01,1.239999999999999503e+01,-6.639999999999999147e+01,1.210000000000000675e+01,-1.459999999999999076e+01,1.400000000000000355e+01,-4.700000000000001066e+00,-3.900000000000000355e+00,-1.500000000000000355e+01,-5.300000000000000711e+00,-9.300000000000000711e+00,-3.299999999999999822e+00,-4.800000000000001599e+00,-4.899999999999999467e+00,-1.600000000000000089e+00,-1.999999999999998168e-01,-6.200000000000000178e+00,-5.299999999999998934e+00,2.680000000000001492e+01,6.899999999999987033e+00,-4.349999999999997158e+01,-2.289999999999997726e+01,-2.590000000000000568e+01,-5.840000000000002700e+01,1.279999999999997584e+01,-5.749999999999998579e+01,4.420000000000003126e+01,-9.049999999999995737e+01,-2.620000000000000284e+01,-1.159999999999999609e+01,2.760000000000001208e+01,-5.100000000000025402e+00,-4.739999999999992042e+01,-2.620000000000003126e+01,-1.300000000000000266e+00,-5.800000000000002487e+00,-6.400000000000000355e+00,-7.500000000000000888e+00,-7.599999999999998757e+00,-4.799999999999998934e+00,-3.200000000000000178e+00,-2.700000000000000178e+00,-2.400000000000000355e+00,-3.899999999999998579e+00,-5.099999999999999645e+00,-1.229999999999999716e+01,9.800000000000006040e+00,2.570000000000000284e+01,1.969999999999999929e+01,-4.449999999999991473e+01,-7.789999999999996305e+01,-7.540000000000007674e+01,-1.905999999999999659e+02,-1.276999999999999886e+02,-1.085000000000000000e+02,-5.919999999999997442e+01,5.639999999999993463e+01,-5.579999999999997584e+01,-9.699999999999994316e+01,-1.008000000000000256e+02,3.130000000000001847e+01,-2.740000000000000924e+01,-1.239999999999999680e+01,-1.540000000000000036e+01,-9.699999999999999289e+00,-2.560000000000000142e+01,-1.900000000000000133e+00,-3.800000000000000711e+00,-3.800000000000001155e+00,-1.329999999999999893e+01,-3.600000000000000533e+00,-2.399999999999999911e+00,-3.100000000000000089e+00,-1.679999999999999716e+01,-6.700000000000001066e+00,-1.279999999999998010e+02,-1.791999999999999602e+02,-3.612999999999998977e+02,-5.081000000000000796e+02,-3.167999999999997272e+02,-3.637999999999996135e+02,-3.637999999999995566e+02,-2.183000000000002956e+02,-2.027999999999999545e+02,-1.630000000000000853e+02,-2.243999999999996362e+02,-1.466000000000001080e+02,-1.549000000000000625e+02,4.500000000000012434e+00,-6.240000000000001990e+01,3.999999999999995781e-01,-1.040000000000000036e+01,-4.099999999999999645e+00,-1.599999999999999423e+00,-7.599999999999997868e+00,-5.500000000000000000e+00,-1.600000000000000089e+00,-2.800000000000000266e+00,-9.900000000000000355e+00,-1.689999999999999503e+01,-2.359999999999999787e+01,-3.850000000000001421e+01,1.217000000000000597e+02,-7.210000000000000853e+01,-2.807000000000003297e+02,-9.319999999999997442e+01,-3.503999999999994657e+02,-2.759999999999989839e+01,-6.259999999999998010e+01,-3.583999999999998636e+02,-3.398999999999998067e+02,2.144000000000000909e+02,2.587999999999998977e+02,-2.952999999999999545e+02,-1.603000000000001535e+02,-1.947999999999999261e+02,-7.290000000000009095e+01,3.639999999999995595e+01,6.100000000000000711e+01,-1.390000000000000568e+01,-2.729999999999999716e+01,-1.899999999999999645e+01,-5.600000000000000533e+00,-2.200000000000000178e+00,-4.099999999999998757e+00,-4.899999999999998579e+00,-8.350000000000004263e+01,-1.560999999999999659e+02,-2.442000000000000455e+02,-2.600000000000000000e+02,-3.701999999999997044e+02,-3.874999999999990337e+02,-4.330999999999996817e+02,-3.294000000000003752e+02,-3.625000000000012506e+02,-6.510000000000003695e+01,1.466999999999998749e+02,3.777000000000002728e+02,9.799999999999998579e+01,-1.134999999999998721e+02,2.000000000000031974e+00,1.223999999999999204e+02,-1.900000000000006750e+01,4.470000000000002416e+01,8.909999999999996589e+01,5.450000000000008527e+01,-2.410000000000003340e+01,-4.070000000000000995e+01,-1.400000000000000133e+00,-8.199999999999999289e+00,-3.700000000000001510e+00,-1.599999999999999645e+00,-7.399999999999998579e+00,-1.359999999999999787e+01,-1.573999999999999488e+02,-2.352999999999999829e+02,-2.708000000000000682e+02,-1.996000000000000512e+02,-3.054999999999998863e+02,-1.102000000000000739e+02,-1.665000000000001137e+02,1.212999999999999545e+02,2.005999999999995964e+02,8.970000000000005969e+01,-6.950000000000009948e+01,-1.400000000000153122e+00,-6.060000000000002274e+01,2.209000000000000625e+02,-1.890999999999999943e+02,2.961999999999989654e+02,-6.400000000000008527e+01,1.452000000000001307e+02,4.540000000000000568e+01,-1.396000000000000227e+02,-4.397000000000000455e+02,-3.274999999999999432e+02,-3.820000000000000284e+01,-2.600000000000000089e+00,-5.199999999999998401e+00,-2.300000000000000266e+00,-1.289999999999999858e+01,-6.200000000000000178e+00,-1.090000000000000284e+02,-1.783999999999999204e+02,-1.965000000000000853e+02,-1.553999999999999204e+02,-2.285000000000003695e+02,1.550000000000009059e+01,-2.399999999999973710e+00,1.840000000000000568e+02,-1.333000000000001535e+02,5.240000000000018332e+01,4.928000000000000114e+02,3.979999999999997158e+02,2.726000000000001364e+02,2.177000000000001307e+02,-2.524999999999999432e+02,3.752000000000002728e+02,-6.050000000000009948e+01,-1.530000000000055671e+01,-2.297000000000004434e+02,-8.559999999999996589e+01,-4.198000000000000114e+02,-3.337999999999998977e+02,-8.199999999999999289e+00,-4.299999999999998934e+00,-1.160000000000000853e+01,-8.799999999999998934e+00,1.800000000000000044e+00,8.800000000000002487e+00,-1.485999999999999659e+02,-1.766000000000001080e+02,-7.000000000000001421e+01,-1.486000000000000227e+02,-9.599999999999951683e+00,-3.169999999999996589e+02,1.865000000000000284e+02,-3.829999999999983373e+01,-4.705000000000010232e+02,-2.202000000000003581e+02,2.300000000000014566e+01,1.105000000000002984e+02,2.120999999999998238e+02,2.482999999999999545e+02,1.385000000000001137e+02,-7.300000000000047784e+00,2.239999999999985647e+01,9.779999999999996874e+01,-1.617999999999998693e+02,-1.047000000000000455e+02,-1.990000000000000284e+02,-2.889000000000002046e+02,-3.069999999999999574e+01,1.299999999999998490e+00,-1.059999999999999787e+01,-3.999999999999932498e-01,-1.829999999999998650e+01,-1.879999999999999716e+01,-1.025999999999999091e+02,-1.438000000000002956e+02,-8.400000000000002842e+01,-1.327000000000001023e+02,-1.276999999999999744e+02,-2.480000000000002203e+01,2.880000000000002203e+01,7.719999999999990337e+01,-1.868000000000001251e+02,1.850999999999999375e+02,-7.000000000000383693e-01,-5.620000000000005969e+01,3.899999999999996447e+01,1.359999999999998295e+02,1.460000000000000853e+02,1.032000000000000455e+02,-1.875000000000001421e+02,-1.224999999999999716e+02,9.489999999999994884e+01,6.139999999999999147e+01,2.360000000000000142e+01,-1.272000000000000028e+02,-5.800000000000001599e+00,-4.199999999999999289e+00,7.399999999999998579e+00,-2.110000000000001918e+01,-8.200000000000004619e+00,-2.720000000000003126e+01,-6.890000000000011937e+01,-5.300000000000000000e+01,-1.548999999999998920e+02,8.760000000000016485e+01,-1.820000000000005969e+01,-1.266999999999999886e+02,5.399999999999994316e+01,4.379999999999970584e+01,1.341000000000002785e+02,-3.144000000000000341e+02,-5.969999999999998863e+01,-1.870000000000003979e+02,-2.371999999999996476e+02,2.350000000000012790e+01,4.689999999999993463e+01,4.240000000000009805e+01,6.940000000000016200e+01,9.210000000000013642e+01,1.506999999999998749e+02,6.080000000000018190e+01,-1.511999999999999886e+02,-1.306999999999999886e+02,-1.420000000000000107e+01,-8.299999999999998934e+00,-8.500000000000007105e+00,-2.580000000000002913e+01,5.500000000000000888e+00,-7.879999999999998295e+01,-1.621999999999998465e+02,-5.049999999999998579e+01,-3.700000000000020606e+00,2.924999999999999432e+02,-2.414999999999999716e+02,-2.421999999999995055e+02,2.079000000000003467e+02,3.920999999999992269e+02,-1.999999999999984723e+01,-3.055000000000003411e+02,4.050000000000004974e+01,-1.704999999999997442e+02,-2.046999999999999318e+02,2.411000000000000512e+02,3.393000000000008640e+02,6.319999999999967599e+01,2.231000000000001364e+02,1.391999999999998465e+02,4.243000000000008072e+02,1.862999999999998408e+02,-5.619999999999998863e+01,-3.270000000000000284e+01,2.849999999999999289e+01,-8.600000000000001421e+00,-2.309999999999999787e+01,7.000000000000000000e+00,-1.360000000000002096e+01,-4.460000000000000142e+01,-1.348999999999999204e+02,1.660000000000003695e+01,2.247999999999998408e+02,3.236000000000003070e+02,-1.148999999999995794e+02,5.439999999999997726e+01,1.354000000000002615e+02,-4.117000000000004434e+02,-7.810000000000005116e+01,-9.000000000000067502e+00,-1.538000000000002956e+02,-2.748000000000001819e+02,-3.943999999999995225e+02,1.272999999999998408e+02,-1.841999999999999602e+02,-2.947000000000000455e+02,-5.870000000000003837e+01,-1.224000000000000909e+02,3.432000000000007276e+02,1.036999999999997186e+02,6.750000000000002842e+01,-1.699999999999999289e+01,1.470000000000000995e+01,-5.600000000000001421e+00,-9.699999999999999289e+00,3.599999999999988987e+00,1.599999999999999423e+00,-4.819999999999988916e+01,-9.030000000000011084e+01,9.250000000000000000e+01,2.340999999999999659e+02,1.838000000000000114e+02,1.522999999999999261e+02,2.078000000000003240e+02,2.499999999999982592e+01,5.299999999999992895e+01,-2.186999999999998181e+02,-3.931999999999997613e+02,-6.901000000000016144e+02,-1.851000000000008185e+02,-5.556000000000004775e+02,2.959999999999996589e+01,-3.662000000000003297e+02,-1.533000000000000114e+02,1.599000000000000625e+02,-3.989999999999992042e+01,2.666000000000004206e+02,4.049999999999992184e+01,1.277999999999999261e+02,-2.849999999999999645e+01,-1.480000000000000249e+01,-1.000000000000000444e+00,-3.060000000000000142e+01,2.199999999999990852e+00,-1.680000000000001492e+01,-2.419999999999995666e+01,-2.670000000000002416e+01,2.090000000000000568e+02,1.328000000000002387e+02,4.140000000000018332e+01,1.236999999999998749e+02,-1.614000000000001194e+02,1.257000000000004150e+02,-6.470000000000003126e+01,5.529999999999988347e+01,-2.089999999999994600e+02,-7.541000000000000227e+02,-4.278000000000004093e+02,-4.320999999999987722e+02,9.139999999999993463e+01,-8.050000000000008527e+01,9.620000000000007390e+01,1.720000000000002274e+02,4.399999999999521627e+00,2.099999999999998863e+02,1.015000000000002842e+02,1.975000000000000000e+02,-2.269999999999999218e+01,-7.400000000000001243e+00,5.000000000000004441e-01,-2.300000000000003819e+00,4.300000000000002487e+00,-2.989999999999998792e+01,2.100000000000000089e+00,-2.579999999999997584e+01,1.470000000000000853e+02,1.191000000000000938e+02,-6.649999999999997158e+01,1.938999999999999488e+02,7.629999999999996874e+01,7.999999999999967315e+01,-2.485000000000006253e+02,3.598999999999999204e+02,-2.678000000000004661e+02,-1.171499999999997954e+03,-2.292999999999994998e+02,-2.525999999999992269e+02,-2.285999999999998238e+02,-2.664999999999996589e+02,-1.815000000000000284e+02,-1.409999999999990727e+01,-1.259999999999999716e+02,1.147000000000001023e+02,1.494999999999998010e+02,1.047000000000000597e+02,-9.889999999999996305e+01,-4.970000000000000284e+01,-1.129999999999999893e+01,6.999999999999931832e-01,-5.549999999999998579e+01,2.440000000000001990e+01,-6.450000000000004263e+01,-2.740999999999999659e+02,7.209999999999996589e+01,-4.629999999999979110e+01,4.710999999999999659e+02,4.506000000000015575e+02,-1.265000000000004832e+02,1.259999999999996412e+01,2.150999999999999659e+02,1.782000000000000171e+02,-1.246400000000001683e+03,-1.206400000000000318e+03,-1.384999999999994600e+02,8.280000000000009663e+01,-8.789999999999999147e+01,-5.067000000000005002e+02,-1.231999999999999886e+02,-1.370999999999999659e+02,2.939999999999996660e+01,1.399999999999991473e+00,2.048999999999999773e+02,-3.280000000000002558e+01,-8.249999999999998579e+01,-2.800000000000000355e+01,-7.900000000000000355e+00,-4.330000000000001137e+01,2.300000000000001066e+01,-3.679999999999999005e+01,-1.302999999999998977e+02,-1.155999999999996817e+02,8.310000000000000853e+01,-3.106000000000001364e+02,1.694000000000002046e+02,3.626999999999995339e+02,-1.023999999999999915e+02,2.791000000000003638e+02,4.309999999999994884e+02,-1.885999999999999943e+02,-8.176000000000032060e+02,-3.892000000000017508e+02,1.884999999999998579e+02,-1.332999999999999545e+02,-1.002000000000003297e+02,-8.709999999999963904e+01,2.703000000000004093e+02,-3.589000000000006025e+02,1.248000000000000398e+02,1.011999999999999744e+02,-1.570000000000009344e+01,-1.173000000000000540e+02,-6.860000000000000853e+01,-4.900000000000000355e+00,-5.700000000000000178e+00,-1.619999999999998508e+01,7.000000000000006217e+00,-2.459999999999999432e+01,-4.409999999999992326e+01,-8.679999999999996874e+01,1.555000000000001137e+02,1.277999999999999545e+02,4.091000000000007617e+02,4.510000000000005116e+02,-2.442999999999999545e+02,1.015000000000002984e+02,4.173999999999999204e+02,-1.702000000000000171e+02,-8.809000000000011141e+02,-1.784999999999997442e+02,-4.769999999999989626e+01,-2.067000000000003013e+02,-2.039999999999997442e+02,2.514999999999999432e+02,-1.194000000000002046e+02,4.749999999999995026e+01,1.285000000000000284e+02,-1.647000000000000739e+02,-2.041000000000000796e+02,-8.410000000000000853e+01,-2.350000000000000000e+01,5.999999999999997558e-01,-1.430000000000000071e+01,1.000000000000001721e-01,-3.270000000000000284e+01,-7.659999999999996589e+01,-1.449999999999999716e+02,5.800000000000125944e+00,1.413999999999999773e+02,6.579999999999999716e+01,-4.850000000000008527e+01,3.874000000000000909e+02,1.608999999999999773e+02,1.331000000000002217e+02,7.895999999999997954e+02,9.420000000000007390e+01,-1.014500000000000341e+03,-3.340999999999998522e+02,-2.122000000000001592e+02,-1.415000000000002842e+02,-6.539999999999999147e+01,8.620000000000000284e+01,5.169999999999987494e+01,-2.089999999999999716e+02,-3.765000000000006821e+02,-3.622000000000002728e+02,-1.512999999999999545e+02,-5.630000000000000426e+01,-1.269999999999999929e+01,-8.200000000000002842e+00,-1.449999999999999289e+01,-2.579999999999999005e+01,1.460000000000000320e+01,-3.840000000000003411e+01,-2.100999999999998238e+02,-1.355000000000000568e+02,-5.580000000000016058e+01,1.914999999999998295e+02,3.329999999999987637e+01,-1.029999999999983373e+01,-2.672999999999999545e+02,3.781000000000004775e+02,5.804999999999993179e+02,3.137999999999994429e+02,3.282999999999997840e+02,-3.799000000000004889e+02,7.000000000000007105e+00,-1.294000000000000625e+02,-2.596999999999998181e+02,-4.192000000000014666e+02,-4.299000000000013415e+02,-3.216999999999995339e+02,-4.890000000000001137e+02,-1.134999999999999289e+02,7.150000000000004263e+01,-3.529999999999999005e+01,-1.109999999999999787e+01,1.479999999999999716e+01,-2.100000000000000089e+00,-3.500000000000002132e+01,-3.679999999999999716e+01,1.180000000000000959e+01,-1.338999999999998352e+02,-1.128000000000000398e+02,-6.450000000000001421e+01,9.640000000000001990e+01,1.683000000000000398e+02,8.869999999999998863e+01,-2.544999999999999716e+02,2.271000000000000512e+02,3.659000000000000341e+02,-2.430000000000000426e+01,-1.373000000000000398e+02,-3.384999999999999432e+02,5.169999999999984652e+01,-2.359999999999998295e+02,-6.188000000000002956e+02,-1.473999999999996362e+02,-2.357999999999998693e+02,-4.020000000000001705e+01,1.999000000000001478e+02,-2.149999999999998579e+01,-2.317999999999996987e+02,-1.730000000000000071e+01,5.000000000000004441e-01,2.329999999999999716e+01,-1.099999999999999867e+00,-2.090000000000001990e+01,-2.320000000000000639e+01,-6.000000000000002665e+00,-4.800000000000013500e+01,1.064000000000000767e+02,7.059999999999990905e+01,9.810000000000009379e+01,-2.994999999999999432e+02,-1.185000000000001847e+02,9.250000000000005684e+01,2.294000000000002046e+02,2.017000000000003581e+02,3.419999999999996021e+01,3.975999999999991701e+02,4.177000000000006708e+02,-1.293000000000001251e+02,-2.711000000000000796e+02,-2.844999999999996589e+02,-1.549999999999995204e+01,2.090000000000000000e+02,1.800999999999999943e+02,1.141000000000000512e+02,-1.398000000000000398e+02,-1.562999999999995282e+02,-2.299999999999999822e+00,1.899999999999999023e+00,9.199999999999999289e+00,-1.000000000000000000e+01,1.509999999999999787e+01,-4.919999999999995310e+01,-1.330000000000000426e+01,1.000000000000006661e+00,-7.450000000000002842e+01,1.339000000000000341e+02,9.490000000000007674e+01,-1.191000000000000369e+02,-2.508999999999995509e+02,-6.199999999999952216e+00,5.666999999999989086e+02,4.037999999999988745e+02,1.443999999999997215e+02,2.598000000000000114e+02,2.676999999999998181e+02,4.760000000000005116e+01,-5.269999999999997442e+01,4.610000000000002274e+01,6.359999999999996589e+01,-2.445000000000001421e+02,-2.282000000000000455e+02,-1.790999999999999091e+02,-2.176000000000000796e+02,-1.848000000000003240e+02,-8.400000000000000355e+00,-2.000000000000005107e-01,-4.399999999999998579e+00,-8.000000000000001776e+00,-1.300000000000000044e+00,3.599999999999999645e+00,-1.900000000000000133e+00,7.000000000000001776e-01,-6.999999999999989564e-01,7.120000000000000284e+01,3.679999999999999005e+01,1.041000000000000085e+02,-1.879999999999998650e+01,-2.349999999999999716e+02,-2.462000000000001023e+02,-7.839999999999996305e+01,1.559999999999990550e+01,-1.919000000000000625e+02,-1.722999999999998977e+02,-1.547000000000000455e+02,-4.236000000000000796e+02,-2.783999999999999773e+02,-1.868000000000000398e+02,-1.026999999999999602e+02,-6.690000000000000568e+01,-5.839999999999999858e+01,-4.269999999999998863e+01,-4.590000000000006963e+01,0.000000000000000000e+00,0.000000000000000000e+00,0.000000000000000000e+00,0.000000000000000000e+00,-8.000000000000002665e-01,-6.000000000000001998e-01,-2.200000000000000178e+00,-3.799999999999999822e+00,-3.100000000000000977e+00,8.899999999999998579e+00,-6.040000000000000568e+01,-1.170999999999999943e+02,-1.295999999999999943e+02,-1.353000000000001251e+02,-2.975000000000000568e+02,-2.340999999999998522e+02,-2.467999999999999545e+02,-3.458999999999999773e+02,-4.409000000000000341e+02,-3.238999999999999773e+02,-1.426000000000000227e+02,-1.629999999999999716e+01,-3.909999999999999432e+01,-4.509999999999998721e+01,-1.100000000000000178e+01,-1.429999999999999716e+01,-1.009999999999999964e+01,9.200000000000001066e+00,0.000000000000000000e+00,0.000000000000000000e+00,0.000000000000000000e+00,0.000000000000000000e+00,-3.300000000000000266e+00,6.000000000000000888e-01,-2.600000000000000533e+00,-9.400000000000002132e+00,-7.000000000000000000e+00,1.399999999999999689e+00,-6.280000000000000426e+01,-6.859999999999999432e+01,-5.869999999999998153e+01,-4.880000000000000426e+01,-7.530000000000003979e+01,-6.489999999999996305e+01,-5.200000000000000000e+01,-6.220000000000000284e+01,-3.930000000000001137e+01,-3.019999999999998863e+01,-2.490000000000000213e+01,-6.999999999999999556e-01,-1.320000000000000284e+01,1.800000000000000266e+00,-3.399999999999998579e+00,-1.629999999999999716e+01,-1.289999999999999858e+01,-1.500000000000000000e+00,0.000000000000000000e+00,0.000000000000000000e+00,0.000000000000000000e+00,0.000000000000000000e+00,-1.800000000000000266e+00,-4.999999999999995559e-01,8.999999999999999112e-01,-1.900000000000000133e+00,-2.900000000000000355e+00,-2.569999999999999929e+01,-2.859999999999999432e+01,-3.699999999999999734e+00,-6.199999999999999289e+00,-2.220000000000000284e+01,-1.240000000000000568e+01,4.200000000000006395e+00,1.400000000000004574e+00,-5.999999999999995559e+00,-1.199999999999999645e+01,-1.839999999999999503e+01,-6.800000000000001599e+00,-2.360000000000000853e+01,-4.600000000000001421e+00,2.800000000000000711e+00,-3.299999999999999822e+00,-7.399999999999998579e+00,-1.100000000000000089e+00,-3.200000000000000622e+00,0.000000000000000000e+00,0.000000000000000000e+00,0.000000000000000000e+00,0.000000000000000000e+00,-7.899999999999987921e+00
4.899999999999999911e-01,-5.100000000000000089e-01,-4.200000000000000955e-01,-1.700000000000000400e-01,-2.400000000000000744e-01,-8.500000000000000888e-01,-8.999999999999996891e-02,-4.600000000000000200e-01,-4.849999999999999645e+00,5.139999999999997904e+00,-4.160000000000005471e+00,-2.939999999999999059e+00,-1.970000000000005080e+00,-1.730000000000000426e+00,-3.499999999999998668e-01,-4.630000000000001670e+00,-3.159999999999997922e+00,9.179999999999992610e+00,-6.170000000000005258e+00,1.240000000000001767e+00,-6.639999999999993463e+00,1.210000000000000853e+00,-1.460000000000000631e+00,1.400000000000000133e+00,-4.700000000000000289e-01,-3.900000000000000133e-01,-1.500000000000000444e+00,-5.300000000000000266e-01,-9.299999999999999378e-01,-3.300000000000000155e-01,-4.799999999999999822e-01,-4.899999999999999911e-01,-1.600000000000000033e-01,-2.000000000000002470e-02,-6.199999999999999956e-01,-5.300000000000000266e-01,2.680000000000001936e+00,6.900000000000006128e-01,-4.350000000000000533e+00,-2.290000000000000924e+00,-2.589999999999997637e+00,-5.839999999999996305e+00,1.280000000000002247e+00,-5.749999999999997335e+00,4.420000000000003482e+00,-9.050000000000006040e+00,-2.620000000000000995e+00,-1.160000000000000142e+00,2.760000000000000231e+00,-5.100000000000005640e-01,-4.739999999999993108e+00,-2.619999999999994778e+00,-1.300000000000000044e-01,-5.800000000000000711e-01,-6.400000000000001243e-01,-7.500000000000001110e-01,-7.600000000000000089e-01,-4.800000000000000377e-01,-3.200000000000000067e-01,-2.699999999999999623e-01,-2.399999999999999911e-01,-3.900000000000000133e-01,-5.100000000000001199e-01,-1.229999999999999982e+00,9.799999999999986500e-01,2.570000000000003837e+00,1.969999999999998863e+00,-4.450000000000005507e+00,-7.790000000000003588e+00,-7.539999999999998259e+00,-1.906000000000000938e+01,-1.277000000000000135e+01,-1.085000000000000142e+01,-5.920000000000001705e+00,5.640000000000002345e+00,-5.580000000000006288e+00,-9.700000000000006395e+00,-1.008000000000000007e+01,3.130000000000000782e+00,-2.740000000000001545e+00,-1.240000000000000435e+00,-1.540000000000001146e+00,-9.699999999999999734e-01,-2.560000000000000497e+00,-1.900000000000000577e-01,-3.800000000000000044e-01,-3.800000000000000600e-01,-1.330000000000000071e+00,-3.600000000000000977e-01,-2.399999999999999634e-01,-3.100000000000000533e-01,-1.680000000000000160e+00,-6.699999999999997069e-01,-1.280000000000001137e+01,-1.791999999999997684e+01,-3.613000000000001677e+01,-5.081000000000002359e+01,-3.167999999999999261e+01,-3.638000000000003809e+01,-3.637999999999999545e+01,-2.182999999999998764e+01,-2.028000000000001535e+01,-1.630000000000000071e+01,-2.244000000000001549e+01,-1.466000000000000192e+01,-1.549000000000002153e+01,4.500000000000003442e-01,-6.239999999999997549e+00,3.999999999999987593e-02,-1.040000000000000036e+00,-4.100000000000000311e-01,-1.599999999999999756e-01,-7.600000000000000089e-01,-5.499999999999999334e-01,-1.600000000000000033e-01,-2.800000000000000266e-01,-9.900000000000001021e-01,-1.690000000000000835e+00,-2.359999999999999876e+00,-3.849999999999999201e+00,1.216999999999998927e+01,-7.209999999999974207e+00,-2.806999999999998607e+01,-9.320000000000016271e+00,-3.503999999999994230e+01,-2.759999999999982467e+00,-6.259999999999961595e+00,-3.583999999999998209e+01,-3.398999999999998778e+01,2.143999999999998707e+01,2.587999999999999190e+01,-2.952999999999996561e+01,-1.602999999999996916e+01,-1.948000000000003240e+01,-7.289999999999997371e+00,3.639999999999994795e+00,6.100000000000000533e+00,-1.390000000000000346e+00,-2.730000000000000870e+00,-1.900000000000001021e+00,-5.600000000000000533e-01,-2.200000000000000289e-01,-4.099999999999999201e-01,-4.900000000000001577e-01,-8.349999999999999645e+00,-1.560999999999999943e+01,-2.442000000000001236e+01,-2.599999999999999289e+01,-3.702000000000001734e+01,-3.874999999999992184e+01,-4.330999999999995254e+01,-3.293999999999998352e+01,-3.624999999999996447e+01,-6.510000000000003340e+00,1.466999999999999815e+01,3.776999999999997470e+01,9.799999999999991829e+00,-1.134999999999999787e+01,1.999999999999813038e-01,1.224000000000009969e+01,-1.899999999999992362e+00,4.470000000000000639e+00,8.910000000000007248e+00,5.449999999999997513e+00,-2.409999999999999254e+00,-4.069999999999999396e+00,-1.400000000000000133e-01,-8.200000000000000622e-01,-3.700000000000002731e-01,-1.600000000000000311e-01,-7.400000000000001021e-01,-1.360000000000000098e+00,-1.573999999999999844e+01,-2.353000000000001890e+01,-2.708000000000000895e+01,-1.996000000000001506e+01,-3.054999999999997229e+01,-1.102000000000000313e+01,-1.664999999999999858e+01,1.213000000000000433e+01,2.006000000000003425e+01,8.969999999999998863e+00,-6.950000000000011724e+00,-1.400000000000056755e-01,-6.060000000000004050e+00,2.209000000000001762e+01,-1.891000000000001435e+01,2.961999999999998323e+01,-6.399999999999995026e+00,1.451999999999999247e+01,4.540000000000004476e+00,-1.396000000000000085e+01,-4.396999999999999176e+01,-3.275000000000000711e+01,-3.820000000000000284e+00,-2.600000000000000089e-01,-5.200000000000000178e-01,-2.300000000000000933e-01,-1.290000000000000480e+00,-6.200000000000002176e-01,-1.089999999999999858e+01,-1.784000000000001052e+01,-1.964999999999999503e+01,-1.554000000000000092e+01,-2.285000000000000497e+01,1.549999999999996492e+00,-2.399999999999939959e-01,1.840000000000002700e+01,-1.332999999999998586e+01,5.239999999999992220e+00,4.928000000000000114e+01,3.980000000000003268e+01,2.726000000000000512e+01,2.176999999999995694e+01,-2.524999999999996447e+01,3.751999999999996049e+01,-6.050000000000005151e+00,-1.529999999999989146e+00,-2.296999999999998110e+01,-8.559999999999995168e+00,-4.198000000000000398e+01,-3.337999999999999545e+01,-8.200000000000000622e-01,-4.300000000000001044e-01,-1.159999999999999920e+00,-8.800000000000008926e-01,1.799999999999999101e-01,8.800000000000000044e-01,-1.486000000000000121e+01,-1.766000000000001435e+01,-6.999999999999999112e+00,-1.486000000000000831e+01,-9.600000000000070699e-01,-3.170000000000001705e+01,1.864999999999995950e+01,-3.830000000000013838e+00,-4.704999999999995453e+01,-2.201999999999999957e+01,2.300000000000021139e+00,1.104999999999995985e+01,2.120999999999996177e+01,2.482999999999999829e+01,1.384999999999999964e+01,-7.299999999999932099e-01,2.240000000000009983e+00,9.780000000000002913e+00,-1.618000000000002103e+01,-1.047000000000000064e+01,-1.989999999999999858e+01,-2.888999999999999346e+01,-3.069999999999999396e+00,1.299999999999999489e-01,-1.060000000000000275e+00,-4.000000000000093758e-02,-1.829999999999997407e+00,-1.880000000000000560e+00,-1.026000000000000156e+01,-1.438000000000002387e+01,-8.400000000000012790e+00,-1.327000000000001201e+01,-1.277000000000000668e+01,-2.479999999999995097e+00,2.879999999999989235e+00,7.720000000000037943e+00,-1.868000000000000682e+01,1.851000000000000867e+01,-6.999999999997452704e-02,-5.620000000000015206e+00,3.900000000000017231e+00,1.360000000000000497e+01,1.460000000000001386e+01,1.031999999999997009e+01,-1.874999999999997158e+01,-1.225000000000000178e+01,9.490000000000007319e+00,6.140000000000005898e+00,2.360000000000001208e+00,-1.271999999999999886e+01,-5.800000000000000711e-01,-4.199999999999999289e-01,7.400000000000001021e-01,-2.109999999999998987e+00,-8.199999999999995071e-01,-2.719999999999999751e+00,-6.889999999999989910e+00,-5.299999999999994493e+00,-1.549000000000001087e+01,8.759999999999987352e+00,-1.819999999999982743e+00,-1.267000000000001236e+01,5.400000000000000355e+00,4.380000000000030091e+00,1.341000000000003034e+01,-3.144000000000001194e+01,-5.969999999999982876e+00,-1.869999999999998863e+01,-2.372000000000001663e+01,2.349999999999993872e+00,4.690000000000020819e+00,4.240000000000007319e+00,6.939999999999992397e+00,9.209999999999977760e+00,1.507000000000000206e+01,6.080000000000000071e+00,-1.512000000000000455e+01,-1.306999999999999496e+01,-1.420000000000000151e+00,-8.299999999999998490e-01,-8.500000000000007550e-01,-2.579999999999996518e+00,5.500000000000000444e-01,-7.879999999999997229e+00,-1.622000000000000952e+01,-5.050000000000000711e+00,-3.699999999999969980e-01,2.925000000000004619e+01,-2.414999999999999503e+01,-2.421999999999996689e+01,2.079000000000000625e+01,3.921000000000003638e+01,-1.999999999999990674e+00,-3.055000000000002203e+01,4.050000000000011369e+00,-1.705000000000003268e+01,-2.046999999999998820e+01,2.411000000000001720e+01,3.393000000000002103e+01,6.320000000000035811e+00,2.231000000000000227e+01,1.391999999999997861e+01,4.243000000000001393e+01,1.862999999999998479e+01,-5.620000000000001883e+00,-3.269999999999999130e+00,2.850000000000000977e+00,-8.599999999999998757e-01,-2.309999999999999609e+00,7.000000000000001776e-01,-1.360000000000000098e+00,-4.460000000000007958e+00,-1.348999999999999133e+01,1.660000000000011244e+00,2.248000000000001464e+01,3.236000000000000654e+01,-1.149000000000000021e+01,5.439999999999995062e+00,1.354000000000000803e+01,-4.116999999999998749e+01,-7.809999999999986287e+00,-8.999999999999883649e-01,-1.538000000000000433e+01,-2.747999999999996490e+01,-3.944000000000005457e+01,1.272999999999999332e+01,-1.842000000000003013e+01,-2.946999999999995978e+01,-5.869999999999989448e+00,-1.223999999999999844e+01,3.432000000000000739e+01,1.036999999999999922e+01,6.750000000000000000e+00,-1.700000000000000178e+00,1.470000000000000417e+00,-5.600000000000000533e-01,-9.699999999999998623e-01,3.600000000000006528e-01,1.599999999999998368e-01,-4.820000000000014495e+00,-9.029999999999978044e+00,9.250000000000007105e+00,2.340999999999999304e+01,1.837999999999998835e+01,1.523000000000004306e+01,2.078000000000001890e+01,2.500000000000002665e+00,5.300000000000002487e+00,-2.187000000000001521e+01,-3.932000000000003581e+01,-6.901000000000000512e+01,-1.851000000000004064e+01,-5.556000000000014438e+01,2.959999999999993303e+00,-3.661999999999996191e+01,-1.532999999999999652e+01,1.598999999999996646e+01,-3.989999999999986446e+00,2.665999999999998238e+01,4.050000000000036238e+00,1.278000000000001180e+01,-2.849999999999999645e+00,-1.480000000000000426e+00,-1.000000000000000056e-01,-3.060000000000000941e+00,2.200000000000002509e-01,-1.680000000000000826e+00,-2.420000000000002149e+00,-2.670000000000000373e+00,2.089999999999998792e+01,1.328000000000000114e+01,4.139999999999992575e+00,1.237000000000002053e+01,-1.613999999999993307e+01,1.256999999999996653e+01,-6.470000000000014850e+00,5.529999999999985150e+00,-2.089999999999998082e+01,-7.540999999999979764e+01,-4.278000000000005087e+01,-4.320999999999995822e+01,9.139999999999997016e+00,-8.049999999999984723e+00,9.620000000000000995e+00,1.720000000000000639e+01,4.400000000000224842e-01,2.099999999999996803e+01,1.014999999999998970e+01,1.974999999999998934e+01,-2.270000000000001794e+00,-7.400000000000002132e-01,4.999999999999991951e-02,-2.299999999999999545e-01,4.300000000000000488e-01,-2.990000000000003322e+00,2.099999999999997979e-01,-2.579999999999998295e+00,1.469999999999999041e+01,1.191000000000001613e+01,-6.650000000000000355e+00,1.938999999999995083e+01,7.629999999999991900e+00,8.000000000000019540e+00,-2.484999999999989839e+01,3.599000000000000199e+01,-2.677999999999995495e+01,-1.171500000000001336e+02,-2.293000000000013117e+01,-2.525999999999997314e+01,-2.285999999999999233e+01,-2.664999999999996660e+01,-1.814999999999998082e+01,-1.410000000000028120e+00,-1.259999999999997655e+01,1.147000000000000242e+01,1.495000000000005258e+01,1.046999999999999531e+01,-9.890000000000002345e+00,-4.969999999999999751e+00,-1.130000000000000115e+00,6.999999999999963196e-02,-5.549999999999990052e+00,2.439999999999999947e+00,-6.449999999999993960e+00,-2.740999999999999304e+01,7.209999999999970655e+00,-4.629999999999991012e+00,4.711000000000005627e+01,4.506000000000011596e+01,-1.264999999999997726e+01,1.260000000000002007e+00,2.150999999999998380e+01,1.781999999999998963e+01,-1.246399999999998442e+02,-1.206399999999996879e+02,-1.385000000000004228e+01,8.280000000000011795e+00,-8.790000000000020464e+00,-5.066999999999988802e+01,-1.231999999999999496e+01,-1.371000000000000796e+01,2.939999999999992397e+00,1.400000000000016787e-01,2.049000000000003396e+01,-3.279999999999999361e+00,-8.250000000000001776e+00,-2.799999999999998934e+00,-7.900000000000001465e-01,-4.330000000000000071e+00,2.300000000000001155e+00,-3.680000000000000160e+00,-1.303000000000000114e+01,-1.155999999999998629e+01,8.310000000000007603e+00,-3.106000000000003070e+01,1.694000000000005812e+01,3.626999999999990365e+01,-1.023999999999999488e+01,2.791000000000007120e+01,4.310000000000015774e+01,-1.886000000000001720e+01,-8.175999999999983459e+01,-3.891999999999993776e+01,1.885000000000003695e+01,-1.333000000000000007e+01,-1.001999999999999957e+01,-8.709999999999961773e+00,2.703000000000001890e+01,-3.588999999999992241e+01,1.248000000000001108e+01,1.012000000000000455e+01,-1.569999999999990514e+00,-1.172999999999999332e+01,-6.860000000000002984e+00,-4.899999999999999356e-01,-5.700000000000000622e-01,-1.620000000000000107e+00,6.999999999999997335e-01,-2.459999999999999964e+00,-4.409999999999998366e+00,-8.679999999999976623e+00,1.554999999999999893e+01,1.277999999999999581e+01,4.090999999999998948e+01,4.509999999999992326e+01,-2.442999999999996419e+01,1.014999999999998437e+01,4.173999999999995936e+01,-1.702000000000001734e+01,-8.809000000000010289e+01,-1.785000000000008313e+01,-4.770000000000008455e+00,-2.066999999999993420e+01,-2.039999999999996305e+01,2.515000000000004476e+01,-1.193999999999997463e+01,4.750000000000007994e+00,1.284999999999999964e+01,-1.647000000000004150e+01,-2.040999999999999304e+01,-8.410000000000001918e+00,-2.349999999999999645e+00,6.000000000000003247e-02,-1.430000000000000160e+00,1.000000000000001756e-02,-3.269999999999998241e+00,-7.659999999999989484e+00,-1.449999999999999112e+01,5.800000000000083977e-01,1.414000000000001123e+01,6.580000000000007176e+00,-4.849999999999995204e+00,3.874000000000010857e+01,1.609000000000000341e+01,1.330999999999998806e+01,7.896000000000005059e+01,9.419999999999998153e+00,-1.014499999999999602e+02,-3.340999999999992554e+01,-2.122000000000002373e+01,-1.414999999999999858e+01,-6.539999999999960067e+00,8.619999999999995666e+00,5.169999999999995488e+00,-2.089999999999996660e+01,-3.764999999999993463e+01,-3.622000000000003439e+01,-1.513000000000003098e+01,-5.630000000000000782e+00,-1.270000000000000018e+00,-8.199999999999996181e-01,-1.450000000000000400e+00,-2.579999999999998739e+00,1.460000000000000631e+00,-3.839999999999999858e+00,-2.100999999999997314e+01,-1.355000000000004334e+01,-5.579999999999971649e+00,1.915000000000000568e+01,3.330000000000017835e+00,-1.029999999999993587e+00,-2.673000000000002530e+01,3.780999999999995964e+01,5.804999999999992610e+01,3.138000000000005585e+01,3.282999999999998408e+01,-3.798999999999998778e+01,7.000000000000092815e-01,-1.293999999999998174e+01,-2.597000000000009479e+01,-4.191999999999990933e+01,-4.298999999999993094e+01,-3.216999999999993776e+01,-4.890000000000009095e+01,-1.134999999999998899e+01,7.149999999999996803e+00,-3.530000000000000693e+00,-1.109999999999999654e+00,1.480000000000000204e+00,-2.100000000000000200e-01,-3.500000000000000444e+00,-3.680000000000000160e+00,1.180000000000000826e+00,-1.339000000000002721e+01,-1.127999999999999226e+01,-6.449999999999997513e+00,9.640000000000014779e+00,1.683000000000000540e+01,8.869999999999993889e+00,-2.544999999999999218e+01,2.271000000000000441e+01,3.658999999999997499e+01,-2.430000000000000604e+00,-1.372999999999999510e+01,-3.384999999999995168e+01,5.169999999999969731e+00,-2.359999999999996945e+01,-6.188000000000000966e+01,-1.473999999999995936e+01,-2.357999999999996632e+01,-4.019999999999994245e+00,1.999000000000000554e+01,-2.149999999999995914e+00,-2.318000000000000327e+01,-1.730000000000000204e+00,4.999999999999990563e-02,2.330000000000000515e+00,-1.100000000000000144e-01,-2.089999999999999858e+00,-2.319999999999999840e+00,-5.999999999999994227e-01,-4.799999999999974953e+00,1.064000000000000057e+01,7.059999999999996056e+00,9.810000000000009379e+00,-2.994999999999998153e+01,-1.185000000000000675e+01,9.249999999999998224e+00,2.294000000000002260e+01,2.017000000000000881e+01,3.419999999999984386e+00,3.976000000000003354e+01,4.176999999999992497e+01,-1.293000000000003524e+01,-2.711000000000001720e+01,-2.845000000000001350e+01,-1.549999999999987832e+00,2.089999999999998792e+01,1.800999999999999446e+01,1.140999999999999304e+01,-1.398000000000000398e+01,-1.563000000000002565e+01,-2.300000000000000377e-01,1.900000000000001688e-01,9.200000000000002620e-01,-1.000000000000000000e+00,1.510000000000000009e+00,-4.920000000000001705e+00,-1.330000000000000293e+00,9.999999999999961697e-02,-7.450000000000001954e+00,1.338999999999999702e+01,9.490000000000009095e+00,-1.190999999999999659e+01,-2.508999999999999631e+01,-6.199999999999938893e-01,5.666999999999996618e+01,4.038000000000000256e+01,1.444000000000002260e+01,2.597999999999998622e+01,2.677000000000003865e+01,4.760000000000002451e+00,-5.270000000000008455e+00,4.610000000000006537e+00,6.360000000000006537e+00,-2.444999999999998863e+01,-2.281999999999998252e+01,-1.791000000000001080e+01,-2.175999999999998380e+01,-1.848000000000000753e+01,-8.399999999999997469e-01,-1.999999999999998307e-02,-4.399999999999999467e-01,-7.999999999999999334e-01,-1.300000000000000322e-01,3.599999999999999312e-01,-1.900000000000000022e-01,6.999999999999999278e-02,-6.999999999999986788e-02,7.120000000000000107e+00,3.679999999999999716e+00,1.041000000000000192e+01,-1.880000000000000560e+00,-2.349999999999998579e+01,-2.461999999999999389e+01,-7.839999999999999858e+00,1.560000000000010933e+00,-1.918999999999999062e+01,-1.722999999999999332e+01,-1.546999999999999886e+01,-4.235999999999999943e+01,-2.783999999999999986e+01,-1.867999999999999972e+01,-1.027000000000000490e+01,-6.690000000000000391e+00,-5.839999999999999858e+00,-4.270000000000001350e+00,-4.589999999999998082e+00,0.000000000000000000e+00,0.000000000000000000e+00,0.000000000000000000e+00,0.000000000000000000e+00,-8.000000000000004330e-02,-5.999999999999997002e-02,-2.200000000000000289e-01,-3.799999999999998934e-01,-3.099999999999998868e-01,8.900000000000000133e-01,-6.040000000000000036e+00,-1.170999999999999908e+01,-1.296000000000000085e+01,-1.352999999999999048e+01,-2.975000000000000711e+01,-2.340999999999999659e+01,-2.468000000000000327e+01,-3.458999999999998920e+01,-4.408999999999999631e+01,-3.239000000000002899e+01,-1.426000000000000512e+01,-1.630000000000000338e+00,-3.910000000000000586e+00,-4.509999999999999787e+00,-1.099999999999999867e+00,-1.430000000000000382e+00,-1.010000000000000009e+00,9.199999999999999289e-01,0.000000000000000000e+00,0.000000000000000000e+00,0.000000000000000000e+00,0.000000000000000000e+00,-3.299999999999999600e-01,5.999999999999999778e-02,-2.600000000000000089e-01,-9.399999999999999467e-01,-7.000000000000001776e-01,1.399999999999999578e-01,-6.279999999999999361e+00,-6.860000000000001208e+00,-5.869999999999998330e+00,-4.879999999999998117e+00,-7.529999999999996696e+00,-6.490000000000000213e+00,-5.200000000000001066e+00,-6.219999999999998863e+00,-3.929999999999998828e+00,-3.020000000000003126e+00,-2.490000000000000657e+00,-7.000000000000000666e-02,-1.320000000000000284e+00,1.799999999999999933e-01,-3.399999999999998579e-01,-1.630000000000000560e+00,-1.290000000000000036e+00,-1.500000000000000222e-01,0.000000000000000000e+00,0.000000000000000000e+00,0.000000000000000000e+00,0.000000000000000000e+00,-1.799999999999999933e-01,-5.000000000000001665e-02,9.000000000000001055e-02,-1.900000000000000300e-01,-2.900000000000000355e-01,-2.569999999999999396e+00,-2.859999999999999432e+00,-3.699999999999999956e-01,-6.200000000000001066e-01,-2.220000000000000639e+00,-1.239999999999999103e+00,4.200000000000000400e-01,1.400000000000003186e-01,-6.000000000000000888e-01,-1.200000000000000178e+00,-1.840000000000000524e+00,-6.800000000000001599e-01,-2.360000000000000320e+00,-4.600000000000001310e-01,2.799999999999999156e-01,-3.300000000000000711e-01,-7.400000000000002132e-01,-1.099999999999999867e-01,-3.200000000000000622e-01,0.000000000000000000e+00,0.000000000000000000e+00,0.000000000000000000e+00,0.000000000000000000e+00,-7.900000000000004796e-01
9.489999999999999547e-01,-5.100000000000001754e-02,-4.200000000000000261e-02,-1.700000000000000122e-02,-2.400000000000000744e-02,-8.499999999999999223e-02,-9.000000000000004524e-03,-4.599999999999999922e-02,-4.850000000000003197e-01,5.140000000000003455e-01,-4.160000000000002585e-01,-2.940000000000001501e-01,-1.970000000000000917e-01,-1.729999999999999871e-01,-3.499999999999999639e-02,-4.630000000000002447e-01,-3.160000000000002252e-01,9.180000000000005933e-01,-6.170000000000004370e-01,1.240000000000000546e-01,-6.640000000000003677e-01,1.210000000000001630e-01,-1.460000000000000187e-01,1.399999999999999578e-01,-4.700000000000000011e-02,-3.900000000000000688e-02,-1.500000000000000222e-01,-5.300000000000000544e-02,-9.300000000000001321e-02,-3.300000000000001543e-02,-4.800000000000001488e-02,-4.900000000000001577e-02,-1.600000000000000033e-02,-2.000000000000000042e-03,-6.200000000000000649e-02,-5.299999999999999850e-02,2.679999999999999605e-01,6.899999999999990863e-02,-4.350000000000002198e-01,-2.290000000000001756e-01,-2.589999999999999525e-01,-5.840000000000004077e-01,1.279999999999997251e-01,-5.750000000000002887e-01,4.420000000000003926e-01,-9.050000000000005818e-01,-2.620000000000000662e-01,-1.160000000000000753e-01,2.760000000000000786e-01,-5.100000000000001754e-02,-4.740000000000003100e-01,-2.620000000000001217e-01,-1.300000000000000114e-02,-5.799999999999998906e-02,-6.400000000000000133e-02,-7.500000000000001110e-02,-7.599999999999999811e-02,-4.800000000000000100e-02,-3.200000000000000067e-02,-2.700000000000000316e-02,-2.399999999999999703e-02,-3.899999999999999994e-02,-5.100000000000001754e-02,-1.230000000000000260e-01,9.799999999999993439e-02,2.570000000000001728e-01,1.970000000000001195e-01,-4.450000000000002842e-01,-7.790000000000004698e-01,-7.539999999999994484e-01,-1.905999999999997918e+00,-1.276999999999999913e+00,-1.084999999999999742e+00,-5.919999999999999707e-01,5.640000000000005009e-01,-5.579999999999999405e-01,-9.700000000000003064e-01,-1.008000000000000229e+00,3.130000000000001670e-01,-2.740000000000001323e-01,-1.240000000000000269e-01,-1.540000000000000813e-01,-9.699999999999998901e-02,-2.559999999999999498e-01,-1.900000000000000300e-02,-3.800000000000000600e-02,-3.800000000000000600e-02,-1.330000000000000071e-01,-3.600000000000000422e-02,-2.400000000000000050e-02,-3.100000000000000672e-02,-1.680000000000000104e-01,-6.699999999999992073e-02,-1.279999999999998916e+00,-1.791999999999999593e+00,-3.613000000000000433e+00,-5.080999999999998629e+00,-3.168000000000001037e+00,-3.637999999999998568e+00,-3.638000000000000345e+00,-2.182999999999996721e+00,-2.027999999999999137e+00,-1.630000000000000782e+00,-2.243999999999998440e+00,-1.466000000000003523e+00,-1.548999999999997934e+00,4.499999999999994976e-02,-6.240000000000004432e-01,3.999999999999989675e-03,-1.040000000000000091e-01,-4.100000000000000866e-02,-1.599999999999999339e-02,-7.600000000000001199e-02,-5.499999999999999334e-02,-1.600000000000000033e-02,-2.800000000000000405e-02,-9.900000000000001854e-02,-1.690000000000000668e-01,-2.360000000000000431e-01,-3.850000000000000089e-01,1.216999999999999860e+00,-7.210000000000010845e-01,-2.807000000000002160e+00,-9.320000000000014939e-01,-3.504000000000000892e+00,-2.759999999999996900e-01,-6.260000000000007780e-01,-3.584000000000001851e+00,-3.399000000000005350e+00,2.143999999999998352e+00,2.587999999999999190e+00,-2.952999999999996739e+00,-1.602999999999999314e+00,-1.947999999999996845e+00,-7.290000000000004254e-01,3.639999999999999347e-01,6.099999999999998757e-01,-1.390000000000000402e-01,-2.730000000000001315e-01,-1.900000000000000855e-01,-5.600000000000000810e-02,-2.199999999999999872e-02,-4.100000000000000172e-02,-4.900000000000001577e-02,-8.350000000000000755e-01,-1.560999999999998833e+00,-2.442000000000000171e+00,-2.599999999999999645e+00,-3.701999999999996849e+00,-3.875000000000002665e+00,-4.330999999999993300e+00,-3.294000000000002704e+00,-3.624999999999996447e+00,-6.509999999999993570e-01,1.466999999999999638e+00,3.777000000000003244e+00,9.800000000000000933e-01,-1.134999999999998455e+00,2.000000000000304312e-02,1.223999999999999089e+00,-1.899999999999995304e-01,4.469999999999998419e-01,8.910000000000009024e-01,5.449999999999998179e-01,-2.410000000000002418e-01,-4.070000000000000839e-01,-1.400000000000000029e-02,-8.200000000000001732e-02,-3.700000000000000511e-02,-1.600000000000000033e-02,-7.400000000000001021e-02,-1.360000000000000098e-01,-1.574000000000000066e+00,-2.352999999999998426e+00,-2.707999999999999297e+00,-1.995999999999998220e+00,-3.055000000000001936e+00,-1.102000000000002533e+00,-1.665000000000002034e+00,1.213000000000000744e+00,2.006000000000000227e+00,8.970000000000009077e-01,-6.950000000000000622e-01,-1.399999999999954059e-02,-6.059999999999992060e-01,2.209000000000004071e+00,-1.890999999999999348e+00,2.962000000000005517e+00,-6.400000000000002354e-01,1.451999999999999291e+00,4.539999999999994040e-01,-1.395999999999999908e+00,-4.397000000000001130e+00,-3.275000000000000355e+00,-3.820000000000001172e-01,-2.599999999999999881e-02,-5.200000000000001843e-02,-2.300000000000000308e-02,-1.290000000000000591e-01,-6.199999999999999956e-02,-1.089999999999999858e+00,-1.783999999999998032e+00,-1.964999999999999858e+00,-1.553999999999999382e+00,-2.285000000000001918e+00,1.549999999999996381e-01,-2.399999999999996581e-02,1.840000000000000080e+00,-1.332999999999999963e+00,5.240000000000001323e-01,4.927999999999995495e+00,3.980000000000002647e+00,2.726000000000001755e+00,2.177000000000002267e+00,-2.525000000000005240e+00,3.752000000000004665e+00,-6.050000000000007594e-01,-1.530000000000015792e-01,-2.296999999999995712e+00,-8.559999999999995390e-01,-4.197999999999997733e+00,-3.337999999999999190e+00,-8.200000000000000344e-02,-4.299999999999999656e-02,-1.159999999999999920e-01,-8.800000000000002265e-02,1.799999999999995354e-02,8.799999999999999489e-02,-1.485999999999999099e+00,-1.765999999999999126e+00,-6.999999999999999556e-01,-1.485999999999999543e+00,-9.599999999999980771e-02,-3.170000000000002149e+00,1.865000000000001545e+00,-3.830000000000006732e-01,-4.704999999999998295e+00,-2.202000000000003066e+00,2.299999999999992328e-01,1.104999999999999094e+00,2.121000000000006214e+00,2.482999999999999652e+00,1.384999999999999121e+00,-7.299999999999977340e-02,2.239999999999997826e-01,9.779999999999995364e-01,-1.617999999999998995e+00,-1.046999999999999265e+00,-1.990000000000000435e+00,-2.888999999999999790e+00,-3.070000000000000506e-01,1.299999999999998726e-02,-1.059999999999999970e-01,-4.000000000000032176e-03,-1.829999999999999960e-01,-1.880000000000001115e-01,-1.025999999999998913e+00,-1.438000000000003054e+00,-8.400000000000000799e-01,-1.327000000000001290e+00,-1.277000000000001467e+00,-2.480000000000008309e-01,2.879999999999990346e-01,7.719999999999991314e-01,-1.867999999999998995e+00,1.850999999999999535e+00,-7.000000000000727862e-03,-5.619999999999998330e-01,3.899999999999994582e-01,1.359999999999999432e+00,1.460000000000000853e+00,1.032000000000002693e+00,-1.874999999999999334e+00,-1.225000000000000977e+00,9.489999999999997327e-01,6.140000000000001013e-01,2.359999999999997655e-01,-1.271999999999999797e+00,-5.800000000000000294e-02,-4.199999999999999567e-02,7.399999999999999634e-02,-2.110000000000001319e-01,-8.199999999999998956e-02,-2.720000000000000751e-01,-6.889999999999998348e-01,-5.299999999999999156e-01,-1.548999999999997934e+00,8.760000000000005560e-01,-1.819999999999995510e-01,-1.266999999999995463e+00,5.400000000000014788e-01,4.379999999999958371e-01,1.341000000000000636e+00,-3.143999999999998796e+00,-5.969999999999999751e-01,-1.869999999999996998e+00,-2.372000000000002995e+00,2.349999999999999034e-01,4.689999999999991398e-01,4.240000000000034852e-01,6.939999999999956204e-01,9.210000000000032605e-01,1.507000000000000783e+00,6.080000000000007621e-01,-1.511999999999999567e+00,-1.306999999999999496e+00,-1.420000000000000151e-01,-8.299999999999997657e-02,-8.499999999999999223e-02,-2.580000000000000626e-01,5.500000000000000028e-02,-7.879999999999999227e-01,-1.621999999999998776e+00,-5.050000000000000044e-01,-3.699999999999985245e-02,2.925000000000000266e+00,-2.414999999999999591e+00,-2.421999999999998376e+00,2.079000000000001513e+00,3.921000000000012253e+00,-1.999999999999999556e-01,-3.055000000000004157e+00,4.049999999999991940e-01,-1.704999999999999849e+00,-2.046999999999998376e+00,2.410999999999999144e+00,3.392999999999998462e+00,6.320000000000005613e-01,2.231000000000007422e+00,1.392000000000003679e+00,4.242999999999996774e+00,1.863000000000002432e+00,-5.620000000000002771e-01,-3.270000000000000684e-01,2.850000000000000866e-01,-8.600000000000000699e-02,-2.310000000000001219e-01,6.999999999999997891e-02,-1.360000000000000098e-01,-4.459999999999999520e-01,-1.348999999999997312e+00,1.660000000000000364e-01,2.247999999999999776e+00,3.235999999999998433e+00,-1.149000000000000909e+00,5.439999999999997060e-01,1.353999999999995207e+00,-4.116999999999999993e+00,-7.810000000000000275e-01,-8.999999999999909461e-02,-1.538000000000001366e+00,-2.747999999999998888e+00,-3.943999999999993289e+00,1.273000000000000353e+00,-1.842000000000001636e+00,-2.946999999999998732e+00,-5.870000000000010765e-01,-1.223999999999997979e+00,3.432000000000002160e+00,1.037000000000006139e+00,6.750000000000000444e-01,-1.700000000000000400e-01,1.469999999999999640e-01,-5.600000000000000810e-02,-9.699999999999997513e-02,3.600000000000008055e-02,1.599999999999997952e-02,-4.820000000000001505e-01,-9.029999999999996918e-01,9.249999999999997113e-01,2.340999999999999748e+00,1.837999999999999634e+00,1.522999999999994358e+00,2.078000000000003844e+00,2.500000000000006661e-01,5.300000000000008038e-01,-2.186999999999999833e+00,-3.931999999999995943e+00,-6.900999999999988255e+00,-1.851000000000002199e+00,-5.555999999999988503e+00,2.960000000000017062e-01,-3.662000000000002586e+00,-1.532999999999999696e+00,1.598999999999998201e+00,-3.990000000000012981e-01,2.666000000000003478e+00,4.049999999999963629e-01,1.278000000000000913e+00,-2.850000000000000311e-01,-1.480000000000000482e-01,-1.000000000000000021e-02,-3.060000000000002163e-01,2.199999999999992586e-02,-1.680000000000000382e-01,-2.419999999999999374e-01,-2.669999999999997931e-01,2.090000000000001634e+00,1.328000000000003622e+00,4.139999999999997016e-01,1.237000000000000988e+00,-1.614000000000002544e+00,1.257000000000001005e+00,-6.470000000000011298e-01,5.530000000000000471e-01,-2.089999999999992752e+00,-7.540999999999974612e+00,-4.277999999999998693e+00,-4.321000000000002395e+00,9.139999999999985913e-01,-8.049999999999994937e-01,9.620000000000010765e-01,1.719999999999999307e+00,4.400000000000048317e-02,2.099999999999999645e+00,1.014999999999997904e+00,1.975000000000001865e+00,-2.270000000000000351e-01,-7.400000000000001021e-02,4.999999999999983624e-03,-2.300000000000001349e-02,4.299999999999999656e-02,-2.990000000000002101e-01,2.100000000000000130e-02,-2.580000000000001736e-01,1.470000000000000862e+00,1.190999999999998948e+00,-6.649999999999997025e-01,1.938999999999999391e+00,7.629999999999993454e-01,8.000000000000011546e-01,-2.485000000000001208e+00,3.599000000000000199e+00,-2.677999999999993275e+00,-1.171500000000001229e+01,-2.292999999999997929e+00,-2.525999999999994916e+00,-2.286000000000001364e+00,-2.664999999999998703e+00,-1.814999999999999059e+00,-1.409999999999989040e-01,-1.259999999999999121e+00,1.147000000000000686e+00,1.494999999999997886e+00,1.047000000000000375e+00,-9.890000000000001013e-01,-4.969999999999999973e-01,-1.130000000000000449e-01,7.000000000000014891e-03,-5.550000000000003819e-01,2.440000000000000502e-01,-6.450000000000002398e-01,-2.741000000000000547e+00,7.209999999999998632e-01,-4.629999999999991900e-01,4.710999999999995858e+00,4.506000000000005556e+00,-1.264999999999999236e+00,1.259999999999997788e-01,2.150999999999996692e+00,1.782000000000000917e+00,-1.246400000000000574e+01,-1.206399999999999828e+01,-1.384999999999993348e+00,8.280000000000004023e-01,-8.790000000000017799e-01,-5.067000000000000171e+00,-1.231999999999998652e+00,-1.371000000000000663e+00,2.940000000000005387e-01,1.399999999999970712e-02,2.049000000000000377e+00,-3.280000000000000138e-01,-8.250000000000000666e-01,-2.800000000000000266e-01,-7.900000000000000078e-02,-4.330000000000003291e-01,2.300000000000000377e-01,-3.680000000000001603e-01,-1.302999999999999714e+00,-1.155999999999999694e+00,8.310000000000001830e-01,-3.105999999999998984e+00,1.693999999999998396e+00,3.626999999999999336e+00,-1.024000000000000021e+00,2.791000000000000369e+00,4.309999999999993392e+00,-1.885999999999998566e+00,-8.175999999999998380e+00,-3.892000000000010562e+00,1.885000000000001785e+00,-1.332999999999999741e+00,-1.002000000000000224e+00,-8.709999999999996634e-01,2.703000000000003400e+00,-3.588999999999999968e+00,1.247999999999999332e+00,1.012000000000000455e+00,-1.570000000000003615e-01,-1.173000000000000265e+00,-6.860000000000001652e-01,-4.900000000000000189e-02,-5.699999999999999512e-02,-1.620000000000000329e-01,7.000000000000002054e-02,-2.460000000000002185e-01,-4.410000000000002252e-01,-8.679999999999984395e-01,1.555000000000000382e+00,1.277999999999999581e+00,4.091000000000005521e+00,4.509999999999999787e+00,-2.443000000000000060e+00,1.015000000000003455e+00,4.173999999999996824e+00,-1.701999999999999069e+00,-8.808999999999992170e+00,-1.785000000000007692e+00,-4.769999999999997575e-01,-2.067000000000001059e+00,-2.040000000000002700e+00,2.515000000000004565e+00,-1.193999999999996842e+00,4.750000000000001443e-01,1.284999999999999920e+00,-1.646999999999997355e+00,-2.040999999999998593e+00,-8.410000000000001918e-01,-2.349999999999999867e-01,6.000000000000000125e-03,-1.430000000000000160e-01,1.000000000000005225e-03,-3.270000000000001239e-01,-7.660000000000005693e-01,-1.449999999999998179e+00,5.800000000000382627e-02,1.413999999999998591e+00,6.580000000000004734e-01,-4.850000000000007638e-01,3.874000000000008548e+00,1.608999999999999986e+00,1.331000000000005512e+00,7.895999999999994579e+00,9.420000000000001705e-01,-1.014500000000001023e+01,-3.340999999999988201e+00,-2.122000000000001219e+00,-1.415000000000000924e+00,-6.540000000000030234e-01,8.620000000000000995e-01,5.170000000000004592e-01,-2.089999999999999858e+00,-3.764999999999992131e+00,-3.622000000000003883e+00,-1.513000000000000345e+00,-5.630000000000000560e-01,-1.270000000000000018e-01,-8.200000000000001732e-02,-1.450000000000000455e-01,-2.580000000000001181e-01,1.460000000000000187e-01,-3.840000000000002855e-01,-2.100999999999996870e+00,-1.354999999999997096e+00,-5.580000000000014948e-01,1.915000000000002034e+00,3.329999999999990745e-01,-1.030000000000005911e-01,-2.673000000000000043e+00,3.780999999999996586e+00,5.805000000000010374e+00,3.137999999999995460e+00,3.283000000000000806e+00,-3.799000000000001709e+00,7.000000000000075606e-02,-1.294000000000000483e+00,-2.597000000000000863e+00,-4.192000000000006388e+00,-4.298999999999987942e+00,-3.217000000000001414e+00,-4.890000000000005009e+00,-1.135000000000000009e+00,7.149999999999999689e-01,-3.529999999999999805e-01,-1.110000000000000153e-01,1.480000000000000204e-01,-2.099999999999999784e-02,-3.500000000000001998e-01,-3.680000000000002158e-01,1.180000000000000493e-01,-1.338999999999999080e+00,-1.127999999999998781e+00,-6.450000000000005729e-01,9.639999999999995239e-01,1.683000000000001162e+00,8.870000000000001217e-01,-2.544999999999999485e+00,2.271000000000001240e+00,3.658999999999999364e+00,-2.430000000000003546e-01,-1.373000000000001553e+00,-3.385000000000002451e+00,5.170000000000005702e-01,-2.359999999999999876e+00,-6.188000000000005052e+00,-1.474000000000003752e+00,-2.357999999999997875e+00,-4.019999999999998019e-01,1.999000000000000998e+00,-2.149999999999992750e-01,-2.318000000000001393e+00,-1.730000000000000149e-01,4.999999999999987094e-03,2.329999999999999849e-01,-1.099999999999999936e-02,-2.090000000000000469e-01,-2.320000000000000950e-01,-5.999999999999992145e-02,-4.799999999999986500e-01,1.063999999999999835e+00,7.059999999999989617e-01,9.810000000000004272e-01,-2.995000000000004547e+00,-1.184999999999999609e+00,9.250000000000001554e-01,2.294000000000003148e+00,2.016999999999999016e+00,3.420000000000004148e-01,3.976000000000006196e+00,4.176999999999997826e+00,-1.292999999999999705e+00,-2.711000000000001631e+00,-2.845000000000007301e+00,-1.549999999999993605e-01,2.090000000000005631e+00,1.800999999999999490e+00,1.141000000000000458e+00,-1.398000000000002574e+00,-1.562999999999999723e+00,-2.299999999999999614e-02,1.900000000000001688e-02,9.199999999999997069e-02,-1.000000000000000056e-01,1.510000000000000231e-01,-4.920000000000002705e-01,-1.330000000000000071e-01,9.999999999999955105e-03,-7.450000000000003286e-01,1.338999999999999968e+00,9.490000000000001767e-01,-1.191000000000000281e+00,-2.508999999999995456e+00,-6.199999999999966649e-02,5.666999999999987381e+00,4.038000000000001144e+00,1.444000000000000394e+00,2.598000000000005194e+00,2.677000000000004931e+00,4.759999999999996456e-01,-5.270000000000010232e-01,4.610000000000000209e-01,6.360000000000000098e-01,-2.444999999999997620e+00,-2.282000000000000917e+00,-1.790999999999998815e+00,-2.175999999999991719e+00,-1.848000000000002307e+00,-8.400000000000000522e-02,-2.000000000000000042e-03,-4.399999999999999051e-02,-8.000000000000000167e-02,-1.299999999999999420e-02,3.599999999999999728e-02,-1.899999999999999953e-02,6.999999999999999278e-03,-6.999999999999988870e-03,7.119999999999999662e-01,3.679999999999998828e-01,1.041000000000001036e+00,-1.880000000000001115e-01,-2.349999999999998312e+00,-2.462000000000000188e+00,-7.839999999999994751e-01,1.559999999999996667e-01,-1.919000000000000483e+00,-1.722999999999999199e+00,-1.547000000000000375e+00,-4.235999999999999766e+00,-2.783999999999998920e+00,-1.867999999999999883e+00,-1.026999999999999691e+00,-6.690000000000000391e-01,-5.840000000000000746e-01,-4.270000000000001017e-01,-4.590000000000000746e-01,0.000000000000000000e+00,0.000000000000000000e+00,0.000000000000000000e+00,0.000000000000000000e+00,-7.999999999999996697e-03,-5.999999999999999258e-03,-2.199999999999999872e-02,-3.799999999999999906e-02,-3.099999999999999978e-02,8.899999999999999578e-02,-6.040000000000000924e-01,-1.171000000000000041e+00,-1.295999999999999819e+00,-1.352999999999999758e+00,-2.974999999999999201e+00,-2.340999999999998860e+00,-2.468000000000000416e+00,-3.458999999999998742e+00,-4.408999999999999808e+00,-3.238999999999997659e+00,-1.425999999999999268e+00,-1.630000000000000060e-01,-3.910000000000000697e-01,-4.510000000000000675e-01,-1.099999999999999867e-01,-1.430000000000000160e-01,-1.009999999999999926e-01,9.200000000000001232e-02,0.000000000000000000e+00,0.000000000000000000e+00,0.000000000000000000e+00,0.000000000000000000e+00,-3.300000000000000155e-02,6.000000000000003594e-03,-2.600000000000000228e-02,-9.400000000000001410e-02,-6.999999999999999278e-02,1.400000000000000203e-02,-6.280000000000001137e-01,-6.859999999999999432e-01,-5.870000000000001883e-01,-4.880000000000001004e-01,-7.530000000000002247e-01,-6.490000000000001323e-01,-5.200000000000002398e-01,-6.220000000000001084e-01,-3.930000000000000160e-01,-3.020000000000000462e-01,-2.489999999999999714e-01,-7.000000000000000146e-03,-1.320000000000000062e-01,1.799999999999999517e-02,-3.400000000000000244e-02,-1.630000000000000615e-01,-1.290000000000000036e-01,-1.500000000000000291e-02,0.000000000000000000e+00,0.000000000000000000e+00,0.000000000000000000e+00,0.000000000000000000e+00,-1.799999999999999864e-02,-4.999999999999999237e-03,8.999999999999999320e-03,-1.900000000000000300e-02,-2.899999999999999800e-02,-2.570000000000000617e-01,-2.860000000000000320e-01,-3.699999999999999817e-02,-6.199999999999998568e-02,-2.220000000000000584e-01,-1.240000000000000269e-01,4.199999999999998179e-02,1.400000000000002111e-02,-6.000000000000001860e-02,-1.199999999999999956e-01,-1.840000000000000524e-01,-6.800000000000000488e-02,-2.360000000000001263e-01,-4.600000000000001310e-02,2.799999999999999364e-02,-3.300000000000000155e-02,-7.400000000000001021e-02,-1.099999999999999936e-02,-3.200000000000000761e-02,0.000000000000000000e+00,0.000000000000000000e+00,0.000000000000000000e+00,0.000000000000000000e+00,-7.900000000000005629e-02
