7.300000000000000000e+01,2.190000000000000000e+02,2.700000000000000000e+02,2.600000000000000000e+01,1.700000000000000000e+01,2.500000000000000000e+02,4.860000000000000000e+02,-6.400000000000000000e+01,-1.240000000000000000e+02,3.000000000000000000e+02,2.100000000000000000e+02,1.410000000000000000e+02,1.150000000000000000e+02,-5.540000000000000000e+02,-1.000000000000000000e+01,-4.900000000000000000e+02,-5.200000000000000000e+01,4.950000000000000000e+02,2.600000000000000000e+01,-1.979000000000000000e+03,-8.000000000000000000e+00,1.420000000000000000e+02,-5.350000000000000000e+02,7.560000000000000000e+02,-2.100000000000000000e+01,0.000000000000000000e+00,-7.000000000000000000e+00,-5.100000000000000000e+01,6.200000000000000000e+01,-4.000000000000000000e+01,3.500000000000000000e+01,2.010000000000000000e+02,6.000000000000000000e+00,1.040000000000000000e+02,4.200000000000000000e+01,1.130000000000000000e+02,-7.740000000000000000e+02,4.180000000000000000e+02,5.220000000000000000e+02,2.390000000000000000e+02,1.010000000000000000e+02,-1.933000000000000000e+03,4.800000000000000000e+02,8.620000000000000000e+02,-8.650000000000000000e+02,-1.665000000000000000e+03,8.230000000000000000e+02,1.193000000000000000e+03,-1.880000000000000000e+02,-1.441000000000000000e+03,2.560000000000000000e+02,-3.000000000000000000e+02,-2.500000000000000000e+01,-1.250000000000000000e+02,-7.100000000000000000e+01,-2.100000000000000000e+01,4.070000000000000000e+02,-1.000000000000000000e+02,-1.370000000000000000e+02,1.630000000000000000e+02,1.770000000000000000e+02,1.950000000000000000e+02,-2.300000000000000000e+01,3.320000000000000000e+02,9.840000000000000000e+02,-1.710000000000000000e+02,-8.960000000000000000e+02,5.070000000000000000e+02,1.278000000000000000e+03,3.310000000000000000e+02,1.870000000000000000e+02,-4.830000000000000000e+02,7.170000000000000000e+02,7.280000000000000000e+02,2.630000000000000000e+02,5.620000000000000000e+02,6.340000000000000000e+02,-1.148000000000000000e+03,7.250000000000000000e+02,-6.020000000000000000e+02,-1.500000000000000000e+01,-1.200000000000000000e+01,-1.400000000000000000e+01,-3.900000000000000000e+01,-2.300000000000000000e+01,-7.400000000000000000e+01,2.970000000000000000e+02,7.000000000000000000e+01,2.600000000000000000e+01,6.000000000000000000e+00,5.600000000000000000e+01,-1.610000000000000000e+02,7.110000000000000000e+02,8.810000000000000000e+02,9.460000000000000000e+02,-8.920000000000000000e+02,-1.783000000000000000e+03,-1.755000000000000000e+03,-1.734000000000000000e+03,1.246000000000000000e+03,-2.695000000000000000e+03,-1.282000000000000000e+03,-5.690000000000000000e+02,-1.099000000000000000e+03,7.320000000000000000e+02,-1.500000000000000000e+02,6.190000000000000000e+02,-4.700000000000000000e+01,-7.800000000000000000e+01,-3.200000000000000000e+01,0.000000000000000000e+00,-3.400000000000000000e+01,-1.940000000000000000e+02,-4.700000000000000000e+01,7.800000000000000000e+01,4.100000000000000000e+01,-1.480000000000000000e+02,-2.240000000000000000e+02,8.100000000000000000e+01,1.240000000000000000e+02,-8.290000000000000000e+02,-1.358000000000000000e+03,-1.070000000000000000e+02,1.067000000000000000e+03,4.460000000000000000e+02,-9.390000000000000000e+02,-3.879000000000000000e+03,-4.287000000000000000e+03,-2.992000000000000000e+03,-2.329000000000000000e+03,-1.966000000000000000e+03,-1.055000000000000000e+03,-1.293000000000000000e+03,-3.740000000000000000e+02,-1.593000000000000000e+03,-3.460000000000000000e+02,-2.460000000000000000e+02,-1.660000000000000000e+02,-5.000000000000000000e+01,0.000000000000000000e+00,-1.220000000000000000e+02,1.830000000000000000e+02,1.270000000000000000e+02,3.260000000000000000e+02,1.300000000000000000e+01,-1.094000000000000000e+03,-2.297000000000000000e+03,-1.917000000000000000e+03,2.360000000000000000e+02,1.849000000000000000e+03,2.340000000000000000e+02,-2.938000000000000000e+03,-2.442000000000000000e+03,-4.530000000000000000e+02,-3.850000000000000000e+02,-1.628000000000000000e+03,-2.546000000000000000e+03,-8.053000000000000000e+03,-8.733000000000000000e+03,-7.148000000000000000e+03,-4.553000000000000000e+03,2.260000000000000000e+02,1.380000000000000000e+02,-1.567000000000000000e+03,-3.500000000000000000e+02,-3.100000000000000000e+01,-4.500000000000000000e+01,-3.300000000000000000e+01,1.780000000000000000e+02,-1.200000000000000000e+01,-2.060000000000000000e+02,1.100000000000000000e+01,-8.020000000000000000e+02,-2.345000000000000000e+03,-3.710000000000000000e+02,6.560000000000000000e+02,2.056000000000000000e+03,3.349000000000000000e+03,-2.969000000000000000e+03,-3.648000000000000000e+03,3.202000000000000000e+03,4.402000000000000000e+03,6.238000000000000000e+03,-1.158000000000000000e+03,-2.957000000000000000e+03,-6.020000000000000000e+02,-9.840000000000000000e+02,-4.094000000000000000e+03,-5.942000000000000000e+03,-1.836000000000000000e+03,-2.484000000000000000e+03,-3.892000000000000000e+03,-9.130000000000000000e+02,-1.410000000000000000e+02,0.000000000000000000e+00,-1.300000000000000000e+02,5.900000000000000000e+01,2.600000000000000000e+01,1.260000000000000000e+02,6.010000000000000000e+02,-1.106000000000000000e+03,-3.317000000000000000e+03,2.900000000000000000e+03,7.160000000000000000e+03,-3.526000000000000000e+03,-1.322000000000000000e+03,1.088000000000000000e+03,4.138000000000000000e+03,-1.098000000000000000e+03,-1.032000000000000000e+03,-4.148000000000000000e+03,-1.402000000000000000e+03,6.980000000000000000e+02,-2.166000000000000000e+03,-1.946000000000000000e+03,-1.014000000000000000e+03,-3.079000000000000000e+03,-2.914000000000000000e+03,-1.621000000000000000e+03,-3.586000000000000000e+03,-2.038000000000000000e+03,-6.830000000000000000e+02,-8.500000000000000000e+01,-7.700000000000000000e+01,-1.300000000000000000e+02,7.380000000000000000e+02,6.230000000000000000e+02,1.230000000000000000e+03,-3.597000000000000000e+03,2.334000000000000000e+03,7.158000000000000000e+03,3.620000000000000000e+03,2.142000000000000000e+03,4.870000000000000000e+03,7.405000000000000000e+03,-1.990000000000000000e+03,2.627000000000000000e+03,-3.443000000000000000e+03,-2.131000000000000000e+03,5.171000000000000000e+03,8.100000000000000000e+02,-2.333000000000000000e+03,7.347000000000000000e+03,2.458000000000000000e+03,6.980000000000000000e+02,3.000000000000000000e+02,-5.820000000000000000e+02,-1.670000000000000000e+03,9.360000000000000000e+02,-1.204000000000000000e+03,-1.300000000000000000e+01,-1.900000000000000000e+02,8.320000000000000000e+02,1.002000000000000000e+03,-8.030000000000000000e+02,1.618000000000000000e+03,4.762000000000000000e+03,5.954000000000000000e+03,3.824000000000000000e+03,5.472000000000000000e+03,-2.300000000000000000e+02,-3.446000000000000000e+03,-3.110000000000000000e+03,2.051000000000000000e+03,7.465000000000000000e+03,-2.964000000000000000e+03,-4.385000000000000000e+03,1.182000000000000000e+03,5.576000000000000000e+03,5.004000000000000000e+03,-1.219000000000000000e+03,-1.394000000000000000e+03,7.900000000000000000e+01,3.742000000000000000e+03,4.880000000000000000e+02,6.260000000000000000e+02,1.226000000000000000e+03,-4.230000000000000000e+02,-4.000000000000000000e+00,-1.960000000000000000e+02,-1.680000000000000000e+02,8.390000000000000000e+02,9.970000000000000000e+02,3.275000000000000000e+03,4.768000000000000000e+03,6.260000000000000000e+03,-5.710000000000000000e+02,3.689000000000000000e+03,1.485000000000000000e+03,2.033000000000000000e+03,-2.263000000000000000e+03,2.691000000000000000e+03,-3.930000000000000000e+02,8.283000000000000000e+03,2.767000000000000000e+03,3.748000000000000000e+03,5.126000000000000000e+03,1.729000000000000000e+03,4.373000000000000000e+03,-2.993000000000000000e+03,6.909000000000000000e+03,7.830000000000000000e+02,-1.300000000000000000e+03,1.183000000000000000e+03,6.740000000000000000e+02,-3.100000000000000000e+02,-5.420000000000000000e+02,-5.100000000000000000e+01,-4.120000000000000000e+02,6.100000000000000000e+02,1.446000000000000000e+03,3.932000000000000000e+03,5.328000000000000000e+03,-7.930000000000000000e+02,-7.499000000000000000e+03,3.586000000000000000e+03,8.787000000000000000e+03,-3.449000000000000000e+03,1.587000000000000000e+03,-3.462000000000000000e+03,-4.158000000000000000e+03,4.230000000000000000e+02,7.880000000000000000e+03,4.904000000000000000e+03,4.487000000000000000e+03,6.754000000000000000e+03,5.055000000000000000e+03,-3.310000000000000000e+03,-9.500000000000000000e+02,-1.777000000000000000e+03,-2.620000000000000000e+02,-6.680000000000000000e+02,-1.218000000000000000e+03,-3.200000000000000000e+02,7.400000000000000000e+01,1.730000000000000000e+02,2.580000000000000000e+02,-5.730000000000000000e+02,6.490000000000000000e+02,1.563000000000000000e+03,1.733000000000000000e+03,-8.297000000000000000e+03,-1.137500000000000000e+04,-2.351000000000000000e+03,2.993000000000000000e+03,6.490000000000000000e+02,-6.652000000000000000e+03,2.267000000000000000e+03,-4.742000000000000000e+03,-8.372000000000000000e+03,-3.751000000000000000e+03,6.357000000000000000e+03,-2.912000000000000000e+03,2.915000000000000000e+03,2.004000000000000000e+03,1.740000000000000000e+02,1.517000000000000000e+03,-6.320000000000000000e+02,-1.018000000000000000e+03,-5.998000000000000000e+03,-2.418000000000000000e+03,-3.930000000000000000e+02,9.000000000000000000e+01,-1.200000000000000000e+01,1.030000000000000000e+02,8.320000000000000000e+02,7.240000000000000000e+02,-2.540000000000000000e+02,1.305000000000000000e+03,-3.919000000000000000e+03,2.605000000000000000e+03,-3.482000000000000000e+03,-5.078000000000000000e+03,-3.402000000000000000e+03,4.800000000000000000e+02,-2.131000000000000000e+03,-6.207000000000000000e+03,-4.298000000000000000e+03,-3.183000000000000000e+03,-8.249000000000000000e+03,-3.600000000000000000e+02,6.533000000000000000e+03,-2.870000000000000000e+03,2.135000000000000000e+03,2.626000000000000000e+03,5.263000000000000000e+03,3.055000000000000000e+03,-3.348000000000000000e+03,-1.188000000000000000e+03,-3.840000000000000000e+02,-1.250000000000000000e+02,-1.640000000000000000e+02,4.380000000000000000e+02,4.640000000000000000e+02,-3.010000000000000000e+02,-2.710000000000000000e+02,-1.414000000000000000e+03,2.881000000000000000e+03,7.744000000000000000e+03,-6.895000000000000000e+03,-9.480000000000000000e+02,-1.111000000000000000e+03,7.520000000000000000e+02,-5.841000000000000000e+03,-7.561000000000000000e+03,1.792000000000000000e+03,5.923000000000000000e+03,-4.833000000000000000e+03,1.814000000000000000e+03,1.158000000000000000e+03,-4.542000000000000000e+03,1.500000000000000000e+03,5.170000000000000000e+03,-9.280000000000000000e+02,-4.275000000000000000e+03,-6.880000000000000000e+02,-4.210000000000000000e+02,2.250000000000000000e+03,5.340000000000000000e+02,1.020000000000000000e+02,1.920000000000000000e+02,7.900000000000000000e+02,-1.185000000000000000e+03,2.450000000000000000e+02,-9.600000000000000000e+01,-2.113000000000000000e+03,1.142000000000000000e+03,-3.300000000000000000e+03,-3.397000000000000000e+03,-3.865000000000000000e+03,-1.855000000000000000e+03,-8.526000000000000000e+03,1.649000000000000000e+03,-1.022200000000000000e+04,-2.372000000000000000e+03,-2.482000000000000000e+03,-1.136800000000000000e+04,7.537000000000000000e+03,7.470000000000000000e+02,4.658000000000000000e+03,-2.690000000000000000e+02,3.932000000000000000e+03,2.965000000000000000e+03,1.676000000000000000e+03,1.095000000000000000e+03,2.380000000000000000e+03,-4.460000000000000000e+02,-2.000000000000000000e+01,1.890000000000000000e+02,-1.410000000000000000e+02,3.040000000000000000e+02,-9.490000000000000000e+02,4.282000000000000000e+03,2.202000000000000000e+03,5.570000000000000000e+03,3.970000000000000000e+03,2.681000000000000000e+03,-5.140000000000000000e+02,4.436000000000000000e+03,-2.288000000000000000e+03,3.340000000000000000e+02,-7.303000000000000000e+03,2.335000000000000000e+03,-7.250000000000000000e+02,-4.070000000000000000e+03,3.516000000000000000e+03,8.124000000000000000e+03,4.406000000000000000e+03,1.910000000000000000e+03,-3.740000000000000000e+03,-2.303000000000000000e+03,1.602000000000000000e+03,-3.722000000000000000e+03,-4.700000000000000000e+01,0.000000000000000000e+00,-1.650000000000000000e+02,5.370000000000000000e+02,-2.120000000000000000e+02,-5.760000000000000000e+02,-1.127000000000000000e+03,4.000000000000000000e+03,4.016000000000000000e+03,5.615000000000000000e+03,5.758000000000000000e+03,6.025000000000000000e+03,-4.149000000000000000e+03,-8.149000000000000000e+03,1.313000000000000000e+03,3.892000000000000000e+03,-4.204000000000000000e+03,3.401000000000000000e+03,1.895000000000000000e+03,-6.890000000000000000e+02,-2.722000000000000000e+03,1.369000000000000000e+03,1.440000000000000000e+02,8.300000000000000000e+01,-3.632000000000000000e+03,-4.350000000000000000e+03,-4.137000000000000000e+03,-2.614000000000000000e+03,-1.830000000000000000e+02,-4.700000000000000000e+01,-1.330000000000000000e+02,6.520000000000000000e+02,-3.280000000000000000e+02,2.270000000000000000e+02,-1.690000000000000000e+02,5.214000000000000000e+03,4.706000000000000000e+03,-4.454000000000000000e+03,-5.045000000000000000e+03,-3.302000000000000000e+03,-6.161000000000000000e+03,-6.411000000000000000e+03,1.180000000000000000e+02,-2.666000000000000000e+03,-1.035000000000000000e+03,5.746000000000000000e+03,-6.140000000000000000e+02,-8.220000000000000000e+03,-9.870000000000000000e+02,1.960000000000000000e+02,-1.830000000000000000e+03,-5.730000000000000000e+02,-1.804000000000000000e+03,-3.448000000000000000e+03,-2.872000000000000000e+03,-5.810000000000000000e+02,-2.000000000000000000e+01,-2.430000000000000000e+02,9.500000000000000000e+01,-1.560000000000000000e+02,1.330000000000000000e+02,8.050000000000000000e+02,-5.480000000000000000e+02,-1.884000000000000000e+03,-4.301000000000000000e+03,-7.634000000000000000e+03,-9.407000000000000000e+03,-8.296000000000000000e+03,-4.614000000000000000e+03,-3.305000000000000000e+03,-7.500000000000000000e+02,-1.891000000000000000e+03,-7.400000000000000000e+02,-5.137000000000000000e+03,8.354000000000000000e+03,-7.042000000000000000e+03,-2.455000000000000000e+03,-4.866000000000000000e+03,-1.770000000000000000e+03,-4.020000000000000000e+03,-5.700000000000000000e+03,-5.419000000000000000e+03,-3.901000000000000000e+03,-1.000000000000000000e+00,1.310000000000000000e+02,-1.220000000000000000e+02,3.000000000000000000e+01,-2.490000000000000000e+02,6.960000000000000000e+02,-1.090000000000000000e+02,-7.450000000000000000e+02,-1.048000000000000000e+03,-2.369000000000000000e+03,-5.311000000000000000e+03,-9.329000000000000000e+03,-5.655000000000000000e+03,6.020000000000000000e+02,5.930000000000000000e+03,-8.510000000000000000e+02,-2.607000000000000000e+03,-3.420000000000000000e+03,-6.743000000000000000e+03,4.968000000000000000e+03,-8.760000000000000000e+03,-2.881000000000000000e+03,-4.947000000000000000e+03,-5.002000000000000000e+03,-3.196000000000000000e+03,-4.427000000000000000e+03,-1.726000000000000000e+03,-6.530000000000000000e+02,-6.800000000000000000e+01,-1.500000000000000000e+02,-1.650000000000000000e+02,0.000000000000000000e+00,-3.300000000000000000e+01,-8.800000000000000000e+01,1.100000000000000000e+02,1.610000000000000000e+02,-3.230000000000000000e+02,-1.274000000000000000e+03,-2.404000000000000000e+03,-4.265000000000000000e+03,-1.183000000000000000e+03,3.484000000000000000e+03,9.510000000000000000e+02,2.331000000000000000e+03,-4.840000000000000000e+03,5.520000000000000000e+02,-4.527000000000000000e+03,-6.511000000000000000e+03,-1.357000000000000000e+03,-1.302000000000000000e+03,1.200000000000000000e+01,-4.000000000000000000e+03,-3.030000000000000000e+03,-1.639000000000000000e+03,-2.088000000000000000e+03,4.200000000000000000e+01,-3.500000000000000000e+01,-3.300000000000000000e+01,-1.900000000000000000e+01,-1.060000000000000000e+02,5.250000000000000000e+02,9.900000000000000000e+01,2.850000000000000000e+02,2.020000000000000000e+02,2.670000000000000000e+02,2.670000000000000000e+02,1.279000000000000000e+03,6.170000000000000000e+02,1.166000000000000000e+03,1.633000000000000000e+03,8.230000000000000000e+02,1.380000000000000000e+03,2.725000000000000000e+03,3.401000000000000000e+03,-1.390000000000000000e+02,-3.395000000000000000e+03,4.374000000000000000e+03,-4.335000000000000000e+03,-3.428000000000000000e+03,-5.230000000000000000e+03,-5.925000000000000000e+03,-4.663000000000000000e+03,-3.902000000000000000e+03,-1.198000000000000000e+03,8.900000000000000000e+01,1.900000000000000000e+01,2.200000000000000000e+01,2.100000000000000000e+01,-1.430000000000000000e+02,-2.010000000000000000e+02,3.630000000000000000e+02,-4.440000000000000000e+02,4.810000000000000000e+02,1.641000000000000000e+03,2.735000000000000000e+03,3.631000000000000000e+03,-1.227000000000000000e+03,-4.999000000000000000e+03,-1.089000000000000000e+03,1.531000000000000000e+03,-4.981000000000000000e+03,-1.039000000000000000e+03,-3.966000000000000000e+03,-5.680000000000000000e+03,2.270000000000000000e+02,-2.168000000000000000e+03,-4.216000000000000000e+03,-8.476000000000000000e+03,-6.730000000000000000e+03,-2.195000000000000000e+03,-4.111000000000000000e+03,-3.121000000000000000e+03,-4.300000000000000000e+01,-1.650000000000000000e+02,-3.300000000000000000e+01,-3.000000000000000000e+00,8.540000000000000000e+02,-2.910000000000000000e+02,5.400000000000000000e+01,-5.500000000000000000e+01,2.720000000000000000e+02,4.132000000000000000e+03,1.828000000000000000e+03,2.878000000000000000e+03,-2.183000000000000000e+03,-3.613000000000000000e+03,-4.535000000000000000e+03,6.032000000000000000e+03,-1.296000000000000000e+03,-2.633000000000000000e+03,7.372000000000000000e+03,3.318000000000000000e+03,-6.360000000000000000e+02,-2.510000000000000000e+02,-3.067000000000000000e+03,-5.759000000000000000e+03,-2.276000000000000000e+03,-1.662000000000000000e+03,-1.875000000000000000e+03,-1.390000000000000000e+03,0.000000000000000000e+00,0.000000000000000000e+00,0.000000000000000000e+00,0.000000000000000000e+00,-9.300000000000000000e+01,-1.000000000000000000e+00,7.200000000000000000e+01,1.440000000000000000e+02,-4.050000000000000000e+02,2.381000000000000000e+03,3.770000000000000000e+02,1.843000000000000000e+03,5.788000000000000000e+03,6.038000000000000000e+03,-1.809000000000000000e+03,7.575000000000000000e+03,1.617000000000000000e+03,4.087000000000000000e+03,1.022700000000000000e+04,-8.200000000000000000e+02,2.345000000000000000e+03,1.974000000000000000e+03,1.066000000000000000e+03,-7.780000000000000000e+02,-1.743000000000000000e+03,4.600000000000000000e+01,-1.004000000000000000e+03,-2.600000000000000000e+01,0.000000000000000000e+00,0.000000000000000000e+00,0.000000000000000000e+00,0.000000000000000000e+00,2.200000000000000000e+01,-2.780000000000000000e+02,1.310000000000000000e+02,-6.430000000000000000e+02,-4.170000000000000000e+02,-1.233000000000000000e+03,-5.049000000000000000e+03,-1.540000000000000000e+02,1.057000000000000000e+03,5.520000000000000000e+03,2.339000000000000000e+03,1.208000000000000000e+03,-4.554000000000000000e+03,-1.818000000000000000e+03,-7.280000000000000000e+02,-8.250000000000000000e+02,-2.478000000000000000e+03,2.038000000000000000e+03,3.524000000000000000e+03,1.531000000000000000e+03,3.090000000000000000e+02,2.770000000000000000e+03,3.850000000000000000e+02,-2.510000000000000000e+02,0.000000000000000000e+00,0.000000000000000000e+00,0.000000000000000000e+00,0.000000000000000000e+00,-3.300000000000000000e+01,-5.160000000000000000e+02,9.100000000000000000e+01,1.600000000000000000e+02,-7.400000000000000000e+01,3.590000000000000000e+02,9.990000000000000000e+02,9.250000000000000000e+02,-3.690000000000000000e+02,-2.540000000000000000e+02,2.188000000000000000e+03,-1.139000000000000000e+03,9.020000000000000000e+02,2.700000000000000000e+01,-1.240000000000000000e+03,-5.108000000000000000e+03,-1.443000000000000000e+03,4.270000000000000000e+02,4.900000000000000000e+02,-3.010000000000000000e+02,-3.620000000000000000e+02,1.954000000000000000e+03,1.049000000000000000e+03,1.370000000000000000e+02,0.000000000000000000e+00,0.000000000000000000e+00,0.000000000000000000e+00,0.000000000000000000e+00,-7.000000000000000000e+00
8.200000000000018829e+00,2.190000000000002700e+01,2.699999999999998579e+01,2.600000000000000533e+00,1.700000000000002398e+00,2.499999999999998579e+01,4.860000000000001563e+01,-6.400000000000014566e+00,-1.239999999999992220e+01,3.000000000000000000e+01,2.099999999999993250e+01,1.410000000000006537e+01,1.150000000000006040e+01,-5.539999999999999858e+01,-9.999999999999561462e-01,-4.900000000000004263e+01,-5.199999999999949551e+00,4.950000000000002132e+01,2.599999999999947242e+00,-1.978999999999996078e+02,-7.999999999999949374e-01,1.419999999999996909e+01,-5.350000000000008527e+01,7.560000000000009379e+01,-2.100000000000000089e+00,0.000000000000000000e+00,-6.999999999999999556e-01,-5.099999999999999645e+00,6.199999999999998401e+00,-3.999999999999992006e+00,3.500000000000000888e+00,2.009999999999998010e+01,5.999999999999994227e-01,1.039999999999999858e+01,4.199999999999993960e+00,1.129999999999999361e+01,-7.739999999999994884e+01,4.179999999999999716e+01,5.219999999999982521e+01,2.389999999999995595e+01,1.009999999999998543e+01,-1.933000000000005514e+02,4.799999999999899813e+01,8.619999999999991758e+01,-8.649999999999985789e+01,-1.664999999999994600e+02,8.230000000000077875e+01,1.192999999999998835e+02,-1.879999999999999361e+01,-1.440999999999991701e+02,2.559999999999999076e+01,-3.000000000000000711e+01,-2.500000000000000444e+00,-1.250000000000000000e+01,-7.100000000000000533e+00,-2.100000000000000089e+00,4.069999999999992468e+01,-9.999999999999992895e+00,-1.370000000000001172e+01,1.630000000000000426e+01,1.770000000000000284e+01,1.950000000000000711e+01,-2.300000000000000266e+00,3.320000000000000284e+01,9.839999999999980673e+01,-1.710000000000001563e+01,-8.960000000000005116e+01,5.069999999999998863e+01,1.278000000000003666e+02,3.310000000000005116e+01,1.869999999999991758e+01,-4.830000000000052296e+01,7.169999999999997442e+01,7.279999999999971294e+01,2.630000000000000426e+01,5.620000000000003837e+01,6.340000000000051728e+01,-1.147999999999998124e+02,7.250000000000021316e+01,-6.019999999999984652e+01,-1.500000000000000000e+00,-1.200000000000000178e+00,-1.399999999999999911e+00,-3.900000000000000799e+00,-2.299999999999991829e+00,-7.400000000000007461e+00,2.969999999999995666e+01,6.999999999999989342e+00,2.600000000000004530e+00,6.000000000000020872e-01,5.600000000000002309e+00,-1.610000000000000497e+01,7.110000000000019327e+01,8.810000000000015064e+01,9.459999999999969589e+01,-8.920000000000011653e+01,-1.783000000000007788e+02,-1.755000000000002558e+02,-1.734000000000000057e+02,1.245999999999999801e+02,-2.695000000000009663e+02,-1.282000000000000739e+02,-5.690000000000004832e+01,-1.099000000000003183e+02,7.320000000000035811e+01,-1.500000000000006573e+01,6.189999999999997726e+01,-4.699999999999963762e+00,-7.799999999999998934e+00,-3.200000000000000178e+00,0.000000000000000000e+00,-3.400000000000000355e+00,-1.940000000000000924e+01,-4.700000000000012612e+00,7.799999999999999822e+00,4.099999999999990763e+00,-1.480000000000000071e+01,-2.239999999999999147e+01,8.099999999999996092e+00,1.240000000000000391e+01,-8.289999999999994884e+01,-1.357999999999996703e+02,-1.070000000000002061e+01,1.067000000000003013e+02,4.460000000000001563e+01,-9.390000000000077307e+01,-3.878999999999982151e+02,-4.287000000000017508e+02,-2.991999999999993065e+02,-2.329000000000011710e+02,-1.965999999999993406e+02,-1.055000000000000853e+02,-1.292999999999999261e+02,-3.740000000000006963e+01,-1.592999999999999545e+02,-3.460000000000004405e+01,-2.460000000000000497e+01,-1.660000000000000142e+01,-5.000000000000000000e+00,0.000000000000000000e+00,-1.220000000000000462e+01,1.830000000000000071e+01,1.270000000000000284e+01,3.259999999999999432e+01,1.300000000000000488e+00,-1.094000000000000767e+02,-2.296999999999995339e+02,-1.916999999999997328e+02,2.359999999999990550e+01,1.848999999999999204e+02,2.339999999999990976e+01,-2.937999999999998977e+02,-2.441999999999998181e+02,-4.530000000000015348e+01,-3.849999999999941735e+01,-1.628000000000005230e+02,-2.545999999999991132e+02,-8.052999999999985903e+02,-8.732999999999943839e+02,-7.147999999999979082e+02,-4.552999999999987608e+02,2.259999999999984155e+01,1.379999999999998828e+01,-1.567000000000001876e+02,-3.500000000000000000e+01,-3.100000000000000533e+00,-4.500000000000000000e+00,-3.300000000000000266e+00,1.780000000000000782e+01,-1.200000000000001066e+00,-2.059999999999999432e+01,1.099999999999993650e+00,-8.020000000000004547e+01,-2.344999999999998863e+02,-3.710000000000000142e+01,6.560000000000003695e+01,2.056000000000012733e+02,3.349000000000025921e+02,-2.968999999999999773e+02,-3.647999999999981924e+02,3.202000000000016371e+02,4.402000000000011823e+02,6.237999999999952934e+02,-1.157999999999999972e+02,-2.957000000000019782e+02,-6.020000000000079154e+01,-9.839999999999976410e+01,-4.093999999999996362e+02,-5.941999999999990223e+02,-1.836000000000001364e+02,-2.483999999999988688e+02,-3.892000000000029445e+02,-9.129999999999999716e+01,-1.409999999999999964e+01,0.000000000000000000e+00,-1.300000000000000178e+01,5.900000000000031442e+00,2.599999999999995204e+00,1.259999999999999964e+01,6.010000000000015774e+01,-1.106000000000000938e+02,-3.316999999999998181e+02,2.899999999999998295e+02,7.159999999999990905e+02,-3.526000000000005343e+02,-1.322000000000003013e+02,1.087999999999998835e+02,4.137999999999995566e+02,-1.098000000000000682e+02,-1.032000000000001592e+02,-4.148000000000006366e+02,-1.402000000000016655e+02,6.980000000000248406e+01,-2.165999999999997101e+02,-1.945999999999998238e+02,-1.013999999999999204e+02,-3.079000000000039563e+02,-2.913999999999951456e+02,-1.621000000000002501e+02,-3.585999999999983174e+02,-2.038000000000000398e+02,-6.830000000000001137e+01,-8.500000000000000000e+00,-7.699999999999999289e+00,-1.300000000000000711e+01,7.380000000000002558e+01,6.230000000000003979e+01,1.229999999999997158e+02,-3.596999999999998181e+02,2.333999999999998352e+02,7.158000000000007503e+02,3.619999999999995453e+02,2.141999999999993634e+02,4.869999999999949978e+02,7.404999999999995453e+02,-1.990000000000006253e+02,2.626999999999990223e+02,-3.443000000000004661e+02,-2.130999999999999943e+02,5.171000000000012733e+02,8.099999999999943157e+01,-2.333000000000024556e+02,7.346999999999975444e+02,2.457999999999998124e+02,6.979999999999935767e+01,2.999999999999943157e+01,-5.819999999999944151e+01,-1.670000000000001137e+02,9.360000000000002274e+01,-1.204000000000000199e+02,-1.300000000000000488e+00,-1.900000000000000711e+01,8.320000000000001705e+01,1.001999999999996760e+02,-8.029999999999992610e+01,1.618000000000003524e+02,4.762000000000005571e+02,5.953999999999986130e+02,3.824000000000014552e+02,5.472000000000000455e+02,-2.300000000000122213e+01,-3.446000000000005343e+02,-3.109999999999973852e+02,2.051000000000001933e+02,7.464999999999981810e+02,-2.964000000000008868e+02,-4.385000000000022737e+02,1.182000000000008129e+02,5.575999999999980901e+02,5.003999999999984993e+02,-1.219000000000000483e+02,-1.394000000000000909e+02,7.900000000000285461e+00,3.741999999999998181e+02,4.880000000000093507e+01,6.259999999999944720e+01,1.226000000000002217e+02,-4.230000000000001137e+01,-4.000000000000000222e-01,-1.959999999999999432e+01,-1.679999999999989768e+01,8.389999999999997726e+01,9.969999999999980389e+01,3.274999999999994884e+02,4.767999999999994429e+02,6.260000000000010232e+02,-5.710000000000101039e+01,3.688999999999996930e+02,1.484999999999996305e+02,2.032999999999999829e+02,-2.263000000000005798e+02,2.690999999999983743e+02,-3.930000000000006821e+01,8.282999999999989313e+02,2.767000000000020918e+02,3.748000000000005798e+02,5.125999999999984311e+02,1.728999999999999204e+02,4.373000000000005798e+02,-2.993000000000004661e+02,6.909000000000042974e+02,7.830000000000008242e+01,-1.299999999999999716e+02,1.183000000000002103e+02,6.740000000000000568e+01,-3.100000000000000711e+01,-5.420000000000000284e+01,-5.099999999999999645e+00,-4.120000000000001705e+01,6.100000000000000711e+01,1.445999999999996248e+02,3.931999999999995907e+02,5.327999999999999545e+02,-7.929999999999985505e+01,-7.498999999999999773e+02,3.586000000000000796e+02,8.787000000000027740e+02,-3.448999999999996362e+02,1.586999999999987949e+02,-3.461999999999994770e+02,-4.157999999999965439e+02,4.229999999999998295e+01,7.880000000000060254e+02,4.903999999999988404e+02,4.486999999999976581e+02,6.754000000000040700e+02,5.054999999999968736e+02,-3.310000000000001705e+02,-9.500000000000008527e+01,-1.776999999999987949e+02,-2.619999999999996376e+01,-6.679999999999944293e+01,-1.218000000000000966e+02,-3.199999999999998934e+01,7.400000000000001243e+00,1.730000000000000426e+01,2.580000000000000071e+01,-5.729999999999999716e+01,6.490000000000001990e+01,1.562999999999999545e+02,1.733000000000001251e+02,-8.296999999999991360e+02,-1.137500000000002501e+03,-2.351000000000006480e+02,2.993000000000001819e+02,6.490000000000023306e+01,-6.652000000000020918e+02,2.266999999999998465e+02,-4.741999999999952138e+02,-8.371999999999947022e+02,-3.751000000000005343e+02,6.357000000000008413e+02,-2.911999999999991928e+02,2.915000000000007390e+02,2.003999999999981014e+02,1.739999999999804814e+01,1.516999999999977717e+02,-6.319999999999986784e+01,-1.017999999999999829e+02,-5.998000000000015461e+02,-2.417999999999999545e+02,-3.929999999999999005e+01,8.999999999999996447e+00,-1.199999999999994849e+00,1.029999999999994920e+01,8.319999999999997442e+01,7.239999999999992042e+01,-2.540000000000001279e+01,1.305000000000000284e+02,-3.918999999999997499e+02,2.605000000000000568e+02,-3.481999999999986812e+02,-5.077999999999993292e+02,-3.402000000000002728e+02,4.799999999999983658e+01,-2.130999999999970100e+02,-6.206999999999902684e+02,-4.297999999999943270e+02,-3.183000000000018304e+02,-8.248999999999997499e+02,-3.599999999999972999e+01,6.533000000000009777e+02,-2.869999999999996021e+02,2.134999999999984084e+02,2.626000000000000796e+02,5.262999999999989313e+02,3.054999999999998295e+02,-3.348000000000009777e+02,-1.187999999999996135e+02,-3.839999999999994884e+01,-1.249999999999999112e+01,-1.640000000000000568e+01,4.379999999999995453e+01,4.640000000000006963e+01,-3.010000000000001563e+01,-2.710000000000005116e+01,-1.413999999999998920e+02,2.880999999999999091e+02,7.744000000000006594e+02,-6.895000000000004547e+02,-9.479999999999972715e+01,-1.110999999999988859e+02,7.519999999999924967e+01,-5.840999999999984311e+02,-7.560999999999975216e+02,1.792000000000004718e+02,5.922999999999987040e+02,-4.832999999999987608e+02,1.814000000000003467e+02,1.157999999999998693e+02,-4.542000000000026603e+02,1.499999999999998295e+02,5.169999999999993179e+02,-9.279999999999982663e+01,-4.274999999999997158e+02,-6.880000000000026716e+01,-4.210000000000017906e+01,2.250000000000000284e+02,5.339999999999998437e+01,1.019999999999999751e+01,1.919999999999997797e+01,7.900000000000002842e+01,-1.185000000000003268e+02,2.449999999999997868e+01,-9.599999999999958789e+00,-2.112999999999998693e+02,1.141999999999998607e+02,-3.299999999999996021e+02,-3.397000000000005002e+02,-3.864999999999955094e+02,-1.854999999999998579e+02,-8.526000000000054797e+02,1.649000000000003752e+02,-1.022199999999998340e+03,-2.372000000000010687e+02,-2.481999999999990791e+02,-1.136800000000001319e+03,7.536999999999966349e+02,7.469999999999936335e+01,4.657999999999977376e+02,-2.689999999999851354e+01,3.931999999999998181e+02,2.965000000000002842e+02,1.675999999999997101e+02,1.094999999999999289e+02,2.379999999999999432e+02,-4.460000000000000142e+01,-1.999999999999999556e+00,1.890000000000000924e+01,-1.410000000000002807e+01,3.039999999999999503e+01,-9.489999999999973568e+01,4.282000000000004434e+02,2.202000000000001876e+02,5.570000000000005684e+02,3.969999999999997158e+02,2.681000000000001933e+02,-5.139999999999972857e+01,4.435999999999995680e+02,-2.288000000000054683e+02,3.339999999999984936e+01,-7.302999999999990450e+02,2.334999999999971294e+02,-7.249999999999900524e+01,-4.069999999999968736e+02,3.516000000000000227e+02,8.124000000000003183e+02,4.405999999999982606e+02,1.909999999999999432e+02,-3.740000000000017053e+02,-2.302999999999990450e+02,1.602000000000000739e+02,-3.722000000000002728e+02,-4.700000000000009948e+00,0.000000000000000000e+00,-1.650000000000000000e+01,5.370000000000006679e+01,-2.119999999999996021e+01,-5.760000000000001563e+01,-1.127000000000000028e+02,4.000000000000009663e+02,4.015999999999999091e+02,5.615000000000002274e+02,5.757999999999952934e+02,6.025000000000018190e+02,-4.148999999999996930e+02,-8.149000000000015689e+02,1.313000000000001535e+02,3.892000000000013529e+02,-4.204000000000001478e+02,3.401000000000005912e+02,1.894999999999997442e+02,-6.890000000000040359e+01,-2.722000000000027171e+02,1.368999999999995225e+02,1.439999999999976232e+01,8.300000000000045119e+00,-3.632000000000005002e+02,-4.350000000000017621e+02,-4.137000000000000455e+02,-2.614000000000001478e+02,-1.830000000000000071e+01,-4.700000000000000178e+00,-1.330000000000001315e+01,6.519999999999993179e+01,-3.279999999999999716e+01,2.270000000000003126e+01,-1.689999999999993463e+01,5.213999999999989541e+02,4.705999999999992838e+02,-4.454000000000016257e+02,-5.045000000000004547e+02,-3.302000000000003865e+02,-6.161000000000022965e+02,-6.410999999999994543e+02,1.180000000000055849e+01,-2.666000000000001933e+02,-1.035000000000001990e+02,5.746000000000002501e+02,-6.140000000000068781e+01,-8.220000000000003411e+02,-9.870000000000035811e+01,1.959999999999999432e+01,-1.829999999999996874e+02,-5.729999999999971294e+01,-1.804000000000003467e+02,-3.447999999999991019e+02,-2.872000000000001023e+02,-5.810000000000000142e+01,-2.000000000000000000e+00,-2.430000000000001492e+01,9.500000000000000000e+00,-1.559999999999998721e+01,1.329999999999999005e+01,8.050000000000008527e+01,-5.479999999999974847e+01,-1.883999999999993804e+02,-4.301000000000000796e+02,-7.633999999999995225e+02,-9.407000000000027740e+02,-8.295999999999988859e+02,-4.614000000000007162e+02,-3.304999999999996589e+02,-7.499999999999933209e+01,-1.890999999999991132e+02,-7.399999999999857891e+01,-5.137000000000009550e+02,8.354000000000013415e+02,-7.042000000000049340e+02,-2.455000000000000568e+02,-4.866000000000021828e+02,-1.769999999999990621e+02,-4.020000000000000000e+02,-5.700000000000019327e+02,-5.418999999999997499e+02,-3.900999999999981469e+02,-9.999999999999936717e-02,1.309999999999999609e+01,-1.220000000000000995e+01,3.000000000000000888e+00,-2.490000000000002345e+01,6.959999999999988063e+01,-1.090000000000000213e+01,-7.450000000000001421e+01,-1.047999999999999261e+02,-2.368999999999995509e+02,-5.311000000000008185e+02,-9.328999999999997499e+02,-5.655000000000011369e+02,6.019999999999956231e+01,5.929999999999972715e+02,-8.510000000000026432e+01,-2.607000000000010118e+02,-3.420000000000013642e+02,-6.742999999999946112e+02,4.968000000000014325e+02,-8.760000000000007958e+02,-2.881000000000026944e+02,-4.946999999999991928e+02,-5.001999999999986812e+02,-3.196000000000003070e+02,-4.427000000000010118e+02,-1.726000000000000512e+02,-6.530000000000003979e+01,-6.799999999999990941e+00,-1.500000000000000711e+01,-1.650000000000000000e+01,0.000000000000000000e+00,-3.299999999999993161e+00,-8.799999999999997158e+00,1.100000000000000178e+01,1.609999999999998366e+01,-3.229999999999995453e+01,-1.273999999999999915e+02,-2.403999999999996646e+02,-4.265000000000003979e+02,-1.182999999999999261e+02,3.484000000000004320e+02,9.510000000000006537e+01,2.331000000000015575e+02,-4.839999999999992042e+02,5.520000000000096918e+01,-4.526999999999996476e+02,-6.511000000000016144e+02,-1.357000000000000171e+02,-1.302000000000008697e+02,1.199999999999956435e+00,-3.999999999999980105e+02,-3.029999999999993179e+02,-1.639000000000004036e+02,-2.088000000000001535e+02,4.200000000000035705e+00,-3.500000000000001776e+00,-3.300000000000001599e+00,-1.900000000000000133e+00,-1.059999999999999432e+01,5.249999999999984368e+01,9.900000000000009237e+00,2.849999999999993605e+01,2.019999999999993179e+01,2.670000000000001705e+01,2.669999999999996732e+01,1.279000000000002757e+02,6.170000000000029416e+01,1.165999999999995111e+02,1.632999999999997556e+02,8.229999999999995453e+01,1.380000000000002274e+02,2.725000000000015916e+02,3.401000000000007049e+02,-1.390000000000001279e+01,-3.394999999999999432e+02,4.374000000000007162e+02,-4.335000000000014779e+02,-3.428000000000009209e+02,-5.229999999999988631e+02,-5.925000000000000000e+02,-4.663000000000009209e+02,-3.901999999999997613e+02,-1.198000000000002387e+02,8.900000000000003908e+00,1.899999999999997691e+00,2.199999999999999734e+00,2.099999999999998757e+00,-1.430000000000000604e+01,-2.010000000000001563e+01,3.629999999999993321e+01,-4.439999999999995595e+01,4.809999999999999432e+01,1.641000000000001080e+02,2.735000000000002842e+02,3.631000000000005912e+02,-1.226999999999996049e+02,-4.998999999999996930e+02,-1.089000000000001904e+02,1.531000000000004775e+02,-4.981000000000028081e+02,-1.038999999999997215e+02,-3.965999999999999091e+02,-5.680000000000012506e+02,2.269999999999994245e+01,-2.167999999999985619e+02,-4.215999999999978627e+02,-8.475999999999978627e+02,-6.730000000000015916e+02,-2.194999999999988347e+02,-4.110999999999999091e+02,-3.121000000000009322e+02,-4.300000000000000711e+00,-1.650000000000000000e+01,-3.300000000000001599e+00,-3.000000000000000444e-01,8.540000000000003411e+01,-2.910000000000001208e+01,5.399999999999973710e+00,-5.500000000000010658e+00,2.720000000000003837e+01,4.132000000000003297e+02,1.828000000000004661e+02,2.878000000000014325e+02,-2.183000000000004093e+02,-3.613000000000018872e+02,-4.534999999999978400e+02,6.032000000000011823e+02,-1.296000000000003638e+02,-2.632999999999996703e+02,7.371999999999939064e+02,3.317999999999994998e+02,-6.359999999999980957e+01,-2.510000000000007248e+01,-3.066999999999997613e+02,-5.758999999999986130e+02,-2.276000000000003354e+02,-1.662000000000004150e+02,-1.874999999999997442e+02,-1.389999999999997442e+02,0.000000000000000000e+00,0.000000000000000000e+00,0.000000000000000000e+00,0.000000000000000000e+00,-9.300000000000004263e+00,-9.999999999999875655e-02,7.199999999999969091e+00,1.439999999999999858e+01,-4.050000000000010658e+01,2.381000000000000227e+02,3.769999999999991047e+01,1.843000000000000682e+02,5.787999999999983629e+02,6.037999999999975671e+02,-1.809000000000000909e+02,7.575000000000012506e+02,1.617000000000020634e+02,4.086999999999974875e+02,1.022699999999999250e+03,-8.200000000000024158e+01,2.344999999999997158e+02,1.973999999999998636e+02,1.066000000000001080e+02,-7.779999999999952820e+01,-1.742999999999996703e+02,4.599999999999523581e+00,-1.003999999999998778e+02,-2.600000000000024514e+00,0.000000000000000000e+00,0.000000000000000000e+00,0.000000000000000000e+00,0.000000000000000000e+00,2.199999999999997957e+00,-2.780000000000003979e+01,1.309999999999998543e+01,-6.430000000000011084e+01,-4.170000000000000284e+01,-1.232999999999999545e+02,-5.048999999999989541e+02,-1.540000000000026148e+01,1.056999999999997044e+02,5.520000000000005684e+02,2.339000000000004889e+02,1.207999999999999687e+02,-4.553999999999986699e+02,-1.817999999999996419e+02,-7.279999999999904503e+01,-8.250000000000069633e+01,-2.478000000000001819e+02,2.038000000000000966e+02,3.523999999999996362e+02,1.530999999999999659e+02,3.089999999999999147e+01,2.769999999999999432e+02,3.849999999999997158e+01,-2.509999999999997300e+01,0.000000000000000000e+00,0.000000000000000000e+00,0.000000000000000000e+00,0.000000000000000000e+00,-3.300000000000006484e+00,-5.160000000000003695e+01,9.100000000000001421e+00,1.600000000000000355e+01,-7.399999999999998579e+00,3.590000000000006963e+01,9.990000000000013358e+01,9.249999999999984368e+01,-3.690000000000016200e+01,-2.539999999999999503e+01,2.188000000000006651e+02,-1.139000000000001336e+02,9.020000000000011653e+01,2.700000000000026379e+00,-1.239999999999991616e+02,-5.107999999999991587e+02,-1.442999999999998977e+02,4.270000000000008100e+01,4.900000000000001421e+01,-3.009999999999995524e+01,-3.619999999999995310e+01,1.954000000000000057e+02,1.048999999999998494e+02,1.369999999999999751e+01,0.000000000000000000e+00,0.000000000000000000e+00,0.000000000000000000e+00,0.000000000000000000e+00,-7.000000000000001776e-01
1.720000000000000195e+00,2.189999999999999503e+00,2.700000000000001066e+00,2.600000000000004530e-01,1.700000000000005118e-01,2.500000000000001776e+00,4.859999999999998543e+00,-6.399999999999999023e-01,-1.240000000000010649e+00,3.000000000000005329e+00,2.100000000000003197e+00,1.409999999999992815e+00,1.149999999999998801e+00,-5.539999999999980496e+00,-9.999999999999741040e-02,-4.900000000000000355e+00,-5.200000000000000178e-01,4.950000000000007283e+00,2.600000000000026179e-01,-1.978999999999994586e+01,-7.999999999999957145e-02,1.419999999999997042e+00,-5.350000000000004086e+00,7.559999999999975628e+00,-2.100000000000000200e-01,0.000000000000000000e+00,-7.000000000000000666e-02,-5.100000000000000089e-01,6.200000000000003286e-01,-3.999999999999998557e-01,3.500000000000000888e-01,2.010000000000001563e+00,6.000000000000003941e-02,1.039999999999999591e+00,4.200000000000000955e-01,1.130000000000000560e+00,-7.739999999999985114e+00,4.180000000000004157e+00,5.220000000000002416e+00,2.389999999999997016e+00,1.009999999999999121e+00,-1.933000000000005159e+01,4.800000000000050449e+00,8.619999999999995666e+00,-8.649999999999998579e+00,-1.664999999999994529e+01,8.230000000000028848e+00,1.192999999999998195e+01,-1.879999999999998117e+00,-1.441000000000000192e+01,2.560000000000002718e+00,-2.999999999999998668e+00,-2.500000000000000000e-01,-1.250000000000000222e+00,-7.100000000000001865e-01,-2.100000000000000200e-01,4.070000000000001172e+00,-1.000000000000000666e+00,-1.370000000000000773e+00,1.630000000000001004e+00,1.770000000000000462e+00,1.950000000000001288e+00,-2.299999999999999822e-01,3.319999999999997620e+00,9.840000000000012292e+00,-1.709999999999999742e+00,-8.959999999999968878e+00,5.069999999999994067e+00,1.278000000000000291e+01,3.309999999999996501e+00,1.870000000000000995e+00,-4.829999999999961879e+00,7.170000000000010587e+00,7.280000000000034888e+00,2.630000000000007443e+00,5.620000000000008988e+00,6.339999999999984759e+00,-1.148000000000006970e+01,7.249999999999988454e+00,-6.019999999999972928e+00,-1.500000000000000222e-01,-1.199999999999999956e-01,-1.400000000000000133e-01,-3.900000000000000133e-01,-2.299999999999996492e-01,-7.400000000000006573e-01,2.970000000000003748e+00,7.000000000000013989e-01,2.600000000000001199e-01,6.000000000000003941e-02,5.599999999999996092e-01,-1.610000000000000764e+00,7.109999999999988773e+00,8.810000000000014708e+00,9.459999999999999076e+00,-8.919999999999962625e+00,-1.782999999999998053e+01,-1.754999999999997939e+01,-1.733999999999998565e+01,1.246000000000001684e+01,-2.694999999999996376e+01,-1.282000000000003226e+01,-5.689999999999986180e+00,-1.099000000000005883e+01,7.320000000000010054e+00,-1.500000000000000888e+00,6.189999999999998614e+00,-4.699999999999994182e-01,-7.800000000000001377e-01,-3.200000000000000622e-01,0.000000000000000000e+00,-3.399999999999999689e-01,-1.940000000000000391e+00,-4.700000000000000844e-01,7.800000000000006928e-01,4.100000000000000311e-01,-1.480000000000001537e+00,-2.240000000000002434e+00,8.100000000000000533e-01,1.240000000000001545e+00,-8.289999999999997371e+00,-1.358000000000002849e+01,-1.069999999999997398e+00,1.066999999999996440e+01,4.459999999999997300e+00,-9.390000000000016556e+00,-3.878999999999984283e+01,-4.286999999999998323e+01,-2.992000000000004789e+01,-2.328999999999991743e+01,-1.965999999999998593e+01,-1.054999999999999538e+01,-1.292999999999999616e+01,-3.739999999999975788e+00,-1.592999999999999083e+01,-3.460000000000003961e+00,-2.460000000000000409e+00,-1.660000000000000586e+00,-5.000000000000000000e-01,0.000000000000000000e+00,-1.220000000000000862e+00,1.829999999999998739e+00,1.270000000000000906e+00,3.260000000000002007e+00,1.299999999999998934e-01,-1.094000000000000128e+01,-2.297000000000003084e+01,-1.916999999999999105e+01,2.359999999999997655e+00,1.848999999999997357e+01,2.340000000000000302e+00,-2.938000000000009493e+01,-2.442000000000000526e+01,-4.530000000000052651e+00,-3.850000000000122657e+00,-1.628000000000009351e+01,-2.546000000000010033e+01,-8.053000000000008640e+01,-8.733000000000011198e+01,-7.147999999999990450e+01,-4.552999999999998693e+01,2.260000000000005116e+00,1.379999999999998783e+00,-1.566999999999997861e+01,-3.500000000000000000e+00,-3.099999999999999978e-01,-4.500000000000000111e-01,-3.299999999999999600e-01,1.779999999999999138e+00,-1.199999999999999262e-01,-2.060000000000001386e+00,1.100000000000004446e-01,-8.020000000000001350e+00,-2.345000000000001350e+01,-3.709999999999995079e+00,6.560000000000005826e+00,2.055999999999994543e+01,3.348999999999986699e+01,-2.969000000000000128e+01,-3.648000000000030241e+01,3.201999999999996760e+01,4.402000000000005286e+01,6.237999999999997414e+01,-1.158000000000001073e+01,-2.956999999999977646e+01,-6.020000000000025331e+00,-9.840000000000015845e+00,-4.094000000000000483e+01,-5.941999999999993776e+01,-1.835999999999996390e+01,-2.483999999999985775e+01,-3.892000000000012960e+01,-9.130000000000004334e+00,-1.410000000000000142e+00,0.000000000000000000e+00,-1.300000000000000266e+00,5.899999999999998579e-01,2.600000000000001754e-01,1.260000000000000231e+00,6.009999999999990905e+00,-1.106000000000001116e+01,-3.317000000000001592e+01,2.899999999999996092e+01,7.159999999999988063e+01,-3.525999999999998380e+01,-1.321999999999991537e+01,1.088000000000006828e+01,4.137999999999998835e+01,-1.097999999999998799e+01,-1.032000000000002160e+01,-4.147999999999962029e+01,-1.401999999999997470e+01,6.979999999999732196e+00,-2.166000000000004988e+01,-1.945999999999998309e+01,-1.013999999999997925e+01,-3.078999999999992454e+01,-2.914000000000009649e+01,-1.621000000000008257e+01,-3.585999999999985022e+01,-2.038000000000000611e+01,-6.829999999999998295e+00,-8.500000000000000888e-01,-7.700000000000000178e-01,-1.300000000000002931e+00,7.379999999999990123e+00,6.229999999999990656e+00,1.230000000000001670e+01,-3.597000000000004150e+01,2.333999999999988972e+01,7.157999999999987040e+01,3.620000000000006679e+01,2.142000000000002657e+01,4.869999999999972573e+01,7.405000000000005400e+01,-1.989999999999992397e+01,2.627000000000003510e+01,-3.442999999999997129e+01,-2.130999999999984595e+01,5.170999999999971664e+01,8.099999999999974776e+00,-2.332999999999989171e+01,7.347000000000031150e+01,2.457999999999984553e+01,6.979999999999958682e+00,2.999999999999997335e+00,-5.820000000000081108e+00,-1.669999999999994600e+01,9.360000000000002984e+00,-1.204000000000000092e+01,-1.299999999999999767e-01,-1.900000000000000577e+00,8.319999999999993179e+00,1.001999999999997115e+01,-8.030000000000010019e+00,1.617999999999991800e+01,4.761999999999994060e+01,5.953999999999999915e+01,3.823999999999991672e+01,5.472000000000008413e+01,-2.299999999999833733e+00,-3.445999999999993690e+01,-3.110000000000005471e+01,2.051000000000005485e+01,7.464999999999992042e+01,-2.963999999999998280e+01,-4.384999999999988773e+01,1.182000000000015127e+01,5.576000000000028223e+01,5.004000000000011994e+01,-1.218999999999997463e+01,-1.393999999999996220e+01,7.899999999998951195e-01,3.741999999999998749e+01,4.879999999999925286e+00,6.259999999999938503e+00,1.225999999999997847e+01,-4.230000000000003091e+00,-4.000000000000000083e-02,-1.960000000000001297e+00,-1.680000000000001048e+00,8.389999999999988134e+00,9.970000000000011298e+00,3.275000000000014921e+01,4.768000000000009209e+01,6.260000000000005826e+01,-5.710000000000053255e+00,3.689000000000005031e+01,1.484999999999997300e+01,2.033000000000009067e+01,-2.262999999999997414e+01,2.690999999999974079e+01,-3.929999999999956639e+00,8.282999999999988461e+01,2.767000000000028237e+01,3.747999999999994003e+01,5.125999999999999091e+01,1.728999999999998494e+01,4.372999999999975529e+01,-2.992999999999992866e+01,6.908999999999990393e+01,7.830000000000034710e+00,-1.300000000000001066e+01,1.183000000000000185e+01,6.739999999999997549e+00,-3.099999999999999201e+00,-5.419999999999999041e+00,-5.100000000000000089e-01,-4.119999999999998330e+00,6.099999999999986322e+00,1.446000000000000441e+01,3.931999999999986528e+01,5.328000000000006509e+01,-7.929999999999971294e+00,-7.498999999999990962e+01,3.586000000000008470e+01,8.787000000000034561e+01,-3.449000000000066279e+01,1.587000000000003830e+01,-3.461999999999994060e+01,-4.158000000000026120e+01,4.230000000000034177e+00,7.879999999999958504e+01,4.904000000000006310e+01,4.486999999999945032e+01,6.754000000000031889e+01,5.055000000000002558e+01,-3.310000000000002274e+01,-9.500000000000040856e+00,-1.777000000000003155e+01,-2.619999999999993001e+00,-6.679999999999989946e+00,-1.217999999999999439e+01,-3.200000000000001066e+00,7.400000000000002132e-01,1.730000000000000426e+00,2.579999999999996962e+00,-5.730000000000000426e+00,6.489999999999993108e+00,1.563000000000003276e+01,1.733000000000001961e+01,-8.296999999999989939e+01,-1.137499999999996163e+02,-2.351000000000001933e+01,2.992999999999995353e+01,6.490000000000021529e+00,-6.651999999999996760e+01,2.267000000000000171e+01,-4.742000000000015092e+01,-8.372000000000082309e+01,-3.751000000000004775e+01,6.357000000000007844e+01,-2.911999999999989441e+01,2.914999999999983160e+01,2.004000000000019099e+01,1.739999999999747082e+00,1.517000000000001592e+01,-6.320000000000007390e+00,-1.018000000000001926e+01,-5.997999999999994714e+01,-2.418000000000000682e+01,-3.929999999999997495e+00,8.999999999999991340e-01,-1.200000000000008005e-01,1.029999999999999583e+00,8.320000000000010942e+00,7.240000000000013536e+00,-2.539999999999971614e+00,1.305000000000000071e+01,-3.918999999999999773e+01,2.604999999999995453e+01,-3.482000000000025608e+01,-5.078000000000007219e+01,-3.401999999999999602e+01,4.799999999999997158e+00,-2.131000000000003070e+01,-6.207000000000007134e+01,-4.297999999999993292e+01,-3.183000000000019369e+01,-8.249000000000016541e+01,-3.599999999999890843e+00,6.533000000000022567e+01,-2.869999999999997087e+01,2.134999999999986287e+01,2.626000000000004064e+01,5.262999999999971834e+01,3.054999999999996874e+01,-3.347999999999999687e+01,-1.188000000000000078e+01,-3.839999999999999414e+00,-1.250000000000000000e+00,-1.640000000000001013e+00,4.380000000000003446e+00,4.639999999999996128e+00,-3.010000000000003340e+00,-2.709999999999995524e+00,-1.414000000000002721e+01,2.881000000000001293e+01,7.743999999999988404e+01,-6.894999999999986073e+01,-9.480000000000062599e+00,-1.110999999999990706e+01,7.520000000000007567e+00,-5.841000000000025238e+01,-7.560999999999960153e+01,1.791999999999994131e+01,5.923000000000007503e+01,-4.832999999999992013e+01,1.813999999999991530e+01,1.157999999999995389e+01,-4.541999999999976012e+01,1.500000000000006040e+01,5.170000000000012363e+01,-9.280000000000004690e+00,-4.275000000000006395e+01,-6.879999999999836469e+00,-4.209999999999981313e+00,2.249999999999999645e+01,5.340000000000000746e+00,1.020000000000000462e+00,1.920000000000000817e+00,7.900000000000030553e+00,-1.184999999999998188e+01,2.450000000000001954e+00,-9.600000000000028511e-01,-2.113000000000000611e+01,1.142000000000003190e+01,-3.300000000000000000e+01,-3.396999999999993491e+01,-3.865000000000011227e+01,-1.855000000000006821e+01,-8.525999999999905299e+01,1.649000000000012989e+01,-1.022200000000001836e+02,-2.371999999999987452e+01,-2.482000000000005002e+01,-1.136799999999997084e+02,7.537000000000001876e+01,7.469999999999941132e+00,4.657999999999982066e+01,-2.690000000000063007e+00,3.931999999999968054e+01,2.964999999999998082e+01,1.676000000000003709e+01,1.095000000000000639e+01,2.380000000000001137e+01,-4.459999999999998188e+00,-1.999999999999999833e-01,1.889999999999999902e+00,-1.409999999999999032e+00,3.039999999999999147e+00,-9.489999999999980673e+00,4.281999999999998607e+01,2.202000000000009194e+01,5.569999999999981100e+01,3.969999999999998863e+01,2.681000000000010530e+01,-5.139999999999986358e+00,4.435999999999994259e+01,-2.288000000000011624e+01,3.340000000000057145e+00,-7.303000000000027114e+01,2.334999999999980247e+01,-7.250000000000114575e+00,-4.069999999999997442e+01,3.515999999999997527e+01,8.124000000000026489e+01,4.406000000000000938e+01,1.910000000000020037e+01,-3.739999999999991331e+01,-2.302999999999983061e+01,1.602000000000004221e+01,-3.721999999999999886e+01,-4.700000000000000289e-01,0.000000000000000000e+00,-1.650000000000000799e+00,5.370000000000000107e+00,-2.120000000000001439e+00,-5.759999999999997122e+00,-1.127000000000001734e+01,4.000000000000005684e+01,4.016000000000007475e+01,5.614999999999997016e+01,5.758000000000003382e+01,6.025000000000011369e+01,-4.149000000000000909e+01,-8.148999999999985278e+01,1.313000000000005940e+01,3.892000000000009408e+01,-4.204000000000001336e+01,3.400999999999994117e+01,1.894999999999997442e+01,-6.889999999999988134e+00,-2.722000000000007702e+01,1.369000000000000661e+01,1.440000000000034586e+00,8.299999999999752021e-01,-3.631999999999987949e+01,-4.349999999999996447e+01,-4.136999999999995481e+01,-2.614000000000000057e+01,-1.830000000000000071e+00,-4.700000000000001399e-01,-1.330000000000000293e+00,6.520000000000014673e+00,-3.279999999999998472e+00,2.269999999999997353e+00,-1.690000000000007496e+00,5.214000000000007162e+01,4.706000000000007333e+01,-4.453999999999996362e+01,-5.044999999999998153e+01,-3.302000000000001734e+01,-6.161000000000031918e+01,-6.410999999999992838e+01,1.180000000000043014e+00,-2.665999999999994685e+01,-1.034999999999994280e+01,5.746000000000002927e+01,-6.139999999999957936e+00,-8.219999999999970441e+01,-9.869999999999997442e+00,1.960000000000011067e+00,-1.829999999999997584e+01,-5.730000000000014637e+00,-1.804000000000000270e+01,-3.447999999999993292e+01,-2.871999999999996689e+01,-5.810000000000001386e+00,-2.000000000000000111e-01,-2.430000000000001492e+00,9.500000000000002887e-01,-1.560000000000000497e+00,1.330000000000000071e+00,8.050000000000006040e+00,-5.480000000000002203e+00,-1.883999999999999631e+01,-4.300999999999994117e+01,-7.633999999999993236e+01,-9.406999999999999318e+01,-8.295999999999982322e+01,-4.613999999999987978e+01,-3.304999999999993321e+01,-7.500000000000077272e+00,-1.891000000000008185e+01,-7.400000000000183320e+00,-5.136999999999986954e+01,8.354000000000011994e+01,-7.042000000000024329e+01,-2.455000000000002913e+01,-4.865999999999987580e+01,-1.770000000000016627e+01,-4.020000000000006679e+01,-5.699999999999979394e+01,-5.418999999999981299e+01,-3.901000000000006196e+01,-9.999999999999968983e-03,1.310000000000000719e+00,-1.219999999999999307e+00,3.000000000000000444e-01,-2.490000000000000657e+00,6.960000000000013287e+00,-1.089999999999999414e+00,-7.449999999999946887e+00,-1.047999999999995779e+01,-2.368999999999996930e+01,-5.310999999999997812e+01,-9.328999999999983572e+01,-5.654999999999984794e+01,6.019999999999964935e+00,5.930000000000017479e+01,-8.510000000000010445e+00,-2.606999999999995410e+01,-3.419999999999991758e+01,-6.743000000000019156e+01,4.968000000000004235e+01,-8.760000000000000853e+01,-2.880999999999998806e+01,-4.946999999999992070e+01,-5.001999999999996760e+01,-3.195999999999990493e+01,-4.426999999999978996e+01,-1.726000000000010814e+01,-6.530000000000049099e+00,-6.800000000000002709e-01,-1.500000000000000444e+00,-1.650000000000000799e+00,0.000000000000000000e+00,-3.299999999999984612e-01,-8.799999999999998934e-01,1.099999999999998535e+00,1.609999999999999210e+00,-3.230000000000006199e+00,-1.274000000000000732e+01,-2.403999999999997073e+01,-4.265000000000001990e+01,-1.183000000000000895e+01,3.483999999999988972e+01,9.509999999999969589e+00,2.330999999999982819e+01,-4.839999999999999858e+01,5.520000000000004903e+00,-4.527000000000008129e+01,-6.510999999999957311e+01,-1.356999999999997897e+01,-1.301999999999996938e+01,1.200000000000079198e-01,-3.999999999999995737e+01,-3.029999999999999361e+01,-1.638999999999996504e+01,-2.087999999999999901e+01,4.200000000000002620e-01,-3.500000000000001443e-01,-3.300000000000001266e-01,-1.900000000000000022e-01,-1.060000000000000497e+00,5.249999999999995559e+00,9.899999999999995470e-01,2.850000000000004086e+00,2.020000000000009788e+00,2.669999999999999929e+00,2.670000000000003482e+00,1.279000000000000981e+01,6.169999999999985718e+00,1.165999999999996106e+01,1.633000000000000895e+01,8.229999999999991545e+00,1.380000000000001315e+01,2.725000000000000355e+01,3.400999999999999091e+01,-1.390000000000045199e+00,-3.394999999999979678e+01,4.373999999999985278e+01,-4.335000000000014353e+01,-3.428000000000008640e+01,-5.230000000000023164e+01,-5.925000000000004974e+01,-4.662999999999997414e+01,-3.901999999999992497e+01,-1.198000000000003062e+01,8.900000000000002354e-01,1.899999999999998079e-01,2.199999999999999178e-01,2.099999999999997424e-01,-1.430000000000000160e+00,-2.010000000000000231e+00,3.630000000000004778e+00,-4.439999999999999503e+00,4.809999999999992504e+00,1.641000000000001435e+01,2.735000000000002274e+01,3.630999999999997385e+01,-1.227000000000001734e+01,-4.999000000000014410e+01,-1.088999999999988333e+01,1.531000000000022254e+01,-4.980999999999963279e+01,-1.039000000000003432e+01,-3.966000000000010317e+01,-5.679999999999962768e+01,2.269999999999941842e+00,-2.167999999999980787e+01,-4.215999999999989711e+01,-8.475999999999982037e+01,-6.730000000000009663e+01,-2.194999999999997797e+01,-4.111000000000010601e+01,-3.121000000000001506e+01,-4.300000000000000488e-01,-1.650000000000000799e+00,-3.300000000000001266e-01,-2.999999999999999889e-02,8.539999999999997371e+00,-2.909999999999992149e+00,5.400000000000015898e-01,-5.500000000000002665e-01,2.719999999999991758e+00,4.132000000000001450e+01,1.828000000000000114e+01,2.877999999999979508e+01,-2.182999999999995211e+01,-3.613000000000002387e+01,-4.534999999999998721e+01,6.031999999999987239e+01,-1.296000000000000085e+01,-2.632999999999996987e+01,7.371999999999927411e+01,3.318000000000007077e+01,-6.359999999999978115e+00,-2.509999999999995346e+00,-3.066999999999992355e+01,-5.758999999999986841e+01,-2.276000000000006196e+01,-1.662000000000006139e+01,-1.875000000000004619e+01,-1.390000000000002522e+01,0.000000000000000000e+00,0.000000000000000000e+00,0.000000000000000000e+00,0.000000000000000000e+00,-9.299999999999990496e-01,-9.999999999999731326e-03,7.200000000000005285e-01,1.440000000000000835e+00,-4.050000000000005151e+00,2.380999999999999872e+01,3.770000000000019114e+00,1.842999999999999616e+01,5.788000000000000966e+01,6.037999999999942702e+01,-1.809000000000000696e+01,7.575000000000007105e+01,1.616999999999995907e+01,4.087000000000006139e+01,1.022700000000001808e+02,-8.199999999999988631e+00,2.344999999999992824e+01,1.974000000000001975e+01,1.066000000000000014e+01,-7.780000000000009130e+00,-1.742999999999997129e+01,4.599999999999769829e-01,-1.003999999999998316e+01,-2.599999999999991762e-01,0.000000000000000000e+00,0.000000000000000000e+00,0.000000000000000000e+00,0.000000000000000000e+00,2.199999999999994738e-01,-2.780000000000004690e+00,1.309999999999999609e+00,-6.429999999999993499e+00,-4.169999999999994600e+00,-1.233000000000001606e+01,-5.049000000000007304e+01,-1.540000000000004921e+00,1.057000000000004114e+01,5.519999999999973994e+01,2.338999999999998991e+01,1.208000000000001428e+01,-4.554000000000002757e+01,-1.817999999999998195e+01,-7.280000000000007354e+00,-8.250000000000010658e+00,-2.477999999999991587e+01,2.038000000000001677e+01,3.524000000000002331e+01,1.531000000000001471e+01,3.090000000000002078e+00,2.769999999999997087e+01,3.849999999999999645e+00,-2.510000000000002451e+00,0.000000000000000000e+00,0.000000000000000000e+00,0.000000000000000000e+00,0.000000000000000000e+00,-3.299999999999997935e-01,-5.159999999999985931e+00,9.100000000000001421e-01,1.600000000000001199e+00,-7.400000000000004352e-01,3.589999999999994973e+00,9.990000000000019753e+00,9.250000000000001776e+00,-3.690000000000001279e+00,-2.540000000000000036e+00,2.187999999999995637e+01,-1.138999999999999524e+01,9.019999999999960494e+00,2.699999999999966316e-01,-1.240000000000009095e+01,-5.107999999999995566e+01,-1.443000000000000504e+01,4.269999999999996909e+00,4.900000000000000355e+00,-3.010000000000000675e+00,-3.620000000000002771e+00,1.953999999999999559e+01,1.048999999999998956e+01,1.369999999999998996e+00,0.000000000000000000e+00,0.000000000000000000e+00,0.000000000000000000e+00,0.000000000000000000e+00,-7.000000000000000666e-02
1.069999999999998508e+00,2.050000000000000988e-01,2.770000000000001350e-01,1.000000000000002623e-02,3.500000000000003109e-02,2.570000000000001728e-01,5.010000000000003340e-01,-6.900000000000000577e-02,-1.270000000000000573e-01,3.300000000000001821e-01,2.360000000000000431e-01,9.799999999999998990e-02,1.740000000000000435e-01,-5.260000000000003562e-01,-2.099999999999986947e-02,-4.640000000000003566e-01,-5.999999999999837061e-03,4.970000000000001084e-01,9.700000000000003064e-02,-1.944999999999996954e+00,-4.100000000000003642e-02,1.020000000000001461e-01,-4.880000000000003224e-01,6.450000000000003508e-01,-1.499999999999999944e-02,0.000000000000000000e+00,-8.000000000000000167e-03,-4.000000000000000083e-02,8.000000000000005718e-02,-3.699999999999996347e-02,4.700000000000004868e-02,1.960000000000001186e-01,7.000000000000000146e-03,1.000000000000000611e-01,4.300000000000003819e-02,1.160000000000000614e-01,-7.970000000000005969e-01,4.150000000000002576e-01,5.610000000000003872e-01,1.269999999999998908e-01,3.099999999999990610e-02,-1.887999999999993239e+00,4.150000000000002576e-01,8.310000000000006271e-01,-8.430000000000005267e-01,-1.760000000000000009e+00,9.080000000000006954e-01,1.104999999999999982e+00,-1.190000000000000918e-01,-1.453999999999993964e+00,1.890000000000001679e-01,-3.160000000000001141e-01,-2.699999999999999969e-02,-1.060000000000000109e-01,-6.399999999999998745e-02,-1.400000000000000029e-02,4.110000000000002540e-01,-9.600000000000002975e-02,-1.310000000000000331e-01,1.529999999999999971e-01,1.590000000000000024e-01,1.930000000000001159e-01,-7.999999999999996697e-03,3.530000000000002025e-01,9.310000000000008269e-01,-2.450000000000001066e-01,-9.050000000000006928e-01,6.050000000000003153e-01,1.263000000000001011e+00,3.410000000000000808e-01,1.790000000000001035e-01,-4.720000000000001972e-01,7.680000000000005711e-01,5.990000000000004210e-01,2.889999999999999791e-01,5.520000000000002682e-01,6.270000000000003348e-01,-1.170000000000000151e+00,7.260000000000005338e-01,-5.910000000000004139e-01,-1.000000000000000021e-02,-1.200000000000000025e-02,-1.600000000000000033e-02,-3.599999999999999728e-02,-2.100000000000001518e-02,-4.700000000000005562e-02,3.170000000000001705e-01,1.060000000000000386e-01,9.000000000000004524e-03,-9.000000000000007994e-03,6.399999999999994582e-02,-1.680000000000000104e-01,6.990000000000003988e-01,8.530000000000005356e-01,8.240000000000006208e-01,-9.320000000000007168e-01,-1.812999999999995282e+00,-1.627999999999995007e+00,-1.632999999999996898e+00,1.143999999999999906e+00,-2.872000000000002107e+00,-1.293000000000005700e+00,-5.839999999999998526e-01,-1.161000000000000476e+00,6.480000000000003535e-01,-2.440000000000000502e-01,5.860000000000004095e-01,-1.180000000000000354e-01,-6.300000000000000044e-02,-3.500000000000000333e-02,0.000000000000000000e+00,-2.299999999999999961e-02,-1.680000000000000659e-01,-4.400000000000001826e-02,7.899999999999998690e-02,4.800000000000000100e-02,-1.520000000000000795e-01,-2.180000000000000548e-01,1.030000000000000498e-01,1.250000000000002220e-01,-8.090000000000006075e-01,-1.280999999999995032e+00,-1.549999999999996936e-01,9.840000000000009850e-01,4.970000000000005524e-01,-5.689999999999989511e-01,-3.702999999999996295e+00,-4.595000000000021068e+00,-3.294000000000002704e+00,-2.490000000000011315e+00,-1.939000000000003832e+00,-1.045999999999999375e+00,-1.393000000000002014e+00,-6.340000000000001190e-01,-1.614000000000004098e+00,-2.659999999999999587e-01,-2.500000000000000000e-01,-1.549999999999999989e-01,-4.000000000000000083e-02,0.000000000000000000e+00,-1.040000000000000507e-01,1.910000000000000031e-01,1.200000000000000927e-01,3.220000000000002305e-01,2.200000000000002648e-02,-9.989999999999998881e-01,-2.381999999999998785e+00,-2.229999999999999094e+00,1.320000000000000062e-01,1.816999999999993731e+00,4.829999999999992077e-01,-2.985999999999988663e+00,-2.722999999999973664e+00,-3.000000000000015432e-01,-5.580000000000059357e-01,-1.477000000000002533e+00,-2.634000000000007891e+00,-8.058999999999981512e+00,-8.086999999999981981e+00,-6.223000000000021181e+00,-4.524999999999994138e+00,-1.049999999999987194e-01,9.199999999999997069e-02,-1.590000000000002967e+00,-3.330000000000000737e-01,-2.900000000000000494e-02,-4.000000000000000083e-02,-3.200000000000000067e-02,1.570000000000000284e-01,-6.000000000000000125e-03,-2.020000000000000684e-01,-8.999999999999938605e-03,-7.179999999999995275e-01,-2.283999999999999364e+00,-4.669999999999994156e-01,5.050000000000025580e-01,1.987000000000004984e+00,3.175000000000004263e+00,-2.750000000000018652e+00,-3.609000000000011976e+00,3.208000000000012175e+00,5.028000000000016456e+00,6.250000000000016875e+00,-1.173000000000000709e+00,-3.396000000000013674e+00,-8.650000000000015454e-01,-7.400000000000026557e-01,-3.781999999999991591e+00,-5.571000000000003283e+00,-1.743000000000010763e+00,-2.265999999999989356e+00,-3.712000000000001076e+00,-7.770000000000001350e-01,-1.050000000000000100e-01,0.000000000000000000e+00,-1.370000000000000107e-01,7.200000000000000844e-02,2.100000000000002906e-02,1.470000000000000473e-01,6.400000000000001243e-01,-9.220000000000011520e-01,-3.201999999999998625e+00,2.953000000000006064e+00,7.640999999999982251e+00,-3.662999999999993594e+00,-1.250000000000005551e+00,1.547000000000005038e+00,3.731000000000005201e+00,-1.823999999999997845e+00,-1.501999999999998225e+00,-4.534000000000016684e+00,-1.654000000000003245e+00,2.279999999999750837e-01,-2.070999999999997065e+00,-1.780000000000001137e+00,-5.790000000000001812e-01,-3.721000000000015184e+00,-3.372999999999982013e+00,-1.467999999999991534e+00,-3.112000000000003208e+00,-1.813000000000000611e+00,-5.230000000000001315e-01,-5.900000000000000383e-02,-8.799999999999998102e-02,-1.150000000000001993e-01,6.230000000000001092e-01,5.440000000000003721e-01,1.375999999999997447e+00,-3.482999999999996987e+00,2.493000000000008320e+00,7.227000000000008306e+00,3.922000000000006814e+00,1.851000000000018630e+00,4.689999999999955094e+00,7.755999999999991346e+00,-1.344000000000000083e+00,2.483999999999978225e+00,-3.634999999999992681e+00,-1.800000000000004041e+00,5.625999999999986123e+00,4.300000000000858691e-02,-2.847000000000015074e+00,7.125999999999961254e+00,3.398000000000006793e+00,3.479999999999896509e-01,2.599999999999907593e-02,-4.100000000000494915e-02,-1.187000000000001609e+00,1.032999999999999918e+00,-9.940000000000002167e-01,-5.204170427930421283e-18,-1.630000000000000338e-01,7.330000000000004290e-01,1.006000000000000005e+00,-8.110000000000006093e-01,1.526999999999998803e+00,4.516000000000000014e+00,5.933999999999995723e+00,3.451000000000003176e+00,5.442999999999996952e+00,-3.300000000000074540e-01,-3.481000000000000316e+00,-3.375999999999991008e+00,1.507999999999998453e+00,6.876999999999981128e+00,-3.665999999999978609e+00,-4.031000000000005024e+00,1.246000000000004437e+00,5.283000000000022567e+00,4.102000000000018076e+00,-1.307000000000005491e+00,-1.093000000000000194e+00,7.039999999999950742e-01,3.751999999999994451e+00,9.010000000000090159e-01,4.900000000000030997e-01,1.251999999999999558e+00,-3.029999999999999361e-01,-4.000000000000000083e-03,-1.860000000000000819e-01,-1.720000000000000695e-01,7.420000000000005480e-01,7.549999999999997824e-01,2.932999999999995389e+00,4.639999999999998792e+00,6.119999999999986784e+00,-1.058000000000005825e+00,3.739999999999998437e+00,1.400000000000004796e+00,2.663999999999997037e+00,-2.352999999999997982e+00,2.510999999999986354e+00,-3.140000000000019442e-01,8.291000000000002146e+00,2.588000000000005407e+00,3.512000000000030209e+00,4.515000000000002345e+00,1.086000000000002963e+00,3.921999999999990383e+00,-3.209999999999995079e+00,7.013999999999972701e+00,9.080000000000016946e-01,-1.383000000000000895e+00,9.549999999999991829e-01,8.549999999999999822e-01,-2.490000000000000546e-01,-5.460000000000002629e-01,-4.000000000000000083e-02,-3.720000000000002194e-01,4.740000000000000879e-01,1.231999999999999540e+00,3.762999999999998124e+00,5.252999999999997449e+00,-5.310000000000001386e-01,-7.373000000000011767e+00,3.845000000000006857e+00,8.696000000000047692e+00,-3.879999999999997229e+00,1.682999999999989837e+00,-3.402000000000006352e+00,-4.339999999999992752e+00,8.399999999999963052e-02,6.894000000000054307e+00,4.628000000000044523e+00,4.803000000000000824e+00,6.312000000000031363e+00,4.777000000000024116e+00,-3.190000000000006608e+00,-9.549999999999957412e-01,-1.831000000000002181e+00,-4.979999999999992211e-01,-7.589999999999975655e-01,-9.330000000000003846e-01,-2.760000000000001341e-01,5.600000000000000117e-02,1.559999999999999443e-01,2.550000000000000600e-01,-5.220000000000002416e-01,6.720000000000004858e-01,1.516999999999996573e+00,1.931000000000003158e+00,-7.987000000000019639e+00,-1.140100000000001401e+01,-2.951000000000002288e+00,2.458000000000003293e+00,9.099999999999955347e-02,-6.207999999999990415e+00,2.729000000000007642e+00,-4.565999999999935888e+00,-8.321999999999963649e+00,-3.681000000000004491e+00,6.740999999999987224e+00,-2.665000000000025793e+00,3.335000000000007070e+00,2.069999999999952323e+00,4.739999999999927049e-01,1.905000000000000027e+00,-2.129999999999977467e-01,-1.176000000000000822e+00,-5.977999999999994429e+00,-2.285999999999999144e+00,-4.010000000000002451e-01,1.109999999999999598e-01,-3.999999999999996614e-02,8.799999999999995326e-02,8.380000000000004112e-01,7.070000000000005169e-01,-2.699999999999995459e-02,1.382000000000000561e+00,-3.943000000000009386e+00,1.980000000000003757e+00,-3.833000000000000185e+00,-4.231000000000001648e+00,-2.509999999999994902e+00,3.590000000000003189e-01,-2.397000000000029996e+00,-6.352000000000023405e+00,-4.179000000000019810e+00,-3.491999999999993332e+00,-7.859000000000013308e+00,-1.110000000000004872e-01,5.891000000000055081e+00,-3.589000000000004409e+00,1.778000000000006464e+00,2.390999999999999570e+00,4.982000000000004647e+00,3.152000000000013014e+00,-3.599000000000001087e+00,-1.377000000000001112e+00,-5.299999999999991385e-01,-1.209999999999999271e-01,-1.590000000000000857e-01,4.100000000000001976e-01,4.380000000000001670e-01,-2.520000000000001128e-01,7.499999999999998335e-02,-1.164999999999995373e+00,2.515999999999998682e+00,7.084000000000001407e+00,-6.991000000000001435e+00,-1.329999999999878224e-01,-9.490000000000045066e-01,1.809999999999848952e-01,-5.696999999999984965e+00,-6.892999999999990912e+00,1.562000000000003608e+00,5.625999999999995005e+00,-4.275999999999998913e+00,2.347999999999995424e+00,5.899999999999978595e-01,-4.200000000000043698e+00,1.435999999999999499e+00,4.972000000000015518e+00,-8.130000000000000560e-01,-4.278999999999999915e+00,-1.113000000000003320e+00,-7.610000000000013420e-01,1.992000000000000437e+00,4.950000000000001621e-01,1.040000000000000230e-01,1.910000000000000031e-01,7.390000000000004343e-01,-1.200999999999999179e+00,3.780000000000005578e-01,6.899999999999997802e-02,-1.931999999999999051e+00,1.574999999999994849e+00,-3.313999999999998725e+00,-4.076999999999999957e+00,-4.303999999999981618e+00,-1.936999999999971633e+00,-8.116999999999926274e+00,1.540999999999989267e+00,-1.001899999999996815e+01,-2.941999999999997950e+00,-2.578000000000000735e+00,-1.098199999999996557e+01,6.731000000000003425e+00,1.691999999999989734e+00,5.250999999999998558e+00,-1.899999999999063896e-02,3.752000000000013546e+00,2.313000000000002387e+00,1.088999999999997303e+00,6.989999999999997327e-01,2.199999999999999734e+00,-4.450000000000002842e-01,-7.999999999999998432e-03,1.770000000000001017e-01,-1.419999999999999041e-01,2.760000000000002451e-01,-9.680000000000003046e-01,4.304000000000003823e+00,2.399999999999997691e+00,5.860000000000010978e+00,3.754000000000005333e+00,2.459999999999987974e+00,-6.679999999999980398e-01,4.036000000000002252e+00,-2.393000000000002014e+00,2.550000000000074429e-01,-7.781999999999997364e+00,2.595000000000034390e+00,-1.011000000000000121e+00,-3.609999999999983444e+00,4.027000000000001023e+00,8.575000000000002842e+00,4.568000000000013827e+00,1.247000000000006104e+00,-3.958000000000004626e+00,-2.559999999999993392e+00,1.533999999999998476e+00,-3.456999999999999407e+00,-3.799999999999996436e-02,0.000000000000000000e+00,-1.550000000000000544e-01,5.070000000000003393e-01,-2.500000000000001110e-01,-5.730000000000001759e-01,-1.120999999999997998e+00,3.906000000000002359e+00,3.997999999999995779e+00,5.672999999999997378e+00,5.935000000000011156e+00,6.246000000000028862e+00,-3.162999999999999368e+00,-7.641000000000000014e+00,1.205000000000003846e+00,3.278999999999999471e+00,-3.412000000000001698e+00,3.521000000000010566e+00,1.669000000000004702e+00,-1.619999999999976181e-01,-2.488000000000010203e+00,4.340000000000002189e-01,-7.959999999999984865e-01,-3.940000000000000169e-01,-3.422000000000009035e+00,-3.971000000000000529e+00,-3.759000000000003450e+00,-2.242000000000000881e+00,0.000000000000000000e+00,-3.100000000000002059e-02,-1.080000000000000682e-01,6.070000000000004281e-01,-3.280000000000002358e-01,1.399999999999997358e-01,-1.789999999999992708e-01,5.097999999999998977e+00,4.507999999999993790e+00,-4.632000000000000561e+00,-4.800999999999997492e+00,-3.100000000000000977e+00,-5.664000000000013024e+00,-5.782999999999941743e+00,5.960000000000122977e-01,-3.049000000000012811e+00,-4.790000000000081415e-01,5.469999999999992646e+00,2.399999999998841949e-02,-7.438999999999972523e+00,-7.499999999999992228e-01,-5.590000000000003855e-01,-2.226000000000001311e+00,-4.719999999999991980e-01,-1.395000000000001128e+00,-3.350000000000004974e+00,-3.080000000000004068e+00,-4.650000000000003020e-01,0.000000000000000000e+00,-2.220000000000001417e-01,9.200000000000001232e-02,-1.419999999999999873e-01,1.300000000000000600e-01,6.370000000000001217e-01,-5.799999999999994049e-01,-1.851999999999994317e+00,-4.355999999999995431e+00,-7.735999999999987331e+00,-9.685000000000012932e+00,-7.843999999999975437e+00,-4.197000000000005393e+00,-2.688000000000000167e+00,-1.180999999999989614e+00,-1.797000000000000597e+00,-4.309999999999906684e-01,-5.320000000000007390e+00,8.169000000000000483e+00,-6.149000000000008015e+00,-2.305999999999996497e+00,-5.438000000000009493e+00,-1.876999999999992896e+00,-3.877999999999995229e+00,-5.687000000000031363e+00,-5.477999999999992653e+00,-4.032999999999989704e+00,8.000000000000007105e-03,1.240000000000000407e-01,-1.120000000000000440e-01,3.600000000000001810e-02,-2.360000000000000986e-01,6.870000000000004992e-01,-1.779999999999999916e-01,-7.980000000000002647e-01,-1.025999999999999357e+00,-2.371000000000000885e+00,-5.317000000000001947e+00,-9.557000000000018147e+00,-5.627000000000011326e+00,6.340000000000002300e-01,5.734999999999966569e+00,-7.939999999999974856e-01,-1.908000000000007024e+00,-3.055000000000018368e+00,-6.606000000000058492e+00,4.756000000000003780e+00,-8.153000000000014680e+00,-2.957999999999978424e+00,-5.515000000000007674e+00,-4.823999999999987409e+00,-3.162000000000012800e+00,-4.394999999999999574e+00,-1.493999999999991113e+00,-7.750000000000001332e-01,-5.900000000000002465e-02,-1.240000000000000824e-01,-1.550000000000000544e-01,0.000000000000000000e+00,-3.799999999999991579e-02,-8.399999999999993583e-02,1.170000000000000484e-01,1.850000000000000533e-01,-3.509999999999998122e-01,-1.237000000000000099e+00,-2.056000000000000050e+00,-4.113000000000004874e+00,-1.419999999999999041e+00,3.385000000000019771e+00,6.630000000000005889e-01,2.414000000000016133e+00,-4.412000000000015909e+00,1.184999999999997389e+00,-4.326999999999996405e+00,-6.395000000000014673e+00,-1.035000000000009024e+00,-1.620000000000024976e+00,5.499999999999938272e-02,-3.851999999999992319e+00,-2.924999999999999822e+00,-1.507999999999993568e+00,-1.822000000000010056e+00,1.230000000000001231e-01,-3.100000000000002059e-02,-3.100000000000002059e-02,0.000000000000000000e+00,-9.400000000000005573e-02,5.280000000000003579e-01,9.299999999999997158e-02,3.060000000000001608e-01,1.730000000000000426e-01,2.330000000000001514e-01,2.709999999999997966e-01,1.540000000000004921e+00,8.600000000000003197e-01,1.214000000000013957e+00,1.756000000000002226e+00,9.810000000000079767e-01,4.000000000000033529e-01,3.240000000000008651e+00,3.901000000000014012e+00,-3.040000000000077640e-01,-3.520999999999966157e+00,4.130000000000003446e+00,-4.781000000000013017e+00,-3.255999999999993566e+00,-5.268000000000008676e+00,-5.722999999999997200e+00,-4.401000000000004242e+00,-3.527000000000006796e+00,-1.164000000000002810e+00,8.400000000000004685e-02,1.700000000000000122e-02,2.800000000000001099e-02,2.499999999999998057e-02,-1.550000000000000266e-01,-2.210000000000001408e-01,3.420000000000002482e-01,-4.440000000000002833e-01,5.100000000000003419e-01,1.670000000000002149e+00,2.691000000000000725e+00,3.375000000000000888e+00,-6.210000000000008846e-01,-4.985999999999999766e+00,-1.814000000000005608e+00,9.980000000000024407e-01,-5.664000000000008583e+00,-9.439999999999965086e-01,-3.961999999999995747e+00,-6.222999999999981213e+00,-2.139999999999998292e-01,-1.893000000000004901e+00,-3.993999999999990891e+00,-8.525999999999982037e+00,-6.752999999999993008e+00,-1.967000000000007409e+00,-3.630999999999985128e+00,-2.900000000000001688e+00,-3.100000000000000672e-02,-1.550000000000000544e-01,-3.100000000000002059e-02,0.000000000000000000e+00,8.290000000000006253e-01,-3.200000000000001732e-01,8.400000000000001910e-02,-3.800000000000014477e-02,2.820000000000000284e-01,4.111999999999998323e+00,1.791999999999997151e+00,3.013000000000004786e+00,-1.134000000000005448e+00,-2.581000000000011507e+00,-4.369999999999993001e+00,6.845999999999992980e+00,-1.313999999999995838e+00,-3.013000000000004786e+00,6.853999999999983217e+00,2.612999999999996437e+00,-7.219999999999993090e-01,9.999999999999972800e-02,-2.721999999999990205e+00,-5.864999999999986002e+00,-2.461000000000003407e+00,-1.923999999999998822e+00,-1.868000000000000549e+00,-1.273000000000000131e+00,0.000000000000000000e+00,0.000000000000000000e+00,0.000000000000000000e+00,0.000000000000000000e+00,-1.130000000000000449e-01,2.400000000000005601e-02,1.090000000000000829e-01,1.350000000000000366e-01,-3.640000000000001568e-01,2.174999999999999822e+00,5.370000000000000329e-01,1.791000000000000592e+00,5.433000000000009599e+00,6.436999999999991395e+00,-1.387000000000001787e+00,8.059999999999952536e+00,2.122000000000016762e+00,4.569999999999995843e+00,9.882999999999960039e+00,-1.854000000000004533e+00,2.368000000000002103e+00,2.169999999999996376e+00,1.056999999999999496e+00,-9.370000000000012763e-01,-1.995999999999997332e+00,-2.230000000000001703e-01,-1.051000000000004375e+00,-6.399999999999989031e-02,0.000000000000000000e+00,0.000000000000000000e+00,0.000000000000000000e+00,0.000000000000000000e+00,1.699999999999994224e-02,-2.740000000000001323e-01,1.189999999999999669e-01,-6.900000000000003908e-01,-4.600000000000001310e-01,-1.439000000000001611e+00,-4.849999999999996092e+00,-3.319999999999929674e-01,6.029999999999973159e-01,5.678999999999990500e+00,2.235000000000000764e+00,1.288999999999999035e+00,-4.148999999999985810e+00,-1.285999999999998034e+00,-8.419999999999979723e-01,-7.960000000000014841e-01,-2.548000000000007592e+00,1.722999999999999865e+00,3.473000000000002085e+00,1.740999999999999215e+00,2.839999999999999192e-01,2.767999999999999350e+00,4.129999999999999782e-01,-2.520000000000001128e-01,0.000000000000000000e+00,0.000000000000000000e+00,0.000000000000000000e+00,0.000000000000000000e+00,9.999999999999696632e-04,-4.970000000000002749e-01,9.099999999999998368e-02,1.620000000000000884e-01,-4.900000000000001577e-02,5.330000000000000293e-01,1.041999999999996485e+00,4.659999999999999698e-01,-4.630000000000005222e-01,-2.160000000000000808e-01,2.195000000000002505e+00,-1.229000000000000759e+00,9.110000000000005871e-01,4.199999999999968342e-02,-1.182999999999997831e+00,-4.377000000000005997e+00,-9.200000000000002620e-01,5.760000000000000675e-01,4.340000000000003300e-01,-2.739999999999998548e-01,-3.460000000000001963e-01,1.929000000000000492e+00,1.005999999999999783e+00,1.790000000000000480e-01,0.000000000000000000e+00,0.000000000000000000e+00,0.000000000000000000e+00,0.000000000000000000e+00,-2.000000000000000042e-03
